{"learner":{"attributes":{},"feature_names":["day_of_week","hour_of_day"],"feature_types":[],"gradient_booster":{"model":{"cats":{"enc":[],"feature_segments":[],"sorted_idx":[]},"gbtree_model_param":{"num_parallel_tree":"1","num_trees":"50"},"iteration_indptr":[0,1,2,3,4,5,6,7,8,9,10,11,12,13,14,15,16,17,18,19,20,21,22,23,24,25,26,27,28,29,30,31,32,33,34,35,36,37,38,39,40,41,42,43,44,45,46,47,48,49,50],"tree_info":[0,0,0,0,0,0,0,0,0,0,0,0,0,0,0,0,0,0,0,0,0,0,0,0,0,0,0,0,0,0,0,0,0,0,0,0,0,0,0,0,0,0,0,0,0,0,0,0,0,0],"trees":[{"base_weights":[-5.748798E-7,-1.0090493E1,9.415081E-1,-1.0635519E1,-6.109684E0,3.301247E0,-4.9640846E0,-1.1571386E0,-8.444225E0,-4.1512066E-1,-8.371734E-1,-1.6606597E0,3.751082E0,-2.1549954E0,-7.567242E0,-6.952021E-1,-9.1197664E-1,3.2426063E-2,-6.477753E-1,4.3999824E-1,5.8760177E-2,-3.8871706E-1,-2.6942154E-2,-1.0112001E0,-6.1254466E-1],"categories":[],"categories_nodes":[],"categories_segments":[],"categories_sizes":[],"default_left":[0,0,0,0,0,0,0,0,0,0,0,0,0,0,0,0,0,0,0,0,0,0,0,0,0],"id":0,"left_children":[1,3,5,7,9,11,13,-1,15,-1,-1,17,19,21,23,-1,-1,-1,-1,-1,-1,-1,-1,-1,-1],"loss_changes":[1.9102227E5,3.658125E3,2.5630703E5,2.9948281E3,8.911538E2,2.9337438E4,3.838164E4,0E0,3.952578E2,0E0,0E0,1.0452869E4,2.4731422E4,8.2525E3,9.936156E3,0E0,0E0,0E0,0E0,0E0,0E0,0E0,0E0,0E0,0E0],"parents":[2147483647,0,0,1,1,2,2,3,3,4,4,5,5,6,6,8,8,11,11,12,12,13,13,14,14],"right_children":[2,4,6,8,10,12,14,-1,16,-1,-1,18,20,22,24,-1,-1,-1,-1,-1,-1,-1,-1,-1,-1],"split_conditions":[4E0,3E0,2E1,6E0,5E0,5E0,2.2E1,-1.1571386E0,1E0,-4.1512066E-1,-8.371734E-1,6E0,1.8E1,5E0,4E0,-6.952021E-1,-9.1197664E-1,3.2426063E-2,-6.477753E-1,4.3999824E-1,5.8760177E-2,-3.8871706E-1,-2.6942154E-2,-1.0112001E0,-6.1254466E-1],"split_indices":[1,1,1,0,0,1,1,0,1,0,0,0,1,0,0,0,0,0,0,0,0,0,0,0,0],"split_type":[0,0,0,0,0,0,0,0,0,0,0,0,0,0,0,0,0,0,0,0,0,0,0,0,0],"sum_hessian":[2.0105E4,1.715E3,1.839E4,1.507E3,2.08E2,1.314E4,5.25E3,1.053E3,4.54E2,1.13E2,9.5E1,1.092E3,1.2048E4,2.526E3,2.724E3,1.45E2,3.09E2,7.74E2,3.18E2,9.997E3,2.051E3,1.316E3,1.21E3,9.83E2,1.741E3],"tree_param":{"num_deleted":"0","num_feature":"2","num_nodes":"25","size_leaf_vector":"1"}},{"base_weights":[-3.0767813E-4,-9.083785E0,8.4723985E-1,-9.5738E0,-5.5047073E0,2.971113E0,-4.4680643E0,-1.0415344E0,-7.603335E0,-3.739727E0,-7.5432813E-1,-4.5532215E-1,3.5065994E0,-1.9396604E0,-6.811114E0,-6.261581E-1,-8.210732E-1,-3.00421E-1,-3.9024848E-1,1.8682356E-1,-5.753223E-1,4.1622573E-1,5.288699E-2,-4.4045845E-1,-8.263597E-2,-8.5512537E-1,-5.0710833E-1],"categories":[],"categories_nodes":[],"categories_segments":[],"categories_sizes":[],"default_left":[0,0,0,0,0,0,0,0,0,0,0,0,0,0,0,0,0,0,0,0,0,0,0,0,0,0,0],"id":1,"left_children":[1,3,5,7,9,11,13,-1,15,17,-1,19,21,23,25,-1,-1,-1,-1,-1,-1,-1,-1,-1,-1,-1,-1],"loss_changes":[1.5479733E5,2.9568281E3,2.0762986E5,2.4214219E3,7.2378125E2,2.4112836E4,3.1094633E4,0E0,3.194004E2,1.9230957E0,0E0,2.1885578E4,2.21865E4,6.930956E3,8.207641E3,0E0,0E0,0E0,0E0,0E0,0E0,0E0,0E0,0E0,0E0,0E0,0E0],"parents":[2147483647,0,0,1,1,2,2,3,3,4,4,5,5,6,6,8,8,9,9,11,11,12,12,13,13,14,14],"right_children":[2,4,6,8,10,12,14,-1,16,18,-1,20,22,24,26,-1,-1,-1,-1,-1,-1,-1,-1,-1,-1,-1,-1],"split_conditions":[4E0,3E0,2E1,6E0,5E0,7E0,2.2E1,-1.0415344E0,1E0,2E0,-7.5432813E-1,6E0,1.8E1,3E0,5E0,-6.261581E-1,-8.210732E-1,-3.00421E-1,-3.9024848E-1,1.8682356E-1,-5.753223E-1,4.1622573E-1,5.288699E-2,-4.4045845E-1,-8.263597E-2,-8.5512537E-1,-5.0710833E-1],"split_indices":[1,1,1,0,0,1,1,0,1,0,0,0,1,0,0,0,0,0,0,0,0,0,0,0,0,0,0],"split_type":[0,0,0,0,0,0,0,0,0,0,0,0,0,0,0,0,0,0,0,0,0,0,0,0,0,0,0],"sum_hessian":[2.0105E4,1.715E3,1.839E4,1.507E3,2.08E2,1.314E4,5.25E3,1.053E3,4.54E2,1.13E2,9.5E1,1.776E3,1.1364E4,2.526E3,2.724E3,1.45E2,3.09E2,2.4E1,8.9E1,1.235E3,5.41E2,9.313E3,2.051E3,7.85E2,1.741E3,1.36E3,1.364E3],"tree_param":{"num_deleted":"0","num_feature":"2","num_nodes":"27","size_leaf_vector":"1"}},{"base_weights":[-5.6219887E-4,-8.177698E0,7.6241785E-1,-8.618071E0,-4.9611506E0,2.3807294E0,-4.932477E0,-9.374798E-1,-6.8461823E0,-3.371813E0,-6.7968106E-1,2.9449525E0,-6.478234E-1,-2.50339E0,-6.130502E0,-5.639712E-1,-7.3923063E-1,-2.715806E-1,-3.5165724E-1,1.8646365E-2,3.6674973E-1,-2.2664309E-1,-6.8521798E-3,-4.219875E-1,-6.5893866E-2,-8.247571E-1,-4.9311182E-1],"categories":[],"categories_nodes":[],"categories_segments":[],"categories_sizes":[],"default_left":[0,0,0,0,0,0,0,0,0,0,0,0,0,0,0,0,0,0,0,0,0,0,0,0,0,0,0],"id":2,"left_children":[1,3,5,7,9,11,13,-1,15,17,-1,19,21,23,25,-1,-1,-1,-1,-1,-1,-1,-1,-1,-1,-1,-1],"loss_changes":[1.254474E5,2.387914E3,1.6950531E5,1.9578047E3,5.868369E2,2.4475031E4,1.1828781E4,0E0,2.5810156E2,1.2753906E0,0E0,2.406239E4,2.1095837E3,4.258619E3,6.8786016E3,0E0,0E0,0E0,0E0,0E0,0E0,0E0,0E0,0E0,0E0,0E0,0E0],"parents":[2147483647,0,0,1,1,2,2,3,3,4,4,5,5,6,6,8,8,9,9,11,11,12,12,13,13,14,14],"right_children":[2,4,6,8,10,12,14,-1,16,18,-1,20,22,24,26,-1,-1,-1,-1,-1,-1,-1,-1,-1,-1,-1,-1],"split_conditions":[4E0,3E0,2.1E1,6E0,5E0,1.9E1,2.2E1,-9.374798E-1,1E0,2E0,-6.7968106E-1,8E0,3E0,5E0,4E0,-5.639712E-1,-7.3923063E-1,-2.715806E-1,-3.5165724E-1,1.8646365E-2,3.6674973E-1,-2.2664309E-1,-6.8521798E-3,-4.219875E-1,-6.5893866E-2,-8.247571E-1,-4.9311182E-1],"split_indices":[1,1,1,0,0,1,1,0,1,0,0,1,0,0,0,0,0,0,0,0,0,0,0,0,0,0,0],"split_type":[0,0,0,0,0,0,0,0,0,0,0,0,0,0,0,0,0,0,0,0,0,0,0,0,0,0,0],"sum_hessian":[2.0105E4,1.715E3,1.839E4,1.507E3,2.08E2,1.4321E4,4.069E3,1.053E3,4.54E2,1.13E2,9.5E1,1.2072E4,2.249E3,1.345E3,2.724E3,1.45E2,3.09E2,2.4E1,8.9E1,2.506E3,9.566E3,5.92E2,1.657E3,6.96E2,6.49E2,9.83E2,1.741E3],"tree_param":{"num_deleted":"0","num_feature":"2","num_nodes":"27","size_leaf_vector":"1"}},{"base_weights":[-7.6439895E-4,-7.3619933E0,6.8608624E-1,-7.757749E0,-4.47127E0,2.1426673E0,-4.439673E0,-8.4382075E-1,-6.1644278E0,-3.040099E0,-6.12421E-1,2.7924101E0,-8.677664E-2,-2.2534132E0,-5.5179353E0,-5.079603E-1,-6.65546E-1,-2.4550886E-1,-3.1688228E-1,1.6782485E-2,3.558608E-1,-1.3556941E-1,3.7585266E-2,-3.7984928E-1,-5.9314597E-2,-6.964472E-1,-4.0715957E-1],"categories":[],"categories_nodes":[],"categories_segments":[],"categories_sizes":[],"default_left":[0,0,0,0,0,0,0,0,0,0,0,0,0,0,0,0,0,0,0,0,0,0,0,0,0,0,0],"id":3,"left_children":[1,3,5,7,9,11,13,-1,15,17,-1,19,21,23,25,-1,-1,-1,-1,-1,-1,-1,-1,-1,-1,-1,-1],"loss_changes":[1.0166229E5,1.9284531E3,1.3731825E5,1.5829375E3,4.7580078E2,2.0746594E4,9.582023E3,0E0,2.0856445E2,8.0493164E-1,0E0,2.230086E4,1.8984044E3,3.450567E3,5.672836E3,0E0,0E0,0E0,0E0,0E0,0E0,0E0,0E0,0E0,0E0,0E0,0E0],"parents":[2147483647,0,0,1,1,2,2,3,3,4,4,5,5,6,6,8,8,9,9,11,11,12,12,13,13,14,14],"right_children":[2,4,6,8,10,12,14,-1,16,18,-1,20,22,24,26,-1,-1,-1,-1,-1,-1,-1,-1,-1,-1,-1,-1],"split_conditions":[4E0,3E0,2.1E1,6E0,5E0,1.8E1,2.2E1,-8.4382075E-1,1E0,2E0,-6.12421E-1,8E0,3E0,5E0,5E0,-5.079603E-1,-6.65546E-1,-2.4550886E-1,-3.1688228E-1,1.6782485E-2,3.558608E-1,-1.3556941E-1,3.7585266E-2,-3.7984928E-1,-5.9314597E-2,-6.964472E-1,-4.0715957E-1],"split_indices":[1,1,1,0,0,1,1,0,1,0,0,1,0,0,0,0,0,0,0,0,0,0,0,0,0,0,0],"split_type":[0,0,0,0,0,0,0,0,0,0,0,0,0,0,0,0,0,0,0,0,0,0,0,0,0,0,0],"sum_hessian":[2.0105E4,1.715E3,1.839E4,1.507E3,2.08E2,1.4321E4,4.069E3,1.053E3,4.54E2,1.13E2,9.5E1,1.1089E4,3.232E3,1.345E3,2.724E3,1.45E2,3.09E2,2.4E1,8.9E1,2.506E3,8.583E3,8.63E2,2.369E3,6.96E2,6.49E2,1.36E3,1.364E3],"tree_param":{"num_deleted":"0","num_feature":"2","num_nodes":"27","size_leaf_vector":"1"}},{"base_weights":[-9.0979435E-4,-6.6276546E0,6.1740863E-1,-6.9833117E0,-4.029764E0,2.1737633E0,-3.2775967E0,-7.5951877E0,-5.550564E0,-2.7410223E0,-5.518168E-1,-1.4954653E0,2.5064292E0,-1.4550139E0,-4.9665465E0,-7.7079386E-1,-7.0622903E-1,-4.5751223E-1,-5.9920603E-1,-2.855983E-1,-2.1909204E-1,6.991071E-3,-5.293807E-1,3.0382848E-1,2.9838553E-2,-2.6933634E-1,-1.0706906E-2,-7.250992E-1,-4.1702387E-1],"categories":[],"categories_nodes":[],"categories_segments":[],"categories_sizes":[],"default_left":[0,0,0,0,0,0,0,0,0,0,0,0,0,0,0,0,0,0,0,0,0,0,0,0,0,0,0,0,0],"id":4,"left_children":[1,3,5,7,9,11,13,15,17,19,-1,21,23,25,27,-1,-1,-1,-1,-1,-1,-1,-1,-1,-1,-1,-1,-1,-1],"loss_changes":[8.2387195E4,1.557375E3,1.1149353E5,1.2798516E3,3.8577197E2,1.604402E4,1.6156672E4,8.894531E0,1.685332E2,9.522095E-1,0E0,6.499165E3,1.4148953E4,4.217848E3,4.926867E3,0E0,0E0,0E0,0E0,0E0,0E0,0E0,0E0,0E0,0E0,0E0,0E0,0E0,0E0],"parents":[2147483647,0,0,1,1,2,2,3,3,4,4,5,5,6,6,7,7,8,8,9,9,11,11,12,12,13,13,14,14],"right_children":[2,4,6,8,10,12,14,16,18,20,-1,22,24,26,28,-1,-1,-1,-1,-1,-1,-1,-1,-1,-1,-1,-1,-1,-1],"split_conditions":[4E0,3E0,2E1,6E0,5E0,5E0,2.2E1,5E0,1E0,4E0,-5.518168E-1,6E0,7E0,5E0,3E0,-7.7079386E-1,-7.0622903E-1,-4.5751223E-1,-5.9920603E-1,-2.855983E-1,-2.1909204E-1,6.991071E-3,-5.293807E-1,3.0382848E-1,2.9838553E-2,-2.6933634E-1,-1.0706906E-2,-7.250992E-1,-4.1702387E-1],"split_indices":[1,1,1,0,0,1,1,0,1,0,0,0,0,0,0,0,0,0,0,0,0,0,0,0,0,0,0,0,0],"split_type":[0,0,0,0,0,0,0,0,0,0,0,0,0,0,0,0,0,0,0,0,0,0,0,0,0,0,0,0,0],"sum_hessian":[2.0105E4,1.715E3,1.839E4,1.507E3,2.08E2,1.314E4,5.25E3,1.053E3,4.54E2,1.13E2,9.5E1,1.092E3,1.2048E4,2.526E3,2.724E3,8.58E2,1.95E2,1.45E2,3.09E2,9E1,2.3E1,7.74E2,3.18E2,9.709E3,2.339E3,1.316E3,1.21E3,7.02E2,2.022E3],"tree_param":{"num_deleted":"0","num_feature":"2","num_nodes":"29","size_leaf_vector":"1"}},{"base_weights":[-1.077319E-3,-5.966981E0,5.555804E-1,-6.2866607E0,-3.6318424E0,2.1808538E0,-2.549734E0,-6.83707E0,-4.99783E0,-2.4713469E0,-4.9720994E-1,-1.3463969E0,2.531742E0,-1.0932328E0,-4.470311E0,-6.588742E-1,-7.071979E-1,-4.120744E-1,-5.394787E-1,-1.9452249E-1,-2.5900325E-1,6.2928237E-3,-4.7660857E-1,3.0614805E-1,3.5822067E-2,-2.7099633E-1,-4.3319877E-2,-5.692914E-1,-3.2480162E-1],"categories":[],"categories_nodes":[],"categories_segments":[],"categories_sizes":[],"default_left":[0,0,0,0,0,0,0,0,0,0,0,0,0,0,0,0,0,0,0,0,0,0,0,0,0,0,0,0,0],"id":5,"left_children":[1,3,5,7,9,11,13,15,17,19,-1,21,23,25,27,-1,-1,-1,-1,-1,-1,-1,-1,-1,-1,-1,-1,-1,-1],"loss_changes":[6.6774664E4,1.2581523E3,9.2824664E4,1.0355859E3,3.127827E2,1.49458125E4,1.7671402E4,1.4886719E1,1.361836E2,2.0803223E0,0E0,5.267962E3,1.2642398E4,3.83504E3,4.0536953E3,0E0,0E0,0E0,0E0,0E0,0E0,0E0,0E0,0E0,0E0,0E0,0E0,0E0,0E0],"parents":[2147483647,0,0,1,1,2,2,3,3,4,4,5,5,6,6,7,7,8,8,9,9,11,11,12,12,13,13,14,14],"right_children":[2,4,6,8,10,12,14,16,18,20,-1,22,24,26,28,-1,-1,-1,-1,-1,-1,-1,-1,-1,-1,-1,-1,-1,-1],"split_conditions":[4E0,3E0,1.9E1,6E0,5E0,5E0,2.2E1,1E0,1E0,2E0,-4.9720994E-1,6E0,7E0,3E0,5E0,-6.588742E-1,-7.071979E-1,-4.120744E-1,-5.394787E-1,-1.9452249E-1,-2.5900325E-1,6.2928237E-3,-4.7660857E-1,3.0614805E-1,3.5822067E-2,-2.7099633E-1,-4.3319877E-2,-5.692914E-1,-3.2480162E-1],"split_indices":[1,1,1,0,0,1,1,1,1,0,0,0,0,0,0,0,0,0,0,0,0,0,0,0,0,0,0,0,0],"split_type":[0,0,0,0,0,0,0,0,0,0,0,0,0,0,0,0,0,0,0,0,0,0,0,0,0,0,0,0,0],"sum_hessian":[2.0105E4,1.715E3,1.839E4,1.507E3,2.08E2,1.2072E4,6.318E3,1.053E3,4.54E2,1.13E2,9.5E1,1.092E3,1.098E4,3.594E3,2.724E3,5.26E2,5.27E2,1.45E2,3.09E2,2.4E1,8.9E1,7.74E2,3.18E2,8.828E3,2.152E3,1.041E3,2.553E3,1.36E3,1.364E3],"tree_param":{"num_deleted":"0","num_feature":"2","num_nodes":"29","size_leaf_vector":"1"}},{"base_weights":[-1.1988409E-3,8.3030206E-1,-3.2775571E0,-5.3721876E0,1.5733995E0,-2.3960881E0,-5.271135E0,-5.6595316E0,-3.2732072E0,2.0878065E0,-1.9163206E-1,-3.7964034E0,-8.468606E-1,-4.6952477E0,-7.64333E-1,-6.154659E-1,-4.5001388E-1,-2.22819E-1,-4.4800693E-1,4.5981396E-2,2.9589805E-1,-8.4224634E-2,4.292209E-2,-2.960314E-1,-4.5320556E-1,4.7606237E-2,-3.952463E-1,-5.520425E-1,-2.0956342E-1],"categories":[],"categories_nodes":[],"categories_segments":[],"categories_sizes":[],"default_left":[0,0,0,0,0,0,0,0,0,0,0,0,0,0,0,0,0,0,0,0,0,0,0,0,0,0,0,0,0],"id":6,"left_children":[1,3,5,7,9,11,13,15,17,19,21,23,25,27,-1,-1,-1,-1,-1,-1,-1,-1,-1,-1,-1,-1,-1,-1,-1],"loss_changes":[5.47774E4,7.392387E4,7.1394883E3,1.0164414E3,1.3003984E4,6.1231895E3,1.6676602E3,8.3796484E2,2.5360669E2,1.57271875E4,1.306286E3,8.987344E2,5.515452E3,2.1464453E3,0E0,0E0,0E0,0E0,0E0,0E0,0E0,0E0,0E0,0E0,0E0,0E0,0E0,0E0,0E0],"parents":[2147483647,0,0,1,1,2,2,3,3,4,4,5,5,6,6,7,7,8,8,9,9,10,10,11,11,12,12,13,13],"right_children":[2,4,6,8,10,12,14,16,18,20,22,24,26,28,-1,-1,-1,-1,-1,-1,-1,-1,-1,-1,-1,-1,-1,-1,-1],"split_conditions":[2.1E1,4E0,2.3E1,3E0,1.8E1,5E0,7E0,6E0,5E0,1E1,5E0,2.2E1,7E0,6E0,-7.64333E-1,-6.154659E-1,-4.5001388E-1,-2.22819E-1,-4.4800693E-1,4.5981396E-2,2.9589805E-1,-8.4224634E-2,4.292209E-2,-2.960314E-1,-4.5320556E-1,4.7606237E-2,-3.952463E-1,-5.520425E-1,-2.0956342E-1],"split_indices":[1,1,1,1,1,0,0,0,0,1,0,1,0,0,0,0,0,0,0,0,0,0,0,0,0,0,0,0,0],"split_type":[0,0,0,0,0,0,0,0,0,0,0,0,0,0,0,0,0,0,0,0,0,0,0,0,0,0,0,0,0],"sum_hessian":[2.0105E4,1.6036E4,4.069E3,1.715E3,1.4321E4,2.823E3,1.246E3,1.507E3,2.08E2,1.1089E4,3.232E3,1.482E3,1.341E3,1.005E3,2.41E2,1.053E3,4.54E2,1.13E2,9.5E1,3.866E3,7.223E3,1.578E3,1.654E3,6.96E2,7.86E2,9.41E2,4E2,7.62E2,2.43E2],"tree_param":{"num_deleted":"0","num_feature":"2","num_nodes":"29","size_leaf_vector":"1"}},{"base_weights":[-1.2809655E-3,7.471822E-1,-2.9504461E0,-4.8359804E0,1.4160804E0,-2.156868E0,-4.745245E0,-5.0942845E0,-2.949096E0,1.8283339E0,-4.1478142E-1,-3.8439627E0,-1.06691E0,-4.22648E0,-6.882156E-1,-5.5397767E-1,-4.0511137E-1,-2.0073251E-1,-4.0367293E-1,2.4185555E-1,-1.3778127E-2,-4.1357136E-1,6.8778545E-2,-3.0321896E-1,-4.602089E-1,-3.0755166E-2,-3.558202E-1,-5.3742963E-1,-2.6889318E-1],"categories":[],"categories_nodes":[],"categories_segments":[],"categories_sizes":[],"default_left":[0,0,0,0,0,0,0,0,0,0,0,0,0,0,0,0,0,0,0,0,0,0,0,0,0,0,0,0,0],"id":7,"left_children":[1,3,5,7,9,11,13,15,17,19,21,23,25,27,-1,-1,-1,-1,-1,-1,-1,-1,-1,-1,-1,-1,-1,-1,-1],"loss_changes":[4.4383016E4,5.989811E4,5.7867188E3,8.2133594E2,1.0810707E4,5.1888477E3,1.3532793E3,6.783594E2,2.0597595E2,1.3565918E4,1.0804928E4,6.679375E2,3.2470977E3,1.760959E3,0E0,0E0,0E0,0E0,0E0,0E0,0E0,0E0,0E0,0E0,0E0,0E0,0E0,0E0,0E0],"parents":[2147483647,0,0,1,1,2,2,3,3,4,4,5,5,6,6,7,7,8,8,9,9,10,10,11,11,12,12,13,13],"right_children":[2,4,6,8,10,12,14,16,18,20,22,24,26,28,-1,-1,-1,-1,-1,-1,-1,-1,-1,-1,-1,-1,-1,-1,-1],"split_conditions":[2.1E1,4E0,2.3E1,3E0,7E0,4E0,7E0,6E0,5E0,1.8E1,1E1,2.2E1,7E0,5E0,-6.882156E-1,-5.5397767E-1,-4.0511137E-1,-2.0073251E-1,-4.0367293E-1,2.4185555E-1,-1.3778127E-2,-4.1357136E-1,6.8778545E-2,-3.0321896E-1,-4.602089E-1,-3.0755166E-2,-3.558202E-1,-5.3742963E-1,-2.6889318E-1],"split_indices":[1,1,1,1,0,0,0,0,0,1,1,1,0,0,0,0,0,0,0,0,0,0,0,0,0,0,0,0,0],"split_type":[0,0,0,0,0,0,0,0,0,0,0,0,0,0,0,0,0,0,0,0,0,0,0,0,0,0,0,0,0],"sum_hessian":[2.0105E4,1.6036E4,4.069E3,1.715E3,1.4321E4,2.823E3,1.246E3,1.507E3,2.08E2,1.1689E4,2.632E3,1.107E3,1.716E3,1.005E3,2.41E2,1.053E3,4.54E2,1.13E2,9.5E1,8.99E3,2.699E3,6.01E2,2.031E3,5.37E2,5.7E2,1.316E3,4E2,5.74E2,4.31E2],"tree_param":{"num_deleted":"0","num_feature":"2","num_nodes":"29","size_leaf_vector":"1"}},{"base_weights":[-1.3680492E-3,6.723591E-1,-2.6560514E0,-3.2133102E0,1.4970218E0,-1.9415885E0,-4.271919E0,-4.5854926E0,-1.6203325E0,2.0366776E0,-1.723186E-1,-3.1228108E0,-6.3481164E-1,-3.8046334E0,-6.1967844E-1,-4.8856518E-1,-3.329442E-1,-4.3360345E-2,-4.1618663E-1,2.5338542E-1,6.768096E-4,-1.1133144E-1,1.708007E-2,-2.4240783E-1,-3.73767E-1,4.5922887E-2,-3.203269E-1,-4.498547E-1,-1.6191386E-1],"categories":[],"categories_nodes":[],"categories_segments":[],"categories_sizes":[],"default_left":[0,0,0,0,0,0,0,0,0,0,0,0,0,0,0,0,0,0,0,0,0,0,0,0,0,0,0,0,0],"id":8,"left_children":[1,3,5,7,9,11,13,15,17,19,21,23,25,27,-1,-1,-1,-1,-1,-1,-1,-1,-1,-1,-1,-1,-1,-1,-1],"loss_changes":[3.596201E4,5.139324E4,4.6904277E3,6.130451E3,1.1918855E4,4.357127E3,1.0980547E3,5.522754E2,3.9221575E3,1.0090199E4,1.0440413E3,6.2806934E2,3.772486E3,1.5183604E3,0E0,0E0,0E0,0E0,0E0,0E0,0E0,0E0,0E0,0E0,0E0,0E0,0E0,0E0,0E0],"parents":[2147483647,0,0,1,1,2,2,3,3,4,4,5,5,6,6,7,7,8,8,9,9,10,10,11,11,12,12,13,13],"right_children":[2,4,6,8,10,12,14,16,18,20,22,24,26,28,-1,-1,-1,-1,-1,-1,-1,-1,-1,-1,-1,-1,-1,-1,-1],"split_conditions":[2.1E1,5E0,2.3E1,3E0,1.8E1,5E0,7E0,7E0,6E0,7E0,3E0,2.2E1,7E0,6E0,-6.1967844E-1,-4.8856518E-1,-3.329442E-1,-4.3360345E-2,-4.1618663E-1,2.5338542E-1,6.768096E-4,-1.1133144E-1,1.708007E-2,-2.4240783E-1,-3.73767E-1,4.5922887E-2,-3.203269E-1,-4.498547E-1,-1.6191386E-1],"split_indices":[1,1,1,1,1,0,0,0,0,0,0,1,0,0,0,0,0,0,0,0,0,0,0,0,0,0,0,0,0],"split_type":[0,0,0,0,0,0,0,0,0,0,0,0,0,0,0,0,0,0,0,0,0,0,0,0,0,0,0,0,0],"sum_hessian":[2.0105E4,1.6036E4,4.069E3,2.807E3,1.3229E4,2.823E3,1.246E3,1.507E3,1.3E3,9.997E3,3.232E3,1.482E3,1.341E3,1.005E3,2.41E2,1.214E3,2.93E2,8.87E2,4.13E2,8.03E3,1.967E3,8.63E2,2.369E3,6.96E2,7.86E2,9.41E2,4E2,7.62E2,2.43E2],"tree_param":{"num_deleted":"0","num_feature":"2","num_nodes":"29","size_leaf_vector":"1"}},{"base_weights":[-1.3927222E-3,6.0505307E-1,-2.3909676E0,-2.8924356E0,1.3473314E0,-1.7477452E0,-3.8457143E0,-4.127488E0,-1.4586524E0,1.8330351E0,-1.5511617E-1,-3.15049E0,-8.4151965E-1,-3.424778E0,-5.5796665E-1,-4.4982234E-1,-3.2596144E-1,-3.9029162E-2,-3.7466854E-1,2.2805004E-1,6.091152E-4,-6.911925E-2,3.564365E-2,-2.4875772E-1,-3.7695736E-1,-2.1906545E-2,-2.883741E-1,-4.3887287E-1,-2.1338141E-1],"categories":[],"categories_nodes":[],"categories_segments":[],"categories_sizes":[],"default_left":[0,0,0,0,0,0,0,0,0,0,0,0,0,0,0,0,0,0,0,0,0,0,0,0,0,0,0,0,0],"id":9,"left_children":[1,3,5,7,9,11,13,15,17,19,21,23,25,27,-1,-1,-1,-1,-1,-1,-1,-1,-1,-1,-1,-1,-1,-1,-1],"loss_changes":[2.913801E4,4.1637715E4,3.8016816E3,4.966379E3,9.654801E3,3.5872266E3,8.910547E2,4.705371E2,3.1787603E3,8.173293E3,8.8683594E2,4.4534473E2,2.182E3,1.2425273E3,0E0,0E0,0E0,0E0,0E0,0E0,0E0,0E0,0E0,0E0,0E0,0E0,0E0,0E0,0E0],"parents":[2147483647,0,0,1,1,2,2,3,3,4,4,5,5,6,6,7,7,8,8,9,9,10,10,11,11,12,12,13,13],"right_children":[2,4,6,8,10,12,14,16,18,20,22,24,26,28,-1,-1,-1,-1,-1,-1,-1,-1,-1,-1,-1,-1,-1,-1,-1],"split_conditions":[2.1E1,5E0,2.3E1,3E0,1.8E1,4E0,7E0,6E0,6E0,7E0,5E0,2.2E1,7E0,5E0,-5.5796665E-1,-4.4982234E-1,-3.2596144E-1,-3.9029162E-2,-3.7466854E-1,2.2805004E-1,6.091152E-4,-6.911925E-2,3.564365E-2,-2.4875772E-1,-3.7695736E-1,-2.1906545E-2,-2.883741E-1,-4.3887287E-1,-2.1338141E-1],"split_indices":[1,1,1,1,1,0,0,0,0,0,0,1,0,0,0,0,0,0,0,0,0,0,0,0,0,0,0,0,0],"split_type":[0,0,0,0,0,0,0,0,0,0,0,0,0,0,0,0,0,0,0,0,0,0,0,0,0,0,0,0,0],"sum_hessian":[2.0105E4,1.6036E4,4.069E3,2.807E3,1.3229E4,2.823E3,1.246E3,1.507E3,1.3E3,9.997E3,3.232E3,1.107E3,1.716E3,1.005E3,2.41E2,1.053E3,4.54E2,8.87E2,4.13E2,8.03E3,1.967E3,1.578E3,1.654E3,5.37E2,5.7E2,1.316E3,4E2,5.74E2,4.31E2],"tree_param":{"num_deleted":"0","num_feature":"2","num_nodes":"29","size_leaf_vector":"1"}},{"base_weights":[-1.4097171E-3,5.444857E-1,-2.152398E0,-2.6036155E0,1.212613E0,-1.573302E0,-3.4621134E0,-3.7152536E0,-1.3131052E0,1.6497543E0,-1.3961476E-1,-2.570444E0,-4.702208E-1,-3.0829484E0,-5.024006E-1,-3.9644495E-1,-2.672778E-1,-3.513064E-2,-3.3729222E-1,2.0524786E-1,5.4821384E-4,5.9624314E-2,-4.6136793E-2,-1.9853671E-1,-3.0853465E-1,4.3523796E-2,-2.596086E-1,-3.666544E-1,-1.24538116E-1],"categories":[],"categories_nodes":[],"categories_segments":[],"categories_sizes":[],"default_left":[0,0,0,0,0,0,0,0,0,0,0,0,0,0,0,0,0,0,0,0,0,0,0,0,0,0,0,0,0],"id":10,"left_children":[1,3,5,7,9,11,13,15,17,19,21,23,25,27,-1,-1,-1,-1,-1,-1,-1,-1,-1,-1,-1,-1,-1,-1,-1],"loss_changes":[2.3609934E4,3.3734297E4,3.0814492E3,4.0234238E3,7.820676E3,3.1049902E3,7.230029E2,3.8115234E2,2.5762646E3,6.620547E3,7.65735E2,4.4063965E2,2.5843235E3,1.0742637E3,0E0,0E0,0E0,0E0,0E0,0E0,0E0,0E0,0E0,0E0,0E0,0E0,0E0,0E0,0E0],"parents":[2147483647,0,0,1,1,2,2,3,3,4,4,5,5,6,6,7,7,8,8,9,9,10,10,11,11,12,12,13,13],"right_children":[2,4,6,8,10,12,14,16,18,20,22,24,26,28,-1,-1,-1,-1,-1,-1,-1,-1,-1,-1,-1,-1,-1,-1,-1],"split_conditions":[2.1E1,5E0,2.3E1,3E0,1.8E1,5E0,7E0,7E0,6E0,7E0,1.9E1,2.2E1,7E0,6E0,-5.024006E-1,-3.9644495E-1,-2.672778E-1,-3.513064E-2,-3.3729222E-1,2.0524786E-1,5.4821384E-4,5.9624314E-2,-4.6136793E-2,-1.9853671E-1,-3.0853465E-1,4.3523796E-2,-2.596086E-1,-3.666544E-1,-1.24538116E-1],"split_indices":[1,1,1,1,1,0,0,0,0,0,1,1,0,0,0,0,0,0,0,0,0,0,0,0,0,0,0,0,0],"split_type":[0,0,0,0,0,0,0,0,0,0,0,0,0,0,0,0,0,0,0,0,0,0,0,0,0,0,0,0,0],"sum_hessian":[2.0105E4,1.6036E4,4.069E3,2.807E3,1.3229E4,2.823E3,1.246E3,1.507E3,1.3E3,9.997E3,3.232E3,1.482E3,1.341E3,1.005E3,2.41E2,1.214E3,2.93E2,8.87E2,4.13E2,8.03E3,1.967E3,9.83E2,2.249E3,6.96E2,7.86E2,9.41E2,4E2,7.62E2,2.43E2],"tree_param":{"num_deleted":"0","num_feature":"2","num_nodes":"29","size_leaf_vector":"1"}},{"base_weights":[-1.3947459E-3,4.8998618E-1,-1.9375801E0,-2.343623E0,1.0913682E0,-3.197223E0,-1.4397911E0,-3.3441687E0,-1.1820809E0,1.4847995E0,-1.2564918E-1,-2.236708E-1,-3.807514E0,-9.5295525E-1,-3.1649816E0,-3.7539336E-1,-2.7975032E-1,-3.1621534E-2,-3.0364445E-1,1.8472563E-1,4.9341586E-4,-9.201622E-2,1.6404908E-2,-3.5162562E-1,-4.1029558E-1,-1.6249125E-1,3.755359E-2,-2.3371251E-1,-4.5236817E-1],"categories":[],"categories_nodes":[],"categories_segments":[],"categories_sizes":[],"default_left":[0,0,0,0,0,0,0,0,0,0,0,0,0,0,0,0,0,0,0,0,0,0,0,0,0,0,0,0,0],"id":11,"left_children":[1,3,5,7,9,11,13,15,17,19,21,-1,23,25,27,-1,-1,-1,-1,-1,-1,-1,-1,-1,-1,-1,-1,-1,-1],"loss_changes":[1.912989E4,2.7330918E4,2.5474355E3,3.2594365E3,6.334879E3,6.667793E2,2.448607E3,3.2729688E2,2.0879636E3,5.362791E3,7.442874E2,0E0,4.606543E1,2.0341565E3,7.115547E2,0E0,0E0,0E0,0E0,0E0,0E0,0E0,0E0,0E0,0E0,0E0,0E0,0E0,0E0],"parents":[2147483647,0,0,1,1,2,2,3,3,4,4,5,5,6,6,7,7,8,8,9,9,10,10,12,12,13,13,14,14],"right_children":[2,4,6,8,10,12,14,16,18,20,22,-1,24,26,28,-1,-1,-1,-1,-1,-1,-1,-1,-1,-1,-1,-1,-1,-1],"split_conditions":[2.1E1,5E0,3E0,3E0,1.8E1,2.2E1,7E0,5E0,6E0,7E0,3E0,-2.236708E-1,2.3E1,6E0,2.3E1,-3.7539336E-1,-2.7975032E-1,-3.1621534E-2,-3.0364445E-1,1.8472563E-1,4.9341586E-4,-9.201622E-2,1.6404908E-2,-3.5162562E-1,-4.1029558E-1,-1.6249125E-1,3.755359E-2,-2.3371251E-1,-4.5236817E-1],"split_indices":[1,1,0,1,1,1,0,0,0,0,0,0,1,0,1,0,0,0,0,0,0,0,0,0,0,0,0,0,0],"split_type":[0,0,0,0,0,0,0,0,0,0,0,0,0,0,0,0,0,0,0,0,0,0,0,0,0,0,0,0,0],"sum_hessian":[2.0105E4,1.6036E4,4.069E3,2.807E3,1.3229E4,1.151E3,2.918E3,1.507E3,1.3E3,9.997E3,3.232E3,4.49E2,7.02E2,2.277E3,6.41E2,8.58E2,6.49E2,8.87E2,4.13E2,8.03E3,1.967E3,8.63E2,2.369E3,3.6E2,3.42E2,1.512E3,7.65E2,4E2,2.41E2],"tree_param":{"num_deleted":"0","num_feature":"2","num_nodes":"29","size_leaf_vector":"1"}},{"base_weights":[-1.3881692E-3,-2.8798466E0,2.671908E-1,-3.1385334E0,-2.3257244E0,1.0701636E0,-1.2670009E0,-3.2954168E0,-1.6605198E0,-1.6216375E0,-2.5738008E0,-9.819167E-2,1.6205425E0,-5.498526E-1,-2.2126453E0,-3.0761504E-1,-3.5080266E-1,-1.7679708E-1,-1.1839133E-1,-3.021907E-1,-1.3488324E-1,-2.780031E-1,-2.295181E-1,9.523061E-2,-2.1282302E-1,1.7661192E-1,5.5015054E-2,-1.345025E-1,-2.5232807E-3,-3.4278464E-1,-1.7892648E-1],"categories":[],"categories_nodes":[],"categories_segments":[],"categories_sizes":[],"default_left":[0,0,0,0,0,0,0,0,0,0,0,0,0,0,0,0,0,0,0,0,0,0,0,0,0,0,0,0,0,0,0],"id":12,"left_children":[1,3,5,7,9,11,13,15,17,19,21,23,25,27,29,-1,-1,-1,-1,-1,-1,-1,-1,-1,-1,-1,-1,-1,-1,-1,-1],"loss_changes":[1.5544586E4,2.3867969E2,2.265749E4,2.6512598E2,9.189331E1,7.7635566E3,4.284123E3,3.834375E1,3.7450562E0,5.1696045E1,1.689038E1,8.248601E3,1.277875E3,1.4996675E3,1.3958594E3,0E0,0E0,0E0,0E0,0E0,0E0,0E0,0E0,0E0,0E0,0E0,0E0,0E0,0E0,0E0,0E0],"parents":[2147483647,0,0,1,1,2,2,3,3,4,4,5,5,6,6,7,7,8,8,9,9,10,10,11,11,12,12,13,13,14,14],"right_children":[2,4,6,8,10,12,14,16,18,20,22,24,26,28,30,-1,-1,-1,-1,-1,-1,-1,-1,-1,-1,-1,-1,-1,-1,-1,-1],"split_conditions":[4E0,6E0,1.9E1,3E0,1E0,1E1,2.2E1,1E0,4E0,7E0,2E0,6E0,1.8E1,4E0,3E0,-3.0761504E-1,-3.5080266E-1,-1.7679708E-1,-1.1839133E-1,-3.021907E-1,-1.3488324E-1,-2.780031E-1,-2.295181E-1,9.523061E-2,-2.1282302E-1,1.7661192E-1,5.5015054E-2,-1.345025E-1,-2.5232807E-3,-3.4278464E-1,-1.7892648E-1],"split_indices":[1,0,1,1,1,1,1,1,0,0,1,0,1,0,0,0,0,0,0,0,0,0,0,0,0,0,0,0,0,0,0],"split_type":[0,0,0,0,0,0,0,0,0,0,0,0,0,0,0,0,0,0,0,0,0,0,0,0,0,0,0,0,0,0,0],"sum_hessian":[2.0105E4,1.715E3,1.839E4,1.166E3,5.49E2,1.2072E4,6.318E3,1.053E3,1.13E2,1.45E2,4.04E2,3.866E3,8.206E3,3.594E3,2.724E3,5.26E2,5.27E2,9E1,2.3E1,2.2E1,1.23E2,2.27E2,1.77E2,2.548E3,1.318E3,7.223E3,9.83E2,1.428E3,2.166E3,7.02E2,2.022E3],"tree_param":{"num_deleted":"0","num_feature":"2","num_nodes":"31","size_leaf_vector":"1"}},{"base_weights":[-1.3710536E-3,3.987589E-1,-1.5780007E0,-1.9364465E0,8.943642E-1,-1.1060139E0,-2.645613E0,-2.7105546E0,-1.0376831E0,1.1489114E0,-3.4833652E-1,-1.903341E0,-2.240899E-1,-2.3424356E0,-3.8949955E-1,-2.9665E-1,-2.1117043E-1,-6.156803E-2,-3.7140423E-1,1.6222955E-1,4.359269E-2,-1.40936915E-2,-1.4776365E-1,-2.3025675E-1,-1.4207345E-1,5.3731896E-2,-2.0121773E-1,-2.7748805E-1,-9.805598E-2],"categories":[],"categories_nodes":[],"categories_segments":[],"categories_sizes":[],"default_left":[0,0,0,0,0,0,0,0,0,0,0,0,0,0,0,0,0,0,0,0,0,0,0,0,0,0,0,0,0],"id":13,"left_children":[1,3,5,7,9,11,13,15,17,19,21,23,25,27,-1,-1,-1,-1,-1,-1,-1,-1,-1,-1,-1,-1,-1,-1,-1],"loss_changes":[1.2684633E4,1.8561998E4,2.0479434E3,1.9508242E3,4.1853926E3,1.9853591E3,4.6321973E2,2.248711E2,1.4671033E3,3.7055518E3,5.267787E2,2.8245703E2,1.8281681E3,5.89749E2,0E0,0E0,0E0,0E0,0E0,0E0,0E0,0E0,0E0,0E0,0E0,0E0,0E0,0E0,0E0],"parents":[2147483647,0,0,1,1,2,2,3,3,4,4,5,5,6,6,7,7,8,8,9,9,10,10,11,11,12,12,13,13],"right_children":[2,4,6,8,10,12,14,16,18,20,22,24,26,28,-1,-1,-1,-1,-1,-1,-1,-1,-1,-1,-1,-1,-1,-1,-1],"split_conditions":[2.1E1,5E0,2.3E1,3E0,1.9E1,5E0,7E0,6E0,7E0,6E0,7E0,3E0,7E0,6E0,-3.8949955E-1,-2.9665E-1,-2.1117043E-1,-6.156803E-2,-3.7140423E-1,1.6222955E-1,4.359269E-2,-1.40936915E-2,-1.4776365E-1,-2.3025675E-1,-1.4207345E-1,5.3731896E-2,-2.0121773E-1,-2.7748805E-1,-9.805598E-2],"split_indices":[1,1,1,1,1,0,0,0,0,0,0,0,0,0,0,0,0,0,0,0,0,0,0,0,0,0,0,0,0],"split_type":[0,0,0,0,0,0,0,0,0,0,0,0,0,0,0,0,0,0,0,0,0,0,0,0,0,0,0,0,0],"sum_hessian":[2.0105E4,1.6036E4,4.069E3,2.807E3,1.3229E4,2.823E3,1.246E3,1.507E3,1.3E3,1.098E4,2.249E3,1.482E3,1.341E3,1.005E3,2.41E2,1.053E3,4.54E2,1.124E3,1.76E2,6.598E3,4.382E3,1.901E3,3.48E2,8.09E2,6.73E2,9.41E2,4E2,7.62E2,2.43E2],"tree_param":{"num_deleted":"0","num_feature":"2","num_nodes":"29","size_leaf_vector":"1"}},{"base_weights":[-1.3424198E-3,2.826437E-1,-1.8128088E0,-1.7431369E0,6.729085E-1,-2.832643E0,-1.4575164E0,-2.4398358E0,-9.342473E-1,1.034039E0,-4.3035915E-1,-2.5941513E0,-3.0753922E0,-1.0157217E0,-3.0218678E0,-2.7533945E-1,-2.0217024E-1,-5.541667E-2,-3.3447358E-1,1.1342981E-2,1.345195E-1,-9.9475764E-2,1.4955307E-2,-2.380501E-1,-2.7957633E-1,-3.380849E-1,-2.7962407E-1,-1.4989379E-1,2.700465E-3,-2.4314296E-1,-3.5071054E-1],"categories":[],"categories_nodes":[],"categories_segments":[],"categories_sizes":[],"default_left":[0,0,0,0,0,0,0,0,0,0,0,0,0,0,0,0,0,0,0,0,0,0,0,0,0,0,0,0,0,0,0],"id":14,"left_children":[1,3,5,7,9,11,13,15,17,19,21,23,25,27,29,-1,-1,-1,-1,-1,-1,-1,-1,-1,-1,-1,-1,-1,-1,-1,-1],"loss_changes":[1.0343669E4,1.3743222E4,9.832461E2,1.5801768E3,5.8074688E3,3.272119E1,1.3950708E3,1.9214648E2,1.1900967E3,3.1453877E3,1.1767979E3,8.894531E0,1.9793701E1,7.956388E2,1.189668E2,0E0,0E0,0E0,0E0,0E0,0E0,0E0,0E0,0E0,0E0,0E0,0E0,0E0,0E0,0E0,0E0],"parents":[2147483647,0,0,1,1,2,2,3,3,4,4,5,5,6,6,7,7,8,8,9,9,10,10,11,11,12,12,13,13,14,14],"right_children":[2,4,6,8,10,12,14,16,18,20,22,24,26,28,30,-1,-1,-1,-1,-1,-1,-1,-1,-1,-1,-1,-1,-1,-1,-1,-1],"split_conditions":[2.2E1,5E0,3E0,3E0,1.9E1,2.3E1,7E0,5E0,7E0,1E1,5E0,2E0,2E0,6E0,2.3E1,-2.7533945E-1,-2.0217024E-1,-5.541667E-2,-3.3447358E-1,1.1342981E-2,1.345195E-1,-9.9475764E-2,1.4955307E-2,-2.380501E-1,-2.7957633E-1,-3.380849E-1,-2.7962407E-1,-1.4989379E-1,2.700465E-3,-2.4314296E-1,-3.5071054E-1],"split_indices":[1,1,0,1,1,1,0,0,0,1,0,0,0,0,1,0,0,0,0,0,0,0,0,0,0,0,0,0,0,0,0],"split_type":[0,0,0,0,0,0,0,0,0,0,0,0,0,0,0,0,0,0,0,0,0,0,0,0,0,0,0,0,0,0,0],"sum_hessian":[2.0105E4,1.7381E4,2.724E3,2.807E3,1.4574E4,7.02E2,2.022E3,1.507E3,1.3E3,1.098E4,3.594E3,3.6E2,3.42E2,1.578E3,4.44E2,8.58E2,6.49E2,1.124E3,1.76E2,2.774E3,8.206E3,1.821E3,1.773E3,1.81E2,1.79E2,1.58E2,1.84E2,1.078E3,5E2,2.03E2,2.41E2],"tree_param":{"num_deleted":"0","num_feature":"2","num_nodes":"31","size_leaf_vector":"1"}},{"base_weights":[-1.3416188E-3,3.2443E-1,-1.2849774E0,-1.5691319E0,7.263043E-1,-8.8938046E-1,-2.1798298E0,-2.1116524E0,-7.1594393E-1,9.606458E-1,-2.7937755E-1,-1.560715E0,-1.4684813E-1,-1.9423952E0,-3.1578442E-1,-2.2552113E-1,-1.5197016E-1,4.4437252E-2,-1.7022775E-1,1.2989686E-1,-4.603239E-3,-4.9673176E-1,1.0599789E-2,-1.9024765E-1,-1.1476769E-1,5.1264763E-2,-1.6957213E-1,-2.4790648E-1,-1.22358166E-1],"categories":[],"categories_nodes":[],"categories_segments":[],"categories_sizes":[],"default_left":[0,0,0,0,0,0,0,0,0,0,0,0,0,0,0,0,0,0,0,0,0,0,0,0,0,0,0,0,0],"id":15,"left_children":[1,3,5,7,9,11,13,15,17,19,21,23,25,27,-1,-1,-1,-1,-1,-1,-1,-1,-1,-1,-1,-1,-1,-1,-1],"loss_changes":[8.408186E3,1.2204878E4,1.4388452E3,1.2982324E3,3.1182222E3,1.4074995E3,2.83438E2,1.4239844E2,1.2516504E3,3.6545068E3,4.518876E3,2.0715771E2,1.3716891E3,3.8504663E2,0E0,0E0,0E0,0E0,0E0,0E0,0E0,0E0,0E0,0E0,0E0,0E0,0E0,0E0,0E0],"parents":[2147483647,0,0,1,1,2,2,3,3,4,4,5,5,6,6,7,7,8,8,9,9,10,10,11,11,12,12,13,13],"right_children":[2,4,6,8,10,12,14,16,18,20,22,24,26,28,-1,-1,-1,-1,-1,-1,-1,-1,-1,-1,-1,-1,-1,-1,-1],"split_conditions":[2.1E1,5E0,2.3E1,4E0,7E0,5E0,7E0,7E0,4E0,1.8E1,8E0,3E0,7E0,5E0,-3.1578442E-1,-2.2552113E-1,-1.5197016E-1,4.4437252E-2,-1.7022775E-1,1.2989686E-1,-4.603239E-3,-4.9673176E-1,1.0599789E-2,-1.9024765E-1,-1.1476769E-1,5.1264763E-2,-1.6957213E-1,-2.4790648E-1,-1.22358166E-1],"split_indices":[1,1,1,1,0,0,0,0,0,1,1,0,0,0,0,0,0,0,0,0,0,0,0,0,0,0,0,0,0],"split_type":[0,0,0,0,0,0,0,0,0,0,0,0,0,0,0,0,0,0,0,0,0,0,0,0,0,0,0,0,0],"sum_hessian":[2.0105E4,1.6036E4,4.069E3,2.807E3,1.3229E4,2.823E3,1.246E3,1.715E3,1.092E3,1.0729E4,2.5E3,1.482E3,1.341E3,1.005E3,2.41E2,1.378E3,3.37E2,5.02E2,5.9E2,8.03E3,2.699E3,1.89E2,2.311E3,8.09E2,6.73E2,9.41E2,4E2,5.74E2,4.31E2],"tree_param":{"num_deleted":"0","num_feature":"2","num_nodes":"29","size_leaf_vector":"1"}},{"base_weights":[-1.305354E-3,2.3148492E-1,-1.4862078E0,-1.4123979E0,5.481773E-1,-2.3329666E0,-1.1912214E0,-1.985088E0,-7.475024E-1,9.017202E-1,-2.24053E-1,-2.1464496E0,-2.5224702E0,-8.2933253E-1,-2.4726398E0,-2.2531171E-1,-1.6278233E-1,-1.7407713E-2,-1.9756526E-1,3.8558114E-2,1.5233922E-1,-9.6902855E-2,7.5511276E-3,-1.9545569E-1,-2.3285495E-1,-2.7985433E-1,-2.2715616E-1,-1.24027155E-1,5.7359254E-3,-2.0207377E-1,-2.8433648E-1],"categories":[],"categories_nodes":[],"categories_segments":[],"categories_sizes":[],"default_left":[0,0,0,0,0,0,0,0,0,0,0,0,0,0,0,0,0,0,0,0,0,0,0,0,0,0,0,0,0,0,0],"id":16,"left_children":[1,3,5,7,9,11,13,15,17,19,21,23,25,27,29,-1,-1,-1,-1,-1,-1,-1,-1,-1,-1,-1,-1,-1,-1,-1,-1],"loss_changes":[6.9504023E3,9.049934E3,6.778784E2,1.0677437E3,3.979418E3,1.9433594E1,9.360769E2,1.4073438E2,9.1588837E2,3.2074634E3,1.02173645E3,8.063232E0,1.7402344E1,5.7542126E2,6.8805664E1,0E0,0E0,0E0,0E0,0E0,0E0,0E0,0E0,0E0,0E0,0E0,0E0,0E0,0E0,0E0,0E0],"parents":[2147483647,0,0,1,1,2,2,3,3,4,4,5,5,6,6,7,7,8,8,9,9,10,10,11,11,12,12,13,13,14,14],"right_children":[2,4,6,8,10,12,14,16,18,20,22,24,26,28,30,-1,-1,-1,-1,-1,-1,-1,-1,-1,-1,-1,-1,-1,-1,-1,-1],"split_conditions":[2.2E1,5E0,3E0,3E0,1.8E1,2.3E1,7E0,5E0,6E0,1.3E1,3E0,2E0,2E0,6E0,2.3E1,-2.2531171E-1,-1.6278233E-1,-1.7407713E-2,-1.9756526E-1,3.8558114E-2,1.5233922E-1,-9.6902855E-2,7.5511276E-3,-1.9545569E-1,-2.3285495E-1,-2.7985433E-1,-2.2715616E-1,-1.24027155E-1,5.7359254E-3,-2.0207377E-1,-2.8433648E-1],"split_indices":[1,1,0,1,1,1,0,0,0,1,0,0,0,0,1,0,0,0,0,0,0,0,0,0,0,0,0,0,0,0,0],"split_type":[0,0,0,0,0,0,0,0,0,0,0,0,0,0,0,0,0,0,0,0,0,0,0,0,0,0,0,0,0,0,0],"sum_hessian":[2.0105E4,1.7381E4,2.724E3,2.807E3,1.4574E4,7.02E2,2.022E3,1.507E3,1.3E3,9.997E3,4.577E3,3.6E2,3.42E2,1.578E3,4.44E2,8.58E2,6.49E2,8.87E2,4.13E2,5.463E3,4.534E3,1.312E3,3.265E3,1.81E2,1.79E2,1.58E2,1.84E2,1.078E3,5E2,2.03E2,2.41E2],"tree_param":{"num_deleted":"0","num_feature":"2","num_nodes":"31","size_leaf_vector":"1"}},{"base_weights":[-1.2767515E-3,2.0830713E-1,-1.3381523E0,-1.0994184E0,5.3703576E-1,-2.1010005E0,-1.0723982E0,-5.2122027E-1,-2.3714004E0,9.00064E-1,-2.0166726E-1,-1.932991E0,-2.2717013E0,-7.4647427E-1,-2.226469E0,-1.8904151E-1,7.7196054E-2,-1.5607779E-1,-5.5019754E-1,4.529962E-2,1.371086E-1,-8.7219946E-2,6.796238E-3,-1.7601752E-1,-2.0969883E-1,-2.520449E-1,-2.0456333E-1,-1.4171843E-1,-2.657528E-2,-1.8196549E-1,-2.560203E-1],"categories":[],"categories_nodes":[],"categories_segments":[],"categories_sizes":[],"default_left":[0,0,0,0,0,0,0,0,0,0,0,0,0,0,0,0,0,0,0,0,0,0,0,0,0,0,0,0,0,0,0],"id":17,"left_children":[1,3,5,7,9,11,13,15,17,19,21,23,25,27,29,-1,-1,-1,-1,-1,-1,-1,-1,-1,-1,-1,-1,-1,-1,-1,-1],"loss_changes":[5.6337295E3,7.472883E3,5.5018604E2,2.5669814E3,3.725332E3,1.5770508E1,7.592678E2,4.25448E3,2.760059E3,1.96071E3,8.277404E2,6.540039E0,1.4132324E1,5.08732E2,5.5758057E1,0E0,0E0,0E0,0E0,0E0,0E0,0E0,0E0,0E0,0E0,0E0,0E0,0E0,0E0,0E0,0E0],"parents":[2147483647,0,0,1,1,2,2,3,3,4,4,5,5,6,6,7,7,8,8,9,9,10,10,11,11,12,12,13,13,14,14],"right_children":[2,4,6,8,10,12,14,16,18,20,22,24,26,28,30,-1,-1,-1,-1,-1,-1,-1,-1,-1,-1,-1,-1,-1,-1,-1,-1],"split_conditions":[2.2E1,7E0,3E0,6E0,1.8E1,2.3E1,7E0,4E0,5E0,1.3E1,3E0,2E0,2E0,5E0,2.3E1,-1.8904151E-1,7.7196054E-2,-1.5607779E-1,-5.5019754E-1,4.529962E-2,1.371086E-1,-8.7219946E-2,6.796238E-3,-1.7601752E-1,-2.0969883E-1,-2.520449E-1,-2.0456333E-1,-1.4171843E-1,-2.657528E-2,-1.8196549E-1,-2.560203E-1],"split_indices":[1,1,0,0,1,1,0,1,1,1,0,0,0,0,1,0,0,0,0,0,0,0,0,0,0,0,0,0,0,0,0],"split_type":[0,0,0,0,0,0,0,0,0,0,0,0,0,0,0,0,0,0,0,0,0,0,0,0,0,0,0,0,0,0,0],"sum_hessian":[2.0105E4,1.7381E4,2.724E3,3.491E3,1.389E4,7.02E2,2.022E3,2.401E3,1.09E3,9.313E3,4.577E3,3.6E2,3.42E2,1.578E3,4.44E2,1.166E3,1.235E3,8.67E2,2.23E2,4.779E3,4.534E3,1.312E3,3.265E3,1.81E2,1.79E2,1.58E2,1.84E2,6.58E2,9.2E2,2.03E2,2.41E2],"tree_param":{"num_deleted":"0","num_feature":"2","num_nodes":"31","size_leaf_vector":"1"}},{"base_weights":[-1.2565001E-3,2.398362E-1,-9.5123255E-1,-8.570455E-1,6.3174504E-1,-6.420467E-1,-1.6506628E0,-2.6036805E-1,-2.1486077E0,8.978843E-1,-7.508178E-2,-1.1764008E0,-5.1071268E-2,-1.4915589E0,-2.305241E-1,-1.7015354E-1,7.158958E-2,-1.4048801E-1,-3.526353E-1,1.1145409E-1,6.850635E-3,-4.0848345E-2,2.4305496E-2,-1.4295934E-1,-8.7037325E-2,4.9732946E-2,-1.339207E-1,-1.7289905E-1,-7.429854E-2],"categories":[],"categories_nodes":[],"categories_segments":[],"categories_sizes":[],"default_left":[0,0,0,0,0,0,0,0,0,0,0,0,0,0,0,0,0,0,0,0,0,0,0,0,0,0,0,0,0],"id":18,"left_children":[1,3,5,7,9,11,13,15,17,19,21,23,25,27,-1,-1,-1,-1,-1,-1,-1,-1,-1,-1,-1,-1,-1,-1,-1],"loss_changes":[4.605152E3,6.894489E3,8.790935E2,3.253108E3,2.2228267E3,8.917312E2,1.2643164E2,4.0659248E3,1.3619521E3,1.5423843E3,3.430149E2,1.1366431E2,9.4867426E2,1.775166E2,0E0,0E0,0E0,0E0,0E0,0E0,0E0,0E0,0E0,0E0,0E0,0E0,0E0,0E0,0E0],"parents":[2147483647,0,0,1,1,2,2,3,3,4,4,5,5,6,6,7,7,8,8,9,9,10,10,11,11,12,12,13,13],"right_children":[2,4,6,8,10,12,14,16,18,20,22,24,26,28,-1,-1,-1,-1,-1,-1,-1,-1,-1,-1,-1,-1,-1,-1,-1],"split_conditions":[2.1E1,8E0,2.3E1,6E0,1.8E1,5E0,7E0,4E0,5E0,7E0,5E0,3E0,7E0,6E0,-2.305241E-1,-1.7015354E-1,7.158958E-2,-1.4048801E-1,-3.526353E-1,1.1145409E-1,6.850635E-3,-4.0848345E-2,2.4305496E-2,-1.4295934E-1,-8.7037325E-2,4.9732946E-2,-1.339207E-1,-1.7289905E-1,-7.429854E-2],"split_indices":[1,1,1,0,1,0,0,1,1,0,0,0,0,0,0,0,0,0,0,0,0,0,0,0,0,0,0,0,0],"split_type":[0,0,0,0,0,0,0,0,0,0,0,0,0,0,0,0,0,0,0,0,0,0,0,0,0,0,0,0,0],"sum_hessian":[2.0105E4,1.6036E4,4.069E3,4.221E3,1.1815E4,2.823E3,1.246E3,2.888E3,1.333E3,8.583E3,3.232E3,1.482E3,1.341E3,1.005E3,2.41E2,1.166E3,1.722E3,8.67E2,4.66E2,6.805E3,1.778E3,1.578E3,1.654E3,8.09E2,6.73E2,9.41E2,4E2,7.62E2,2.43E2],"tree_param":{"num_deleted":"0","num_feature":"2","num_nodes":"29","size_leaf_vector":"1"}},{"base_weights":[-1.1946164E-3,1.7043371E-1,-1.0959624E0,-1.0716636E0,4.0972283E-1,-1.7347775E0,-8.7343013E-1,-1.4467348E0,-6.360918E-1,6.3490456E-1,-2.7821338E-1,-1.5981973E0,-1.8734674E0,-6.0642964E-1,-1.818869E0,-1.577168E-1,-9.02779E-2,-3.6491405E-2,-2.3560856E-1,9.9861115E-2,8.716687E-3,-1.1055416E-2,-1.2142618E-1,-1.442951E-1,-1.7462897E-1,-2.0981777E-1,-1.6702114E-1,-9.286209E-2,8.868174E-3,-1.5053172E-1,-2.0756696E-1],"categories":[],"categories_nodes":[],"categories_segments":[],"categories_sizes":[],"default_left":[0,0,0,0,0,0,0,0,0,0,0,0,0,0,0,0,0,0,0,0,0,0,0,0,0,0,0,0,0,0,0],"id":19,"left_children":[1,3,5,7,9,11,13,15,17,19,21,23,25,27,29,-1,-1,-1,-1,-1,-1,-1,-1,-1,-1,-1,-1,-1,-1,-1,-1],"loss_changes":[3.7779666E3,5.1667236E3,3.858628E2,4.5782397E2,2.258E3,1.0322266E1,5.095681E2,1.055686E2,6.0595807E2,2.1875015E3,5.640548E2,5.779846E0,1.2161621E1,3.5371332E2,3.270703E1,0E0,0E0,0E0,0E0,0E0,0E0,0E0,0E0,0E0,0E0,0E0,0E0,0E0,0E0,0E0,0E0],"parents":[2147483647,0,0,1,1,2,2,3,3,4,4,5,5,6,6,7,7,8,8,9,9,10,10,11,11,12,12,13,13,14,14],"right_children":[2,4,6,8,10,12,14,16,18,20,22,24,26,28,30,-1,-1,-1,-1,-1,-1,-1,-1,-1,-1,-1,-1,-1,-1,-1,-1],"split_conditions":[2.2E1,5E0,3E0,3E0,1.9E1,2.3E1,7E0,7E0,7E0,6E0,7E0,2E0,2E0,6E0,2.3E1,-1.577168E-1,-9.02779E-2,-3.6491405E-2,-2.3560856E-1,9.9861115E-2,8.716687E-3,-1.1055416E-2,-1.2142618E-1,-1.442951E-1,-1.7462897E-1,-2.0981777E-1,-1.6702114E-1,-9.286209E-2,8.868174E-3,-1.5053172E-1,-2.0756696E-1],"split_indices":[1,1,0,1,1,1,0,0,0,0,0,0,0,0,1,0,0,0,0,0,0,0,0,0,0,0,0,0,0,0,0],"split_type":[0,0,0,0,0,0,0,0,0,0,0,0,0,0,0,0,0,0,0,0,0,0,0,0,0,0,0,0,0,0,0],"sum_hessian":[2.0105E4,1.7381E4,2.724E3,2.807E3,1.4574E4,7.02E2,2.022E3,1.507E3,1.3E3,1.098E4,3.594E3,3.6E2,3.42E2,1.578E3,4.44E2,1.214E3,2.93E2,1.124E3,1.76E2,6.598E3,4.382E3,3.049E3,5.45E2,1.81E2,1.79E2,1.58E2,1.84E2,1.078E3,5E2,2.03E2,2.41E2],"tree_param":{"num_deleted":"0","num_feature":"2","num_nodes":"31","size_leaf_vector":"1"}},{"base_weights":[-1.1588462E-3,1.5335898E-1,-9.8678374E-1,-7.237142E-1,4.3470916E-1,-6.671556E-1,-1.3650862E0,-1.984448E-1,-1.8607303E0,7.462193E-1,-1.4948434E-1,-1.1782799E0,-8.5738696E-2,-1.242519E0,-1.8689604E-1,-8.826147E-2,1.2011043E-1,-1.1470892E-1,-3.1831706E-1,3.6590386E-2,1.085697E-1,-7.21156E-2,8.038535E-3,-1.3331054E-1,-7.654518E-2,4.430813E-2,-1.3555233E-1,-1.6872193E-1,-1.01093054E-1],"categories":[],"categories_nodes":[],"categories_segments":[],"categories_sizes":[],"default_left":[0,0,0,0,0,0,0,0,0,0,0,0,0,0,0,0,0,0,0,0,0,0,0,0,0,0,0,0,0],"id":20,"left_children":[1,3,5,7,9,11,13,15,17,19,21,23,25,27,-1,-1,-1,-1,-1,-1,-1,-1,-1,-1,-1,-1,-1,-1,-1],"loss_changes":[3.062227E3,4.289578E3,3.285857E2,2.521177E3,2.3951792E3,4.3942267E2,7.4690674E1,2.7673625E3,1.2553081E3,1.1078706E3,6.0165283E2,4.928174E1,4.6594144E2,1.0189966E2,0E0,0E0,0E0,0E0,0E0,0E0,0E0,0E0,0E0,0E0,0E0,0E0,0E0,0E0,0E0],"parents":[2147483647,0,0,1,1,2,2,3,3,4,4,5,5,6,6,7,7,8,8,9,9,10,10,11,11,12,12,13,13],"right_children":[2,4,6,8,10,12,14,16,18,20,22,24,26,28,-1,-1,-1,-1,-1,-1,-1,-1,-1,-1,-1,-1,-1,-1,-1],"split_conditions":[2.2E1,8E0,2.3E1,6E0,1.8E1,5E0,7E0,5E0,5E0,1.3E1,3E0,4E0,7E0,3E0,-1.8689604E-1,-8.826147E-2,1.2011043E-1,-1.1470892E-1,-3.1831706E-1,3.6590386E-2,1.085697E-1,-7.21156E-2,8.038535E-3,-1.3331054E-1,-7.654518E-2,4.430813E-2,-1.3555233E-1,-1.6872193E-1,-1.01093054E-1],"split_indices":[1,1,1,0,1,0,0,1,1,1,0,0,0,0,0,0,0,0,0,0,0,0,0,0,0,0,0,0,0],"split_type":[0,0,0,0,0,0,0,0,0,0,0,0,0,0,0,0,0,0,0,0,0,0,0,0,0,0,0,0,0],"sum_hessian":[2.0105E4,1.7381E4,2.724E3,4.221E3,1.316E4,1.478E3,1.246E3,2.888E3,1.333E3,8.583E3,4.577E3,7.86E2,6.92E2,1.005E3,2.41E2,1.94E3,9.48E2,8.67E2,4.66E2,4.049E3,4.534E3,1.312E3,3.265E3,5.7E2,2.16E2,4.89E2,2.03E2,3.42E2,6.63E2],"tree_param":{"num_deleted":"0","num_feature":"2","num_nodes":"29","size_leaf_vector":"1"}},{"base_weights":[-1.0966118E-3,1.768202E-1,-7.0214105E-1,-6.514375E-1,4.7275177E-1,-4.6927094E-1,-1.2289437E0,-1.78589E-1,-1.6749817E0,7.42243E-1,2.7465058E-2,-9.054803E-1,1.3119331E-2,-1.118535E0,-1.6828369E-1,-1.2974985E-1,5.793599E-2,-1.03251256E-1,-2.8655347E-1,3.2932233E-2,1.246949E-1,-6.6902004E-2,1.3206554E-2,-1.1106236E-1,-6.575998E-2,4.4654705E-2,-1.0050901E-1,-1.2902008E-1,-5.7714384E-2],"categories":[],"categories_nodes":[],"categories_segments":[],"categories_sizes":[],"default_left":[0,0,0,0,0,0,0,0,0,0,0,0,0,0,0,0,0,0,0,0,0,0,0,0,0,0,0,0,0],"id":21,"left_children":[1,3,5,7,9,11,13,15,17,19,21,23,25,27,-1,-1,-1,-1,-1,-1,-1,-1,-1,-1,-1,-1,-1,-1,-1],"loss_changes":[2.5078972E3,3.9310986E3,4.9871704E2,2.0430702E3,1.4179097E3,5.942468E2,6.0609375E1,2.450844E3,1.0174092E3,1.533648E3,3.2471985E2,7.468176E1,5.9270056E2,9.275134E1,0E0,0E0,0E0,0E0,0E0,0E0,0E0,0E0,0E0,0E0,0E0,0E0,0E0,0E0,0E0],"parents":[2147483647,0,0,1,1,2,2,3,3,4,4,5,5,6,6,7,7,8,8,9,9,10,10,11,11,12,12,13,13],"right_children":[2,4,6,8,10,12,14,16,18,20,22,24,26,28,-1,-1,-1,-1,-1,-1,-1,-1,-1,-1,-1,-1,-1,-1,-1],"split_conditions":[2.1E1,8E0,2.3E1,6E0,1.7E1,5E0,7E0,4E0,5E0,1.3E1,2E0,3E0,7E0,6E0,-1.6828369E-1,-1.2974985E-1,5.793599E-2,-1.03251256E-1,-2.8655347E-1,3.2932233E-2,1.246949E-1,-6.6902004E-2,1.3206554E-2,-1.1106236E-1,-6.575998E-2,4.4654705E-2,-1.0050901E-1,-1.2902008E-1,-5.7714384E-2],"split_indices":[1,1,1,0,1,0,0,1,1,1,0,0,0,0,0,0,0,0,0,0,0,0,0,0,0,0,0,0,0],"split_type":[0,0,0,0,0,0,0,0,0,0,0,0,0,0,0,0,0,0,0,0,0,0,0,0,0,0,0,0,0],"sum_hessian":[2.0105E4,1.6036E4,4.069E3,4.221E3,1.1815E4,2.823E3,1.246E3,2.888E3,1.333E3,7.36E3,4.455E3,1.482E3,1.341E3,1.005E3,2.41E2,1.166E3,1.722E3,8.67E2,4.66E2,4.049E3,3.311E3,5.81E2,3.874E3,8.09E2,6.73E2,9.41E2,4E2,7.62E2,2.43E2],"tree_param":{"num_deleted":"0","num_feature":"2","num_nodes":"29","size_leaf_vector":"1"}},{"base_weights":[-1.0339282E-3,-7.984984E-1,1.2841177E-1,-1.0843744E0,-4.6652323E-1,4.7435284E-1,-4.7277626E-1,-1.294E0,-8.05678E-1,1.8794893E-1,-1.0132588E0,7.7419853E-1,2.279999E-2,-7.923797E-1,-1.4854081E-1,-1.05423525E-1,-1.4003564E-1,-8.751422E-3,-1.2572359E-1,-6.302038E-2,3.35591E-2,-7.151997E-2,-1.9050793E-1,3.2921374E-2,1.2493408E-1,-4.0096804E-1,2.3992807E-2,-5.6883313E-2,-1.09106414E-1,3.3278804E-2,-1.19321465E-1],"categories":[],"categories_nodes":[],"categories_segments":[],"categories_sizes":[],"default_left":[0,0,0,0,0,0,0,0,0,0,0,0,0,0,0,0,0,0,0,0,0,0,0,0,0,0,0,0,0,0,0],"id":22,"left_children":[1,3,5,7,9,11,13,15,17,19,21,23,25,27,29,-1,-1,-1,-1,-1,-1,-1,-1,-1,-1,-1,-1,-1,-1,-1,-1],"loss_changes":[2.0756116E3,2.65984E2,3.5979946E3,8.7057495E1,4.657184E2,1.4867681E3,6.546998E2,2.042871E1,2.1068008E2,7.1842186E1,1.8710046E2,1.3948223E3,3.8385623E3,2.1184119E2,1.5782828E3,0E0,0E0,0E0,0E0,0E0,0E0,0E0,0E0,0E0,0E0,0E0,0E0,0E0,0E0,0E0,0E0],"parents":[2147483647,0,0,1,1,2,2,3,3,4,4,5,5,6,6,7,7,8,8,9,9,10,10,11,11,12,12,13,13,14,14],"right_children":[2,4,6,8,10,12,14,16,18,20,22,24,26,28,30,-1,-1,-1,-1,-1,-1,-1,-1,-1,-1,-1,-1,-1,-1,-1,-1],"split_conditions":[5E0,3E0,1.9E1,5E0,4E0,6E0,5E0,2E0,1E0,4E0,7E0,1.3E1,7E0,2.2E1,7E0,-1.05423525E-1,-1.4003564E-1,-8.751422E-3,-1.2572359E-1,-6.302038E-2,3.35591E-2,-7.151997E-2,-1.9050793E-1,3.2921374E-2,1.2493408E-1,-4.0096804E-1,2.3992807E-2,-5.6883313E-2,-1.09106414E-1,3.3278804E-2,-1.19321465E-1],"split_indices":[1,1,1,0,0,0,0,0,1,1,0,1,1,1,0,0,0,0,0,0,0,0,0,0,0,0,0,0,0,0,0],"split_type":[0,0,0,0,0,0,0,0,0,0,0,0,0,0,0,0,0,0,0,0,0,0,0,0,0,0,0,0,0,0,0],"sum_hessian":[2.0105E4,2.807E3,1.7298E4,1.507E3,1.3E3,1.098E4,6.318E3,8.58E2,6.49E2,5.92E2,7.08E2,6.598E3,4.382E3,3.181E3,3.137E3,2.67E2,5.91E2,2.51E2,3.98E2,9E1,5.02E2,5.32E2,1.76E2,3.408E3,3.19E3,2.23E2,4.159E3,1.821E3,1.36E3,2.148E3,9.89E2],"tree_param":{"num_deleted":"0","num_feature":"2","num_nodes":"31","size_leaf_vector":"1"}},{"base_weights":[-9.871185E-4,1.15682475E-1,-7.451889E-1,-7.188877E-1,2.764617E-1,-4.9227962E-1,-1.0445535E0,-9.76189E-1,-4.2009494E-1,4.3204343E-1,-4.0859252E-1,-9.969063E-1,-1.7475036E-1,-9.588712E-1,-1.3964204E-1,-1.08595826E-1,-5.1923085E-2,1.6910456E-2,-9.123026E-2,7.190222E-2,8.1271335E-4,-2.3059057E-1,-8.3476736E-4,-1.0867607E-1,-8.3844975E-2,6.4498517E-3,-1.0018825E-1,-1.2815571E-1,-7.907385E-2],"categories":[],"categories_nodes":[],"categories_segments":[],"categories_sizes":[],"default_left":[0,0,0,0,0,0,0,0,0,0,0,0,0,0,0,0,0,0,0,0,0,0,0,0,0,0,0,0,0],"id":23,"left_children":[1,3,5,7,9,11,13,15,17,19,21,23,25,27,-1,-1,-1,-1,-1,-1,-1,-1,-1,-1,-1,-1,-1,-1,-1],"loss_changes":[1.7458042E3,2.3325422E3,2.0580115E2,2.1546838E2,1.5536082E3,2.368115E2,3.625647E1,7.507727E1,3.7745532E2,1.445012E3,2.0488142E3,7.218689E0,1.79947E2,5.35661E1,0E0,0E0,0E0,0E0,0E0,0E0,0E0,0E0,0E0,0E0,0E0,0E0,0E0,0E0,0E0],"parents":[2147483647,0,0,1,1,2,2,3,3,4,4,5,5,6,6,7,7,8,8,9,9,10,10,11,11,12,12,13,13],"right_children":[2,4,6,8,10,12,14,16,18,20,22,24,26,28,-1,-1,-1,-1,-1,-1,-1,-1,-1,-1,-1,-1,-1,-1,-1],"split_conditions":[2.2E1,5E0,2.3E1,3E0,7E0,4E0,7E0,7E0,4E0,1.7E1,1E1,3E0,7E0,3E0,-1.3964204E-1,-1.08595826E-1,-5.1923085E-2,1.6910456E-2,-9.123026E-2,7.190222E-2,8.1271335E-4,-2.3059057E-1,-8.3476736E-4,-1.0867607E-1,-8.3844975E-2,6.4498517E-3,-1.0018825E-1,-1.2815571E-1,-7.907385E-2],"split_indices":[1,1,1,1,0,0,0,0,0,1,1,0,0,0,0,0,0,0,0,0,0,0,0,0,0,0,0,0,0],"split_type":[0,0,0,0,0,0,0,0,0,0,0,0,0,0,0,0,0,0,0,0,0,0,0,0,0,0,0,0,0],"sum_hessian":[2.0105E4,1.7381E4,2.724E3,2.807E3,1.4574E4,1.478E3,1.246E3,1.507E3,1.3E3,1.1877E4,2.697E3,5.7E2,9.08E2,1.005E3,2.41E2,1.214E3,2.93E2,5.92E2,7.08E2,7.082E3,4.795E3,4.69E2,2.228E3,3.6E2,2.1E2,7.05E2,2.03E2,3.42E2,6.63E2],"tree_param":{"num_deleted":"0","num_feature":"2","num_nodes":"29","size_leaf_vector":"1"}},{"base_weights":[-9.390709E-4,1.791187E-1,-3.938233E-1,-3.7533385E-1,5.562084E-1,-6.7672884E-1,-1.0682544E-1,-1.4953305E-1,-1.4916742E0,7.0521885E-1,1.5078558E-1,-2.3692502E-1,-7.596067E-1,3.1345206E-1,-1.0190169E0,-9.1920204E-2,1.7548932E-2,-4.3131407E-2,-2.084548E-1,3.581945E-2,9.8685846E-2,7.822182E-2,-2.333346E-2,-1.778501E-1,1.055151E-3,-9.1807686E-2,-5.6081414E-2,5.5217117E-2,-6.366242E-2,-5.4577835E-2,-1.12854354E-1],"categories":[],"categories_nodes":[],"categories_segments":[],"categories_sizes":[],"default_left":[0,0,0,0,0,0,0,0,0,0,0,0,0,0,0,0,0,0,0,0,0,0,0,0,0,0,0,0,0,0,0],"id":24,"left_children":[1,3,5,7,9,11,13,15,17,19,21,23,25,27,29,-1,-1,-1,-1,-1,-1,-1,-1,-1,-1,-1,-1,-1,-1,-1,-1],"loss_changes":[1.4224064E3,2.8829807E3,5.1298804E2,1.4068347E3,4.9569678E2,1.1580408E2,1.2033456E3,1.1619027E3,5.8941235E2,5.861592E2,5.354815E2,1.9305972E2,8.381775E1,4.8774768E2,5.0697876E1,0E0,0E0,0E0,0E0,0E0,0E0,0E0,0E0,0E0,0E0,0E0,0E0,0E0,0E0,0E0,0E0],"parents":[2147483647,0,0,1,1,2,2,3,3,4,4,5,5,6,6,7,7,8,8,9,9,10,10,11,11,12,12,13,13,14,14],"right_children":[2,4,6,8,10,12,14,16,18,20,22,24,26,28,30,-1,-1,-1,-1,-1,-1,-1,-1,-1,-1,-1,-1,-1,-1,-1,-1],"split_conditions":[1.9E1,1E1,5E0,7E0,1.7E1,2E1,7E0,4E0,4E0,1.3E1,4E0,2E0,3E0,2.3E1,2E1,-9.1920204E-2,1.7548932E-2,-4.3131407E-2,-2.084548E-1,3.581945E-2,9.8685846E-2,7.822182E-2,-2.333346E-2,-1.778501E-1,1.055151E-3,-9.1807686E-2,-5.6081414E-2,5.5217117E-2,-6.366242E-2,-5.4577835E-2,-1.12854354E-1],"split_indices":[1,1,0,0,1,1,0,1,1,1,0,0,0,1,1,0,0,0,0,0,0,0,0,0,0,0,0,0,0,0,0],"split_type":[0,0,0,0,0,0,0,0,0,0,0,0,0,0,0,0,0,0,0,0,0,0,0,0,0,0,0,0,0,0,0],"sum_hessian":[2.0105E4,1.3787E4,6.318E3,5.581E3,8.206E3,3.181E3,3.137E3,4.643E3,9.38E2,6E3,2.206E3,5.05E2,2.676E3,2.148E3,9.89E2,1.378E3,3.265E3,3.37E2,6.01E2,2.689E3,3.311E3,8.34E2,1.372E3,6.9E1,4.36E2,1.487E3,1.189E3,1.717E3,4.31E2,1.87E2,8.02E2],"tree_param":{"num_deleted":"0","num_feature":"2","num_nodes":"31","size_leaf_vector":"1"}},{"base_weights":[-8.770428E-4,9.542512E-2,-6.151608E-1,-4.4362098E-1,2.6834187E-1,-4.075116E-1,-8.6094916E-1,-7.706109E-2,-1.2371352E0,5.156891E-1,-4.5568004E-2,-7.2268414E-1,-4.900037E-2,-1.2668101E-1,-8.0090064E-1,-5.5522013E-2,9.01004E-2,-6.767913E-2,-2.2759818E-1,2.1092892E-2,8.8820204E-2,-6.653216E-2,4.885037E-3,-8.1904516E-2,-4.6579566E-2,2.5954917E-2,-7.898841E-2,-7.017674E-2,-1.1449671E-1],"categories":[],"categories_nodes":[],"categories_segments":[],"categories_sizes":[],"default_left":[0,0,0,0,0,0,0,0,0,0,0,0,0,0,0,0,0,0,0,0,0,0,0,0,0,0,0,0,0],"id":25,"left_children":[1,3,5,7,9,11,13,15,17,19,21,23,25,-1,27,-1,-1,-1,-1,-1,-1,-1,-1,-1,-1,-1,-1,-1,-1],"loss_changes":[1.1894664E3,1.620297E3,1.3872693E2,1.2279598E3,1.0219057E3,1.6708109E2,2.9376526E1,1.3516006E3,7.74996E2,8.354856E2,3.394845E2,1.9099884E1,1.5862434E2,0E0,3.6340576E1,0E0,0E0,0E0,0E0,0E0,0E0,0E0,0E0,0E0,0E0,0E0,0E0,0E0,0E0],"parents":[2147483647,0,0,1,1,2,2,3,3,4,4,5,5,6,6,7,7,8,8,9,9,10,10,11,11,12,12,14,14],"right_children":[2,4,6,8,10,12,14,16,18,20,22,24,26,-1,28,-1,-1,-1,-1,-1,-1,-1,-1,-1,-1,-1,-1,-1,-1],"split_conditions":[2.2E1,8E0,2.3E1,6E0,1.7E1,5E0,2E0,5E0,5E0,1.3E1,2E0,4E0,7E0,-1.2668101E-1,7E0,-5.5522013E-2,9.01004E-2,-6.767913E-2,-2.2759818E-1,2.1092892E-2,8.8820204E-2,-6.653216E-2,4.885037E-3,-8.1904516E-2,-4.6579566E-2,2.5954917E-2,-7.898841E-2,-7.017674E-2,-1.1449671E-1],"split_indices":[1,1,1,0,1,0,0,1,1,1,0,0,0,0,0,0,0,0,0,0,0,0,0,0,0,0,0,0,0],"split_type":[0,0,0,0,0,0,0,0,0,0,0,0,0,0,0,0,0,0,0,0,0,0,0,0,0,0,0,0,0],"sum_hessian":[2.0105E4,1.7381E4,2.724E3,4.221E3,1.316E4,1.478E3,1.246E3,2.888E3,1.333E3,7.36E3,5.8E3,7.86E2,6.92E2,1.58E2,1.088E3,1.94E3,9.48E2,8.67E2,4.66E2,4.049E3,3.311E3,7.66E2,5.034E3,5.7E2,2.16E2,4.89E2,2.03E2,8.47E2,2.41E2],"tree_param":{"num_deleted":"0","num_feature":"2","num_nodes":"29","size_leaf_vector":"1"}},{"base_weights":[-8.243551E-4,1.02721736E-1,-4.7384995E-1,-7.6999784E-1,1.8232073E-1,-1.2694502E0,-1.9418575E-1,-8.2852E-1,-3.3439532E-1,4.466842E-1,-2.0558307E-1,-3.208316E-1,-1.7999545E0,2.067024E-1,-8.759044E-1,-9.60069E-2,-6.8891875E-2,8.150547E-3,-4.05765E-2,2.504692E-2,7.49315E-2,-5.028931E-2,2.2782816E-2,2.7721277E-2,-6.64258E-2,-2.4337533E-1,-1.3611817E-1,-2.4633354E-2,4.5125227E-2,-4.963495E-2,-9.6367575E-2],"categories":[],"categories_nodes":[],"categories_segments":[],"categories_sizes":[],"default_left":[0,0,0,0,0,0,0,0,0,0,0,0,0,0,0,0,0,0,0,0,0,0,0,0,0,0,0,0,0,0,0],"id":26,"left_children":[1,3,5,7,9,11,13,15,17,19,21,23,25,27,29,-1,-1,-1,-1,-1,-1,-1,-1,-1,-1,-1,-1,-1,-1,-1,-1],"loss_changes":[9.848395E2,1.1460779E3,8.0320416E2,3.4877014E1,1.5504065E3,4.7197095E2,7.30693E2,2.1651306E1,4.9307175E0,5.337042E2,7.897534E2,6.960401E1,1.6409949E2,1.866813E2,3.2502625E1,0E0,0E0,0E0,0E0,0E0,0E0,0E0,0E0,0E0,0E0,0E0,0E0,0E0,0E0,0E0,0E0],"parents":[2147483647,0,0,1,1,2,2,3,3,4,4,5,5,6,6,7,7,8,8,9,9,10,10,11,11,12,12,13,13,14,14],"right_children":[2,4,6,8,10,12,14,16,18,20,22,24,26,28,30,-1,-1,-1,-1,-1,-1,-1,-1,-1,-1,-1,-1,-1,-1,-1,-1],"split_conditions":[7E0,4E0,1E1,3E0,1.8E1,4E0,1.9E1,4E0,2E0,1.3E1,5E0,1E0,7E0,1.4E1,2E1,-9.60069E-2,-6.8891875E-2,8.150547E-3,-4.05765E-2,2.504692E-2,7.49315E-2,-5.028931E-2,2.2782816E-2,2.7721277E-2,-6.64258E-2,-2.4337533E-1,-1.3611817E-1,-2.4633354E-2,4.5125227E-2,-4.963495E-2,-9.6367575E-2],"split_indices":[0,1,1,1,1,1,1,0,0,1,0,1,1,1,1,0,0,0,0,0,0,0,0,0,0,0,0,0,0,0,0],"split_type":[0,0,0,0,0,0,0,0,0,0,0,0,0,0,0,0,0,0,0,0,0,0,0,0,0,0,0,0,0,0,0],"sum_hessian":[2.0105E4,1.6495E4,3.61E3,1.378E3,1.5117E4,9.38E2,2.672E3,1.214E3,1.64E2,8.99E3,6.127E3,3.37E2,6.01E2,1.683E3,9.89E2,6.22E2,5.92E2,2.4E1,1.4E2,5.455E3,3.535E3,3.634E3,2.493E3,1.23E2,2.14E2,2.44E2,3.57E2,5.9E2,1.093E3,1.87E2,8.02E2],"tree_param":{"num_deleted":"0","num_feature":"2","num_nodes":"31","size_leaf_vector":"1"}},{"base_weights":[-7.754937E-4,8.073656E-2,-5.2071744E-1,-3.680733E-1,2.2470698E-1,-3.3446357E-1,-7.4120563E-1,1.5904205E-1,-7.8243005E-1,4.2994526E-1,-3.5762556E-2,-6.0035384E-1,-3.2024708E-2,-1.0909527E-1,-6.8946004E-1,-8.0764815E-2,7.5981885E-2,-4.328798E-2,-1.0519983E-1,5.717064E-2,-1.2249269E-2,-5.6661125E-2,4.5110676E-3,-7.550048E-2,-4.6820085E-2,2.1091018E-2,-6.1538782E-2,-6.1858278E-2,-9.349745E-2],"categories":[],"categories_nodes":[],"categories_segments":[],"categories_sizes":[],"default_left":[0,0,0,0,0,0,0,0,0,0,0,0,0,0,0,0,0,0,0,0,0,0,0,0,0,0,0,0,0],"id":27,"left_children":[1,3,5,7,9,11,13,15,17,19,21,23,25,-1,27,-1,-1,-1,-1,-1,-1,-1,-1,-1,-1,-1,-1,-1,-1],"loss_changes":[8.521653E2,1.1232266E3,1.1165912E2,9.222675E2,7.035803E2,1.18915375E2,2.1815857E1,1.080256E3,2.222987E2,5.76541E2,2.4907089E2,1.57308655E1,9.8341225E1,0E0,1.8371704E1,0E0,0E0,0E0,0E0,0E0,0E0,0E0,0E0,0E0,0E0,0E0,0E0,0E0,0E0],"parents":[2147483647,0,0,1,1,2,2,3,3,4,4,5,5,6,6,7,7,8,8,9,9,10,10,11,11,12,12,14,14],"right_children":[2,4,6,8,10,12,14,16,18,20,22,24,26,-1,28,-1,-1,-1,-1,-1,-1,-1,-1,-1,-1,-1,-1,-1,-1],"split_conditions":[2.2E1,8E0,2.3E1,4E0,1.7E1,5E0,2E0,4E0,6E0,7E0,2E0,3E0,7E0,-1.0909527E-1,7E0,-8.0764815E-2,7.5981885E-2,-4.328798E-2,-1.0519983E-1,5.717064E-2,-1.2249269E-2,-5.6661125E-2,4.5110676E-3,-7.550048E-2,-4.6820085E-2,2.1091018E-2,-6.1538782E-2,-6.1858278E-2,-9.349745E-2],"split_indices":[1,1,1,0,1,0,0,1,0,0,0,0,0,0,0,0,0,0,0,0,0,0,0,0,0,0,0,0,0],"split_type":[0,0,0,0,0,0,0,0,0,0,0,0,0,0,0,0,0,0,0,0,0,0,0,0,0,0,0,0,0],"sum_hessian":[2.0105E4,1.7381E4,2.724E3,4.221E3,1.316E4,1.478E3,1.246E3,1.858E3,2.363E3,7.36E3,5.8E3,7.86E2,6.92E2,1.58E2,1.088E3,7.12E2,1.146E3,1.03E3,1.333E3,5.857E3,1.503E3,7.66E2,5.034E3,3.6E2,4.26E2,4.89E2,2.03E2,8.47E2,2.41E2],"tree_param":{"num_deleted":"0","num_feature":"2","num_nodes":"29","size_leaf_vector":"1"}},{"base_weights":[-7.272315E-4,7.265362E-2,-4.6880257E-1,-2.6650998E-1,2.330755E-1,-3.0112737E-1,-6.672972E-1,-1.0488357E-1,-1.0655798E0,4.8946646E-1,-3.2195166E-2,-5.404738E-1,-2.8880946E-2,-9.825434E-2,-6.206568E-1,-6.7516185E-2,9.71552E-3,-1.8397445E-2,-1.5587974E-1,2.4120802E-2,6.9095366E-2,-5.100244E-2,4.0600696E-3,-6.2226273E-2,-3.2276917E-2,1.8986175E-2,-5.5415075E-2,-5.5679757E-2,-8.418632E-2],"categories":[],"categories_nodes":[],"categories_segments":[],"categories_sizes":[],"default_left":[0,0,0,0,0,0,0,0,0,0,0,0,0,0,0,0,0,0,0,0,0,0,0,0,0,0,0,0,0],"id":28,"left_children":[1,3,5,7,9,11,13,15,17,19,21,23,25,-1,27,-1,-1,-1,-1,-1,-1,-1,-1,-1,-1,-1,-1,-1,-1],"loss_changes":[6.906304E2,9.4580383E2,9.04942E1,7.20808E2,8.026373E2,9.6357834E1,1.7725098E1,5.3513947E2,4.0801233E2,3.0000854E2,2.0180261E2,1.3812317E1,7.973017E1,0E0,1.4914551E1,0E0,0E0,0E0,0E0,0E0,0E0,0E0,0E0,0E0,0E0,0E0,0E0,0E0,0E0],"parents":[2147483647,0,0,1,1,2,2,3,3,4,4,5,5,6,6,7,7,8,8,9,9,10,10,11,11,12,12,14,14],"right_children":[2,4,6,8,10,12,14,16,18,20,22,24,26,-1,28,-1,-1,-1,-1,-1,-1,-1,-1,-1,-1,-1,-1,-1,-1],"split_conditions":[2.2E1,1E1,2.3E1,7E0,1.7E1,5E0,2E0,3E0,4E0,1.3E1,2E0,4E0,7E0,-9.825434E-2,7E0,-6.7516185E-2,9.71552E-3,-1.8397445E-2,-1.5587974E-1,2.4120802E-2,6.9095366E-2,-5.100244E-2,4.0600696E-3,-6.2226273E-2,-3.2276917E-2,1.8986175E-2,-5.5415075E-2,-5.5679757E-2,-8.418632E-2],"split_indices":[1,1,1,0,1,0,0,1,1,1,0,0,0,0,0,0,0,0,0,0,0,0,0,0,0,0,0,0,0],"split_type":[0,0,0,0,0,0,0,0,0,0,0,0,0,0,0,0,0,0,0,0,0,0,0,0,0,0,0,0,0],"sum_hessian":[2.0105E4,1.7381E4,2.724E3,5.581E3,1.18E4,1.478E3,1.246E3,4.643E3,9.38E2,6E3,5.8E3,7.86E2,6.92E2,1.58E2,1.088E3,1.214E3,3.429E3,3.37E2,6.01E2,2.689E3,3.311E3,7.66E2,5.034E3,5.7E2,2.16E2,4.89E2,2.03E2,8.47E2,2.41E2],"tree_param":{"num_deleted":"0","num_feature":"2","num_nodes":"29","size_leaf_vector":"1"}},{"base_weights":[-6.8206625E-4,8.1437424E-2,-3.7582538E-1,-5.627344E-1,1.4019068E-1,-9.5920724E-1,-1.7074814E-1,-6.0770124E-1,-2.282044E-1,3.345235E-1,-1.449573E-1,-6.7003787E-1,-2.3420131E-1,1.5574498E-1,-7.259438E-1,-6.828884E-2,-4.2508654E-2,1.4188903E-2,-2.9220534E-2,1.732037E-2,5.833432E-2,-3.898989E-2,2.121027E-2,-9.041204E-2,6.210491E-2,4.5625484E-3,1.0423761E-1,-1.0356744E-1,-5.5643924E-2],"categories":[],"categories_nodes":[],"categories_segments":[],"categories_sizes":[],"default_left":[0,0,0,0,0,0,0,0,0,0,0,0,0,0,0,0,0,0,0,0,0,0,0,0,0,0,0,0,0],"id":29,"left_children":[1,3,5,7,9,11,13,15,17,19,21,23,-1,25,27,-1,-1,-1,-1,-1,-1,-1,-1,-1,-1,-1,-1,-1,-1],"loss_changes":[6.194277E2,6.2440607E2,4.318503E2,2.0605286E1,8.377916E2,3.739041E2,4.8464127E2,1.6392029E1,3.9497051E0,3.6079346E2,5.360305E2,2.3568945E2,0E0,1.643704E2,5.1399414E1,0E0,0E0,0E0,0E0,0E0,0E0,0E0,0E0,0E0,0E0,0E0,0E0,0E0,0E0],"parents":[2147483647,0,0,1,1,2,2,3,3,4,4,5,5,6,6,7,7,8,8,9,9,10,10,11,11,13,13,14,14],"right_children":[2,4,6,8,10,12,14,16,18,20,22,24,-1,26,28,-1,-1,-1,-1,-1,-1,-1,-1,-1,-1,-1,-1,-1,-1],"split_conditions":[7E0,4E0,1E1,3E0,1.8E1,9E0,1.9E1,5E0,2E0,1.3E1,5E0,8E0,-2.3420131E-1,1.8E1,2.1E1,-6.828884E-2,-4.2508654E-2,1.4188903E-2,-2.9220534E-2,1.732037E-2,5.833432E-2,-3.898989E-2,2.121027E-2,-9.041204E-2,6.210491E-2,4.5625484E-3,1.0423761E-1,-1.0356744E-1,-5.5643924E-2],"split_indices":[0,1,1,1,1,1,1,0,0,1,0,1,0,1,1,0,0,0,0,0,0,0,0,0,0,0,0,0,0],"split_type":[0,0,0,0,0,0,0,0,0,0,0,0,0,0,0,0,0,0,0,0,0,0,0,0,0,0,0,0,0],"sum_hessian":[2.0105E4,1.6495E4,3.61E3,1.378E3,1.5117E4,9.38E2,2.672E3,1.214E3,1.64E2,8.99E3,6.127E3,7.77E2,1.61E2,1.683E3,9.89E2,8.58E2,3.56E2,2.4E1,1.4E2,5.455E3,3.535E3,3.634E3,2.493E3,6.58E2,1.19E2,1.498E3,1.85E2,3.48E2,6.41E2],"tree_param":{"num_deleted":"0","num_feature":"2","num_nodes":"29","size_leaf_vector":"1"}},{"base_weights":[-6.329048E-4,6.2085114E-2,-4.006931E-1,-2.2006357E-1,1.9553922E-1,-2.4975762E-1,-5.7938826E-1,-8.9902304E-2,-8.6356604E-1,4.08137E-1,-2.4421955E-2,-4.0111184E-1,8.533939E-2,-8.461624E-2,-5.399057E-1,-5.4702234E-2,7.204836E-3,-7.5486875E-3,-1.3046078E-1,2.0214915E-2,5.7531666E-2,-4.34107E-2,3.7991721E-3,-5.212238E-2,-2.474704E-2,5.032682E-2,-4.43636E-2,-4.9283676E-2,-7.0261076E-2],"categories":[],"categories_nodes":[],"categories_segments":[],"categories_sizes":[],"default_left":[0,0,0,0,0,0,0,0,0,0,0,0,0,0,0,0,0,0,0,0,0,0,0,0,0,0,0,0,0],"id":30,"left_children":[1,3,5,7,9,11,13,15,17,19,21,23,25,-1,27,-1,-1,-1,-1,-1,-1,-1,-1,-1,-1,-1,-1,-1,-1],"loss_changes":[5.0450418E2,6.545431E2,7.335251E1,4.6746564E2,5.5186316E2,7.504666E1,1.2677673E1,3.438389E2,3.2627533E2,2.065401E2,1.4834778E2,1.8675812E1,1.02138405E2,0E0,7.993683E0,0E0,0E0,0E0,0E0,0E0,0E0,0E0,0E0,0E0,0E0,0E0,0E0,0E0,0E0],"parents":[2147483647,0,0,1,1,2,2,3,3,4,4,5,5,6,6,7,7,8,8,9,9,10,10,11,11,12,12,14,14],"right_children":[2,4,6,8,10,12,14,16,18,20,22,24,26,-1,28,-1,-1,-1,-1,-1,-1,-1,-1,-1,-1,-1,-1,-1,-1],"split_conditions":[2.2E1,1E1,2.3E1,7E0,1.7E1,6E0,2E0,3E0,4E0,1.3E1,2E0,4E0,7E0,-8.461624E-2,7E0,-5.4702234E-2,7.204836E-3,-7.5486875E-3,-1.3046078E-1,2.0214915E-2,5.7531666E-2,-4.34107E-2,3.7991721E-3,-5.212238E-2,-2.474704E-2,5.032682E-2,-4.43636E-2,-4.9283676E-2,-7.0261076E-2],"split_indices":[1,1,1,0,1,0,0,1,1,1,0,0,0,0,0,0,0,0,0,0,0,0,0,0,0,0,0,0,0],"split_type":[0,0,0,0,0,0,0,0,0,0,0,0,0,0,0,0,0,0,0,0,0,0,0,0,0,0,0,0,0],"sum_hessian":[2.0105E4,1.7381E4,2.724E3,5.581E3,1.18E4,1.478E3,1.246E3,4.643E3,9.38E2,6E3,5.8E3,1.018E3,4.6E2,1.58E2,1.088E3,1.214E3,3.429E3,3.37E2,6.01E2,2.689E3,3.311E3,7.66E2,5.034E3,5.7E2,4.48E2,2.57E2,2.03E2,8.47E2,2.41E2],"tree_param":{"num_deleted":"0","num_feature":"2","num_nodes":"29","size_leaf_vector":"1"}},{"base_weights":[-5.904657E-4,7.0229396E-2,-3.241141E-1,1.5489525E-1,-2.5245464E-1,-7.773564E-1,-1.6477305E-1,-3.3462396E-1,2.6158962E-1,-4.4111446E-1,4.0399727E-1,-5.260182E-1,-1.9796021E-1,1.084732E-1,-6.294012E-1,-4.9236514E-2,-1.6396606E-2,-1.0754349E-2,3.3226397E-2,-5.6441437E-2,-3.4694217E-2,6.936176E-2,-2.1844298E-2,-7.464375E-2,6.88835E-2,5.8530853E-4,9.349199E-2,-9.361926E-2,-4.6164487E-2],"categories":[],"categories_nodes":[],"categories_segments":[],"categories_sizes":[],"default_left":[0,0,0,0,0,0,0,0,0,0,0,0,0,0,0,0,0,0,0,0,0,0,0,0,0,0,0,0,0],"id":31,"left_children":[1,3,5,7,9,11,13,15,17,19,21,23,-1,25,27,-1,-1,-1,-1,-1,-1,-1,-1,-1,-1,-1,-1,-1,-1],"loss_changes":[4.606894E2,4.5071506E2,2.6065878E2,6.826153E2,4.248465E2,2.826966E2,3.3942676E2,6.2884613E1,2.7996246E2,3.073706E1,1.382394E2,2.0884482E2,0E0,1.4281464E2,5.051935E1,0E0,0E0,0E0,0E0,0E0,0E0,0E0,0E0,0E0,0E0,0E0,0E0,0E0,0E0],"parents":[2147483647,0,0,1,1,2,2,3,3,4,4,5,5,6,6,7,7,8,8,9,9,10,10,11,11,13,13,14,14],"right_children":[2,4,6,8,10,12,14,16,18,20,22,24,-1,26,28,-1,-1,-1,-1,-1,-1,-1,-1,-1,-1,-1,-1,-1,-1],"split_conditions":[7E0,2.1E1,1E1,5E0,6E0,9E0,1.9E1,3E0,2E0,3E0,2.3E1,8E0,-1.9796021E-1,1.8E1,2.1E1,-4.9236514E-2,-1.6396606E-2,-1.0754349E-2,3.3226397E-2,-5.6441437E-2,-3.4694217E-2,6.936176E-2,-2.1844298E-2,-7.464375E-2,6.88835E-2,5.8530853E-4,9.349199E-2,-9.361926E-2,-4.6164487E-2],"split_indices":[0,1,1,1,0,1,1,1,0,0,1,1,0,1,1,0,0,0,0,0,0,0,0,0,0,0,0,0,0],"split_type":[0,0,0,0,0,0,0,0,0,0,0,0,0,0,0,0,0,0,0,0,0,0,0,0,0,0,0,0,0],"sum_hessian":[2.0105E4,1.6495E4,3.61E3,1.3067E4,3.428E3,9.38E2,2.672E3,2.338E3,1.0729E4,2.663E3,7.65E2,7.77E2,1.61E2,1.683E3,9.89E2,1.214E3,1.124E3,1.724E3,9.005E3,1.151E3,1.512E3,5.22E2,2.43E2,6.58E2,1.19E2,1.498E3,1.85E2,3.48E2,6.41E2],"tree_param":{"num_deleted":"0","num_feature":"2","num_nodes":"29","size_leaf_vector":"1"}},{"base_weights":[-5.4801576E-4,6.320137E-2,-2.9177186E-1,1.3940261E-1,-2.272218E-1,-6.998378E-1,-1.4831293E-1,-3.011897E-1,2.35433E-1,-3.970371E-1,3.6365956E-1,6.4623565E-3,-1.0952358E0,9.768157E-2,-5.6660223E-1,-4.4316914E-2,-1.47584155E-2,-9.679581E-3,2.990416E-2,-5.0802197E-2,-3.1227067E-2,6.2438864E-2,-1.9668862E-2,5.435279E-2,-3.0331714E-2,-1.6370465E-1,-7.213844E-2,-2.7158326E-2,2.9707631E-2,-8.428415E-2,-4.1555226E-2],"categories":[],"categories_nodes":[],"categories_segments":[],"categories_sizes":[],"default_left":[0,0,0,0,0,0,0,0,0,0,0,0,0,0,0,0,0,0,0,0,0,0,0,0,0,0,0,0,0,0,0],"id":32,"left_children":[1,3,5,7,9,11,13,15,17,19,21,23,25,27,29,-1,-1,-1,-1,-1,-1,-1,-1,-1,-1,-1,-1,-1,-1,-1,-1],"loss_changes":[3.7329318E2,3.6509814E2,2.1128671E2,5.529812E2,3.442126E2,2.6224136E2,2.750987E2,5.094545E1,2.2678192E2,2.4903717E1,1.12034676E2,5.6398567E1,1.2075818E2,1.2407269E2,4.0958405E1,0E0,0E0,0E0,0E0,0E0,0E0,0E0,0E0,0E0,0E0,0E0,0E0,0E0,0E0,0E0,0E0],"parents":[2147483647,0,0,1,1,2,2,3,3,4,4,5,5,6,6,7,7,8,8,9,9,10,10,11,11,12,12,13,13,14,14],"right_children":[2,4,6,8,10,12,14,16,18,20,22,24,26,28,30,-1,-1,-1,-1,-1,-1,-1,-1,-1,-1,-1,-1,-1,-1,-1,-1],"split_conditions":[7E0,2.1E1,1E1,5E0,6E0,4E0,1.9E1,3E0,2E0,3E0,2.3E1,1E0,7E0,1.4E1,2.1E1,-4.4316914E-2,-1.47584155E-2,-9.679581E-3,2.990416E-2,-5.0802197E-2,-3.1227067E-2,6.2438864E-2,-1.9668862E-2,5.435279E-2,-3.0331714E-2,-1.6370465E-1,-7.213844E-2,-2.7158326E-2,2.9707631E-2,-8.428415E-2,-4.1555226E-2],"split_indices":[0,1,1,1,0,1,1,1,0,0,1,1,1,1,1,0,0,0,0,0,0,0,0,0,0,0,0,0,0,0,0],"split_type":[0,0,0,0,0,0,0,0,0,0,0,0,0,0,0,0,0,0,0,0,0,0,0,0,0,0,0,0,0,0,0],"sum_hessian":[2.0105E4,1.6495E4,3.61E3,1.3067E4,3.428E3,9.38E2,2.672E3,2.338E3,1.0729E4,2.663E3,7.65E2,3.37E2,6.01E2,1.683E3,9.89E2,1.214E3,1.124E3,1.724E3,9.005E3,1.151E3,1.512E3,5.22E2,2.43E2,1.23E2,2.14E2,2.44E2,3.57E2,5.9E2,1.093E3,3.48E2,6.41E2],"tree_param":{"num_deleted":"0","num_feature":"2","num_nodes":"31","size_leaf_vector":"1"}},{"base_weights":[-5.134911E-4,5.6876775E-2,-2.626872E-1,1.2545973E-1,-2.0451108E-1,-6.3007945E-1,-1.3352747E-1,-2.7109605E-1,2.1189202E-1,-3.5736412E-1,3.2734928E-1,-4.0415806E-1,-1.7111705E-1,6.1111335E-2,-5.8687204E-1,-8.312213E-3,-3.7520714E-2,3.1009093E-2,2.116981E-3,-3.0090943E-2,-4.976256E-2,5.6206908E-2,-1.7710065E-2,-6.0316008E-2,6.9206275E-2,-2.4447048E-2,2.0204633E-2,-1.426609E-1,-3.7406165E-2],"categories":[],"categories_nodes":[],"categories_segments":[],"categories_sizes":[],"default_left":[0,0,0,0,0,0,0,0,0,0,0,0,0,0,0,0,0,0,0,0,0,0,0,0,0,0,0,0,0],"id":33,"left_children":[1,3,5,7,9,11,13,15,17,19,21,23,-1,25,27,-1,-1,-1,-1,-1,-1,-1,-1,-1,-1,-1,-1,-1,-1],"loss_changes":[3.025342E2,2.9574536E2,1.7126608E2,4.4796613E2,2.7888257E2,2.2865128E2,2.3589722E2,4.5743423E1,2.0095248E2,2.0944946E1,9.079727E1,1.7013828E2,0E0,8.0628075E1,1.4296628E2,0E0,0E0,0E0,0E0,0E0,0E0,0E0,0E0,0E0,0E0,0E0,0E0,0E0,0E0],"parents":[2147483647,0,0,1,1,2,2,3,3,4,4,5,5,6,6,7,7,8,8,9,9,10,10,11,11,13,13,14,14],"right_children":[2,4,6,8,10,12,14,16,18,20,22,24,-1,26,28,-1,-1,-1,-1,-1,-1,-1,-1,-1,-1,-1,-1,-1,-1],"split_conditions":[7E0,2.1E1,1E1,5E0,6E0,9E0,2E1,3E0,1.7E1,2.3E1,2.3E1,8E0,-1.7111705E-1,1.4E1,2.1E1,-8.312213E-3,-3.7520714E-2,3.1009093E-2,2.116981E-3,-3.0090943E-2,-4.976256E-2,5.6206908E-2,-1.7710065E-2,-6.0316008E-2,6.9206275E-2,-2.4447048E-2,2.0204633E-2,-1.426609E-1,-3.7406165E-2],"split_indices":[0,1,1,1,0,1,1,0,1,1,1,1,0,1,1,0,0,0,0,0,0,0,0,0,0,0,0,0,0],"split_type":[0,0,0,0,0,0,0,0,0,0,0,0,0,0,0,0,0,0,0,0,0,0,0,0,0,0,0,0,0],"sum_hessian":[2.0105E4,1.6495E4,3.61E3,1.3067E4,3.428E3,9.38E2,2.672E3,2.338E3,1.0729E4,2.663E3,7.65E2,7.77E2,1.61E2,1.87E3,8.02E2,8.34E2,1.504E3,7.082E3,3.647E3,1.901E3,7.62E2,5.22E2,2.43E2,6.58E2,1.19E2,5.9E2,1.28E3,1.61E2,6.41E2],"tree_param":{"num_deleted":"0","num_feature":"2","num_nodes":"29","size_leaf_vector":"1"}},{"base_weights":[-4.8229762E-4,5.1185556E-2,-2.3651454E-1,1.12912424E-1,-1.8407191E-1,-5.672443E-1,-1.2024377E-1,-2.4400613E-1,1.9070548E-1,-3.2165754E-1,2.9466462E-1,6.602477E-2,-9.218584E-1,5.4997828E-2,-5.284091E-1,-3.715437E-2,-1.060487E-2,-1.08381985E-2,2.4797123E-2,-4.2135883E-2,-2.4553228E-2,7.3695764E-2,5.9246253E-3,5.4944314E-2,-2.1309106E-2,-1.41394E-1,-5.8252364E-2,5.8723826E-2,-1.300818E-3,-1.2848286E-1,-3.367139E-2],"categories":[],"categories_nodes":[],"categories_segments":[],"categories_sizes":[],"default_left":[0,0,0,0,0,0,0,0,0,0,0,0,0,0,0,0,0,0,0,0,0,0,0,0,0,0,0,0,0,0,0],"id":34,"left_children":[1,3,5,7,9,11,13,15,17,19,21,23,25,27,29,-1,-1,-1,-1,-1,-1,-1,-1,-1,-1,-1,-1,-1,-1,-1,-1],"loss_changes":[2.4521036E2,2.3957086E2,1.387899E2,3.6288983E2,2.2595366E2,2.109285E2,1.912222E2,4.1114716E1,1.8380453E2,2.0115723E1,7.971524E1,4.5723324E1,9.969849E1,6.772951E1,1.1600401E2,0E0,0E0,0E0,0E0,0E0,0E0,0E0,0E0,0E0,0E0,0E0,0E0,0E0,0E0,0E0,0E0],"parents":[2147483647,0,0,1,1,2,2,3,3,4,4,5,5,6,6,7,7,8,8,9,9,10,10,11,11,12,12,13,13,14,14],"right_children":[2,4,6,8,10,12,14,16,18,20,22,24,26,28,30,-1,-1,-1,-1,-1,-1,-1,-1,-1,-1,-1,-1,-1,-1,-1,-1],"split_conditions":[7E0,2.1E1,1E1,5E0,6E0,4E0,2E1,3E0,2E0,3E0,2.2E1,1E0,7E0,1.1E1,2.1E1,-3.715437E-2,-1.060487E-2,-1.08381985E-2,2.4797123E-2,-4.2135883E-2,-2.4553228E-2,7.3695764E-2,5.9246253E-3,5.4944314E-2,-2.1309106E-2,-1.41394E-1,-5.8252364E-2,5.8723826E-2,-1.300818E-3,-1.2848286E-1,-3.367139E-2],"split_indices":[0,1,1,1,0,1,1,1,0,0,1,1,1,1,1,0,0,0,0,0,0,0,0,0,0,0,0,0,0,0,0],"split_type":[0,0,0,0,0,0,0,0,0,0,0,0,0,0,0,0,0,0,0,0,0,0,0,0,0,0,0,0,0,0,0],"sum_hessian":[2.0105E4,1.6495E4,3.61E3,1.3067E4,3.428E3,9.38E2,2.672E3,2.338E3,1.0729E4,2.663E3,7.65E2,3.37E2,6.01E2,1.87E3,8.02E2,1.214E3,1.124E3,1.724E3,9.005E3,1.151E3,1.512E3,2.65E2,5E2,1.23E2,2.14E2,2.44E2,3.57E2,2.11E2,1.659E3,1.61E2,6.41E2],"tree_param":{"num_deleted":"0","num_feature":"2","num_nodes":"31","size_leaf_vector":"1"}},{"base_weights":[-4.4871934E-4,6.6896744E-2,-1.4739582E-1,3.0024484E-1,-7.924612E-2,-3.0361032E-1,1.1056029E-2,-1.5078934E-1,1.0485809E0,-5.0431406E-1,8.506713E-2,-4.1087696E-1,-2.6625854E-1,2.1125291E-1,-4.235239E-1,-4.8850384E-2,5.4440606E-2,1.8873551E-1,7.512307E-2,-2.5384147E-2,-1.0214982E-1,6.5049775E-2,-1.9332372E-2,-1.2719521E-1,-3.300699E-2,-8.4802817E-4,-3.2457866E-2,5.721841E-2,6.84302E-4,-6.438445E-2,-3.0309496E-2],"categories":[],"categories_nodes":[],"categories_segments":[],"categories_sizes":[],"default_left":[0,0,0,0,0,0,0,0,0,0,0,0,0,0,0,0,0,0,0,0,0,0,0,0,0,0,0,0,0,0,0],"id":35,"left_children":[1,3,5,7,9,11,13,15,17,19,21,23,25,27,29,-1,-1,-1,-1,-1,-1,-1,-1,-1,-1,-1,-1,-1,-1,-1,-1],"loss_changes":[1.9898326E2,4.7022433E2,1.5641426E2,1.7924165E3,5.922526E2,1.2639618E1,2.731003E2,7.783187E2,4.9665308E2,3.0597443E2,9.628497E2,5.6636566E1,3.5521774E1,1.585448E2,2.6072495E1,0E0,0E0,0E0,0E0,0E0,0E0,0E0,0E0,0E0,0E0,0E0,0E0,0E0,0E0,0E0,0E0],"parents":[2147483647,0,0,1,1,2,2,3,3,4,4,5,5,6,6,7,7,8,8,9,9,10,10,11,11,12,12,13,13,14,14],"right_children":[2,4,6,8,10,12,14,16,18,20,22,24,26,28,30,-1,-1,-1,-1,-1,-1,-1,-1,-1,-1,-1,-1,-1,-1,-1,-1],"split_conditions":[1.9E1,4E0,5E0,1.3E1,8E0,2E0,7E0,3E0,1.5E1,5E0,1.2E1,2E1,2E1,2.1E1,2.1E1,-4.8850384E-2,5.4440606E-2,1.8873551E-1,7.512307E-2,-2.5384147E-2,-1.0214982E-1,6.5049775E-2,-1.9332372E-2,-1.2719521E-1,-3.300699E-2,-8.4802817E-4,-3.2457866E-2,5.721841E-2,6.84302E-4,-6.438445E-2,-3.0309496E-2],"split_indices":[1,0,0,1,1,0,0,0,1,1,1,1,1,1,1,0,0,0,0,0,0,0,0,0,0,0,0,0,0,0,0],"split_type":[0,0,0,0,0,0,0,0,0,0,0,0,0,0,0,0,0,0,0,0,0,0,0,0,0,0,0,0,0,0,0],"sum_hessian":[2.0105E4,1.3787E4,6.318E3,5.309E3,8.478E3,3.181E3,3.137E3,3.313E3,1.996E3,2.363E3,6.115E3,8.19E2,2.362E3,2.148E3,9.89E2,2.23E3,1.083E3,5.21E2,1.475E3,1.593E3,7.7E2,2.017E3,4.098E3,6.9E1,7.5E2,4.36E2,1.926E3,7.76E2,1.372E3,3.48E2,6.41E2],"tree_param":{"num_deleted":"0","num_feature":"2","num_nodes":"31","size_leaf_vector":"1"}},{"base_weights":[-4.05949E-4,4.2744704E-2,-1.975294E-1,1.3452289E-1,-7.945499E-2,-4.1126537E-1,-4.054437E-2,3.6696177E-3,4.8000848E-1,-3.3058494E-1,-3.292523E-2,5.2012093E-2,-4.9311504E-1,2.6782498E-1,-3.812671E-1,-4.3967504E-2,2.1850416E-2,1.13109246E-1,-3.8385488E-2,-6.7114875E-2,-2.9229863E-2,1.1296844E-3,-3.0009618E-2,-4.3762103E-2,-1.2809575E-1,1.560155E-2,8.128087E-2,-5.796445E-2,-2.7283255E-2],"categories":[],"categories_nodes":[],"categories_segments":[],"categories_sizes":[],"default_left":[0,0,0,0,0,0,0,0,0,0,0,0,0,0,0,0,0,0,0,0,0,0,0,0,0,0,0,0,0],"id":36,"left_children":[1,3,5,7,9,11,13,15,17,19,21,-1,23,25,27,-1,-1,-1,-1,-1,-1,-1,-1,-1,-1,-1,-1,-1,-1],"loss_changes":[1.710302E2,1.8501772E2,1.21144455E2,4.2590204E2,8.267229E1,1.1681775E2,2.1895966E2,6.510055E2,1.4560485E3,1.4224884E1,7.054988E1,0E0,6.0910492E1,6.653536E1,2.113771E1,0E0,0E0,0E0,0E0,0E0,0E0,0E0,0E0,0E0,0E0,0E0,0E0,0E0,0E0],"parents":[2147483647,0,0,1,1,2,2,3,3,4,4,5,5,6,6,7,7,8,8,9,9,10,10,12,12,13,13,14,14],"right_children":[2,4,6,8,10,12,14,16,18,20,22,-1,24,26,28,-1,-1,-1,-1,-1,-1,-1,-1,-1,-1,-1,-1,-1,-1],"split_conditions":[7E0,1.7E1,1.4E1,1.3E1,2E0,1E0,1.9E1,3E0,5E0,1.8E1,2.3E1,5.2012093E-2,1.3E1,1.8E1,2.1E1,-4.3967504E-2,2.1850416E-2,1.13109246E-1,-3.8385488E-2,-6.7114875E-2,-2.9229863E-2,1.1296844E-3,-3.0009618E-2,-4.3762103E-2,-1.2809575E-1,1.560155E-2,8.128087E-2,-5.796445E-2,-2.7283255E-2],"split_indices":[0,1,1,1,0,1,1,0,0,1,1,0,1,1,1,0,0,0,0,0,0,0,0,0,0,0,0,0,0],"split_type":[0,0,0,0,0,0,0,0,0,0,0,0,0,0,0,0,0,0,0,0,0,0,0,0,0,0,0,0,0],"sum_hessian":[2.0105E4,1.6495E4,3.61E3,9.42E3,7.075E3,1.528E3,2.082E3,6.833E3,2.587E3,1.105E3,5.97E3,1.23E2,1.405E3,1.093E3,9.89E2,2.23E3,4.603E3,1.475E3,1.112E3,1.1E2,9.95E2,5.123E3,8.47E2,1.314E3,9.1E1,9.08E2,1.85E2,3.48E2,6.41E2],"tree_param":{"num_deleted":"0","num_feature":"2","num_nodes":"29","size_leaf_vector":"1"}},{"base_weights":[-3.7442878E-4,2.1333864E-2,-3.2869685E-1,-1.22531086E-1,8.1807755E-2,-5.0234325E-2,-3.0304167E-1,1.6494027E-1,-3.3037764E-1,2.4217176E-1,-5.0411806E-2,-1.803972E-1,-3.4032458E-1,-3.8828127E-2,4.5202095E-2,-4.6249833E-2,2.613744E-3,9.1690095E-3,3.6431957E-2,-2.6296178E-2,-1.858177E-3,-2.9595977E-2,1.1903995E-2,-4.275971E-2,-2.7664274E-2],"categories":[],"categories_nodes":[],"categories_segments":[],"categories_sizes":[],"default_left":[0,0,0,0,0,0,0,0,0,0,0,0,0,0,0,0,0,0,0,0,0,0,0,0,0],"id":37,"left_children":[1,3,5,7,9,-1,11,13,15,17,19,21,23,-1,-1,-1,-1,-1,-1,-1,-1,-1,-1,-1,-1],"loss_changes":[1.4330888E2,1.640934E2,5.403061E0,3.335786E2,2.8157025E2,0E0,4.918106E0,3.722889E2,1.5262589E2,1.1027103E2,4.9240982E1,8.893785E0,4.5168076E0,0E0,0E0,0E0,0E0,0E0,0E0,0E0,0E0,0E0,0E0,0E0,0E0],"parents":[2147483647,0,0,1,1,2,2,3,3,4,4,6,6,7,7,8,8,9,9,10,10,11,11,12,12],"right_children":[2,4,6,8,10,-1,12,14,16,18,20,22,24,-1,-1,-1,-1,-1,-1,-1,-1,-1,-1,-1,-1],"split_conditions":[2.3E1,1E1,2E0,4E0,1.7E1,-5.0234325E-2,4E0,2E0,8E0,1.3E1,2E0,3E0,6E0,-3.8828127E-2,4.5202095E-2,-4.6249833E-2,2.613744E-3,9.1690095E-3,3.6431957E-2,-2.6296178E-2,-1.858177E-3,-2.9595977E-2,1.1903995E-2,-4.275971E-2,-2.7664274E-2],"split_indices":[1,1,0,0,1,0,0,0,1,1,0,0,0,0,0,0,0,0,0,0,0,0,0,0,0],"split_type":[0,0,0,0,0,0,0,0,0,0,0,0,0,0,0,0,0,0,0,0,0,0,0,0,0],"sum_hessian":[2.0105E4,1.8859E4,1.246E3,5.581E3,1.3278E4,1.58E2,1.088E3,2.342E3,3.239E3,6E3,7.278E3,2.55E2,8.33E2,8E2,1.542E3,2.363E3,8.76E2,2.689E3,3.311E3,9.47E2,6.331E3,1.84E2,7.1E1,3.49E2,4.84E2],"tree_param":{"num_deleted":"0","num_feature":"2","num_nodes":"25","size_leaf_vector":"1"}},{"base_weights":[-3.4496209E-4,3.8037337E-2,-1.7568533E-1,-3.069374E-1,6.381245E-2,-3.5595295E-1,-4.327781E-2,-4.550852E-1,-1.6776544E-1,1.7124408E-1,-6.183206E-2,1.3972345E-1,-4.9620685E-1,1.7765118E-1,-3.956648E-1,-4.5669326E-3,-6.838158E-2,9.817993E-3,-3.9495688E-2,6.912538E-3,3.9561808E-2,-2.6792089E-2,-2.364816E-3,5.1440533E-2,-7.7021993E-3,-1.1231053E-1,-3.3366855E-2,2.2083161E-2,-7.4567064E-3,-1.0336991E-1,-2.3404924E-2],"categories":[],"categories_nodes":[],"categories_segments":[],"categories_sizes":[],"default_left":[0,0,0,0,0,0,0,0,0,0,0,0,0,0,0,0,0,0,0,0,0,0,0,0,0,0,0,0,0,0,0],"id":38,"left_children":[1,3,5,7,9,11,13,15,17,19,21,23,25,27,29,-1,-1,-1,-1,-1,-1,-1,-1,-1,-1,-1,-1,-1,-1,-1,-1],"loss_changes":[1.3531938E2,1.466981E2,8.617478E1,2.3572517E1,2.0720786E2,1.0636629E2,1.6223706E2,5.1942276E1,3.5868145E1,1.8957593E2,5.567666E1,2.7488796E1,1.2108411E2,1.3967697E1,8.256043E1,0E0,0E0,0E0,0E0,0E0,0E0,0E0,0E0,0E0,0E0,0E0,0E0,0E0,0E0,0E0,0E0],"parents":[2147483647,0,0,1,1,2,2,3,3,4,4,5,5,6,6,7,7,8,8,9,9,10,10,11,11,12,12,13,13,14,14],"right_children":[2,4,6,8,10,12,14,16,18,20,22,24,26,28,30,-1,-1,-1,-1,-1,-1,-1,-1,-1,-1,-1,-1,-1,-1,-1,-1],"split_conditions":[7E0,2E0,1.4E1,4E0,1.7E1,4E0,2E1,2E0,1E0,1.3E1,2E0,1E0,7E0,1.9E1,2.1E1,-4.5669326E-3,-6.838158E-2,9.817993E-3,-3.9495688E-2,6.912538E-3,3.9561808E-2,-2.6792089E-2,-2.364816E-3,5.1440533E-2,-7.7021993E-3,-1.1231053E-1,-3.3366855E-2,2.2083161E-2,-7.4567064E-3,-1.0336991E-1,-2.3404924E-2],"split_indices":[0,1,1,0,1,1,1,0,1,1,0,1,1,1,1,0,0,0,0,0,0,0,0,0,0,0,0,0,0,0,0],"split_type":[0,0,0,0,0,0,0,0,0,0,0,0,0,0,0,0,0,0,0,0,0,0,0,0,0,0,0,0,0,0,0],"sum_hessian":[2.0105E4,1.6495E4,3.61E3,1.146E3,1.5349E4,1.528E3,2.082E3,5.54E2,5.92E2,8.274E3,7.075E3,3.37E2,1.191E3,1.28E3,8.02E2,1.99E2,3.55E2,2.73E2,3.19E2,5.687E3,2.587E3,1.105E3,5.97E3,1.23E2,2.14E2,2.44E2,9.47E2,1.093E3,1.87E2,1.61E2,6.41E2],"tree_param":{"num_deleted":"0","num_feature":"2","num_nodes":"31","size_leaf_vector":"1"}},{"base_weights":[-3.2524468E-4,3.4228556E-2,-1.5817603E-1,-2.483694E-1,6.0003683E-2,-3.9716804E-1,-7.416119E-2,-3.604513E-1,-1.2818535E-1,1.6174744E-1,-5.5652764E-2,-1.7247236E-1,-1.4738105E-1,4.6948623E-2,-3.562562E-1,-2.7485283E-3,-5.899907E-2,8.839768E-3,-2.7847866E-2,6.9542243E-3,3.5607114E-2,-2.063617E-3,-2.6691526E-2,-3.2936856E-2,6.905865E-2,5.316887E-2,-1.4986226E-3,-9.309674E-2,-2.106807E-2],"categories":[],"categories_nodes":[],"categories_segments":[],"categories_sizes":[],"default_left":[0,0,0,0,0,0,0,0,0,0,0,0,0,0,0,0,0,0,0,0,0,0,0,0,0,0,0,0,0],"id":39,"left_children":[1,3,5,7,9,11,13,15,17,19,21,23,-1,25,27,-1,-1,-1,-1,-1,-1,-1,-1,-1,-1,-1,-1,-1,-1],"loss_changes":[1.0967047E2,1.2017174E2,7.2475365E1,1.8529556E1,1.7790735E2,2.2690578E2,9.133836E1,5.447754E1,2.173612E1,1.4408696E2,5.234056E1,1.0557695E2,0E0,5.6179695E1,6.698596E1,0E0,0E0,0E0,0E0,0E0,0E0,0E0,0E0,0E0,0E0,0E0,0E0,0E0,0E0],"parents":[2147483647,0,0,1,1,2,2,3,3,4,4,5,5,6,6,7,7,8,8,9,9,10,10,11,11,13,13,14,14],"right_children":[2,4,6,8,10,12,14,16,18,20,22,24,-1,26,28,-1,-1,-1,-1,-1,-1,-1,-1,-1,-1,-1,-1,-1,-1],"split_conditions":[7E0,4E0,1E1,4E0,1.7E1,9E0,2E1,2E0,1E0,1.3E1,2.3E1,8E0,-1.4738105E-1,1.1E1,2.1E1,-2.7485283E-3,-5.899907E-2,8.839768E-3,-2.7847866E-2,6.9542243E-3,3.5607114E-2,-2.063617E-3,-2.6691526E-2,-3.2936856E-2,6.905865E-2,5.316887E-2,-1.4986226E-3,-9.309674E-2,-2.106807E-2],"split_indices":[0,1,1,0,1,1,1,0,1,1,1,1,0,1,1,0,0,0,0,0,0,0,0,0,0,0,0,0,0],"split_type":[0,0,0,0,0,0,0,0,0,0,0,0,0,0,0,0,0,0,0,0,0,0,0,0,0,0,0,0,0],"sum_hessian":[2.0105E4,1.6495E4,3.61E3,1.378E3,1.5117E4,9.38E2,2.672E3,7.12E2,6.66E2,8.042E3,7.075E3,7.77E2,1.61E2,1.87E3,8.02E2,2.91E2,4.21E2,2.73E2,3.93E2,5.455E3,2.587E3,6.07E3,1.005E3,6.58E2,1.19E2,2.11E2,1.659E3,1.61E2,6.41E2],"tree_param":{"num_deleted":"0","num_feature":"2","num_nodes":"29","size_leaf_vector":"1"}},{"base_weights":[-3.045365E-4,2.6350886E-2,-1.7033178E-1,-9.340641E-2,8.299515E-2,-9.39137E-2,-2.6083058E-1,1.6002731E-1,-2.7664772E-1,1.7983149E-1,-1.7194118E-2,-2.4886383E-1,3.5235302E-3,-3.9927773E-2,-2.4037702E-1,-3.5697404E-2,4.2830862E-2,-3.9490722E-2,4.2442456E-3,1.3003337E-2,4.1560553E-2,-2.3455603E-2,1.5920831E-3,-9.425179E-3,-3.2037802E-2,-8.2075335E-3,8.6886585E-3,-1.3348373E-2,-2.729002E-2],"categories":[],"categories_nodes":[],"categories_segments":[],"categories_sizes":[],"default_left":[0,0,0,0,0,0,0,0,0,0,0,0,0,0,0,0,0,0,0,0,0,0,0,0,0,0,0,0,0],"id":40,"left_children":[1,3,5,7,9,11,13,15,17,19,21,23,25,-1,27,-1,-1,-1,-1,-1,-1,-1,-1,-1,-1,-1,-1,-1,-1],"loss_changes":[9.112786E1,1.1791964E2,1.8820908E1,2.592697E2,1.1449595E2,2.2330687E1,3.435196E0,3.2513116E2,1.2227959E2,7.040431E1,4.175892E1,6.283325E0,6.4935575E0,0E0,3.7494926E0,0E0,0E0,0E0,0E0,0E0,0E0,0E0,0E0,0E0,0E0,0E0,0E0,0E0,0E0],"parents":[2147483647,0,0,1,1,2,2,3,3,4,4,5,5,6,6,7,7,8,8,9,9,10,10,11,11,12,12,14,14],"right_children":[2,4,6,8,10,12,14,16,18,20,22,24,26,-1,28,-1,-1,-1,-1,-1,-1,-1,-1,-1,-1,-1,-1,-1,-1],"split_conditions":[2.2E1,1E1,2.3E1,4E0,1.7E1,4E0,2E0,2E0,8E0,1.6E1,2E0,2E0,6E0,-3.9927773E-2,4E0,-3.5697404E-2,4.2830862E-2,-3.9490722E-2,4.2442456E-3,1.3003337E-2,4.1560553E-2,-2.3455603E-2,1.5920831E-3,-9.425179E-3,-3.2037802E-2,-8.2075335E-3,8.6886585E-3,-1.3348373E-2,-2.729002E-2],"split_indices":[1,1,1,0,1,0,0,0,1,1,0,0,0,0,0,0,0,0,0,0,0,0,0,0,0,0,0,0,0],"split_type":[0,0,0,0,0,0,0,0,0,0,0,0,0,0,0,0,0,0,0,0,0,0,0,0,0,0,0,0,0],"sum_hessian":[2.0105E4,1.7381E4,2.724E3,5.581E3,1.18E4,1.478E3,1.246E3,2.342E3,3.239E3,6E3,5.8E3,5.7E2,9.08E2,1.58E2,1.088E3,8E2,1.542E3,2.363E3,8.76E2,4.955E3,1.045E3,7.66E2,5.034E3,1.81E2,3.89E2,4.48E2,4.6E2,2.55E2,8.33E2],"tree_param":{"num_deleted":"0","num_feature":"2","num_nodes":"29","size_leaf_vector":"1"}},{"base_weights":[-2.7963938E-4,3.051539E-2,-1.4095937E-1,-2.3863564E-1,5.062521E-2,-2.9187113E-1,-3.011682E-2,-3.8558123E-1,-1.0070404E-1,1.3033357E-1,-4.259657E-2,1.9809404E-1,-4.3055934E-1,1.8578207E-1,-2.6866558E-1,-2.8715061E-4,-5.9950363E-2,1.1893669E-2,-2.8845672E-2,5.3746533E-3,2.9860897E-2,-2.1208135E-2,-1.1196007E-3,5.3522315E-2,2.7354443E-4,-9.391212E-2,-2.9867304E-2,7.7952803E-3,7.117554E-2,-4.261492E-2,-1.8263686E-2],"categories":[],"categories_nodes":[],"categories_segments":[],"categories_sizes":[],"default_left":[0,0,0,0,0,0,0,0,0,0,0,0,0,0,0,0,0,0,0,0,0,0,0,0,0,0,0,0,0,0,0],"id":41,"left_children":[1,3,5,7,9,11,13,15,17,19,21,23,25,27,29,-1,-1,-1,-1,-1,-1,-1,-1,-1,-1,-1,-1,-1,-1,-1,-1],"loss_changes":[8.7108246E1,8.929797E1,6.0394005E1,2.3209076E1,1.1406457E2,1.039845E2,1.07329445E2,4.5436226E1,2.4488518E1,1.06629776E2,3.7655518E1,2.2259575E1,7.966972E1,6.199108E1,1.3334816E1,0E0,0E0,0E0,0E0,0E0,0E0,0E0,0E0,0E0,0E0,0E0,0E0,0E0,0E0,0E0,0E0],"parents":[2147483647,0,0,1,1,2,2,3,3,4,4,5,5,6,6,7,7,8,8,9,9,10,10,11,11,12,12,13,13,14,14],"right_children":[2,4,6,8,10,12,14,16,18,20,22,24,26,28,30,-1,-1,-1,-1,-1,-1,-1,-1,-1,-1,-1,-1,-1,-1,-1,-1],"split_conditions":[7E0,2E0,1.4E1,4E0,1.7E1,4E0,1.9E1,2E0,1E0,1.3E1,2E0,1E0,7E0,1.8E1,2.1E1,-2.8715061E-4,-5.9950363E-2,1.1893669E-2,-2.8845672E-2,5.3746533E-3,2.9860897E-2,-2.1208135E-2,-1.1196007E-3,5.3522315E-2,2.7354443E-4,-9.391212E-2,-2.9867304E-2,7.7952803E-3,7.117554E-2,-4.261492E-2,-1.8263686E-2],"split_indices":[0,1,1,0,1,1,1,0,1,1,0,1,1,1,1,0,0,0,0,0,0,0,0,0,0,0,0,0,0,0,0],"split_type":[0,0,0,0,0,0,0,0,0,0,0,0,0,0,0,0,0,0,0,0,0,0,0,0,0,0,0,0,0,0,0],"sum_hessian":[2.0105E4,1.6495E4,3.61E3,1.146E3,1.5349E4,1.528E3,2.082E3,5.54E2,5.92E2,8.274E3,7.075E3,3.37E2,1.191E3,1.093E3,9.89E2,1.99E2,3.55E2,2.73E2,3.19E2,5.687E3,2.587E3,1.105E3,5.97E3,1.23E2,2.14E2,2.44E2,9.47E2,9.08E2,1.85E2,3.48E2,6.41E2],"tree_param":{"num_deleted":"0","num_feature":"2","num_nodes":"31","size_leaf_vector":"1"}},{"base_weights":[-2.5760705E-4,7.5431496E-2,-4.743953E-2,2.1763179E-1,-2.3765266E-1,-3.4758827E-1,2.3357542E-2,-1.3664305E-1,8.054381E-1,-2.8931987E-1,-2.0719585E-1,-1.9740784E-1,-1.1238546E0,5.792849E-1,-1.1677296E-1,2.495197E-2,-7.551843E-2,1.431919E-1,5.8333207E-2,-2.2369033E-2,-4.180832E-2,-2.5766728E-2,-4.9492423E-3,1.4322455E-2,-4.7572743E-2,-2.1277146E-1,-5.4326337E-2,9.551859E-2,-2.0086188E-2,-2.5631731E-2,2.9621385E-3],"categories":[],"categories_nodes":[],"categories_segments":[],"categories_sizes":[],"default_left":[0,0,0,0,0,0,0,0,0,0,0,0,0,0,0,0,0,0,0,0,0,0,0,0,0,0,0,0,0,0,0],"id":42,"left_children":[1,3,5,7,9,11,13,15,17,19,21,23,25,27,29,-1,-1,-1,-1,-1,-1,-1,-1,-1,-1,-1,-1,-1,-1,-1,-1],"loss_changes":[7.1805275E1,3.4379575E2,2.632063E2,1.1058907E3,3.735611E0,2.7537326E2,7.808832E2,7.9176245E2,2.7703772E2,7.444481E0,1.2093674E1,1.8797101E2,2.2206891E2,5.919864E2,1.635582E2,0E0,0E0,0E0,0E0,0E0,0E0,0E0,0E0,0E0,0E0,0E0,0E0,0E0,0E0,0E0,0E0],"parents":[2147483647,0,0,1,1,2,2,3,3,4,4,5,5,6,6,7,7,8,8,9,9,10,10,11,11,12,12,13,13,14,14],"right_children":[2,4,6,8,10,12,14,16,18,20,22,24,26,28,30,-1,-1,-1,-1,-1,-1,-1,-1,-1,-1,-1,-1,-1,-1,-1,-1],"split_conditions":[4E0,1.9E1,8E0,1.3E1,2.1E1,7E0,1.2E1,9E0,1.5E1,3E0,3E0,6E0,6E0,7E0,1.9E1,2.495197E-2,-7.551843E-2,1.431919E-1,5.8333207E-2,-2.2369033E-2,-4.180832E-2,-2.5766728E-2,-4.9492423E-3,1.4322455E-2,-4.7572743E-2,-2.1277146E-1,-5.4326337E-2,9.551859E-2,-2.0086188E-2,-2.5631731E-2,2.9621385E-3],"split_indices":[0,1,1,1,1,1,1,1,1,0,0,0,0,0,1,0,0,0,0,0,0,0,0,0,0,0,0,0,0,0,0],"split_type":[0,0,0,0,0,0,0,0,0,0,0,0,0,0,0,0,0,0,0,0,0,0,0,0,0,0,0,0,0,0,0],"sum_hessian":[2.0105E4,7.72E3,1.2385E4,5.309E3,2.411E3,2.363E3,1.0022E4,3.313E3,1.996E3,8.91E2,1.52E3,1.981E3,3.82E2,2.017E3,8.005E3,2.04E3,1.273E3,5.21E2,1.475E3,5.92E2,2.99E2,1.151E3,3.69E2,8.91E2,1.09E3,1.39E2,2.43E2,1.361E3,6.56E2,4.098E3,3.907E3],"tree_param":{"num_deleted":"0","num_feature":"2","num_nodes":"31","size_leaf_vector":"1"}},{"base_weights":[-2.4147361E-4,1.4451684E-2,-2.22465E-1,-7.7280514E-2,5.3011417E-2,-2.0289716E-1,-3.028897E-2,1.370423E-1,-2.322438E-1,1.4341936E-1,-2.1530554E-2,-2.5014246E-1,-5.4327245E-3,-1.0038922E-2,6.444601E-2,3.4679398E-3,-3.5193924E-2,9.994729E-3,3.49255E-2,-1.6661936E-2,1.9492225E-5,-1.8150875E-2,-3.306116E-2],"categories":[],"categories_nodes":[],"categories_segments":[],"categories_sizes":[],"default_left":[0,0,0,0,0,0,0,0,0,0,0,0,0,0,0,0,0,0,0,0,0,0,0],"id":43,"left_children":[1,3,5,7,9,11,-1,13,15,17,19,21,-1,-1,-1,-1,-1,-1,-1,-1,-1,-1,-1],"loss_changes":[6.5652626E1,6.67151E1,1.9009933E0,1.8542215E2,8.949274E1,7.0477524E0,0E0,2.8234222E2,1.0352852E2,5.366266E1,2.2944338E1,4.153961E0,0E0,0E0,0E0,0E0,0E0,0E0,0E0,0E0,0E0,0E0,0E0],"parents":[2147483647,0,0,1,1,2,2,3,3,4,4,5,5,7,7,8,8,9,9,10,10,11,11],"right_children":[2,4,6,8,10,12,-1,14,16,18,20,22,-1,-1,-1,-1,-1,-1,-1,-1,-1,-1,-1],"split_conditions":[2.3E1,1E1,7E0,4E0,1.7E1,6E0,-3.028897E-2,3E0,4E0,1.6E1,2E0,4E0,-5.4327245E-3,-1.0038922E-2,6.444601E-2,3.4679398E-3,-3.5193924E-2,9.994729E-3,3.49255E-2,-1.6661936E-2,1.9492225E-5,-1.8150875E-2,-3.306116E-2],"split_indices":[1,1,0,0,1,0,0,0,1,1,0,0,0,0,0,0,0,0,0,0,0,0,0],"split_type":[0,0,0,0,0,0,0,0,0,0,0,0,0,0,0,0,0,0,0,0,0,0,0],"sum_hessian":[2.0105E4,1.8859E4,1.246E3,5.581E3,1.3278E4,1.005E3,2.41E2,2.342E3,3.239E3,6E3,7.278E3,7.62E2,2.43E2,1.596E3,7.46E2,1.003E3,2.236E3,4.955E3,1.045E3,9.47E2,6.331E3,4.13E2,3.49E2],"tree_param":{"num_deleted":"0","num_feature":"2","num_nodes":"23","size_leaf_vector":"1"}},{"base_weights":[-2.1890756E-4,2.0194467E-2,-1.3042994E-1,9.855935E-2,-2.9410303E-2,-1.7752276E-1,-4.153814E-2,-1.3559519E-1,3.2509646E-1,-2.941807E-1,4.6168853E-2,-1.4165252E-1,-2.2519545E-1,1.06928304E-1,-2.0859466E-1,2.0990731E-2,-6.889979E-2,7.17566E-2,-2.2359971E-2,-1.6207246E-2,-9.77064E-2,5.3102076E-2,-1.1001268E-2,-1.9323101E-2,-7.5743916E-3,-1.634018E-2,-2.9764509E-2,2.5390193E-2,-4.8916456E-3,-1.3149487E-2,-2.7272591E-2],"categories":[],"categories_nodes":[],"categories_segments":[],"categories_sizes":[],"default_left":[0,0,0,0,0,0,0,0,0,0,0,0,0,0,0,0,0,0,0,0,0,0,0,0,0,0,0,0,0,0,0],"id":44,"left_children":[1,3,5,7,9,11,13,15,17,19,21,23,25,27,29,-1,-1,-1,-1,-1,-1,-1,-1,-1,-1,-1,-1,-1,-1,-1,-1],"loss_changes":[5.3445324E1,6.7571465E1,1.1399929E1,3.5745923E2,2.1303197E2,3.0136642E0,2.3460468E1,6.33788E2,7.377222E2,2.1310872E2,6.2721216E2,3.449417E0,3.36726E0,1.1487859E1,2.164442E0,0E0,0E0,0E0,0E0,0E0,0E0,0E0,0E0,0E0,0E0,0E0,0E0,0E0,0E0,0E0,0E0],"parents":[2147483647,0,0,1,1,2,2,3,3,4,4,5,5,6,6,7,7,8,8,9,9,10,10,11,11,12,12,13,13,14,14],"right_children":[2,4,6,8,10,12,14,16,18,20,22,24,26,28,30,-1,-1,-1,-1,-1,-1,-1,-1,-1,-1,-1,-1,-1,-1,-1,-1],"split_conditions":[2.2E1,4E0,6E0,1.3E1,8E0,2.3E1,7E0,9E0,1.9E1,7E0,1.2E1,4E0,4E0,2.3E1,2.3E1,2.0990731E-2,-6.889979E-2,7.17566E-2,-2.2359971E-2,-1.6207246E-2,-9.77064E-2,5.3102076E-2,-1.1001268E-2,-1.9323101E-2,-7.5743916E-3,-1.634018E-2,-2.9764509E-2,2.5390193E-2,-4.8916456E-3,-1.3149487E-2,-2.7272591E-2],"split_indices":[1,0,0,1,1,1,0,1,1,1,1,0,0,1,1,0,0,0,0,0,0,0,0,0,0,0,0,0,0,0,0],"split_type":[0,0,0,0,0,0,0,0,0,0,0,0,0,0,0,0,0,0,0,0,0,0,0,0,0,0,0,0,0,0,0],"sum_hessian":[2.0105E4,1.7381E4,2.724E3,6.737E3,1.0644E4,1.78E3,9.44E2,3.313E3,3.424E3,2.363E3,8.281E3,1.018E3,7.62E2,5E2,4.44E2,2.04E3,1.273E3,1.996E3,1.428E3,1.981E3,3.82E2,2.017E3,6.264E3,5.7E2,4.48E2,4.13E2,3.49E2,2.57E2,2.43E2,2.03E2,2.41E2],"tree_param":{"num_deleted":"0","num_feature":"2","num_nodes":"31","size_leaf_vector":"1"}},{"base_weights":[-2.0508024E-4,-1.2088196E-1,1.8337172E-2,-5.329408E-1,1.4646015E-1,1.5090926E-1,-3.5652168E-2,7.979302E-2,-9.967091E-1,8.284061E-1,-1.7429785E-1,3.0991673E-1,-1.9375159E-1,-2.648107E-1,1.8400153E-2,-3.4353987E-3,1.9645399E-1,-2.6747617E-1,-6.875446E-2,1.9693512E-2,1.3859496E-1,-6.181258E-2,-1.2466012E-2,-5.9874248E-2,4.363253E-2,-2.1827465E-2,-6.482353E-3,-1.4587328E-2,-8.7961264E-2,4.779446E-2,-9.743537E-3],"categories":[],"categories_nodes":[],"categories_segments":[],"categories_sizes":[],"default_left":[0,0,0,0,0,0,0,0,0,0,0,0,0,0,0,0,0,0,0,0,0,0,0,0,0,0,0,0,0,0,0],"id":45,"left_children":[1,3,5,7,9,11,13,15,17,19,21,23,25,27,29,-1,-1,-1,-1,-1,-1,-1,-1,-1,-1,-1,-1,-1,-1,-1,-1],"loss_changes":[4.4991825E1,2.9508835E2,1.2475308E2,2.9959103E2,3.555963E2,2.764897E2,1.5342468E2,9.7955376E1,3.0943762E2,1.8280478E2,2.4288807E1,3.9676587E2,5.0224533E0,1.7273436E2,5.3358655E2,0E0,0E0,0E0,0E0,0E0,0E0,0E0,0E0,0E0,0E0,0E0,0E0,0E0,0E0,0E0,0E0],"parents":[2147483647,0,0,1,1,2,2,3,3,4,4,5,5,6,6,7,7,8,8,9,9,10,10,11,11,12,12,13,13,14,14],"right_children":[2,4,6,8,10,12,14,16,18,20,22,24,26,28,30,-1,-1,-1,-1,-1,-1,-1,-1,-1,-1,-1,-1,-1,-1,-1,-1],"split_conditions":[2E0,1.2E1,4E0,6E0,1.7E1,1.9E1,8E0,5E0,7E0,1.5E1,1.8E1,4E0,2.3E1,7E0,1.2E1,-3.4353987E-3,1.9645399E-1,-2.6747617E-1,-6.875446E-2,1.9693512E-2,1.3859496E-1,-6.181258E-2,-1.2466012E-2,-5.9874248E-2,4.363253E-2,-2.1827465E-2,-6.482353E-3,-1.4587328E-2,-8.7961264E-2,4.779446E-2,-9.743537E-3],"split_indices":[0,1,0,1,1,1,1,1,1,1,1,1,1,1,1,0,0,0,0,0,0,0,0,0,0,0,0,0,0,0,0],"split_type":[0,0,0,0,0,0,0,0,0,0,0,0,0,0,0,0,0,0,0,0,0,0,0,0,0,0,0,0,0,0,0],"sum_hessian":[2.0105E4,2.677E3,1.7428E4,1.053E3,1.624E3,5.043E3,1.2385E4,4.54E2,5.99E2,5.19E2,1.105E3,3.451E3,1.592E3,2.363E3,1.0022E4,4.29E2,2.5E1,9.2E1,5.07E2,2.44E2,2.75E2,1.1E2,9.95E2,4.21E2,3.03E3,1.337E3,2.55E2,1.981E3,3.82E2,2.017E3,8.005E3],"tree_param":{"num_deleted":"0","num_feature":"2","num_nodes":"31","size_leaf_vector":"1"}},{"base_weights":[-1.9300492E-4,2.1319741E-2,-9.846885E-2,-1.4149892E-1,4.821701E-2,5.564278E-2,-1.2172249E-1,3.7574727E-2,-2.4075805E-1,1.5528521E-1,-1.9573715E-2,-3.0988696E-1,5.3447015E-3,-1.4146266E-2,2.960744E-2,-3.4714997E-2,5.502298E-3,-2.6611213E-2,3.5843324E-2,4.3407553E-3,-2.1989573E-2,-2.54154E-2,-1.1031363E-1,1.7173616E-2,-2.6010087E-2],"categories":[],"categories_nodes":[],"categories_segments":[],"categories_sizes":[],"default_left":[0,0,0,0,0,0,0,0,0,0,0,0,0,0,0,0,0,0,0,0,0,0,0,0,0],"id":46,"left_children":[1,3,5,7,9,-1,11,13,15,17,19,21,23,-1,-1,-1,-1,-1,-1,-1,-1,-1,-1,-1,-1],"loss_changes":[4.2509865E1,7.224903E1,5.5058685E1,4.1584057E1,1.02765076E2,0E0,8.33981E1,3.8686607E1,4.7379517E1,4.6998697E2,1.0939489E2,6.187909E1,9.204635E1,0E0,0E0,0E0,0E0,0E0,0E0,0E0,0E0,0E0,0E0,0E0,0E0],"parents":[2147483647,0,0,1,1,2,2,3,3,4,4,6,6,7,7,8,8,9,9,10,10,11,11,12,12],"right_children":[2,4,6,8,10,-1,12,14,16,18,20,22,24,-1,-1,-1,-1,-1,-1,-1,-1,-1,-1,-1,-1],"split_conditions":[7E0,5E0,1E0,3E0,1.5E1,5.564278E-2,1.4E1,4E0,6E0,3E0,6E0,1.3E1,2E1,-1.4146266E-2,2.960744E-2,-3.4714997E-2,5.502298E-3,-2.6611213E-2,3.5843324E-2,4.3407553E-3,-2.1989573E-2,-2.54154E-2,-1.1031363E-1,1.7173616E-2,-2.6010087E-2],"split_indices":[0,1,1,0,1,0,1,1,0,0,0,1,1,0,0,0,0,0,0,0,0,0,0,0,0],"split_type":[0,0,0,0,0,0,0,0,0,0,0,0,0,0,0,0,0,0,0,0,0,0,0,0,0],"sum_hessian":[2.0105E4,1.6495E4,3.61E3,2.338E3,1.4157E4,1.23E2,3.487E3,8.34E2,1.504E3,5.488E3,8.669E3,1.405E3,2.082E3,4.93E2,3.41E2,1.106E3,3.98E2,1.785E3,3.703E3,6.596E3,2.073E3,1.314E3,9.1E1,1.28E3,8.02E2],"tree_param":{"num_deleted":"0","num_feature":"2","num_nodes":"25","size_leaf_vector":"1"}},{"base_weights":[-1.7921843E-4,1.0668872E-2,-1.6424882E-1,-5.5170882E-2,4.409314E-2,-1.9786653E-1,-1.11022934E-1,-2.8053892E-1,2.4965333E-2,1.6774863E-1,9.0964395E-4,-1.4268093E-1,-2.6257787E-2,-1.2441651E-3,-2.0996017E-2,-7.1941027E-3,-5.035543E-1,-5.643368E-3,4.8777774E-2,-3.972291E-2,2.593174E-2,7.0042596E-3,-1.1638948E-2,-2.1235608E-2,1.912254E-2],"categories":[],"categories_nodes":[],"categories_segments":[],"categories_sizes":[],"default_left":[0,0,0,0,0,0,0,0,0,0,0,0,0,0,0,0,0,0,0,0,0,0,0,0,0],"id":47,"left_children":[1,3,5,7,9,11,13,15,17,19,21,23,-1,-1,-1,-1,-1,-1,-1,-1,-1,-1,-1,-1,-1],"loss_changes":[3.578725E1,4.1506607E1,2.2093315E0,1.1470696E2,6.6801704E1,2.6873093E0,4.7277665E0,1.6521158E3,1.7656073E2,1.6761874E2,7.520508E1,9.672305E0,0E0,0E0,0E0,0E0,0E0,0E0,0E0,0E0,0E0,0E0,0E0,0E0,0E0],"parents":[2147483647,0,0,1,1,2,2,3,3,4,4,5,5,6,6,7,7,8,8,9,9,10,10,11,11],"right_children":[2,4,6,8,10,12,14,16,18,20,22,24,-1,-1,-1,-1,-1,-1,-1,-1,-1,-1,-1,-1,-1],"split_conditions":[2.3E1,1.1E1,6E0,3E0,1.5E1,4E0,7E0,1E1,1E1,2E0,6E0,3E0,-2.6257787E-2,-1.2441651E-3,-2.0996017E-2,-7.1941027E-3,-5.035543E-1,-5.643368E-3,4.8777774E-2,-3.972291E-2,2.593174E-2,7.0042596E-3,-1.1638948E-2,-2.1235608E-2,1.912254E-2],"split_indices":[1,1,0,0,1,0,0,1,1,0,0,0,0,0,0,0,0,0,0,0,0,0,0,0,0],"split_type":[0,0,0,0,0,0,0,0,0,0,0,0,0,0,0,0,0,0,0,0,0,0,0,0,0],"sum_hessian":[2.0105E4,1.8859E4,1.246E3,6.35E3,1.2509E4,7.62E2,4.84E2,1.665E3,4.685E3,3.237E3,9.272E3,4.13E2,3.49E2,2.43E2,2.41E2,1.596E3,6.9E1,3.985E3,7E2,4.51E2,2.786E3,5.834E3,3.438E3,3.42E2,7.1E1],"tree_param":{"num_deleted":"0","num_feature":"2","num_nodes":"25","size_leaf_vector":"1"}},{"base_weights":[-1.8796478E-4,5.5216543E-2,-3.4725185E-2,1.603861E-1,-1.7633635E-1,-2.2894947E-1,1.1087538E-2,-1.01683035E-1,5.952067E-1,-2.252522E-1,-1.475334E-1,-4.1558567E-2,-6.160729E-1,3.9550605E-1,-8.581074E-2,2.1070322E-2,-6.0205873E-2,1.1779207E-1,3.8872167E-2,-1.6494924E-2,-3.437002E-2,-1.8949578E-2,-1.6484248E-3,2.7010992E-2,-1.4480635E-2,3.120493E-2,-1.2209149E-1,7.1463384E-2,-2.6666677E-2,-2.3249513E-2,6.8064653E-3],"categories":[],"categories_nodes":[],"categories_segments":[],"categories_sizes":[],"default_left":[0,0,0,0,0,0,0,0,0,0,0,0,0,0,0,0,0,0,0,0,0,0,0,0,0,0,0,0,0,0,0],"id":48,"left_children":[1,3,5,7,9,11,13,15,17,19,21,23,25,27,29,-1,-1,-1,-1,-1,-1,-1,-1,-1,-1,-1,-1,-1,-1,-1,-1],"loss_changes":[3.8475105E1,1.880525E2,1.1021246E2,6.051513E2,3.3650894E0,1.71467E2,3.7338565E2,5.181398E2,2.3982458E2,6.3146515E0,8.361061E0,5.1332565E1,4.331951E2,4.2662973E2,1.8072017E2,0E0,0E0,0E0,0E0,0E0,0E0,0E0,0E0,0E0,0E0,0E0,0E0,0E0,0E0,0E0,0E0],"parents":[2147483647,0,0,1,1,2,2,3,3,4,4,5,5,6,6,7,7,8,8,9,9,10,10,11,11,12,12,13,13,14,14],"right_children":[2,4,6,8,10,12,14,16,18,20,22,24,26,28,30,-1,-1,-1,-1,-1,-1,-1,-1,-1,-1,-1,-1,-1,-1,-1,-1],"split_conditions":[4E0,1.9E1,8E0,1.3E1,2.1E1,5E0,1.2E1,9E0,1.5E1,3E0,3E0,1E0,6E0,7E0,1.9E1,2.1070322E-2,-6.0205873E-2,1.1779207E-1,3.8872167E-2,-1.6494924E-2,-3.437002E-2,-1.8949578E-2,-1.6484248E-3,2.7010992E-2,-1.4480635E-2,3.120493E-2,-1.2209149E-1,7.1463384E-2,-2.6666677E-2,-2.3249513E-2,6.8064653E-3],"split_indices":[0,1,1,1,1,1,1,1,1,0,0,1,0,0,1,0,0,0,0,0,0,0,0,0,0,0,0,0,0,0,0],"split_type":[0,0,0,0,0,0,0,0,0,0,0,0,0,0,0,0,0,0,0,0,0,0,0,0,0,0,0,0,0,0,0],"sum_hessian":[2.0105E4,7.72E3,1.2385E4,5.309E3,2.411E3,2.363E3,1.0022E4,3.313E3,1.996E3,8.91E2,1.52E3,1.593E3,7.7E2,2.017E3,8.005E3,2.04E3,1.273E3,5.21E2,1.475E3,5.92E2,2.99E2,1.151E3,3.69E2,3.96E2,1.197E3,3.04E2,4.66E2,1.361E3,6.56E2,4.098E3,3.907E3],"tree_param":{"num_deleted":"0","num_feature":"2","num_nodes":"31","size_leaf_vector":"1"}},{"base_weights":[-1.6945557E-4,4.970081E-2,-3.1256825E-2,1.4436959E-1,-1.5873238E-1,-1.8574528E-1,2.3468643E-2,-9.152678E-2,5.3576475E-1,-2.0278399E-1,-1.3279368E-1,7.885397E-2,-3.0441847E-1,7.294111E-1,-7.723205E-2,1.896431E-2,-5.419005E-2,1.06035426E-1,3.4987625E-2,-1.4848231E-2,-3.0944435E-2,-1.7056273E-2,-1.4840355E-3,-7.639383E-3,2.0714289E-2,-4.161356E-2,-1.3069965E-2,1.1238678E-1,-7.399255E-3,-2.09252E-2,6.1259996E-3],"categories":[],"categories_nodes":[],"categories_segments":[],"categories_sizes":[],"default_left":[0,0,0,0,0,0,0,0,0,0,0,0,0,0,0,0,0,0,0,0,0,0,0,0,0,0,0,0,0,0,0],"id":49,"left_children":[1,3,5,7,9,11,13,15,17,19,21,23,25,27,29,-1,-1,-1,-1,-1,-1,-1,-1,-1,-1,-1,-1,-1,-1,-1,-1],"loss_changes":[3.1172598E1,1.5237457E2,1.04721214E2,4.903144E2,2.7291183E0,1.017627E2,6.5030646E2,4.1975967E2,1.9436676E2,5.120369E0,6.7734985E0,2.001206E1,4.335988E1,3.6199188E2,1.463922E2,0E0,0E0,0E0,0E0,0E0,0E0,0E0,0E0,0E0,0E0,0E0,0E0,0E0,0E0,0E0,0E0],"parents":[2147483647,0,0,1,1,2,2,3,3,4,4,5,5,6,6,7,7,8,8,9,9,10,10,11,11,12,12,13,13,14,14],"right_children":[2,4,6,8,10,12,14,16,18,20,22,24,26,28,30,-1,-1,-1,-1,-1,-1,-1,-1,-1,-1,-1,-1,-1,-1,-1,-1],"split_conditions":[4E0,1.9E1,1E1,1.3E1,2.1E1,4E0,1.2E1,9E0,1.5E1,3E0,3E0,6E0,8E0,7E0,1.9E1,1.896431E-2,-5.419005E-2,1.06035426E-1,3.4987625E-2,-1.4848231E-2,-3.0944435E-2,-1.7056273E-2,-1.4840355E-3,-7.639383E-3,2.0714289E-2,-4.161356E-2,-1.3069965E-2,1.1238678E-1,-7.399255E-3,-2.09252E-2,6.1259996E-3],"split_indices":[0,1,1,1,1,1,1,1,1,0,0,0,1,0,1,0,0,0,0,0,0,0,0,0,0,0,0,0,0,0,0],"split_type":[0,0,0,0,0,0,0,0,0,0,0,0,0,0,0,0,0,0,0,0,0,0,0,0,0,0,0,0,0,0,0],"sum_hessian":[2.0105E4,7.72E3,1.2385E4,5.309E3,2.411E3,3.239E3,9.146E3,3.313E3,1.996E3,8.91E2,1.52E3,1.003E3,2.236E3,1.141E3,8.005E3,2.04E3,1.273E3,5.21E2,1.475E3,5.92E2,2.99E2,1.151E3,3.69E2,4.54E2,5.49E2,1.36E3,8.76E2,7.65E2,3.76E2,4.098E3,3.907E3],"tree_param":{"num_deleted":"0","num_feature":"2","num_nodes":"31","size_leaf_vector":"1"}}]},"name":"gbtree"},"learner_model_param":{"base_score":"[1.3586173E1]","boost_from_average":"1","num_class":"0","num_feature":"2","num_target":"1"},"objective":{"name":"reg:squarederror","reg_loss_param":{"scale_pos_weight":"1"}}},"version":[3,2,1]}