{"learner":{"attributes":{},"feature_names":["day_of_week","hour_of_day"],"feature_types":[],"gradient_booster":{"model":{"cats":{"enc":[],"feature_segments":[],"sorted_idx":[]},"gbtree_model_param":{"num_parallel_tree":"1","num_trees":"50"},"iteration_indptr":[0,1,2,3,4,5,6,7,8,9,10,11,12,13,14,15,16,17,18,19,20,21,22,23,24,25,26,27,28,29,30,31,32,33,34,35,36,37,38,39,40,41,42,43,44,45,46,47,48,49,50],"tree_info":[0,0,0,0,0,0,0,0,0,0,0,0,0,0,0,0,0,0,0,0,0,0,0,0,0,0,0,0,0,0,0,0,0,0,0,0,0,0,0,0,0,0,0,0,0,0,0,0,0,0],"trees":[{"base_weights":[1.8478418E-7,-9.76297E0,1.9474694E0,-1.0387251E1,-5.505089E0,5.2171736E0,-5.650466E0,-1.1235656E0,-8.592798E-1,-2.4044108E-1,-8.64058E-1,5.5364757E0,-5.621983E0,-2.2334561E0,-8.234123E0,5.853844E-1,2.1355365E-1,-1.13844454E-1,-7.404411E-1,-3.6421058E-1,-1.4577721E-1,-6.117987E-1,-9.937522E-1],"categories":[],"categories_nodes":[],"categories_segments":[],"categories_sizes":[],"default_left":[0,0,0,0,0,0,0,0,0,0,0,0,0,0,0,0,0,0,0,0,0,0,0],"id":0,"left_children":[1,3,5,7,9,11,13,-1,-1,-1,-1,15,17,19,21,-1,-1,-1,-1,-1,-1,-1,-1],"loss_changes":[3.4755914E4,7.508867E2,3.789022E4,3.0537305E2,3.7783264E2,3.7205117E3,4.033838E3,0E0,0E0,0E0,0E0,1.105707E3,2.3930963E2,2.1213135E2,8.800078E2,0E0,0E0,0E0,0E0,0E0,0E0,0E0,0E0],"parents":[2147483647,0,0,1,1,2,2,3,3,4,4,5,5,6,6,11,11,12,12,13,13,14,14],"right_children":[2,4,6,8,10,12,14,-1,-1,-1,-1,16,18,20,22,-1,-1,-1,-1,-1,-1,-1,-1],"split_conditions":[4E0,3E0,1.9E1,4E0,2E0,4E0,2.1E1,-1.1235656E0,-8.592798E-1,-2.4044108E-1,-8.64058E-1,1.8E1,7E0,2E0,2.2E1,5.853844E-1,2.1355365E-1,-1.13844454E-1,-7.404411E-1,-3.6421058E-1,-1.4577721E-1,-6.117987E-1,-9.937522E-1],"split_indices":[1,1,1,0,0,0,1,0,0,0,0,1,0,0,1,0,0,0,0,0,0,0,0],"split_type":[0,0,0,0,0,0,0,0,0,0,0,0,0,0,0,0,0,0,0,0,0,0,0],"sum_hessian":[1.826E3,3.03E2,1.523E3,2.63E2,4E1,1.065E3,4.58E2,1.75E2,8.8E1,2.1E1,1.9E1,1.035E3,3E1,1.98E2,2.6E2,9.46E2,8.9E1,9E0,2.1E1,6.9E1,1.29E2,1.18E2,1.42E2],"tree_param":{"num_deleted":"0","num_feature":"2","num_nodes":"23","size_leaf_vector":"1"}},{"base_weights":[-2.877894E-3,-8.796829E0,1.751298E0,-9.356037E0,-4.9815187E0,4.6954045E0,-5.090029E0,-1.0118474E0,-7.743173E-1,-2.1748987E-1,-7.8197247E-1,4.983599E0,-5.0873423E0,-2.0126736E0,-7.4168625E0,5.269078E-1,1.9243558E-1,-1.0359841E-1,-6.6976255E-1,-3.2830986E-1,-1.3131167E-1,-5.5113304E-1,-8.950719E-1],"categories":[],"categories_nodes":[],"categories_segments":[],"categories_sizes":[],"default_left":[0,0,0,0,0,0,0,0,0,0,0,0,0,0,0,0,0,0,0,0,0,0,0],"id":1,"left_children":[1,3,5,7,9,11,13,-1,-1,-1,-1,15,17,19,21,-1,-1,-1,-1,-1,-1,-1,-1],"loss_changes":[2.8198957E4,6.019922E2,3.0719691E4,2.4629492E2,3.0958936E2,3.0307656E3,3.2717393E3,0E0,0E0,0E0,0E0,8.946504E2,1.953003E2,1.7254712E2,7.1352344E2,0E0,0E0,0E0,0E0,0E0,0E0,0E0,0E0],"parents":[2147483647,0,0,1,1,2,2,3,3,4,4,5,5,6,6,11,11,12,12,13,13,14,14],"right_children":[2,4,6,8,10,12,14,-1,-1,-1,-1,16,18,20,22,-1,-1,-1,-1,-1,-1,-1,-1],"split_conditions":[4E0,3E0,1.9E1,4E0,2E0,4E0,2.1E1,-1.0118474E0,-7.743173E-1,-2.1748987E-1,-7.8197247E-1,1.8E1,7E0,2E0,2.2E1,5.269078E-1,1.9243558E-1,-1.0359841E-1,-6.6976255E-1,-3.2830986E-1,-1.3131167E-1,-5.5113304E-1,-8.950719E-1],"split_indices":[1,1,1,0,0,0,1,0,0,0,0,1,0,0,1,0,0,0,0,0,0,0,0],"split_type":[0,0,0,0,0,0,0,0,0,0,0,0,0,0,0,0,0,0,0,0,0,0,0],"sum_hessian":[1.826E3,3.03E2,1.523E3,2.63E2,4E1,1.065E3,4.58E2,1.75E2,8.8E1,2.1E1,1.9E1,1.035E3,3E1,1.98E2,2.6E2,9.46E2,8.9E1,9E0,2.1E1,6.9E1,1.29E2,1.18E2,1.42E2],"tree_param":{"num_deleted":"0","num_feature":"2","num_nodes":"23","size_leaf_vector":"1"}},{"base_weights":[-5.1874E-3,-7.926309E0,1.5748823E0,-8.427198E0,-4.5077434E0,4.2258134E0,-4.585178E0,-9.1123754E-1,-6.977556E-1,-1.9672944E-1,-7.0768505E-1,4.485934E0,-4.603555E0,-1.8137162E0,-6.680717E0,4.742727E-1,1.7340587E-1,-9.427452E-2,-6.058307E-1,-2.9594788E-1,-1.1828154E-1,-4.9648285E-1,-8.061906E-1],"categories":[],"categories_nodes":[],"categories_segments":[],"categories_sizes":[],"default_left":[0,0,0,0,0,0,0,0,0,0,0,0,0,0,0,0,0,0,0,0,0,0,0],"id":2,"left_children":[1,3,5,7,9,11,13,-1,-1,-1,-1,15,17,19,21,-1,-1,-1,-1,-1,-1,-1,-1],"loss_changes":[2.2879076E4,4.825586E2,2.490614E4,1.9863867E2,2.5367175E2,2.4689316E3,2.65362E3,0E0,0E0,0E0,0E0,7.2387695E2,1.5938123E2,1.4034906E2,5.7853516E2,0E0,0E0,0E0,0E0,0E0,0E0,0E0,0E0],"parents":[2147483647,0,0,1,1,2,2,3,3,4,4,5,5,6,6,11,11,12,12,13,13,14,14],"right_children":[2,4,6,8,10,12,14,-1,-1,-1,-1,16,18,20,22,-1,-1,-1,-1,-1,-1,-1,-1],"split_conditions":[4E0,3E0,1.9E1,4E0,2E0,4E0,2.1E1,-9.1123754E-1,-6.977556E-1,-1.9672944E-1,-7.0768505E-1,1.8E1,7E0,2E0,2.2E1,4.742727E-1,1.7340587E-1,-9.427452E-2,-6.058307E-1,-2.9594788E-1,-1.1828154E-1,-4.9648285E-1,-8.061906E-1],"split_indices":[1,1,1,0,0,0,1,0,0,0,0,1,0,0,1,0,0,0,0,0,0,0,0],"split_type":[0,0,0,0,0,0,0,0,0,0,0,0,0,0,0,0,0,0,0,0,0,0,0],"sum_hessian":[1.826E3,3.03E2,1.523E3,2.63E2,4E1,1.065E3,4.58E2,1.75E2,8.8E1,2.1E1,1.9E1,1.035E3,3E1,1.98E2,2.6E2,9.46E2,8.9E1,9E0,2.1E1,6.9E1,1.29E2,1.18E2,1.42E2],"tree_param":{"num_deleted":"0","num_feature":"2","num_nodes":"23","size_leaf_vector":"1"}},{"base_weights":[-7.012713E-3,-7.141946E0,1.4162331E0,-7.5905733E0,-4.0790277E0,3.803183E0,-4.1304007E0,-8.206315E-1,-6.28764E-1,-1.7795068E-1,-6.4045495E-1,4.037966E0,-4.1657834E0,-1.6344261E0,-6.017637E0,4.2689547E-1,1.5625797E-1,-8.578984E-2,-5.480014E-1,-2.6677588E-1,-1.0654439E-1,-4.4725177E-1,-7.261354E-1],"categories":[],"categories_nodes":[],"categories_segments":[],"categories_sizes":[],"default_left":[0,0,0,0,0,0,0,0,0,0,0,0,0,0,0,0,0,0,0,0,0,0,0],"id":3,"left_children":[1,3,5,7,9,11,13,-1,-1,-1,-1,15,17,19,21,-1,-1,-1,-1,-1,-1,-1,-1],"loss_changes":[1.8562867E4,3.867666E2,2.0192766E4,1.6020117E2,2.0785406E2,2.0112803E3,2.1522812E3,0E0,0E0,0E0,0E0,5.857012E2,1.3006573E2,1.1415924E2,4.6908496E2,0E0,0E0,0E0,0E0,0E0,0E0,0E0,0E0],"parents":[2147483647,0,0,1,1,2,2,3,3,4,4,5,5,6,6,11,11,12,12,13,13,14,14],"right_children":[2,4,6,8,10,12,14,-1,-1,-1,-1,16,18,20,22,-1,-1,-1,-1,-1,-1,-1,-1],"split_conditions":[4E0,3E0,1.9E1,4E0,2E0,4E0,2.1E1,-8.206315E-1,-6.28764E-1,-1.7795068E-1,-6.4045495E-1,1.8E1,7E0,2E0,2.2E1,4.2689547E-1,1.5625797E-1,-8.578984E-2,-5.480014E-1,-2.6677588E-1,-1.0654439E-1,-4.4725177E-1,-7.261354E-1],"split_indices":[1,1,1,0,0,0,1,0,0,0,0,1,0,0,1,0,0,0,0,0,0,0,0],"split_type":[0,0,0,0,0,0,0,0,0,0,0,0,0,0,0,0,0,0,0,0,0,0,0],"sum_hessian":[1.826E3,3.03E2,1.523E3,2.63E2,4E1,1.065E3,4.58E2,1.75E2,8.8E1,2.1E1,1.9E1,1.035E3,3E1,1.98E2,2.6E2,9.46E2,8.9E1,9E0,2.1E1,6.9E1,1.29E2,1.18E2,1.42E2],"tree_param":{"num_deleted":"0","num_feature":"2","num_nodes":"23","size_leaf_vector":"1"}},{"base_weights":[-8.426879E-3,-6.435211E0,1.2735618E0,-6.837006E0,-3.6910858E0,3.4228177E0,-3.7207305E0,-7.3903465E-1,-5.6659406E-1,-1.6096447E-1,-5.796117E-1,3.6347322E0,-3.76965E0,-1.4728594E0,-5.420369E0,3.8425106E-1,1.4080583E-1,-7.8068756E-2,-4.9569216E-1,-2.4047935E-1,-9.597189E-2,-4.0290245E-1,-6.540296E-1],"categories":[],"categories_nodes":[],"categories_segments":[],"categories_sizes":[],"default_left":[0,0,0,0,0,0,0,0,0,0,0,0,0,0,0,0,0,0,0,0,0,0,0],"id":4,"left_children":[1,3,5,7,9,11,13,-1,-1,-1,-1,15,17,19,21,-1,-1,-1,-1,-1,-1,-1,-1],"loss_changes":[1.5060968E4,3.0994727E2,1.6371369E4,1.2919824E2,1.703117E2,1.6384873E3,1.7456582E3,0E0,0E0,0E0,0E0,4.739004E2,1.0614017E2,9.2856476E1,3.8034033E2,0E0,0E0,0E0,0E0,0E0,0E0,0E0,0E0],"parents":[2147483647,0,0,1,1,2,2,3,3,4,4,5,5,6,6,11,11,12,12,13,13,14,14],"right_children":[2,4,6,8,10,12,14,-1,-1,-1,-1,16,18,20,22,-1,-1,-1,-1,-1,-1,-1,-1],"split_conditions":[4E0,3E0,1.9E1,4E0,2E0,4E0,2.1E1,-7.3903465E-1,-5.6659406E-1,-1.6096447E-1,-5.796117E-1,1.8E1,7E0,2E0,2.2E1,3.8425106E-1,1.4080583E-1,-7.8068756E-2,-4.9569216E-1,-2.4047935E-1,-9.597189E-2,-4.0290245E-1,-6.540296E-1],"split_indices":[1,1,1,0,0,0,1,0,0,0,0,1,0,0,1,0,0,0,0,0,0,0,0],"split_type":[0,0,0,0,0,0,0,0,0,0,0,0,0,0,0,0,0,0,0,0,0,0,0],"sum_hessian":[1.826E3,3.03E2,1.523E3,2.63E2,4E1,1.065E3,4.58E2,1.75E2,8.8E1,2.1E1,1.9E1,1.035E3,3E1,1.98E2,2.6E2,9.46E2,8.9E1,9E0,2.1E1,6.9E1,1.29E2,1.18E2,1.42E2],"tree_param":{"num_deleted":"0","num_feature":"2","num_nodes":"23","size_leaf_vector":"1"}},{"base_weights":[-9.493251E-3,-5.798421E0,1.1452597E0,-6.1582513E0,-3.3400402E0,3.0804906E0,-3.351693E0,-6.655511E-1,-5.1057124E-1,-1.4559974E-1,-5.2454853E-1,3.2717662E0,-3.4111934E0,-1.327264E0,-4.8823814E0,3.4586656E-1,1.2688166E-1,-7.104256E-2,-4.483761E-1,-2.1677497E-1,-8.644851E-2,-3.629508E-1,-5.89084E-1],"categories":[],"categories_nodes":[],"categories_segments":[],"categories_sizes":[],"default_left":[0,0,0,0,0,0,0,0,0,0,0,0,0,0,0,0,0,0,0,0,0,0,0],"id":5,"left_children":[1,3,5,7,9,11,13,-1,-1,-1,-1,15,17,19,21,-1,-1,-1,-1,-1,-1,-1,-1],"loss_changes":[1.2219735E4,2.4834961E2,1.327315E4,1.0419336E2,1.3955017E2,1.3348145E3,1.4158555E3,0E0,0E0,0E0,0E0,3.8343848E2,8.6614075E1,7.552884E1,3.0838477E2,0E0,0E0,0E0,0E0,0E0,0E0,0E0,0E0],"parents":[2147483647,0,0,1,1,2,2,3,3,4,4,5,5,6,6,11,11,12,12,13,13,14,14],"right_children":[2,4,6,8,10,12,14,-1,-1,-1,-1,16,18,20,22,-1,-1,-1,-1,-1,-1,-1,-1],"split_conditions":[4E0,3E0,1.9E1,4E0,2E0,4E0,2.1E1,-6.655511E-1,-5.1057124E-1,-1.4559974E-1,-5.2454853E-1,1.8E1,7E0,2E0,2.2E1,3.4586656E-1,1.2688166E-1,-7.104256E-2,-4.483761E-1,-2.1677497E-1,-8.644851E-2,-3.629508E-1,-5.89084E-1],"split_indices":[1,1,1,0,0,0,1,0,0,0,0,1,0,0,1,0,0,0,0,0,0,0,0],"split_type":[0,0,0,0,0,0,0,0,0,0,0,0,0,0,0,0,0,0,0,0,0,0,0],"sum_hessian":[1.826E3,3.03E2,1.523E3,2.63E2,4E1,1.065E3,4.58E2,1.75E2,8.8E1,2.1E1,1.9E1,1.035E3,3E1,1.98E2,2.6E2,9.46E2,8.9E1,9E0,2.1E1,6.9E1,1.29E2,1.18E2,1.42E2],"tree_param":{"num_deleted":"0","num_feature":"2","num_nodes":"23","size_leaf_vector":"1"}},{"base_weights":[-1.0266932E-2,-5.224652E0,1.0298796E0,-5.5468807E0,-3.0223815E0,2.7723978E0,-3.0192585E0,-5.993741E-1,-4.6008778E-1,-1.3170162E-1,-4.7471642E-1,2.9450462E0,-3.0868297E0,-1.1960613E0,-4.397791E0,2.375776E-1,3.5919005E-1,-6.464871E-2,-4.0557656E-1,-1.9540714E-1,-7.7870145E-2,-3.2696065E-1,-5.305876E-1],"categories":[],"categories_nodes":[],"categories_segments":[],"categories_sizes":[],"default_left":[0,0,0,0,0,0,0,0,0,0,0,0,0,0,0,0,0,0,0,0,0,0,0],"id":6,"left_children":[1,3,5,7,9,11,13,-1,-1,-1,-1,15,17,19,21,-1,-1,-1,-1,-1,-1,-1,-1],"loss_changes":[9.914525E3,1.9896484E2,1.0761253E4,8.4024414E1,1.1434473E2,1.0874414E3,1.1483618E3,0E0,0E0,0E0,0E0,3.7295703E2,7.067862E1,6.143457E1,2.5004297E2,0E0,0E0,0E0,0E0,0E0,0E0,0E0,0E0],"parents":[2147483647,0,0,1,1,2,2,3,3,4,4,5,5,6,6,11,11,12,12,13,13,14,14],"right_children":[2,4,6,8,10,12,14,-1,-1,-1,-1,16,18,20,22,-1,-1,-1,-1,-1,-1,-1,-1],"split_conditions":[4E0,3E0,1.9E1,4E0,2E0,4E0,2.1E1,-5.993741E-1,-4.6008778E-1,-1.3170162E-1,-4.7471642E-1,1.3E1,7E0,2E0,2.2E1,2.375776E-1,3.5919005E-1,-6.464871E-2,-4.0557656E-1,-1.9540714E-1,-7.7870145E-2,-3.2696065E-1,-5.305876E-1],"split_indices":[1,1,1,0,0,0,1,0,0,0,0,1,0,0,1,0,0,0,0,0,0,0,0],"split_type":[0,0,0,0,0,0,0,0,0,0,0,0,0,0,0,0,0,0,0,0,0,0,0],"sum_hessian":[1.826E3,3.03E2,1.523E3,2.63E2,4E1,1.065E3,4.58E2,1.75E2,8.8E1,2.1E1,1.9E1,1.035E3,3E1,1.98E2,2.6E2,5.53E2,4.82E2,9E0,2.1E1,6.9E1,1.29E2,1.18E2,1.42E2],"tree_param":{"num_deleted":"0","num_feature":"2","num_nodes":"23","size_leaf_vector":"1"}},{"base_weights":[-1.0701665E-2,-4.7076664E0,9.2623276E-1,-4.996206E0,-2.7349343E0,2.495277E0,-2.7197962E0,-5.397772E-1,-4.1459593E-1,-1.191301E-1,-4.2961842E-1,2.6511176E0,-2.7933152E0,-1.0778283E0,-3.9612973E0,2.8253695E-1,7.881458E-2,-5.883032E-2,-3.6686245E-1,-1.761456E-1,-7.014301E-2,-2.9453936E-1,-4.7789985E-1],"categories":[],"categories_nodes":[],"categories_segments":[],"categories_sizes":[],"default_left":[0,0,0,0,0,0,0,0,0,0,0,0,0,0,0,0,0,0,0,0,0,0,0],"id":7,"left_children":[1,3,5,7,9,11,13,-1,-1,-1,-1,15,17,19,21,-1,-1,-1,-1,-1,-1,-1,-1],"loss_changes":[8.0445264E3,1.5937598E2,8.725256E3,6.775879E1,9.369183E1,8.859795E2,9.3140454E2,0E0,0E0,0E0,0E0,3.3408594E2,5.7673843E1,4.9970413E1,2.027378E2,0E0,0E0,0E0,0E0,0E0,0E0,0E0,0E0],"parents":[2147483647,0,0,1,1,2,2,3,3,4,4,5,5,6,6,11,11,12,12,13,13,14,14],"right_children":[2,4,6,8,10,12,14,-1,-1,-1,-1,16,18,20,22,-1,-1,-1,-1,-1,-1,-1,-1],"split_conditions":[4E0,3E0,1.9E1,4E0,2E0,4E0,2.1E1,-5.397772E-1,-4.1459593E-1,-1.191301E-1,-4.2961842E-1,1.8E1,7E0,2E0,2.2E1,2.8253695E-1,7.881458E-2,-5.883032E-2,-3.6686245E-1,-1.761456E-1,-7.014301E-2,-2.9453936E-1,-4.7789985E-1],"split_indices":[1,1,1,0,0,0,1,0,0,0,0,1,0,0,1,0,0,0,0,0,0,0,0],"split_type":[0,0,0,0,0,0,0,0,0,0,0,0,0,0,0,0,0,0,0,0,0,0,0],"sum_hessian":[1.826E3,3.03E2,1.523E3,2.63E2,4E1,1.065E3,4.58E2,1.75E2,8.8E1,2.1E1,1.9E1,1.035E3,3E1,1.98E2,2.6E2,9.46E2,8.9E1,9E0,2.1E1,6.9E1,1.29E2,1.18E2,1.42E2],"tree_param":{"num_deleted":"0","num_feature":"2","num_nodes":"23","size_leaf_vector":"1"}},{"base_weights":[-1.1047308E-2,-4.2418447E0,8.328985E-1,-4.5002003E0,-2.4748247E0,2.2456884E0,-2.450036E0,-4.8610622E-1,-3.7360224E-1,-1.077586E-1,-3.8880464E-1,2.3863542E0,-2.5277157E0,-9.712833E-1,-3.5681272E0,1.8566E-1,2.9890406E-1,-5.353559E-2,-3.3184376E-1,-4.088112E-2,-1.4045535E-1,-2.6533294E-1,-4.3044406E-1],"categories":[],"categories_nodes":[],"categories_segments":[],"categories_sizes":[],"default_left":[0,0,0,0,0,0,0,0,0,0,0,0,0,0,0,0,0,0,0,0,0,0,0],"id":8,"left_children":[1,3,5,7,9,11,13,-1,-1,-1,-1,15,17,19,21,-1,-1,-1,-1,-1,-1,-1,-1],"loss_changes":[6.526952E3,1.2764502E2,7.0739614E3,5.4640137E1,7.6769226E1,7.218032E2,7.5543604E2,0E0,0E0,0E0,0E0,3.252202E2,4.7060913E1,4.7922577E1,1.6438257E2,0E0,0E0,0E0,0E0,0E0,0E0,0E0,0E0],"parents":[2147483647,0,0,1,1,2,2,3,3,4,4,5,5,6,6,11,11,12,12,13,13,14,14],"right_children":[2,4,6,8,10,12,14,-1,-1,-1,-1,16,18,20,22,-1,-1,-1,-1,-1,-1,-1,-1],"split_conditions":[4E0,3E0,1.9E1,4E0,2E0,4E0,2.1E1,-4.8610622E-1,-3.7360224E-1,-1.077586E-1,-3.8880464E-1,1.3E1,7E0,2E1,2.2E1,1.8566E-1,2.9890406E-1,-5.353559E-2,-3.3184376E-1,-4.088112E-2,-1.4045535E-1,-2.6533294E-1,-4.3044406E-1],"split_indices":[1,1,1,0,0,0,1,0,0,0,0,1,0,1,1,0,0,0,0,0,0,0,0],"split_type":[0,0,0,0,0,0,0,0,0,0,0,0,0,0,0,0,0,0,0,0,0,0,0],"sum_hessian":[1.826E3,3.03E2,1.523E3,2.63E2,4E1,1.065E3,4.58E2,1.75E2,8.8E1,2.1E1,1.9E1,1.035E3,3E1,1.98E2,2.6E2,5.53E2,4.82E2,9E0,2.1E1,8.7E1,1.11E2,1.18E2,1.42E2],"tree_param":{"num_deleted":"0","num_feature":"2","num_nodes":"23","size_leaf_vector":"1"}},{"base_weights":[-1.1110579E-2,-3.8221211E0,7.490983E-1,-4.0534368E0,-2.2394536E0,2.0212128E0,-2.2069433E0,-4.3777177E-1,-3.3666176E-1,-9.747255E-2,-3.518682E-1,2.1481867E0,-2.287376E0,-8.750662E-1,-3.21398E0,2.3106709E-1,4.1462377E-2,-4.8717406E-2,-3.001678E-1,-1.51339E-1,-5.246221E-2,-2.390226E-1,-3.8770065E-1],"categories":[],"categories_nodes":[],"categories_segments":[],"categories_sizes":[],"default_left":[0,0,0,0,0,0,0,0,0,0,0,0,0,0,0,0,0,0,0,0,0,0,0],"id":9,"left_children":[1,3,5,7,9,11,13,-1,-1,-1,-1,15,17,19,21,-1,-1,-1,-1,-1,-1,-1,-1],"loss_changes":[5.295982E3,1.0221533E2,5.735345E3,4.4061035E1,6.2903183E1,5.880996E2,6.128208E2,0E0,0E0,0E0,0E0,2.908589E2,3.840016E1,4.372171E1,1.3328345E2,0E0,0E0,0E0,0E0,0E0,0E0,0E0,0E0],"parents":[2147483647,0,0,1,1,2,2,3,3,4,4,5,5,6,6,11,11,12,12,13,13,14,14],"right_children":[2,4,6,8,10,12,14,-1,-1,-1,-1,16,18,20,22,-1,-1,-1,-1,-1,-1,-1,-1],"split_conditions":[4E0,3E0,1.9E1,4E0,2E0,4E0,2.1E1,-4.3777177E-1,-3.3666176E-1,-9.747255E-2,-3.518682E-1,1.8E1,7E0,2E0,2.2E1,2.3106709E-1,4.1462377E-2,-4.8717406E-2,-3.001678E-1,-1.51339E-1,-5.246221E-2,-2.390226E-1,-3.8770065E-1],"split_indices":[1,1,1,0,0,0,1,0,0,0,0,1,0,0,1,0,0,0,0,0,0,0,0],"split_type":[0,0,0,0,0,0,0,0,0,0,0,0,0,0,0,0,0,0,0,0,0,0,0],"sum_hessian":[1.826E3,3.03E2,1.523E3,2.63E2,4E1,1.065E3,4.58E2,1.75E2,8.8E1,2.1E1,1.9E1,1.035E3,3E1,1.98E2,2.6E2,9.46E2,8.9E1,9E0,2.1E1,6.9E1,1.29E2,1.18E2,1.42E2],"tree_param":{"num_deleted":"0","num_feature":"2","num_nodes":"23","size_leaf_vector":"1"}},{"base_weights":[-1.1166026E-2,-3.4439347E0,6.7359304E-1,-3.6510265E0,-2.026468E0,1.8190193E0,-1.9880583E0,-3.9424333E-1,-3.0337384E-1,-8.816839E-2,-3.1844074E-1,-3.920181E-2,2.0659022E0,-7.8858364E-1,-2.8949833E0,5.2184727E-2,-2.715154E-1,2.2422396E-1,3.736226E-2,-2.6596654E-2,-1.1921704E-1,-2.1532121E-1,-3.4920168E-1],"categories":[],"categories_nodes":[],"categories_segments":[],"categories_sizes":[],"default_left":[0,0,0,0,0,0,0,0,0,0,0,0,0,0,0,0,0,0,0,0,0,0,0],"id":10,"left_children":[1,3,5,7,9,11,13,-1,-1,-1,-1,15,17,19,21,-1,-1,-1,-1,-1,-1,-1,-1],"loss_changes":[4.296902E3,8.183887E1,4.649874E3,3.552832E1,5.154158E1,4.8912256E2,4.970327E2,0E0,0E0,0E0,0E0,1.9058578E2,2.7996753E2,4.1656265E1,1.08068115E2,0E0,0E0,0E0,0E0,0E0,0E0,0E0,0E0],"parents":[2147483647,0,0,1,1,2,2,3,3,4,4,5,5,6,6,11,11,12,12,13,13,14,14],"right_children":[2,4,6,8,10,12,14,-1,-1,-1,-1,16,18,20,22,-1,-1,-1,-1,-1,-1,-1,-1],"split_conditions":[4E0,3E0,1.9E1,4E0,2E0,6E0,2.1E1,-3.9424333E-1,-3.0337384E-1,-8.816839E-2,-3.1844074E-1,4E0,1.8E1,2E1,2.2E1,5.2184727E-2,-2.715154E-1,2.2422396E-1,3.736226E-2,-2.6596654E-2,-1.1921704E-1,-2.1532121E-1,-3.4920168E-1],"split_indices":[1,1,1,0,0,1,1,0,0,0,0,0,1,1,1,0,0,0,0,0,0,0,0],"split_type":[0,0,0,0,0,0,0,0,0,0,0,0,0,0,0,0,0,0,0,0,0,0,0],"sum_hessian":[1.826E3,3.03E2,1.523E3,2.63E2,4E1,1.065E3,4.58E2,1.75E2,8.8E1,2.1E1,1.9E1,1.25E2,9.4E2,1.98E2,2.6E2,1.04E2,2.1E1,8.51E2,8.9E1,8.7E1,1.11E2,1.18E2,1.42E2],"tree_param":{"num_deleted":"0","num_feature":"2","num_nodes":"23","size_leaf_vector":"1"}},{"base_weights":[-1.1019539E-2,-3.1031737E0,6.057953E-1,-3.2885664E0,-1.8337386E0,1.637157E0,-1.7908E0,-3.5504302E-1,-2.7337733E-1,-7.975233E-2,-2.8818884E-1,1.7429461E0,-1.9510602E0,-7.104579E-1,-2.607648E0,1.3200252E-1,2.4400918E-1,-6.4513E-2,-2.4559803E-1,-1.306241E-1,-3.841866E-2,-1.9397001E-1,-3.1452572E-1],"categories":[],"categories_nodes":[],"categories_segments":[],"categories_sizes":[],"default_left":[0,0,0,0,0,0,0,0,0,0,0,0,0,0,0,0,0,0,0,0,0,0,0],"id":11,"left_children":[1,3,5,7,9,11,13,-1,-1,-1,-1,15,17,19,21,-1,-1,-1,-1,-1,-1,-1,-1],"loss_changes":[3.4864924E3,6.551416E1,3.7698887E3,2.8647705E1,4.2232086E1,4.080481E2,4.032035E2,0E0,0E0,0E0,0E0,3.0223047E2,1.8856674E1,3.8181152E1,8.76228E1,0E0,0E0,0E0,0E0,0E0,0E0,0E0,0E0],"parents":[2147483647,0,0,1,1,2,2,3,3,4,4,5,5,6,6,11,11,12,12,13,13,14,14],"right_children":[2,4,6,8,10,12,14,-1,-1,-1,-1,16,18,20,22,-1,-1,-1,-1,-1,-1,-1,-1],"split_conditions":[4E0,3E0,1.9E1,4E0,2E0,4E0,2.1E1,-3.5504302E-1,-2.7337733E-1,-7.975233E-2,-2.8818884E-1,1.5E1,7E0,2E0,2.2E1,1.3200252E-1,2.4400918E-1,-6.4513E-2,-2.4559803E-1,-1.306241E-1,-3.841866E-2,-1.9397001E-1,-3.1452572E-1],"split_indices":[1,1,1,0,0,0,1,0,0,0,0,1,0,0,1,0,0,0,0,0,0,0,0],"split_type":[0,0,0,0,0,0,0,0,0,0,0,0,0,0,0,0,0,0,0,0,0,0,0],"sum_hessian":[1.826E3,3.03E2,1.523E3,2.63E2,4E1,1.065E3,4.58E2,1.75E2,8.8E1,2.1E1,1.9E1,1.035E3,3E1,1.98E2,2.6E2,6.46E2,3.89E2,9E0,2.1E1,6.9E1,1.29E2,1.18E2,1.42E2],"tree_param":{"num_deleted":"0","num_feature":"2","num_nodes":"23","size_leaf_vector":"1"}},{"base_weights":[-1.0797478E-2,-2.7961338E0,5.4481477E-1,-2.96209E0,-1.659339E0,1.350525E0,-1.9539183E0,-3.1974044E-1,-2.4634676E-1,-7.213964E-2,-2.6081088E-1,1.5989466E0,-2.8335916E-2,-1.3989065E0,-2.832931E0,1.0547097E-1,2.8177154E-1,-5.1705986E-2,8.2172774E-2,-2.1368401E-1,-1.0421803E-1,-3.4313136E-1,-2.1952024E-1],"categories":[],"categories_nodes":[],"categories_segments":[],"categories_sizes":[],"default_left":[0,0,0,0,0,0,0,0,0,0,0,0,0,0,0,0,0,0,0,0,0,0,0],"id":12,"left_children":[1,3,5,7,9,11,13,-1,-1,-1,-1,15,17,19,21,-1,-1,-1,-1,-1,-1,-1,-1],"loss_changes":[2.8289282E3,5.243701E1,3.070839E3,2.3099365E1,3.4604095E1,3.9499268E2,1.7752173E2,0E0,0E0,0E0,0E0,6.4507104E2,7.39589E1,5.8318268E1,4.703723E1,0E0,0E0,0E0,0E0,0E0,0E0,0E0,0E0],"parents":[2147483647,0,0,1,1,2,2,3,3,4,4,5,5,6,6,11,11,12,12,13,13,14,14],"right_children":[2,4,6,8,10,12,14,-1,-1,-1,-1,16,18,20,22,-1,-1,-1,-1,-1,-1,-1,-1],"split_conditions":[4E0,3E0,2E1,4E0,2E0,1.8E1,2.2E1,-3.1974044E-1,-2.4634676E-1,-7.213964E-2,-2.6081088E-1,1.5E1,3E0,2E0,2E0,1.0547097E-1,2.8177154E-1,-5.1705986E-2,8.2172774E-2,-2.1368401E-1,-1.0421803E-1,-3.4313136E-1,-2.1952024E-1],"split_indices":[1,1,1,0,0,1,1,0,0,0,0,1,0,0,0,0,0,0,0,0,0,0,0],"split_type":[0,0,0,0,0,0,0,0,0,0,0,0,0,0,0,0,0,0,0,0,0,0,0],"sum_hessian":[1.826E3,3.03E2,1.523E3,2.63E2,4E1,1.152E3,3.71E2,1.75E2,8.8E1,2.1E1,1.9E1,9.76E2,1.76E2,2.29E2,1.42E2,6.76E2,3E2,1.12E2,6.4E1,7.3E1,1.56E2,7.1E1,7.1E1],"tree_param":{"num_deleted":"0","num_feature":"2","num_nodes":"23","size_leaf_vector":"1"}},{"base_weights":[-1.0462838E-2,-2.5194778E0,4.9002996E-1,-2.6680253E0,-1.5015258E0,1.2158352E0,-1.7608933E0,-2.8794808E0,-2.2198887E-1,-6.525358E-2,-2.3603384E-1,1.4394487E0,-2.5329849E-2,-1.2603977E0,-2.5535724E0,-2.6427615E-1,-3.0964807E-1,9.493948E-2,2.5368807E-1,-4.658111E-2,7.408196E-2,-1.9260436E-1,-9.386256E-2,-3.092948E-1,-1.9787312E-1],"categories":[],"categories_nodes":[],"categories_segments":[],"categories_sizes":[],"default_left":[0,0,0,0,0,0,0,0,0,0,0,0,0,0,0,0,0,0,0,0,0,0,0,0,0],"id":13,"left_children":[1,3,5,7,9,11,13,15,-1,-1,-1,17,19,21,23,-1,-1,-1,-1,-1,-1,-1,-1,-1,-1],"loss_changes":[2.2954788E3,4.196289E1,2.4919482E3,1.8624756E1,2.8353859E1,3.200415E2,1.4436597E2,8.5754395E-1,0E0,0E0,0E0,5.2302295E2,6.007806E1,4.7454987E1,3.8217773E1,0E0,0E0,0E0,0E0,0E0,0E0,0E0,0E0,0E0,0E0],"parents":[2147483647,0,0,1,1,2,2,3,3,4,4,5,5,6,6,7,7,11,11,12,12,13,13,14,14],"right_children":[2,4,6,8,10,12,14,16,-1,-1,-1,18,20,22,24,-1,-1,-1,-1,-1,-1,-1,-1,-1,-1],"split_conditions":[4E0,3E0,2E1,4E0,2E0,1.8E1,2.2E1,2E0,-2.2198887E-1,-6.525358E-2,-2.3603384E-1,1.5E1,3E0,2E0,2E0,-2.6427615E-1,-3.0964807E-1,9.493948E-2,2.5368807E-1,-4.658111E-2,7.408196E-2,-1.9260436E-1,-9.386256E-2,-3.092948E-1,-1.9787312E-1],"split_indices":[1,1,1,0,0,1,1,0,0,0,0,1,0,0,0,0,0,0,0,0,0,0,0,0,0],"split_type":[0,0,0,0,0,0,0,0,0,0,0,0,0,0,0,0,0,0,0,0,0,0,0,0,0],"sum_hessian":[1.826E3,3.03E2,1.523E3,2.63E2,4E1,1.152E3,3.71E2,1.75E2,8.8E1,2.1E1,1.9E1,9.76E2,1.76E2,2.29E2,1.42E2,9E1,8.5E1,6.76E2,3E2,1.12E2,6.4E1,7.3E1,1.56E2,7.1E1,7.1E1],"tree_param":{"num_deleted":"0","num_feature":"2","num_nodes":"25","size_leaf_vector":"1"}},{"base_weights":[-1.0246038E-2,-2.2711394E0,4.4075254E-1,-2.4042377E0,-1.3587219E0,1.0945773E0,-1.5869375E0,-2.5947936E0,-2.0003942E-1,-5.9024867E-2,-2.1361063E-1,1.1779205E0,-1.9599035E0,-1.1356035E0,-2.3017619E0,-2.3813894E-1,-2.790433E-1,1.4010689E-1,-2.2641555E-3,-7.67437E-2,-2.4128473E-1,-1.7360424E-1,-8.45361E-2,-2.7879485E-1,-1.7836063E-1],"categories":[],"categories_nodes":[],"categories_segments":[],"categories_sizes":[],"default_left":[0,0,0,0,0,0,0,0,0,0,0,0,0,0,0,0,0,0,0,0,0,0,0,0,0],"id":14,"left_children":[1,3,5,7,9,11,13,15,-1,-1,-1,17,19,21,23,-1,-1,-1,-1,-1,-1,-1,-1,-1,-1],"loss_changes":[1.8639192E3,3.365149E1,2.0221859E3,1.5125488E1,2.3232536E1,2.9582776E2,1.17402405E2,7.030029E-1,0E0,0E0,0E0,3.0088733E2,1.4892006E1,3.8615173E1,3.1052002E1,0E0,0E0,0E0,0E0,0E0,0E0,0E0,0E0,0E0,0E0],"parents":[2147483647,0,0,1,1,2,2,3,3,4,4,5,5,6,6,7,7,11,11,12,12,13,13,14,14],"right_children":[2,4,6,8,10,12,14,16,-1,-1,-1,18,20,22,24,-1,-1,-1,-1,-1,-1,-1,-1,-1,-1],"split_conditions":[4E0,3E0,2E1,4E0,2E0,4E0,2.2E1,2E0,-2.0003942E-1,-5.9024867E-2,-2.1361063E-1,1.8E1,7E0,2E0,2E0,-2.3813894E-1,-2.790433E-1,1.4010689E-1,-2.2641555E-3,-7.67437E-2,-2.4128473E-1,-1.7360424E-1,-8.45361E-2,-2.7879485E-1,-1.7836063E-1],"split_indices":[1,1,1,0,0,0,1,0,0,0,0,1,0,0,0,0,0,0,0,0,0,0,0,0,0],"split_type":[0,0,0,0,0,0,0,0,0,0,0,0,0,0,0,0,0,0,0,0,0,0,0,0,0],"sum_hessian":[1.826E3,3.03E2,1.523E3,2.63E2,4E1,1.152E3,3.71E2,1.75E2,8.8E1,2.1E1,1.9E1,1.122E3,3E1,2.29E2,1.42E2,9E1,8.5E1,9.46E2,1.76E2,9E0,2.1E1,7.3E1,1.56E2,7.1E1,7.1E1],"tree_param":{"num_deleted":"0","num_feature":"2","num_nodes":"25","size_leaf_vector":"1"}},{"base_weights":[-1.0253004E-2,-2.0472815E0,3.9609012E-1,-2.1665306E0,-1.2294993E0,9.8496383E-1,-1.4301665E0,-2.3382528E0,-1.8026024E-1,-5.3390678E-2,-1.9331762E-1,-3.7929294E-1,1.1512201E0,-1.0231653E0,-2.0747828E0,-2.1458673E-1,-2.5146347E-1,1.6820745E-1,-8.808115E-2,1.3932668E-1,-2.0390323E-3,-1.5647843E-1,-7.613629E-2,-1.8464623E-1,-3.0785966E-1],"categories":[],"categories_nodes":[],"categories_segments":[],"categories_sizes":[],"default_left":[0,0,0,0,0,0,0,0,0,0,0,0,0,0,0,0,0,0,0,0,0,0,0,0,0],"id":15,"left_children":[1,3,5,7,9,11,13,15,-1,-1,-1,17,19,21,23,-1,-1,-1,-1,-1,-1,-1,-1,-1,-1],"loss_changes":[1.5130782E3,2.6982178E1,1.6403708E3,1.2283691E1,1.9036232E1,2.619557E2,9.5474915E1,5.761719E-1,0E0,0E0,0E0,1.3174217E2,2.9155322E2,3.1421997E1,2.7089844E1,0E0,0E0,0E0,0E0,0E0,0E0,0E0,0E0,0E0,0E0],"parents":[2147483647,0,0,1,1,2,2,3,3,4,4,5,5,6,6,7,7,11,11,12,12,13,13,14,14],"right_children":[2,4,6,8,10,12,14,16,-1,-1,-1,18,20,22,24,-1,-1,-1,-1,-1,-1,-1,-1,-1,-1],"split_conditions":[4E0,3E0,2E1,4E0,2E0,6E0,2.2E1,2E0,-1.8026024E-1,-5.3390678E-2,-1.9331762E-1,2E0,1.8E1,2E0,2.3E1,-2.1458673E-1,-2.5146347E-1,1.6820745E-1,-8.808115E-2,1.3932668E-1,-2.0390323E-3,-1.5647843E-1,-7.613629E-2,-1.8464623E-1,-3.0785966E-1],"split_indices":[1,1,1,0,0,1,1,0,0,0,0,0,1,0,1,0,0,0,0,0,0,0,0,0,0],"split_type":[0,0,0,0,0,0,0,0,0,0,0,0,0,0,0,0,0,0,0,0,0,0,0,0,0],"sum_hessian":[1.826E3,3.03E2,1.523E3,2.63E2,4E1,1.152E3,3.71E2,1.75E2,8.8E1,2.1E1,1.9E1,1.25E2,1.027E3,2.29E2,1.42E2,9E1,8.5E1,2.4E1,1.01E2,8.51E2,1.76E2,7.3E1,1.56E2,1.18E2,2.4E1],"tree_param":{"num_deleted":"0","num_feature":"2","num_nodes":"25","size_leaf_vector":"1"}},{"base_weights":[-9.994093E-3,-1.8454909E0,3.5614833E-1,-1.9523258E0,-1.1125668E0,8.866564E-1,-1.289099E0,-2.1070755E0,-1.6243677E-1,-4.829431E-2,-1.7495246E-1,9.5878756E-1,-1.7549537E0,-5.797151E-1,-1.5885699E0,-1.6259721E-1,-2.1617673E-1,1.14041045E-1,-1.8362886E-3,-8.2376175E-2,-2.0984522E-1,-1.813433E-1,-2.2263935E-2,-1.455867E-1,-2.7830514E-1],"categories":[],"categories_nodes":[],"categories_segments":[],"categories_sizes":[],"default_left":[0,0,0,0,0,0,0,0,0,0,0,0,0,0,0,0,0,0,0,0,0,0,0,0,0],"id":16,"left_children":[1,3,5,7,9,11,13,15,-1,-1,-1,17,19,21,23,-1,-1,-1,-1,-1,-1,-1,-1,-1,-1],"loss_changes":[1.2284985E3,2.1631714E1,1.3313162E3,9.975769E0,1.559787E1,2.2137787E2,7.810675E1,1.1159668E0,0E0,0E0,0E0,1.9932288E2,8.187126E0,4.8935696E1,3.731964E1,0E0,0E0,0E0,0E0,0E0,0E0,0E0,0E0,0E0,0E0],"parents":[2147483647,0,0,1,1,2,2,3,3,4,4,5,5,6,6,7,7,11,11,12,12,13,13,14,14],"right_children":[2,4,6,8,10,12,14,16,-1,-1,-1,18,20,22,24,-1,-1,-1,-1,-1,-1,-1,-1,-1,-1],"split_conditions":[4E0,3E0,2E1,4E0,2E0,4E0,2.1E1,1E0,-1.6243677E-1,-4.829431E-2,-1.7495246E-1,1.8E1,7E0,2E0,2.3E1,-1.6259721E-1,-2.1617673E-1,1.14041045E-1,-1.8362886E-3,-8.2376175E-2,-2.0984522E-1,-1.813433E-1,-2.2263935E-2,-1.455867E-1,-2.7830514E-1],"split_indices":[1,1,1,0,0,0,1,1,0,0,0,1,0,0,1,0,0,0,0,0,0,0,0,0,0],"split_type":[0,0,0,0,0,0,0,0,0,0,0,0,0,0,0,0,0,0,0,0,0,0,0,0,0],"sum_hessian":[1.826E3,3.03E2,1.523E3,2.63E2,4E1,1.152E3,3.71E2,1.75E2,8.8E1,2.1E1,1.9E1,1.122E3,3E1,1.11E2,2.6E2,2.1E1,1.54E2,9.46E2,1.76E2,9E0,2.1E1,2.4E1,8.7E1,2.36E2,2.4E1],"tree_param":{"num_deleted":"0","num_feature":"2","num_nodes":"25","size_leaf_vector":"1"}},{"base_weights":[-9.854814E-3,-1.6634564E0,3.2000396E-1,-1.7591431E0,-1.0067554E0,8.7243736E-1,-9.636867E-1,-1.89852E0,-1.4637558E-1,-4.3684423E-2,-1.5833198E-1,4.432053E-1,1.3896197E0,-3.4549358E-1,-1.4313371E0,-1.7198375E-1,-2.0655155E-1,5.561143E-2,-1.5888849E-1,2.0060049E-1,4.998742E-2,-7.957071E-2,-1.0041329E-2,-1.3108946E-1,-2.5158784E-1],"categories":[],"categories_nodes":[],"categories_segments":[],"categories_sizes":[],"default_left":[0,0,0,0,0,0,0,0,0,0,0,0,0,0,0,0,0,0,0,0,0,0,0,0,0],"id":17,"left_children":[1,3,5,7,9,11,13,15,-1,-1,-1,17,19,21,23,-1,-1,-1,-1,-1,-1,-1,-1,-1,-1],"loss_changes":[9.970786E2,1.7331543E1,1.081591E3,8.089966E0,1.2780548E1,2.360268E2,1.322015E2,1.6993408E0,0E0,0E0,0E0,1.3487729E2,2.638869E2,2.1877455E1,3.0795044E1,0E0,0E0,0E0,0E0,0E0,0E0,0E0,0E0,0E0,0E0],"parents":[2147483647,0,0,1,1,2,2,3,3,4,4,5,5,6,6,7,7,11,11,12,12,13,13,14,14],"right_children":[2,4,6,8,10,12,14,16,-1,-1,-1,18,20,22,24,-1,-1,-1,-1,-1,-1,-1,-1,-1,-1],"split_conditions":[4E0,3E0,1.9E1,4E0,2E0,1.3E1,2.1E1,2E0,-1.4637558E-1,-4.3684423E-2,-1.5833198E-1,4E0,1.7E1,2E0,2.3E1,-1.7198375E-1,-2.0655155E-1,5.561143E-2,-1.5888849E-1,2.0060049E-1,4.998742E-2,-7.957071E-2,-1.0041329E-2,-1.3108946E-1,-2.5158784E-1],"split_indices":[1,1,1,0,0,1,1,0,0,0,0,0,1,0,1,0,0,0,0,0,0,0,0,0,0],"split_type":[0,0,0,0,0,0,0,0,0,0,0,0,0,0,0,0,0,0,0,0,0,0,0,0,0],"sum_hessian":[1.826E3,3.03E2,1.523E3,2.63E2,4E1,1.065E3,4.58E2,1.75E2,8.8E1,2.1E1,1.9E1,5.83E2,4.82E2,1.98E2,2.6E2,9E1,8.5E1,5.53E2,3E1,2.84E2,1.98E2,6.9E1,1.29E2,2.36E2,2.4E1],"tree_param":{"num_deleted":"0","num_feature":"2","num_nodes":"25","size_leaf_vector":"1"}},{"base_weights":[-9.444739E-3,-1.4995021E0,2.8779075E-1,-1.5852171E0,-9.110072E-1,7.20774E-1,-1.0549982E0,-1.7108188E0,-1.3190249E-1,-3.951458E-2,-1.4329045E-1,-4.1930133E-1,8.598097E-1,-7.4046737E-1,-1.5535094E0,-1.2736028E-1,-1.7618378E-1,1.3577308E-1,-8.507376E-2,1.0413827E-1,-1.9060001E-3,-1.1425952E-1,-5.462131E-2,-1.9326341E-1,-1.152808E-1],"categories":[],"categories_nodes":[],"categories_segments":[],"categories_sizes":[],"default_left":[0,0,0,0,0,0,0,0,0,0,0,0,0,0,0,0,0,0,0,0,0,0,0,0,0],"id":18,"left_children":[1,3,5,7,9,11,13,15,-1,-1,-1,17,19,21,23,-1,-1,-1,-1,-1,-1,-1,-1,-1,-1],"loss_changes":[8.09606E2,1.3890503E1,8.8682184E2,6.5699463E0,1.0472092E1,1.8312396E2,5.7178223E1,1.6820068E0,0E0,0E0,0E0,9.7756256E1,1.6406696E2,1.7342361E1,1.9496002E1,0E0,0E0,0E0,0E0,0E0,0E0,0E0,0E0,0E0,0E0],"parents":[2147483647,0,0,1,1,2,2,3,3,4,4,5,5,6,6,7,7,11,11,12,12,13,13,14,14],"right_children":[2,4,6,8,10,12,14,16,-1,-1,-1,18,20,22,24,-1,-1,-1,-1,-1,-1,-1,-1,-1,-1],"split_conditions":[4E0,3E0,2E1,4E0,2E0,6E0,2.2E1,1E0,-1.3190249E-1,-3.951458E-2,-1.4329045E-1,2E0,1.8E1,2E0,2E0,-1.2736028E-1,-1.7618378E-1,1.3577308E-1,-8.507376E-2,1.0413827E-1,-1.9060001E-3,-1.1425952E-1,-5.462131E-2,-1.9326341E-1,-1.152808E-1],"split_indices":[1,1,1,0,0,1,1,1,0,0,0,0,1,0,0,0,0,0,0,0,0,0,0,0,0],"split_type":[0,0,0,0,0,0,0,0,0,0,0,0,0,0,0,0,0,0,0,0,0,0,0,0,0],"sum_hessian":[1.826E3,3.03E2,1.523E3,2.63E2,4E1,1.152E3,3.71E2,1.75E2,8.8E1,2.1E1,1.9E1,1.25E2,1.027E3,2.29E2,1.42E2,2.1E1,1.54E2,2.4E1,1.01E2,8.51E2,1.76E2,7.3E1,1.56E2,7.1E1,7.1E1],"tree_param":{"num_deleted":"0","num_feature":"2","num_nodes":"25","size_leaf_vector":"1"}},{"base_weights":[-9.015844E-3,-1.3515855E0,2.5879925E-1,-1.4283448E0,-8.2436526E-1,6.488299E-1,-9.507817E-1,-1.5414617E0,-1.1886042E-1,-3.574274E-2,-1.2967786E-1,-3.7696892E-1,7.7392894E-1,-6.671548E-1,-1.4003161E0,-1.3754961E-1,-1.6991526E-1,1.2273889E-1,-7.664981E-2,2.5893915E-2,1.0570546E-1,-1.02987945E-1,-4.919396E-2,-1.742055E-1,-1.0391285E-1],"categories":[],"categories_nodes":[],"categories_segments":[],"categories_sizes":[],"default_left":[0,0,0,0,0,0,0,0,0,0,0,0,0,0,0,0,0,0,0,0,0,0,0,0,0],"id":19,"left_children":[1,3,5,7,9,11,13,15,-1,-1,-1,17,19,21,23,-1,-1,-1,-1,-1,-1,-1,-1,-1,-1],"loss_changes":[6.5726666E2,1.1125122E1,7.1959985E2,5.3272095E0,8.580589E0,1.4825217E2,4.649582E1,2.2689514E0,0E0,0E0,0E0,7.968376E1,1.4961566E2,1.4110985E1,1.5840546E1,0E0,0E0,0E0,0E0,0E0,0E0,0E0,0E0,0E0,0E0],"parents":[2147483647,0,0,1,1,2,2,3,3,4,4,5,5,6,6,7,7,11,11,12,12,13,13,14,14],"right_children":[2,4,6,8,10,12,14,16,-1,-1,-1,18,20,22,24,-1,-1,-1,-1,-1,-1,-1,-1,-1,-1],"split_conditions":[4E0,3E0,2E1,4E0,2E0,6E0,2.2E1,2E0,-1.1886042E-1,-3.574274E-2,-1.2967786E-1,2E0,2E0,2E0,2E0,-1.3754961E-1,-1.6991526E-1,1.2273889E-1,-7.664981E-2,2.5893915E-2,1.0570546E-1,-1.02987945E-1,-4.919396E-2,-1.742055E-1,-1.0391285E-1],"split_indices":[1,1,1,0,0,1,1,0,0,0,0,0,0,0,0,0,0,0,0,0,0,0,0,0,0],"split_type":[0,0,0,0,0,0,0,0,0,0,0,0,0,0,0,0,0,0,0,0,0,0,0,0,0],"sum_hessian":[1.826E3,3.03E2,1.523E3,2.63E2,4E1,1.152E3,3.71E2,1.75E2,8.8E1,2.1E1,1.9E1,1.25E2,1.027E3,2.29E2,1.42E2,9E1,8.5E1,2.4E1,1.01E2,3.65E2,6.62E2,7.3E1,1.56E2,7.1E1,7.1E1],"tree_param":{"num_deleted":"0","num_feature":"2","num_nodes":"25","size_leaf_vector":"1"}},{"base_weights":[-8.576367E-3,-1.2183735E0,2.3275363E-1,-1.2871252E0,-7.4596334E-1,7.0575637E-1,-6.109625E-1,-1.3890625E0,-1.0710795E-1,-3.233093E-2,-1.1735846E-1,3.209599E-1,1.5688843E0,-2.0022619E-1,-1.0618479E0,-9.898398E-2,-1.4367646E-1,4.022736E-2,-1.3864896E-1,2.1072738E-1,6.1488714E-2,-5.1606096E-2,3.2317273E-2,-9.666781E-2,-1.9215837E-1],"categories":[],"categories_nodes":[],"categories_segments":[],"categories_sizes":[],"default_left":[0,0,0,0,0,0,0,0,0,0,0,0,0,0,0,0,0,0,0,0,0,0,0,0,0],"id":20,"left_children":[1,3,5,7,9,11,13,15,-1,-1,-1,17,19,21,23,-1,-1,-1,-1,-1,-1,-1,-1,-1,-1],"loss_changes":[5.336951E2,8.913483E0,6.0862915E2,4.3262634E0,7.030739E0,3.2398615E2,1.0127425E2,1.9295654E0,0E0,0E0,0E0,9.4551765E1,1.5330444E2,4.7775352E1,1.949768E1,0E0,0E0,0E0,0E0,0E0,0E0,0E0,0E0,0E0,0E0],"parents":[2147483647,0,0,1,1,2,2,3,3,4,4,5,5,6,6,7,7,11,11,12,12,13,13,14,14],"right_children":[2,4,6,8,10,12,14,16,-1,-1,-1,18,20,22,24,-1,-1,-1,-1,-1,-1,-1,-1,-1,-1],"split_conditions":[4E0,3E0,1.8E1,4E0,2E0,1.5E1,2.1E1,1E0,-1.0710795E-1,-3.233093E-2,-1.1735846E-1,4E0,1.7E1,3E0,2.3E1,-9.898398E-2,-1.4367646E-1,4.022736E-2,-1.3864896E-1,2.1072738E-1,6.1488714E-2,-5.1606096E-2,3.2317273E-2,-9.666781E-2,-1.9215837E-1],"split_indices":[1,1,1,0,0,1,1,1,0,0,0,0,1,0,1,0,0,0,0,0,0,0,0,0,0],"split_type":[0,0,0,0,0,0,0,0,0,0,0,0,0,0,0,0,0,0,0,0,0,0,0,0,0],"sum_hessian":[1.826E3,3.03E2,1.523E3,2.63E2,4E1,9.76E2,5.47E2,1.75E2,8.8E1,2.1E1,1.9E1,6.76E2,3E2,2.87E2,2.6E2,2.1E1,1.54E2,6.46E2,3E1,1.91E2,1.09E2,1.79E2,1.08E2,2.36E2,2.4E1],"tree_param":{"num_deleted":"0","num_feature":"2","num_nodes":"25","size_leaf_vector":"1"}},{"base_weights":[-8.065839E-3,-1.0981791E0,2.0938987E-1,-1.1597375E0,-6.750181E-1,6.3535815E-1,-5.5042845E-1,-1.2515349E0,-9.651747E-2,-2.924484E-2,-1.0620939E-1,2.88718E-1,1.4128999E0,-1.8027043E-1,-9.5676976E-1,-1.09736025E-1,-1.4001206E-1,3.6210787E-2,-1.2523131E-1,1.8976437E-1,5.5395704E-2,-4.6474144E-2,2.911521E-2,-8.7041825E-2,-1.7371117E-1],"categories":[],"categories_nodes":[],"categories_segments":[],"categories_sizes":[],"default_left":[0,0,0,0,0,0,0,0,0,0,0,0,0,0,0,0,0,0,0,0,0,0,0,0,0],"id":21,"left_children":[1,3,5,7,9,11,13,15,-1,-1,-1,17,19,21,23,-1,-1,-1,-1,-1,-1,-1,-1,-1,-1],"loss_changes":[4.3332272E2,7.1361084E0,4.9360535E2,3.5072021E0,5.7608147E0,2.6292017E2,8.225247E1,2.4953918E0,0E0,0E0,0E0,7.70195E1,1.2427533E2,3.875785E1,1.607515E1,0E0,0E0,0E0,0E0,0E0,0E0,0E0,0E0,0E0,0E0],"parents":[2147483647,0,0,1,1,2,2,3,3,4,4,5,5,6,6,7,7,11,11,12,12,13,13,14,14],"right_children":[2,4,6,8,10,12,14,16,-1,-1,-1,18,20,22,24,-1,-1,-1,-1,-1,-1,-1,-1,-1,-1],"split_conditions":[4E0,3E0,1.8E1,4E0,2E0,1.5E1,2.1E1,2E0,-9.651747E-2,-2.924484E-2,-1.0620939E-1,4E0,1.7E1,3E0,2.3E1,-1.09736025E-1,-1.4001206E-1,3.6210787E-2,-1.2523131E-1,1.8976437E-1,5.5395704E-2,-4.6474144E-2,2.911521E-2,-8.7041825E-2,-1.7371117E-1],"split_indices":[1,1,1,0,0,1,1,0,0,0,0,0,1,0,1,0,0,0,0,0,0,0,0,0,0],"split_type":[0,0,0,0,0,0,0,0,0,0,0,0,0,0,0,0,0,0,0,0,0,0,0,0,0],"sum_hessian":[1.826E3,3.03E2,1.523E3,2.63E2,4E1,9.76E2,5.47E2,1.75E2,8.8E1,2.1E1,1.9E1,6.76E2,3E2,2.87E2,2.6E2,9E1,8.5E1,6.46E2,3E1,1.91E2,1.09E2,1.79E2,1.08E2,2.36E2,2.4E1],"tree_param":{"num_deleted":"0","num_feature":"2","num_nodes":"25","size_leaf_vector":"1"}},{"base_weights":[-7.589693E-3,-8.066523E-1,2.3744637E-1,-1.0450754E0,-4.2261407E-1,7.088461E-1,-4.958931E-1,-1.1278005E0,-8.697417E-2,4.3662402E-1,-7.457739E-1,4.0024823E-1,1.2724248E0,-1.6230366E-1,-8.6209184E-1,-9.888302E-2,-1.2617366E-1,-2.6453322E-2,1.0361774E-1,-5.127145E-2,-1.1880187E-1,-3.1273324E-2,7.34816E-2,1.708868E-1,4.9906548E-2,-4.185252E-2,2.6230348E-2,-7.837436E-2,-1.5703489E-1],"categories":[],"categories_nodes":[],"categories_segments":[],"categories_sizes":[],"default_left":[0,0,0,0,0,0,0,0,0,0,0,0,0,0,0,0,0,0,0,0,0,0,0,0,0,0,0,0,0],"id":22,"left_children":[1,3,5,7,9,11,13,15,-1,17,19,21,23,25,27,-1,-1,-1,-1,-1,-1,-1,-1,-1,-1,-1,-1,-1,-1],"loss_changes":[3.5791656E2,3.883911E1,4.8398022E2,2.8482666E0,4.6419044E1,1.4766983E2,6.680377E1,2.0282745E0,0E0,1.9611639E1,1.1862274E1,1.319042E2,1.0074292E2,3.1442305E1,1.3252304E1,0E0,0E0,0E0,0E0,0E0,0E0,0E0,0E0,0E0,0E0,0E0,0E0,0E0,0E0],"parents":[2147483647,0,0,1,1,2,2,3,3,4,4,5,5,6,6,7,7,9,9,10,10,11,11,12,12,13,13,14,14],"right_children":[2,4,6,8,10,12,14,16,-1,18,20,22,24,26,28,-1,-1,-1,-1,-1,-1,-1,-1,-1,-1,-1,-1,-1,-1],"split_conditions":[6E0,3E0,1.8E1,4E0,2E0,1.5E1,2.1E1,2E0,-8.697417E-2,4E0,4E0,2E0,1.7E1,3E0,2.3E1,-9.888302E-2,-1.2617366E-1,-2.6453322E-2,1.0361774E-1,-5.127145E-2,-1.1880187E-1,-3.1273324E-2,7.34816E-2,1.708868E-1,4.9906548E-2,-4.185252E-2,2.6230348E-2,-7.837436E-2,-1.5703489E-1],"split_indices":[1,1,1,0,0,1,1,0,0,1,0,0,1,0,1,0,0,0,0,0,0,0,0,0,0,0,0,0,0],"split_type":[0,0,0,0,0,0,0,0,0,0,0,0,0,0,0,0,0,0,0,0,0,0,0,0,0,0,0,0,0],"sum_hessian":[1.826E3,4.28E2,1.398E3,2.63E2,1.65E2,8.51E2,5.47E2,1.75E2,8.8E1,4.5E1,1.2E2,5.51E2,3E2,2.87E2,2.6E2,9E1,8.5E1,2.1E1,2.4E1,8E1,4E1,1.76E2,3.75E2,1.91E2,1.09E2,1.79E2,1.08E2,2.36E2,2.4E1],"tree_param":{"num_deleted":"0","num_feature":"2","num_nodes":"29","size_leaf_vector":"1"}},{"base_weights":[-7.046013E-3,-7.2693104E-1,2.1371004E-1,-9.417498E-1,-3.809125E-1,6.382697E-1,-4.4676182E-1,-1.0162992E0,-7.837448E-2,3.9463848E-1,-6.72602E-1,3.602991E-1,1.145916E0,-1.4612742E-1,-7.767846E-1,-6.412687E-2,-1.06297255E-1,-2.392826E-2,9.367035E-2,-4.6207607E-2,-1.07211426E-1,1.166152E-1,9.917369E-3,1.5341516E-1,3.1360455E-2,-5.7688978E-2,6.556615E-3,-7.057E-2,-1.4195955E-1],"categories":[],"categories_nodes":[],"categories_segments":[],"categories_sizes":[],"default_left":[0,0,0,0,0,0,0,0,0,0,0,0,0,0,0,0,0,0,0,0,0,0,0,0,0,0,0,0,0],"id":23,"left_children":[1,3,5,7,9,11,13,15,-1,17,19,21,23,25,27,-1,-1,-1,-1,-1,-1,-1,-1,-1,-1,-1,-1,-1,-1],"loss_changes":[2.9050034E2,3.1529373E1,3.9257837E2,2.3131866E0,3.781797E1,1.1981348E2,5.425698E1,2.3990479E0,0E0,1.6030954E1,9.681637E0,1.1604098E2,9.678189E1,2.6300438E1,1.0924316E1,0E0,0E0,0E0,0E0,0E0,0E0,0E0,0E0,0E0,0E0,0E0,0E0,0E0,0E0],"parents":[2147483647,0,0,1,1,2,2,3,3,4,4,5,5,6,6,7,7,9,9,10,10,11,11,12,12,13,13,14,14],"right_children":[2,4,6,8,10,12,14,16,-1,18,20,22,24,26,28,-1,-1,-1,-1,-1,-1,-1,-1,-1,-1,-1,-1,-1,-1],"split_conditions":[6E0,3E0,1.8E1,4E0,2E0,1.5E1,2.1E1,1E0,-7.837448E-2,4E0,4E0,9E0,3E0,2E0,2.3E1,-6.412687E-2,-1.06297255E-1,-2.392826E-2,9.367035E-2,-4.6207607E-2,-1.07211426E-1,1.166152E-1,9.917369E-3,1.5341516E-1,3.1360455E-2,-5.7688978E-2,6.556615E-3,-7.057E-2,-1.4195955E-1],"split_indices":[1,1,1,0,0,1,1,1,0,1,0,1,0,0,1,0,0,0,0,0,0,0,0,0,0,0,0,0,0],"split_type":[0,0,0,0,0,0,0,0,0,0,0,0,0,0,0,0,0,0,0,0,0,0,0,0,0,0,0,0,0],"sum_hessian":[1.826E3,4.28E2,1.398E3,2.63E2,1.65E2,8.51E2,5.47E2,1.75E2,8.8E1,4.5E1,1.2E2,5.51E2,3E2,2.87E2,2.6E2,2.1E1,1.54E2,2.1E1,2.4E1,8E1,4E1,1.34E2,4.17E2,2.04E2,9.6E1,9.4E1,1.93E2,2.36E2,2.4E1],"tree_param":{"num_deleted":"0","num_feature":"2","num_nodes":"29","size_leaf_vector":"1"}},{"base_weights":[-6.49758E-3,-6.550129E-1,1.9237274E-1,-8.4851724E-1,-3.4332526E-1,5.748076E-1,-4.025668E-1,-9.156376E-1,-7.06251E-2,3.5669118E-1,-6.066098E-1,3.244978E-1,1.0319378E0,-1.3169228E-1,-6.999204E-1,-7.8590475E-2,-1.0422661E-1,-2.1644158E-2,8.467805E-2,-4.1643914E-2,-9.675175E-2,-3.1862557E-2,6.263817E-2,1.4326607E-1,3.2311298E-2,-3.4987457E-2,2.2981696E-2,-4.822717E-2,-8.761462E-2],"categories":[],"categories_nodes":[],"categories_segments":[],"categories_sizes":[],"default_left":[0,0,0,0,0,0,0,0,0,0,0,0,0,0,0,0,0,0,0,0,0,0,0,0,0,0,0,0,0],"id":24,"left_children":[1,3,5,7,9,11,13,15,-1,17,19,21,23,25,27,-1,-1,-1,-1,-1,-1,-1,-1,-1,-1,-1,-1,-1,-1],"loss_changes":[2.3575504E2,2.5582916E1,3.1853976E2,1.8742523E0,3.0810757E1,9.715451E1,4.404676E1,2.0721893E0,0E0,1.3104044E1,7.9018097E0,1.0736959E2,8.5033844E1,2.2796383E1,9.588196E0,0E0,0E0,0E0,0E0,0E0,0E0,0E0,0E0,0E0,0E0,0E0,0E0,0E0,0E0],"parents":[2147483647,0,0,1,1,2,2,3,3,4,4,5,5,6,6,7,7,9,9,10,10,11,11,12,12,13,13,14,14],"right_children":[2,4,6,8,10,12,14,16,-1,18,20,22,24,26,28,-1,-1,-1,-1,-1,-1,-1,-1,-1,-1,-1,-1,-1,-1],"split_conditions":[6E0,3E0,1.8E1,4E0,2E0,1.5E1,2.1E1,2E0,-7.06251E-2,4E0,4E0,2E0,1.7E1,3E0,2.2E1,-7.8590475E-2,-1.0422661E-1,-2.1644158E-2,8.467805E-2,-4.1643914E-2,-9.675175E-2,-3.1862557E-2,6.263817E-2,1.4326607E-1,3.2311298E-2,-3.4987457E-2,2.2981696E-2,-4.822717E-2,-8.761462E-2],"split_indices":[1,1,1,0,0,1,1,0,0,1,0,0,1,0,1,0,0,0,0,0,0,0,0,0,0,0,0,0,0],"split_type":[0,0,0,0,0,0,0,0,0,0,0,0,0,0,0,0,0,0,0,0,0,0,0,0,0,0,0,0,0],"sum_hessian":[1.826E3,4.28E2,1.398E3,2.63E2,1.65E2,8.51E2,5.47E2,1.75E2,8.8E1,4.5E1,1.2E2,5.51E2,3E2,2.87E2,2.6E2,9E1,8.5E1,2.1E1,2.4E1,8E1,4E1,1.76E2,3.75E2,1.91E2,1.09E2,1.79E2,1.08E2,1.18E2,1.42E2],"tree_param":{"num_deleted":"0","num_feature":"2","num_nodes":"29","size_leaf_vector":"1"}},{"base_weights":[-5.9956666E-3,-5.902782E-1,1.7317747E-1,-7.646255E-1,-3.0944714E-1,5.175693E-1,-3.6257988E-1,-8.2511264E-1,-6.364193E-2,3.2239226E-1,-5.470931E-1,2.921042E-1,9.293273E-1,-1.1856468E-1,-6.304488E-1,-4.8056755E-2,-8.686925E-2,-1.9578084E-2,7.654889E-2,-3.7531007E-2,-8.7312564E-2,1.019727E-1,5.640762E-3,1.285464E-1,1.670867E-2,-4.8518915E-2,6.1579077E-3,-5.6779336E-2,-1.1992045E-1],"categories":[],"categories_nodes":[],"categories_segments":[],"categories_sizes":[],"default_left":[0,0,0,0,0,0,0,0,0,0,0,0,0,0,0,0,0,0,0,0,0,0,0,0,0,0,0,0,0],"id":25,"left_children":[1,3,5,7,9,11,13,15,-1,17,19,21,23,25,27,-1,-1,-1,-1,-1,-1,-1,-1,-1,-1,-1,-1,-1,-1],"loss_changes":[1.9136671E2,2.0768158E1,2.583178E2,1.5221558E0,2.5101955E1,7.882573E1,3.5744774E1,2.225212E0,0E0,1.0711502E1,6.4491386E0,9.460948E1,8.149521E1,1.9050869E1,8.619995E0,0E0,0E0,0E0,0E0,0E0,0E0,0E0,0E0,0E0,0E0,0E0,0E0,0E0,0E0],"parents":[2147483647,0,0,1,1,2,2,3,3,4,4,5,5,6,6,7,7,9,9,10,10,11,11,12,12,13,13,14,14],"right_children":[2,4,6,8,10,12,14,16,-1,18,20,22,24,26,28,-1,-1,-1,-1,-1,-1,-1,-1,-1,-1,-1,-1,-1,-1],"split_conditions":[6E0,3E0,1.8E1,4E0,2E0,1.5E1,2.1E1,1E0,-6.364193E-2,4E0,4E0,9E0,3E0,2E0,2.3E1,-4.8056755E-2,-8.686925E-2,-1.9578084E-2,7.654889E-2,-3.7531007E-2,-8.7312564E-2,1.019727E-1,5.640762E-3,1.285464E-1,1.670867E-2,-4.8518915E-2,6.1579077E-3,-5.6779336E-2,-1.1992045E-1],"split_indices":[1,1,1,0,0,1,1,1,0,1,0,1,0,0,1,0,0,0,0,0,0,0,0,0,0,0,0,0,0],"split_type":[0,0,0,0,0,0,0,0,0,0,0,0,0,0,0,0,0,0,0,0,0,0,0,0,0,0,0,0,0],"sum_hessian":[1.826E3,4.28E2,1.398E3,2.63E2,1.65E2,8.51E2,5.47E2,1.75E2,8.8E1,4.5E1,1.2E2,5.51E2,3E2,2.87E2,2.6E2,2.1E1,1.54E2,2.1E1,2.4E1,8E1,4E1,1.34E2,4.17E2,2.04E2,9.6E1,9.4E1,1.93E2,2.36E2,2.4E1],"tree_param":{"num_deleted":"0","num_feature":"2","num_nodes":"29","size_leaf_vector":"1"}},{"base_weights":[-5.523152E-3,-5.318715E-1,1.5588425E-1,-6.889151E-1,-2.789114E-1,3.8878086E-1,-4.8813078E-1,-7.4336797E-1,-5.7349224E-2,2.9139113E-1,-4.934156E-1,-1.1196196E-2,6.089963E-1,-7.6000714E-1,-3.13086E-1,-6.2226333E-2,-8.628698E-2,-1.7709281E-2,6.9200136E-2,-3.3824254E-2,-7.8794256E-2,1.1068473E-1,-1.713794E-2,9.6882604E-2,2.8443757E-2,-5.4730397E-2,-9.680631E-2,-7.0485137E-3,-4.62276E-2],"categories":[],"categories_nodes":[],"categories_segments":[],"categories_sizes":[],"default_left":[0,0,0,0,0,0,0,0,0,0,0,0,0,0,0,0,0,0,0,0,0,0,0,0,0,0,0,0,0],"id":26,"left_children":[1,3,5,7,9,11,13,15,-1,17,19,21,23,25,27,-1,-1,-1,-1,-1,-1,-1,-1,-1,-1,-1,-1,-1,-1],"loss_changes":[1.5529848E2,1.6850197E1,2.1002426E2,1.2329559E0,2.0450935E1,9.0554214E1,1.7465736E1,2.01017E0,0E0,8.755804E0,5.263506E0,6.5737274E1,7.715346E1,5.8870163E0,8.219563E0,0E0,0E0,0E0,0E0,0E0,0E0,0E0,0E0,0E0,0E0,0E0,0E0,0E0,0E0],"parents":[2147483647,0,0,1,1,2,2,3,3,4,4,5,5,6,6,7,7,9,9,10,10,11,11,12,12,13,13,14,14],"right_children":[2,4,6,8,10,12,14,16,-1,18,20,22,24,26,28,-1,-1,-1,-1,-1,-1,-1,-1,-1,-1,-1,-1,-1,-1],"split_conditions":[6E0,3E0,2E1,4E0,2E0,2E0,2E0,2E0,-5.7349224E-2,4E0,4E0,9E0,3E0,2.2E1,2.1E1,-6.2226333E-2,-8.628698E-2,-1.7709281E-2,6.9200136E-2,-3.3824254E-2,-7.8794256E-2,1.1068473E-1,-1.713794E-2,9.6882604E-2,2.8443757E-2,-5.4730397E-2,-9.680631E-2,-7.0485137E-3,-4.62276E-2],"split_indices":[1,1,1,0,0,0,0,0,0,1,0,1,0,1,1,0,0,0,0,0,0,0,0,0,0,0,0,0,0],"split_type":[0,0,0,0,0,0,0,0,0,0,0,0,0,0,0,0,0,0,0,0,0,0,0,0,0,0,0,0,0],"sum_hessian":[1.826E3,4.28E2,1.398E3,2.63E2,1.65E2,1.027E3,3.71E2,1.75E2,8.8E1,4.5E1,1.2E2,3.65E2,6.62E2,1.44E2,2.27E2,9E1,8.5E1,2.1E1,2.4E1,8E1,4E1,4.5E1,3.2E2,3.13E2,3.49E2,7.3E1,7.1E1,8.7E1,1.4E2],"tree_param":{"num_deleted":"0","num_feature":"2","num_nodes":"29","size_leaf_vector":"1"}},{"base_weights":[-5.109305E-3,-4.7930658E-1,1.403058E-1,-6.2080336E-1,-2.5138813E-1,4.2496178E-1,-3.0251753E-1,-3.523302E-2,-6.425548E-1,2.6337138E-1,-4.4500425E-1,3.2517087E-2,6.327511E-1,-1.7897888E-1,-6.511481E-1,-7.106241E-2,-5.1678747E-2,-1.6018806E-2,6.2556885E-2,-3.048352E-2,-7.1106985E-2,-4.6163555E-2,5.644541E-2,1.0602353E-1,2.2398036E-2,-1.2138943E-3,-3.0659491E-2,-8.7260135E-2,-4.2065118E-2],"categories":[],"categories_nodes":[],"categories_segments":[],"categories_sizes":[],"default_left":[0,0,0,0,0,0,0,0,0,0,0,0,0,0,0,0,0,0,0,0,0,0,0,0,0,0,0,0,0],"id":27,"left_children":[1,3,5,7,9,11,13,-1,15,17,19,21,23,25,27,-1,-1,-1,-1,-1,-1,-1,-1,-1,-1,-1,-1,-1,-1],"loss_changes":[1.2604886E2,1.3679054E1,1.7647572E2,1.3152924E0,1.6661713E1,6.945645E1,2.3485462E1,0E0,1.7130585E0,7.1571674E0,4.2958336E0,7.806655E1,9.7094376E1,8.640606E0,6.932274E0,0E0,0E0,0E0,0E0,0E0,0E0,0E0,0E0,0E0,0E0,0E0,0E0,0E0,0E0],"parents":[2147483647,0,0,1,1,2,2,3,3,4,4,5,5,6,6,8,8,9,9,10,10,11,11,12,12,13,13,14,14],"right_children":[2,4,6,8,10,12,14,-1,16,18,20,22,24,26,28,-1,-1,-1,-1,-1,-1,-1,-1,-1,-1,-1,-1,-1,-1],"split_conditions":[6E0,3E0,1.8E1,1E0,2E0,2E0,2.2E1,-3.523302E-2,4E0,4E0,4E0,1.3E1,3E0,2E1,2E0,-7.106241E-2,-5.1678747E-2,-1.6018806E-2,6.2556885E-2,-3.048352E-2,-7.1106985E-2,-4.6163555E-2,5.644541E-2,1.0602353E-1,2.2398036E-2,-1.2138943E-3,-3.0659491E-2,-8.7260135E-2,-4.2065118E-2],"split_indices":[1,1,1,1,0,0,1,0,0,1,0,1,0,1,0,0,0,0,0,0,0,0,0,0,0,0,0,0,0],"split_type":[0,0,0,0,0,0,0,0,0,0,0,0,0,0,0,0,0,0,0,0,0,0,0,0,0,0,0,0,0],"sum_hessian":[1.826E3,4.28E2,1.398E3,2.63E2,1.65E2,8.51E2,5.47E2,2.1E1,2.42E2,4.5E1,1.2E2,2.95E2,5.56E2,4.05E2,1.42E2,1.54E2,8.8E1,2.1E1,2.4E1,8E1,4E1,1.53E2,1.42E2,2.71E2,2.85E2,1.76E2,2.29E2,7.1E1,7.1E1],"tree_param":{"num_deleted":"0","num_feature":"2","num_nodes":"29","size_leaf_vector":"1"}},{"base_weights":[-4.727345E-3,-4.3187258E-1,1.262591E-1,-5.5932146E-1,-2.2658116E-1,3.826282E-1,-2.725598E-1,-3.186987E-2,-5.788045E-1,2.3804581E-1,-4.0134364E-1,1.8279822E-1,7.4782264E-1,-1.611593E-1,-5.869376E-1,-6.400203E-2,-4.656894E-2,-1.4489728E-2,5.6551393E-2,-2.7472828E-2,-6.416973E-2,8.1167005E-2,-2.0743648E-3,1.12295344E-1,8.625058E-3,-1.0931754E-3,-2.760685E-2,-6.813978E-2,-1.5587206E-2],"categories":[],"categories_nodes":[],"categories_segments":[],"categories_sizes":[],"default_left":[0,0,0,0,0,0,0,0,0,0,0,0,0,0,0,0,0,0,0,0,0,0,0,0,0,0,0,0,0],"id":28,"left_children":[1,3,5,7,9,11,13,-1,15,17,19,21,23,25,27,-1,-1,-1,-1,-1,-1,-1,-1,-1,-1,-1,-1,-1,-1],"loss_changes":[1.0227561E2,1.1097687E1,1.4314482E2,1.0531769E0,1.3574632E1,6.2039528E1,1.9097374E1,0E0,1.3845901E0,5.850417E0,3.5060349E0,7.06738E1,7.460414E1,7.0055695E0,5.7165337E0,0E0,0E0,0E0,0E0,0E0,0E0,0E0,0E0,0E0,0E0,0E0,0E0,0E0,0E0],"parents":[2147483647,0,0,1,1,2,2,3,3,4,4,5,5,6,6,8,8,9,9,10,10,11,11,12,12,13,13,14,14],"right_children":[2,4,6,8,10,12,14,-1,16,18,20,22,24,26,28,-1,-1,-1,-1,-1,-1,-1,-1,-1,-1,-1,-1,-1,-1],"split_conditions":[6E0,3E0,1.8E1,1E0,2E0,1.5E1,2.2E1,-3.186987E-2,4E0,4E0,4E0,9E0,1.7E1,2E1,3E0,-6.400203E-2,-4.656894E-2,-1.4489728E-2,5.6551393E-2,-2.7472828E-2,-6.416973E-2,8.1167005E-2,-2.0743648E-3,1.12295344E-1,8.625058E-3,-1.0931754E-3,-2.760685E-2,-6.813978E-2,-1.5587206E-2],"split_indices":[1,1,1,1,0,1,1,0,0,1,0,1,1,1,0,0,0,0,0,0,0,0,0,0,0,0,0,0,0],"split_type":[0,0,0,0,0,0,0,0,0,0,0,0,0,0,0,0,0,0,0,0,0,0,0,0,0,0,0,0,0],"sum_hessian":[1.826E3,4.28E2,1.398E3,2.63E2,1.65E2,8.51E2,5.47E2,2.1E1,2.42E2,4.5E1,1.2E2,5.51E2,3E2,4.05E2,1.42E2,1.54E2,8.8E1,2.1E1,2.4E1,8E1,4E1,1.34E2,4.17E2,1.91E2,1.09E2,1.76E2,2.29E2,1.16E2,2.6E1],"tree_param":{"num_deleted":"0","num_feature":"2","num_nodes":"29","size_leaf_vector":"1"}},{"base_weights":[-4.3115593E-3,-3.891328E-1,1.1369603E-1,-5.039289E-1,-2.0422128E-1,3.4460056E-1,-2.45509E-1,-2.8827745E-2,-5.213791E-1,2.1515597E-1,-3.6196616E-1,-1.1156179E-2,5.3303754E-1,-1.4511411E-1,-5.2882934E-1,-6.2095173E-2,-4.6186782E-2,-1.3106589E-2,5.1122498E-2,-2.4759402E-2,-5.790925E-2,2.1459887E-2,-1.2117436E-1,9.220959E-2,1.611602E-2,-3.1465225E-2,-5.17354E-3,-7.1935974E-2,-3.3095416E-2],"categories":[],"categories_nodes":[],"categories_segments":[],"categories_sizes":[],"default_left":[0,0,0,0,0,0,0,0,0,0,0,0,0,0,0,0,0,0,0,0,0,0,0,0,0,0,0,0,0],"id":29,"left_children":[1,3,5,7,9,11,13,-1,15,17,19,21,23,25,27,-1,-1,-1,-1,-1,-1,-1,-1,-1,-1,-1,-1,-1,-1],"loss_changes":[8.301164E1,9.003525E0,1.16120544E2,8.4317017E-1,1.10595455E1,5.7122086E1,1.5510525E1,0E0,1.1531372E0,4.78226E0,2.8614378E0,8.048748E1,8.0439255E1,6.411208E0,5.1531944E0,0E0,0E0,0E0,0E0,0E0,0E0,0E0,0E0,0E0,0E0,0E0,0E0,0E0,0E0],"parents":[2147483647,0,0,1,1,2,2,3,3,4,4,5,5,6,6,8,8,9,9,10,10,11,11,12,12,13,13,14,14],"right_children":[2,4,6,8,10,12,14,-1,16,18,20,22,24,26,28,-1,-1,-1,-1,-1,-1,-1,-1,-1,-1,-1,-1,-1,-1],"split_conditions":[6E0,3E0,1.8E1,1E0,2E0,2E0,2.2E1,-2.8827745E-2,2E0,4E0,4E0,1.7E1,3E0,2E0,2E0,-6.2095173E-2,-4.6186782E-2,-1.3106589E-2,5.1122498E-2,-2.4759402E-2,-5.790925E-2,2.1459887E-2,-1.2117436E-1,9.220959E-2,1.611602E-2,-3.1465225E-2,-5.17354E-3,-7.1935974E-2,-3.3095416E-2],"split_indices":[1,1,1,1,0,0,1,0,1,1,0,1,0,0,0,0,0,0,0,0,0,0,0,0,0,0,0,0,0],"split_type":[0,0,0,0,0,0,0,0,0,0,0,0,0,0,0,0,0,0,0,0,0,0,0,0,0,0,0,0,0],"sum_hessian":[1.826E3,4.28E2,1.398E3,2.63E2,1.65E2,8.51E2,5.47E2,2.1E1,2.42E2,4.5E1,1.2E2,2.95E2,5.56E2,4.05E2,1.42E2,8.7E1,1.55E2,2.1E1,2.4E1,8E1,4E1,2.49E2,4.6E1,2.71E2,2.85E2,1.43E2,2.62E2,7.1E1,7.1E1],"tree_param":{"num_deleted":"0","num_feature":"2","num_nodes":"29","size_leaf_vector":"1"}},{"base_weights":[-4.0524444E-3,-3.5064322E-1,1.0223169E-1,-4.5405537E-1,-1.8406825E-1,3.1015116E-1,-2.2121654E-1,-2.6076013E-2,-4.696868E-1,1.9446664E-1,-3.2645285E-1,1.2123196E-1,6.5557724E-1,5.69732E-3,-3.2858896E-1,-5.2161314E-2,-3.739759E-2,-1.1855524E-2,4.6214722E-2,-2.231404E-2,-5.225957E-2,6.873986E-2,-6.1910935E-3,9.636546E-2,-2.272498E-4,-2.2157623E-2,4.00716E-2,-5.2856E-2,-1.9997321E-2],"categories":[],"categories_nodes":[],"categories_segments":[],"categories_sizes":[],"default_left":[0,0,0,0,0,0,0,0,0,0,0,0,0,0,0,0,0,0,0,0,0,0,0,0,0,0,0,0,0],"id":30,"left_children":[1,3,5,7,9,11,13,-1,15,17,19,21,23,25,27,-1,-1,-1,-1,-1,-1,-1,-1,-1,-1,-1,-1,-1,-1],"loss_changes":[6.733723E1,7.306324E0,9.415302E1,6.751938E-1,9.010475E0,5.5520027E1,1.3353502E1,0E0,1.0126228E0,3.9091244E0,2.335332E0,5.7279106E1,6.1005432E1,1.597937E1,9.4619255E0,0E0,0E0,0E0,0E0,0E0,0E0,0E0,0E0,0E0,0E0,0E0,0E0,0E0,0E0],"parents":[2147483647,0,0,1,1,2,2,3,3,4,4,5,5,6,6,8,8,9,9,10,10,11,11,12,12,13,13,14,14],"right_children":[2,4,6,8,10,12,14,-1,16,18,20,22,24,26,28,-1,-1,-1,-1,-1,-1,-1,-1,-1,-1,-1,-1,-1,-1],"split_conditions":[6E0,3E0,1.8E1,1E0,2E0,1.5E1,2E1,-2.6076013E-2,4E0,4E0,4E0,9E0,3E0,3E0,2E0,-5.2161314E-2,-3.739759E-2,-1.1855524E-2,4.6214722E-2,-2.231404E-2,-5.225957E-2,6.873986E-2,-6.1910935E-3,9.636546E-2,-2.272498E-4,-2.2157623E-2,4.00716E-2,-5.2856E-2,-1.9997321E-2],"split_indices":[1,1,1,1,0,1,1,0,0,1,0,1,0,0,0,0,0,0,0,0,0,0,0,0,0,0,0,0,0],"split_type":[0,0,0,0,0,0,0,0,0,0,0,0,0,0,0,0,0,0,0,0,0,0,0,0,0,0,0,0,0],"sum_hessian":[1.826E3,4.28E2,1.398E3,2.63E2,1.65E2,8.51E2,5.47E2,2.1E1,2.42E2,4.5E1,1.2E2,5.51E2,3E2,1.76E2,3.71E2,1.54E2,8.8E1,2.1E1,2.4E1,8E1,4E1,1.34E2,4.17E2,2.04E2,9.6E1,1.12E2,6.4E1,1.44E2,2.27E2],"tree_param":{"num_deleted":"0","num_feature":"2","num_nodes":"29","size_leaf_vector":"1"}},{"base_weights":[-3.6755777E-3,-3.1594226E-1,9.208288E-2,-4.090879E-1,-1.6590378E-1,3.1790388E-1,-1.634378E-1,-3.2585272E-1,-4.5026785E-1,1.7576657E-1,-2.9442388E-1,1.0922241E-1,9.162074E-1,-5.139665E-1,6.742221E-2,-6.4117946E-3,-4.1343775E-2,-5.6225266E-2,-3.3699866E-2,-1.0723894E-2,4.1778076E-2,-2.011018E-2,-4.7161084E-2,-3.5326216E-2,3.2664407E-2,1.9877955E-1,-8.194032E-2,-1.1874624E-1,-3.643466E-2,8.998594E-2,-9.228857E-3],"categories":[],"categories_nodes":[],"categories_segments":[],"categories_sizes":[],"default_left":[0,0,0,0,0,0,0,0,0,0,0,0,0,0,0,0,0,0,0,0,0,0,0,0,0,0,0,0,0,0,0],"id":31,"left_children":[1,3,5,7,9,11,13,15,17,19,21,23,25,27,29,-1,-1,-1,-1,-1,-1,-1,-1,-1,-1,-1,-1,-1,-1,-1,-1],"loss_changes":[5.466037E1,5.9275894E0,8.077697E1,7.581711E-1,7.3410606E0,9.266708E1,5.3201103E1,2.059579E0,2.0176125E0,3.1954045E0,1.9059477E0,5.5621284E1,3.5872186E2,2.5867905E1,5.2863873E1,0E0,0E0,0E0,0E0,0E0,0E0,0E0,0E0,0E0,0E0,0E0,0E0,0E0,0E0,0E0,0E0],"parents":[2147483647,0,0,1,1,2,2,3,3,4,4,5,5,6,6,7,7,8,8,9,9,10,10,11,11,12,12,13,13,14,14],"right_children":[2,4,6,8,10,12,14,16,18,20,22,24,26,28,30,-1,-1,-1,-1,-1,-1,-1,-1,-1,-1,-1,-1,-1,-1,-1,-1],"split_conditions":[6E0,3E0,1.7E1,2E0,2E0,1.5E1,2E0,2E0,4E0,4E0,4E0,2E0,3E0,1.8E1,1.8E1,-6.4117946E-3,-4.1343775E-2,-5.6225266E-2,-3.3699866E-2,-1.0723894E-2,4.1778076E-2,-2.011018E-2,-4.7161084E-2,-3.5326216E-2,3.2664407E-2,1.9877955E-1,-8.194032E-2,-1.1874624E-1,-3.643466E-2,8.998594E-2,-9.228857E-3],"split_indices":[1,1,1,0,0,1,0,1,0,1,0,0,0,1,1,0,0,0,0,0,0,0,0,0,0,0,0,0,0,0,0],"split_type":[0,0,0,0,0,0,0,0,0,0,0,0,0,0,0,0,0,0,0,0,0,0,0,0,0,0,0,0,0,0,0],"sum_hessian":[1.826E3,4.28E2,1.398E3,2.63E2,1.65E2,7.42E2,6.56E2,9E1,1.73E2,4.5E1,1.2E2,5.51E2,1.91E2,2.6E2,3.96E2,2.3E1,6.7E1,8.5E1,8.8E1,2.1E1,2.4E1,8E1,4E1,1.76E2,3.75E2,1.18E2,7.3E1,4.6E1,2.14E2,6.3E1,3.33E2],"tree_param":{"num_deleted":"0","num_feature":"2","num_nodes":"31","size_leaf_vector":"1"}},{"base_weights":[-3.3816835E-3,-2.8475323E-1,8.290265E-2,-3.687006E-1,-1.4953119E-1,2.8626657E-1,-1.4720741E-1,-1.821997E-2,-3.8406816E-1,1.5886481E-1,-2.6553684E-1,9.8294735E-2,8.2519466E-1,-3.155653E-1,2.905915E-1,-2.9379232E-2,-4.352514E-2,-9.700238E-3,3.7767332E-2,-1.81239E-2,-4.256E-2,6.0940932E-2,-6.701331E-3,1.790686E-1,-7.3857084E-2,-4.631643E-2,-1.349192E-2,2.431979E-1,-3.243283E-3],"categories":[],"categories_nodes":[],"categories_segments":[],"categories_sizes":[],"default_left":[0,0,0,0,0,0,0,0,0,0,0,0,0,0,0,0,0,0,0,0,0,0,0,0,0,0,0,0,0],"id":32,"left_children":[1,3,5,7,9,11,13,-1,15,17,19,21,23,25,27,-1,-1,-1,-1,-1,-1,-1,-1,-1,-1,-1,-1,-1,-1],"loss_changes":[4.4379433E1,4.8146744E0,6.550986E1,6.866646E-1,5.9809475E0,7.5187256E1,4.8517128E1,0E0,9.949341E-1,2.6119876E0,1.5555162E0,4.6680065E1,2.9120447E2,1.260252E1,1.2666369E2,0E0,0E0,0E0,0E0,0E0,0E0,0E0,0E0,0E0,0E0,0E0,0E0,0E0,0E0],"parents":[2147483647,0,0,1,1,2,2,3,3,4,4,5,5,6,6,8,8,9,9,10,10,11,11,12,12,13,13,14,14],"right_children":[2,4,6,8,10,12,14,-1,16,18,20,22,24,26,28,-1,-1,-1,-1,-1,-1,-1,-1,-1,-1,-1,-1,-1,-1],"split_conditions":[6E0,3E0,1.7E1,1E0,2E0,1.5E1,3E0,-1.821997E-2,2E0,4E0,4E0,9E0,3E0,2E0,1.8E1,-2.9379232E-2,-4.352514E-2,-9.700238E-3,3.7767332E-2,-1.81239E-2,-4.256E-2,6.0940932E-2,-6.701331E-3,1.790686E-1,-7.3857084E-2,-4.631643E-2,-1.349192E-2,2.431979E-1,-3.243283E-3],"split_indices":[1,1,1,1,0,1,0,0,0,1,0,1,0,0,1,0,0,0,0,0,0,0,0,0,0,0,0,0,0],"split_type":[0,0,0,0,0,0,0,0,0,0,0,0,0,0,0,0,0,0,0,0,0,0,0,0,0,0,0,0,0],"sum_hessian":[1.826E3,4.28E2,1.398E3,2.63E2,1.65E2,7.42E2,6.56E2,2.1E1,2.42E2,4.5E1,1.2E2,5.51E2,1.91E2,4.74E2,1.82E2,9E1,1.52E2,2.1E1,2.4E1,8E1,4E1,1.34E2,4.17E2,1.18E2,7.3E1,2.6E2,2.14E2,2.3E1,1.59E2],"tree_param":{"num_deleted":"0","num_feature":"2","num_nodes":"29","size_leaf_vector":"1"}},{"base_weights":[-2.9257191E-3,-2.5656644E-1,7.485469E-2,-3.3217573E-1,-1.3477473E-1,1.9329375E-1,-2.5264588E-1,-1.6480798E-2,-3.459614E-1,1.4358827E-1,-2.3948485E-1,-9.8280594E-2,3.539618E-1,-3.9388797E-1,-1.6171275E-1,-3.9271973E-2,-2.6064113E-2,-8.774341E-3,3.4141663E-2,-1.6333913E-2,-3.84078E-2,8.51029E-2,-2.3401257E-2,5.5743206E-2,1.7040862E-2,-8.1564635E-2,-3.0349255E-2,3.6311129E-3,-2.8415522E-2],"categories":[],"categories_nodes":[],"categories_segments":[],"categories_sizes":[],"default_left":[0,0,0,0,0,0,0,0,0,0,0,0,0,0,0,0,0,0,0,0,0,0,0,0,0,0,0,0,0],"id":33,"left_children":[1,3,5,7,9,11,13,-1,15,17,19,21,23,25,27,-1,-1,-1,-1,-1,-1,-1,-1,-1,-1,-1,-1,-1,-1],"loss_changes":[3.6062767E1,3.905714E0,5.4314445E1,5.5210304E-1,4.872859E0,4.8193176E1,4.714117E0,0E0,8.6707306E-1,2.1350994E0,1.2694926E0,4.7358856E1,2.4666473E1,5.280588E0,5.538528E0,0E0,0E0,0E0,0E0,0E0,0E0,0E0,0E0,0E0,0E0,0E0,0E0,0E0,0E0],"parents":[2147483647,0,0,1,1,2,2,3,3,4,4,5,5,6,6,8,8,9,9,10,10,11,11,12,12,13,13,14,14],"right_children":[2,4,6,8,10,12,14,-1,16,18,20,22,24,26,28,-1,-1,-1,-1,-1,-1,-1,-1,-1,-1,-1,-1,-1,-1],"split_conditions":[6E0,3E0,2E1,1E0,2E0,2E0,2E0,-1.6480798E-2,4E0,4E0,4E0,9E0,3E0,2.1E1,2.1E1,-3.9271973E-2,-2.6064113E-2,-8.774341E-3,3.4141663E-2,-1.6333913E-2,-3.84078E-2,8.51029E-2,-2.3401257E-2,5.5743206E-2,1.7040862E-2,-8.1564635E-2,-3.0349255E-2,3.6311129E-3,-2.8415522E-2],"split_indices":[1,1,1,1,0,0,0,0,0,1,0,1,0,1,1,0,0,0,0,0,0,0,0,0,0,0,0,0,0],"split_type":[0,0,0,0,0,0,0,0,0,0,0,0,0,0,0,0,0,0,0,0,0,0,0,0,0,0,0,0,0],"sum_hessian":[1.826E3,4.28E2,1.398E3,2.63E2,1.65E2,1.027E3,3.71E2,2.1E1,2.42E2,4.5E1,1.2E2,3.65E2,6.62E2,1.44E2,2.27E2,1.54E2,8.8E1,2.1E1,2.4E1,8E1,4E1,4.5E1,3.2E2,3.13E2,3.49E2,2.4E1,1.2E2,8.7E1,1.4E2],"tree_param":{"num_deleted":"0","num_feature":"2","num_nodes":"29","size_leaf_vector":"1"}},{"base_weights":[-2.694929E-3,-2.3116885E-1,6.736798E-2,-2.992681E-1,-1.2147385E-1,2.357854E-1,-1.2319748E-1,-2.2589551E-1,-3.359212E-1,1.2978114E-1,-2.1598835E-1,6.2561445E-2,7.325762E-1,-2.7125898E-1,2.6178837E-1,7.817398E-4,-3.0506043E-2,-4.3659132E-2,-2.3487007E-2,-7.936755E-3,3.0864075E-2,-1.4720625E-2,-3.4660693E-2,-3.3298682E-2,2.485973E-2,1.6063975E-1,-6.825225E-2,-6.3536875E-2,-1.8912837E-2,2.1825837E-1,-2.7967116E-3],"categories":[],"categories_nodes":[],"categories_segments":[],"categories_sizes":[],"default_left":[0,0,0,0,0,0,0,0,0,0,0,0,0,0,0,0,0,0,0,0,0,0,0,0,0,0,0,0,0,0,0],"id":34,"left_children":[1,3,5,7,9,11,13,15,17,19,21,23,25,27,29,-1,-1,-1,-1,-1,-1,-1,-1,-1,-1,-1,-1,-1,-1,-1,-1],"loss_changes":[2.9261362E1,3.1683388E0,4.4929314E1,6.3410187E-1,3.9700732E0,6.3893833E1,3.752105E1,1.6860542E0,1.667532E0,1.7452756E0,1.036068E0,4.070233E1,2.385127E2,1.4084503E1,1.019117E2,0E0,0E0,0E0,0E0,0E0,0E0,0E0,0E0,0E0,0E0,0E0,0E0,0E0,0E0,0E0,0E0],"parents":[2147483647,0,0,1,1,2,2,3,3,4,4,5,5,6,6,7,7,8,8,9,9,10,10,11,11,12,12,13,13,14,14],"right_children":[2,4,6,8,10,12,14,16,18,20,22,24,26,28,30,-1,-1,-1,-1,-1,-1,-1,-1,-1,-1,-1,-1,-1,-1,-1,-1],"split_conditions":[6E0,3E0,1.7E1,2E0,2E0,1.5E1,3E0,2E0,4E0,4E0,4E0,2E0,3E0,1.8E1,1.8E1,7.817398E-4,-3.0506043E-2,-4.3659132E-2,-2.3487007E-2,-7.936755E-3,3.0864075E-2,-1.4720625E-2,-3.4660693E-2,-3.3298682E-2,2.485973E-2,1.6063975E-1,-6.825225E-2,-6.3536875E-2,-1.8912837E-2,2.1825837E-1,-2.7967116E-3],"split_indices":[1,1,1,0,0,1,0,1,0,1,0,0,0,1,1,0,0,0,0,0,0,0,0,0,0,0,0,0,0,0,0],"split_type":[0,0,0,0,0,0,0,0,0,0,0,0,0,0,0,0,0,0,0,0,0,0,0,0,0,0,0,0,0,0,0],"sum_hessian":[1.826E3,4.28E2,1.398E3,2.63E2,1.65E2,7.42E2,6.56E2,9E1,1.73E2,4.5E1,1.2E2,5.51E2,1.91E2,4.74E2,1.82E2,2.3E1,6.7E1,8.5E1,8.8E1,2.1E1,2.4E1,8E1,4E1,1.76E2,3.75E2,1.18E2,7.3E1,8.6E1,3.88E2,2.3E1,1.59E2],"tree_param":{"num_deleted":"0","num_feature":"2","num_nodes":"31","size_leaf_vector":"1"}},{"base_weights":[-2.3741487E-3,-2.083394E-1,6.07863E-2,-2.697082E-1,-1.0948578E-1,-1.6220033E-1,1.8849686E-1,-1.0740167E-2,-2.832927E-1,1.1730099E-1,-1.947974E-1,8.0035156E-1,-2.570717E-1,3.220982E-1,-1.1948437E-1,-2.0363254E-2,-3.288207E-2,-7.179182E-3,2.7901063E-2,-1.3266707E-2,-3.1279154E-2,1.13522306E-1,4.4608515E-2,-1.642202E-1,-9.369411E-3,5.3156164E-2,1.3336546E-2,1.5392773E-3,-2.429918E-2],"categories":[],"categories_nodes":[],"categories_segments":[],"categories_sizes":[],"default_left":[0,0,0,0,0,0,0,0,0,0,0,0,0,0,0,0,0,0,0,0,0,0,0,0,0,0,0,0,0],"id":35,"left_children":[1,3,5,7,9,11,13,-1,15,17,19,21,23,25,27,-1,-1,-1,-1,-1,-1,-1,-1,-1,-1,-1,-1,-1,-1],"loss_changes":[2.3779848E1,2.5730095E0,3.987094E1,5.516567E-1,3.234542E0,4.6778244E1,3.665905E1,0E0,8.143444E-1,1.4266244E0,8.4555626E-1,4.9507446E0,1.0507529E2,2.4478859E1,4.501488E0,0E0,0E0,0E0,0E0,0E0,0E0,0E0,0E0,0E0,0E0,0E0,0E0,0E0,0E0],"parents":[2147483647,0,0,1,1,2,2,3,3,4,4,5,5,6,6,8,8,9,9,10,10,11,11,12,12,13,13,14,14],"right_children":[2,4,6,8,10,12,14,-1,16,18,20,22,24,26,28,-1,-1,-1,-1,-1,-1,-1,-1,-1,-1,-1,-1,-1,-1],"split_conditions":[6E0,3E0,2E0,1E0,2E0,9E0,1.9E1,-1.0740167E-2,2E0,4E0,4E0,7E0,1.1E1,3E0,2.1E1,-2.0363254E-2,-3.288207E-2,-7.179182E-3,2.7901063E-2,-1.3266707E-2,-3.1279154E-2,1.13522306E-1,4.4608515E-2,-1.642202E-1,-9.369411E-3,5.3156164E-2,1.3336546E-2,1.5392773E-3,-2.429918E-2],"split_indices":[1,1,0,1,0,1,1,0,0,1,0,1,1,0,1,0,0,0,0,0,0,0,0,0,0,0,0,0,0],"split_type":[0,0,0,0,0,0,0,0,0,0,0,0,0,0,0,0,0,0,0,0,0,0,0,0,0,0,0,0,0],"sum_hessian":[1.826E3,4.28E2,1.398E3,2.63E2,1.65E2,5.09E2,8.89E2,2.1E1,2.42E2,4.5E1,1.2E2,4.5E1,4.64E2,6.2E2,2.69E2,9E1,1.52E2,2.1E1,2.4E1,8E1,4E1,2.2E1,2.3E1,4.8E1,4.16E2,2.93E2,3.27E2,1.29E2,1.4E2],"tree_param":{"num_deleted":"0","num_feature":"2","num_nodes":"29","size_leaf_vector":"1"}},{"base_weights":[-2.1691823E-3,-1.8770993E-1,5.4727994E-2,-2.4297966E-1,-9.868028E-2,1.4706627E-1,-2.0059048E-1,-2.738846E-1,-1.791342E-2,1.0602159E-1,-1.7568529E-1,-7.383554E-2,2.6879025E-1,-1.7229532E-1,-5.864353E-2,-1.8349297E-2,-3.6634684E-2,-6.4938897E-3,2.5222598E-2,-1.1956335E-2,-2.8227532E-2,7.23754E-2,-1.8790184E-2,4.250443E-2,1.2784006E-2,-2.7091533E-2,-1.1920183E-2],"categories":[],"categories_nodes":[],"categories_segments":[],"categories_sizes":[],"default_left":[0,0,0,0,0,0,0,0,0,0,0,0,0,0,0,0,0,0,0,0,0,0,0,0,0,0,0],"id":36,"left_children":[1,3,5,7,9,11,13,15,-1,17,19,21,23,25,-1,-1,-1,-1,-1,-1,-1,-1,-1,-1,-1,-1,-1],"loss_changes":[1.9297445E1,2.0869808E0,3.3011856E1,4.7184658E-1,2.6352956E0,2.7661783E1,3.9602833E0,1.4037514E0,0E0,1.166157E0,6.900768E-1,3.343398E1,1.4547596E1,1.7898636E0,0E0,0E0,0E0,0E0,0E0,0E0,0E0,0E0,0E0,0E0,0E0,0E0,0E0],"parents":[2147483647,0,0,1,1,2,2,3,3,4,4,5,5,6,6,7,7,9,9,10,10,11,11,12,12,13,13],"right_children":[2,4,6,8,10,12,14,16,-1,18,20,22,24,26,-1,-1,-1,-1,-1,-1,-1,-1,-1,-1,-1,-1,-1],"split_conditions":[6E0,3E0,2E1,4E0,2E0,2E0,2.3E1,2E0,-1.791342E-2,4E0,4E0,9E0,3E0,2E0,-5.864353E-2,-1.8349297E-2,-3.6634684E-2,-6.4938897E-3,2.5222598E-2,-1.1956335E-2,-2.8227532E-2,7.23754E-2,-1.8790184E-2,4.250443E-2,1.2784006E-2,-2.7091533E-2,-1.1920183E-2],"split_indices":[1,1,1,0,0,0,1,0,0,1,0,1,0,0,0,0,0,0,0,0,0,0,0,0,0,0,0],"split_type":[0,0,0,0,0,0,0,0,0,0,0,0,0,0,0,0,0,0,0,0,0,0,0,0,0,0,0],"sum_hessian":[1.826E3,4.28E2,1.398E3,2.63E2,1.65E2,1.027E3,3.71E2,1.75E2,8.8E1,4.5E1,1.2E2,3.65E2,6.62E2,3.47E2,2.4E1,9E1,8.5E1,2.1E1,2.4E1,8E1,4E1,4.5E1,3.2E2,3.13E2,3.49E2,1.2E2,2.27E2],"tree_param":{"num_deleted":"0","num_feature":"2","num_nodes":"27","size_leaf_vector":"1"}},{"base_weights":[-1.9981512E-3,-1.6915876E-1,4.9262676E-2,-2.1895781E-1,-8.894121E-2,1.8197687E-1,-1.0089852E-1,-6.218013E-3,-2.3225062E-1,9.582636E-2,-1.5844838E-1,2.2976737E-2,6.3815445E-1,-2.3139656E-1,2.3837724E-1,-2.714215E-2,-1.6142212E-2,-5.8740443E-3,2.280121E-2,-1.077538E-2,-2.5473649E-2,7.4439816E-2,-4.4078175E-3,1.4282078E-1,-6.409604E-2,-5.2448787E-2,-1.1588301E-2,1.948387E-1,-1.9614068E-3],"categories":[],"categories_nodes":[],"categories_segments":[],"categories_sizes":[],"default_left":[0,0,0,0,0,0,0,0,0,0,0,0,0,0,0,0,0,0,0,0,0,0,0,0,0,0,0,0,0],"id":37,"left_children":[1,3,5,7,9,11,13,-1,15,17,19,21,23,25,27,-1,-1,-1,-1,-1,-1,-1,-1,-1,-1,-1,-1,-1,-1],"loss_changes":[1.5663513E1,1.6942768E0,2.7898363E1,5.3573895E-1,2.1470668E0,5.387683E1,2.9143717E1,0E0,6.3037014E-1,9.5324355E-1,5.6318665E-1,2.673573E1,1.9494467E2,1.6020828E1,8.077189E1,0E0,0E0,0E0,0E0,0E0,0E0,0E0,0E0,0E0,0E0,0E0,0E0,0E0,0E0],"parents":[2147483647,0,0,1,1,2,2,3,3,4,4,5,5,6,6,8,8,9,9,10,10,11,11,12,12,13,13,14,14],"right_children":[2,4,6,8,10,12,14,-1,16,18,20,22,24,26,28,-1,-1,-1,-1,-1,-1,-1,-1,-1,-1,-1,-1,-1,-1],"split_conditions":[6E0,3E0,1.7E1,1E0,2E0,1.5E1,3E0,-6.218013E-3,4E0,4E0,4E0,7E0,3E0,1.9E1,1.8E1,-2.714215E-2,-1.6142212E-2,-5.8740443E-3,2.280121E-2,-1.077538E-2,-2.5473649E-2,7.4439816E-2,-4.4078175E-3,1.4282078E-1,-6.409604E-2,-5.2448787E-2,-1.1588301E-2,1.948387E-1,-1.9614068E-3],"split_indices":[1,1,1,1,0,1,0,0,0,1,0,1,0,1,1,0,0,0,0,0,0,0,0,0,0,0,0,0,0],"split_type":[0,0,0,0,0,0,0,0,0,0,0,0,0,0,0,0,0,0,0,0,0,0,0,0,0,0,0,0,0],"sum_hessian":[1.826E3,4.28E2,1.398E3,2.63E2,1.65E2,7.42E2,6.56E2,2.1E1,2.42E2,4.5E1,1.2E2,5.51E2,1.91E2,4.74E2,1.82E2,1.54E2,8.8E1,2.1E1,2.4E1,8E1,4E1,4.6E1,5.05E2,1.18E2,7.3E1,1.33E2,3.41E2,2.3E1,1.59E2],"tree_param":{"num_deleted":"0","num_feature":"2","num_nodes":"29","size_leaf_vector":"1"}},{"base_weights":[-1.684067E-3,-1.2580079E-1,6.598877E-2,1.0983411E-1,-2.1725051E-1,-1.930666E-1,1.5149023E-1,-6.337854E-2,6.195534E-1,-1.458609E-1,-7.086247E-2,-3.08421E-1,-1.4467643E-1,2.581616E-1,-9.4414994E-2,-1.229694E-2,2.0612365E-2,8.862042E-2,3.3819836E-2,3.1096641E-2,-3.0027349E-2,-5.6244805E-3,-3.89028E-2,-5.274296E-3,-1.6545681E-2,4.2177834E-2,1.1071804E-2,1.975171E-3,-1.9900545E-2],"categories":[],"categories_nodes":[],"categories_segments":[],"categories_sizes":[],"default_left":[0,0,0,0,0,0,0,0,0,0,0,0,0,0,0,0,0,0,0,0,0,0,0,0,0,0,0,0,0],"id":38,"left_children":[1,3,5,7,9,11,13,15,17,-1,19,21,23,25,27,-1,-1,-1,-1,-1,-1,-1,-1,-1,-1,-1,-1,-1,-1],"loss_changes":[1.5353881E1,1.3922804E1,2.6232235E1,1.6019726E1,8.439645E1,1.5964918E0,2.3370003E1,2.209489E0,3.151371E0,0E0,3.6620804E1,1.7262554E0,3.9054966E-1,1.4934452E1,3.2279332E0,0E0,0E0,0E0,0E0,0E0,0E0,0E0,0E0,0E0,0E0,0E0,0E0,0E0,0E0],"parents":[2147483647,0,0,1,1,2,2,3,3,4,4,5,5,6,6,7,7,8,8,10,10,11,11,12,12,13,13,14,14],"right_children":[2,4,6,8,10,12,14,16,18,-1,20,22,24,26,28,-1,-1,-1,-1,-1,-1,-1,-1,-1,-1,-1,-1,-1,-1],"split_conditions":[2E0,9E0,6E0,6E0,1.1E1,2E0,1.9E1,4E0,7E0,-1.458609E-1,1.7E1,1E0,3E0,3E0,2.1E1,-1.229694E-2,2.0612365E-2,8.862042E-2,3.3819836E-2,3.1096641E-2,-3.0027349E-2,-5.6244805E-3,-3.89028E-2,-5.274296E-3,-1.6545681E-2,4.2177834E-2,1.1071804E-2,1.975171E-3,-1.9900545E-2],"split_indices":[0,1,1,1,1,1,1,1,1,0,1,1,0,0,1,0,0,0,0,0,0,0,0,0,0,0,0,0,0],"split_type":[0,0,0,0,0,0,0,0,0,0,0,0,0,0,0,0,0,0,0,0,0,0,0,0,0,0,0,0,0],"sum_hessian":[1.826E3,6.44E2,1.182E3,1.8E2,4.64E2,2.93E2,8.89E2,1.35E2,4.5E1,4.8E1,4.16E2,8.5E1,2.08E2,6.2E2,2.69E2,1.11E2,2.4E1,2.2E1,2.3E1,1.56E2,2.6E2,2.1E1,6.4E1,3.9E1,1.69E2,2.93E2,3.27E2,1.29E2,1.4E2],"tree_param":{"num_deleted":"0","num_feature":"2","num_nodes":"29","size_leaf_vector":"1"}},{"base_weights":[-1.5403582E-3,-1.1324269E-1,5.9363738E-2,9.9572994E-2,-1.958371E-1,-1.7398557E-1,1.3638097E-1,-5.6979667E-2,5.602597E-1,-1.3157248E-1,-6.377392E-2,-2.7809668E-1,-1.3031314E-1,2.3243128E-1,-8.503986E-2,-1.1078234E-2,1.8633544E-2,8.014361E-2,3.057882E-2,2.8006706E-2,-2.7036114E-2,-5.0875926E-3,-3.5072375E-2,-4.7600986E-3,-1.4900828E-2,3.7974454E-2,9.967967E-3,1.7791888E-3,-1.7924616E-2],"categories":[],"categories_nodes":[],"categories_segments":[],"categories_sizes":[],"default_left":[0,0,0,0,0,0,0,0,0,0,0,0,0,0,0,0,0,0,0,0,0,0,0,0,0,0,0,0,0],"id":39,"left_children":[1,3,5,7,9,11,13,15,17,-1,19,21,23,25,27,-1,-1,-1,-1,-1,-1,-1,-1,-1,-1,-1,-1,-1,-1],"loss_changes":[1.2436041E1,1.1356912E1,2.1284506E1,1.3085955E1,6.868769E1,1.3005161E0,1.8947874E1,1.8010187E0,2.5780659E0,0E0,2.9696543E1,1.401362E0,3.16087E-1,1.2106472E1,2.618786E0,0E0,0E0,0E0,0E0,0E0,0E0,0E0,0E0,0E0,0E0,0E0,0E0,0E0,0E0],"parents":[2147483647,0,0,1,1,2,2,3,3,4,4,5,5,6,6,7,7,8,8,10,10,11,11,12,12,13,13,14,14],"right_children":[2,4,6,8,10,12,14,16,18,-1,20,22,24,26,28,-1,-1,-1,-1,-1,-1,-1,-1,-1,-1,-1,-1,-1,-1],"split_conditions":[2E0,9E0,6E0,6E0,1.1E1,2E0,1.9E1,4E0,7E0,-1.3157248E-1,1.7E1,1E0,3E0,3E0,2.1E1,-1.1078234E-2,1.8633544E-2,8.014361E-2,3.057882E-2,2.8006706E-2,-2.7036114E-2,-5.0875926E-3,-3.5072375E-2,-4.7600986E-3,-1.4900828E-2,3.7974454E-2,9.967967E-3,1.7791888E-3,-1.7924616E-2],"split_indices":[0,1,1,1,1,1,1,1,1,0,1,1,0,0,1,0,0,0,0,0,0,0,0,0,0,0,0,0,0],"split_type":[0,0,0,0,0,0,0,0,0,0,0,0,0,0,0,0,0,0,0,0,0,0,0,0,0,0,0,0,0],"sum_hessian":[1.826E3,6.44E2,1.182E3,1.8E2,4.64E2,2.93E2,8.89E2,1.35E2,4.5E1,4.8E1,4.16E2,8.5E1,2.08E2,6.2E2,2.69E2,1.11E2,2.4E1,2.2E1,2.3E1,1.56E2,2.6E2,2.1E1,6.4E1,3.9E1,1.69E2,2.93E2,3.27E2,1.29E2,1.4E2],"tree_param":{"num_deleted":"0","num_feature":"2","num_nodes":"29","size_leaf_vector":"1"}},{"base_weights":[-1.4085977E-3,-1.0193769E-1,5.3403467E-2,9.026925E-2,-1.765345E-1,-1.5679055E-1,1.2277834E-1,-5.1226154E-2,5.0664115E-1,-1.1868373E-1,-5.7394516E-2,-2.5075403E-1,-1.1737597E-1,2.0926505E-1,-7.6595835E-2,-9.980316E-3,1.6844789E-2,7.247776E-2,2.7648369E-2,2.5223795E-2,-2.4342863E-2,-4.60196E-3,-3.1619098E-2,-4.295926E-3,-1.3419534E-2,2.2618033E-2,-8.468767E-2,1.602596E-3,-1.6144859E-2],"categories":[],"categories_nodes":[],"categories_segments":[],"categories_sizes":[],"default_left":[0,0,0,0,0,0,0,0,0,0,0,0,0,0,0,0,0,0,0,0,0,0,0,0,0,0,0,0,0],"id":40,"left_children":[1,3,5,7,9,11,13,15,17,-1,19,21,23,25,27,-1,-1,-1,-1,-1,-1,-1,-1,-1,-1,-1,-1,-1,-1],"loss_changes":[1.0072592E1,9.263963E0,1.7269976E1,1.0689516E1,5.5902752E1,1.0594058E0,1.5362491E1,1.4680821E0,2.1090727E0,0E0,2.4081518E1,1.1376085E0,2.5582814E-1,1.1285673E1,2.1245754E0,0E0,0E0,0E0,0E0,0E0,0E0,0E0,0E0,0E0,0E0,0E0,0E0,0E0,0E0],"parents":[2147483647,0,0,1,1,2,2,3,3,4,4,5,5,6,6,7,7,8,8,10,10,11,11,12,12,13,13,14,14],"right_children":[2,4,6,8,10,12,14,16,18,-1,20,22,24,26,28,-1,-1,-1,-1,-1,-1,-1,-1,-1,-1,-1,-1,-1,-1],"split_conditions":[2E0,9E0,6E0,6E0,1.1E1,2E0,1.9E1,4E0,7E0,-1.1868373E-1,1.7E1,1E0,3E0,4E0,2.1E1,-9.980316E-3,1.6844789E-2,7.247776E-2,2.7648369E-2,2.5223795E-2,-2.4342863E-2,-4.60196E-3,-3.1619098E-2,-4.295926E-3,-1.3419534E-2,2.2618033E-2,-8.468767E-2,1.602596E-3,-1.6144859E-2],"split_indices":[0,1,1,1,1,1,1,1,1,0,1,1,0,0,1,0,0,0,0,0,0,0,0,0,0,0,0,0,0],"split_type":[0,0,0,0,0,0,0,0,0,0,0,0,0,0,0,0,0,0,0,0,0,0,0,0,0,0,0,0,0],"sum_hessian":[1.826E3,6.44E2,1.182E3,1.8E2,4.64E2,2.93E2,8.89E2,1.35E2,4.5E1,4.8E1,4.16E2,8.5E1,2.08E2,6.2E2,2.69E2,1.11E2,2.4E1,2.2E1,2.3E1,1.56E2,2.6E2,2.1E1,6.4E1,3.9E1,1.69E2,6.11E2,9E0,1.29E2,1.4E2],"tree_param":{"num_deleted":"0","num_feature":"2","num_nodes":"29","size_leaf_vector":"1"}},{"base_weights":[-1.3450084E-3,-7.6164134E-2,6.918199E-2,-2.3539955E-2,-9.5662206E-1,3.7126976E-1,-6.196595E-2,-1.1143114E-1,6.848165E-2,-1.5911686E-1,-5.499656E-1,7.658118E-1,-4.0130457E-1,-1.6784506E-1,2.1319549E-1,-4.605332E-3,-1.41294915E-2,-1.9552693E-2,1.9879686E-2,-4.3010082E-2,-7.706582E-2,3.4017079E-3,1.1959934E-1,2.9218618E-2,-6.2079746E-2,-4.7684755E-2,-4.6283123E-3,1.7198277E-1,-1.4131805E-3],"categories":[],"categories_nodes":[],"categories_segments":[],"categories_sizes":[],"default_left":[0,0,0,0,0,0,0,0,0,0,0,0,0,0,0,0,0,0,0,0,0,0,0,0,0,0,0,0,0],"id":41,"left_children":[1,3,5,7,9,11,13,15,17,-1,19,21,23,25,27,-1,-1,-1,-1,-1,-1,-1,-1,-1,-1,-1,-1,-1,-1],"loss_changes":[9.6459255E0,4.1075184E1,3.7303722E1,6.7852798E0,1.2027039E1,8.717905E1,1.9176723E1,8.310847E-1,1.4144647E1,0E0,5.150442E-1,5.9457375E1,1.4946366E1,1.7820328E1,6.270155E1,0E0,0E0,0E0,0E0,0E0,0E0,0E0,0E0,0E0,0E0,0E0,0E0,0E0,0E0],"parents":[2147483647,0,0,1,1,2,2,3,3,4,4,5,5,6,6,7,7,8,8,10,10,11,11,12,12,13,13,14,14],"right_children":[2,4,6,8,10,12,14,16,18,-1,20,22,24,26,28,-1,-1,-1,-1,-1,-1,-1,-1,-1,-1,-1,-1,-1,-1],"split_conditions":[1.3E1,1.2E1,1.7E1,6E0,2E0,3E0,3E0,2E0,2E0,-1.5911686E-1,4E0,1.5E1,1.5E1,1.9E1,1.8E1,-4.605332E-3,-1.41294915E-2,-1.9552693E-2,1.9879686E-2,-4.3010082E-2,-7.706582E-2,3.4017079E-3,1.1959934E-1,2.9218618E-2,-6.2079746E-2,-4.7684755E-2,-4.6283123E-3,1.7198277E-1,-1.4131805E-3],"split_indices":[1,1,1,1,0,0,0,0,0,0,0,1,1,1,1,0,0,0,0,0,0,0,0,0,0,0,0,0,0],"split_type":[0,0,0,0,0,0,0,0,0,0,0,0,0,0,0,0,0,0,0,0,0,0,0,0,0,0,0,0,0],"sum_hessian":[1.826E3,8.86E2,9.4E2,8.37E2,4.9E1,2.84E2,6.56E2,4.28E2,4.09E2,1.8E1,3.1E1,1.88E2,9.6E1,4.74E2,1.82E2,1.35E2,2.93E2,1.35E2,2.74E2,2.2E1,9E0,7E1,1.18E2,2.3E1,7.3E1,1.33E2,3.41E2,2.3E1,1.59E2],"tree_param":{"num_deleted":"0","num_feature":"2","num_nodes":"29","size_leaf_vector":"1"}},{"base_weights":[-1.2593702E-3,-6.8883434E-2,6.248537E-2,-2.1208145E-2,-8.665436E-1,3.3445904E-1,-5.5589184E-2,-1.0033159E-1,6.1633725E-2,-1.4404266E-1,-4.9872112E-1,6.8988115E-1,-3.6151242E-1,-1.5117054E-1,1.9280827E-1,-1.3327718E-2,-4.7331788E-3,-1.7611844E-2,1.7898886E-2,-3.8896013E-2,-7.012993E-2,3.0664203E-3,1.07739806E-1,2.6418496E-2,-5.59556E-2,-4.2951815E-2,-4.1668345E-3,1.5550117E-1,-1.2727311E-3],"categories":[],"categories_nodes":[],"categories_segments":[],"categories_sizes":[],"default_left":[0,0,0,0,0,0,0,0,0,0,0,0,0,0,0,0,0,0,0,0,0,0,0,0,0,0,0,0,0],"id":42,"left_children":[1,3,5,7,9,11,13,15,17,-1,19,21,23,25,27,-1,-1,-1,-1,-1,-1,-1,-1,-1,-1,-1,-1,-1,-1],"loss_changes":[7.8799133E0,3.3713055E1,3.0237087E1,5.4990506E0,9.835983E0,7.074803E1,1.56277485E1,7.4277353E-1,1.1471112E1,0E0,4.3874836E-1,4.824848E1,1.2167615E1,1.4459947E1,5.1256363E1,0E0,0E0,0E0,0E0,0E0,0E0,0E0,0E0,0E0,0E0,0E0,0E0,0E0,0E0],"parents":[2147483647,0,0,1,1,2,2,3,3,4,4,5,5,6,6,7,7,8,8,10,10,11,11,12,12,13,13,14,14],"right_children":[2,4,6,8,10,12,14,16,18,-1,20,22,24,26,28,-1,-1,-1,-1,-1,-1,-1,-1,-1,-1,-1,-1,-1,-1],"split_conditions":[1.3E1,1.2E1,1.7E1,6E0,2E0,3E0,3E0,3E0,2E0,-1.4404266E-1,4E0,1.5E1,1.5E1,1.9E1,1.8E1,-1.3327718E-2,-4.7331788E-3,-1.7611844E-2,1.7898886E-2,-3.8896013E-2,-7.012993E-2,3.0664203E-3,1.07739806E-1,2.6418496E-2,-5.59556E-2,-4.2951815E-2,-4.1668345E-3,1.5550117E-1,-1.2727311E-3],"split_indices":[1,1,1,1,0,0,0,1,0,0,0,1,1,1,1,0,0,0,0,0,0,0,0,0,0,0,0,0,0],"split_type":[0,0,0,0,0,0,0,0,0,0,0,0,0,0,0,0,0,0,0,0,0,0,0,0,0,0,0,0,0],"sum_hessian":[1.826E3,8.86E2,9.4E2,8.37E2,4.9E1,2.84E2,6.56E2,4.28E2,4.09E2,1.8E1,3.1E1,1.88E2,9.6E1,4.74E2,1.82E2,2.63E2,1.65E2,1.35E2,2.74E2,2.2E1,9E0,7E1,1.18E2,2.3E1,7.3E1,1.33E2,3.41E2,2.3E1,1.59E2],"tree_param":{"num_deleted":"0","num_feature":"2","num_nodes":"29","size_leaf_vector":"1"}},{"base_weights":[-1.1784977E-3,1.730811E-2,-2.1900198E-1,-6.2300142E-2,1.0566257E-1,-2.777432E-1,4.365455E-3,-1.9108254E-2,-7.849502E-1,3.0129796E-1,-2.8068523E-3,-2.3317717E-2,-4.3241914E-2,-9.034037E-3,5.5471463E-3,-1.3039647E-1,-4.522556E-2,6.2147874E-2,-3.2566555E-2,-8.962859E-3,1.9573972E-2],"categories":[],"categories_nodes":[],"categories_segments":[],"categories_sizes":[],"default_left":[0,0,0,0,0,0,0,0,0,0,0,0,0,0,0,0,0,0,0,0,0],"id":43,"left_children":[1,3,5,7,9,11,-1,13,15,17,19,-1,-1,-1,-1,-1,-1,-1,-1,-1,-1],"loss_changes":[7.360786E0,1.1858441E1,2.2184386E0,2.7670593E1,1.6955992E1,7.056856E-1,0E0,4.456862E0,8.0439415E0,5.741376E1,8.895195E0,0E0,0E0,0E0,0E0,0E0,0E0,0E0,0E0,0E0,0E0],"parents":[2147483647,0,0,1,1,2,2,3,3,4,4,5,5,7,7,8,8,9,9,10,10],"right_children":[2,4,6,8,10,12,-1,14,16,18,20,-1,-1,-1,-1,-1,-1,-1,-1,-1,-1],"split_conditions":[2.2E1,1.3E1,3E0,1.2E1,1.7E1,2.3E1,4.365455E-3,6E0,2E0,3E0,3E0,-2.3317717E-2,-4.3241914E-2,-9.034037E-3,5.5471463E-3,-1.3039647E-1,-4.522556E-2,6.2147874E-2,-3.2566555E-2,-8.962859E-3,1.9573972E-2],"split_indices":[1,1,0,1,1,1,0,1,0,0,0,0,0,0,0,0,0,0,0,0,0],"split_type":[0,0,0,0,0,0,0,0,0,0,0,0,0,0,0,0,0,0,0,0,0],"sum_hessian":[1.826E3,1.684E3,1.42E2,8.86E2,7.98E2,1.16E2,2.6E1,8.37E2,4.9E1,2.84E2,5.14E2,9.2E1,2.4E1,4.28E2,4.09E2,1.8E1,3.1E1,1.88E2,9.6E1,3.58E2,1.56E2],"tree_param":{"num_deleted":"0","num_feature":"2","num_nodes":"21","size_leaf_vector":"1"}},{"base_weights":[-1.1706544E-3,-8.472127E-2,4.4384137E-2,1.07670926E-1,-1.5942721E-1,-1.084357E-1,9.481633E-2,-2.2128278E-2,4.8908442E-1,-1.0396037E-1,-5.561888E-2,-1.9003293E-1,-7.434097E-2,1.6304211E-1,-6.245417E-2,-6.479741E-3,1.6991455E-2,6.856948E-2,2.802876E-2,1.4068479E-2,-1.7348884E-2,-6.7945395E-4,-2.491285E-2,-1.1571837E-3,-8.867289E-3,6.298404E-3,3.1531364E-2,1.3753193E-3,-1.6073614E-2],"categories":[],"categories_nodes":[],"categories_segments":[],"categories_sizes":[],"default_left":[0,0,0,0,0,0,0,0,0,0,0,0,0,0,0,0,0,0,0,0,0,0,0,0,0,0,0,0,0],"id":44,"left_children":[1,3,5,7,9,11,13,15,17,-1,19,21,23,25,27,-1,-1,-1,-1,-1,-1,-1,-1,-1,-1,-1,-1,-1,-1],"loss_changes":[6.957561E0,9.287648E0,9.127708E0,8.97162E0,4.2429077E1,8.037913E-1,9.559797E0,1.1254349E0,1.6961832E0,0E0,9.67308E0,9.295647E-1,1.8699074E-1,9.441692E0,2.0244594E0,0E0,0E0,0E0,0E0,0E0,0E0,0E0,0E0,0E0,0E0,0E0,0E0,0E0,0E0],"parents":[2147483647,0,0,1,1,2,2,3,3,4,4,5,5,6,6,7,7,8,8,10,10,11,11,12,12,13,13,14,14],"right_children":[2,4,6,8,10,12,14,16,18,-1,20,22,24,26,28,-1,-1,-1,-1,-1,-1,-1,-1,-1,-1,-1,-1,-1,-1],"split_conditions":[2E0,9E0,6E0,6E0,1.1E1,2E0,1.9E1,4E0,7E0,-1.0396037E-1,1.7E1,1E0,3E0,1.5E1,3E0,-6.479741E-3,1.6991455E-2,6.856948E-2,2.802876E-2,1.4068479E-2,-1.7348884E-2,-6.7945395E-4,-2.491285E-2,-1.1571837E-3,-8.867289E-3,6.298404E-3,3.1531364E-2,1.3753193E-3,-1.6073614E-2],"split_indices":[0,1,1,1,1,1,1,1,1,0,1,1,0,1,0,0,0,0,0,0,0,0,0,0,0,0,0,0,0],"split_type":[0,0,0,0,0,0,0,0,0,0,0,0,0,0,0,0,0,0,0,0,0,0,0,0,0,0,0,0,0],"sum_hessian":[1.826E3,6.44E2,1.182E3,1.8E2,4.64E2,2.93E2,8.89E2,1.35E2,4.5E1,4.8E1,4.16E2,8.5E1,2.08E2,6.2E2,2.69E2,1.11E2,2.4E1,2.2E1,2.3E1,1.56E2,2.6E2,2.1E1,6.4E1,3.9E1,1.69E2,3.75E2,2.45E2,1.52E2,1.17E2],"tree_param":{"num_deleted":"0","num_feature":"2","num_nodes":"29","size_leaf_vector":"1"}},{"base_weights":[-1.0604865E-3,-7.624927E-2,3.993514E-2,9.7495824E-2,-1.4371511E-1,-9.771322E-2,8.536063E-2,-1.9837962E-2,4.4227624E-1,-9.377653E-2,-5.0064813E-2,-1.7132723E-1,-6.6954754E-2,2.807817E-1,3.611101E-2,-5.8375457E-3,1.5360351E-2,6.2010687E-2,2.5342703E-2,1.2670579E-2,-1.56206265E-2,-2.7337713E-2,-6.291974E-3,-3.721779E-3,-9.778453E-3,6.220436E-2,-7.918282E-3,-1.461601E-2,1.0611794E-2],"categories":[],"categories_nodes":[],"categories_segments":[],"categories_sizes":[],"default_left":[0,0,0,0,0,0,0,0,0,0,0,0,0,0,0,0,0,0,0,0,0,0,0,0,0,0,0,0,0],"id":45,"left_children":[1,3,5,7,9,11,13,15,17,-1,19,21,23,25,27,-1,-1,-1,-1,-1,-1,-1,-1,-1,-1,-1,-1,-1,-1],"loss_changes":[5.634611E0,7.5746107E0,7.405337E0,7.3310194E0,3.4531864E1,6.542194E-1,8.55559E0,9.1799057E-1,1.3876734E0,0E0,7.843834E0,9.3421507E-1,1.8796855E-1,2.2038004E1,9.100801E0,0E0,0E0,0E0,0E0,0E0,0E0,0E0,0E0,0E0,0E0,0E0,0E0,0E0,0E0],"parents":[2147483647,0,0,1,1,2,2,3,3,4,4,5,5,6,6,7,7,8,8,10,10,11,11,12,12,13,13,14,14],"right_children":[2,4,6,8,10,12,14,16,18,-1,20,22,24,26,28,-1,-1,-1,-1,-1,-1,-1,-1,-1,-1,-1,-1,-1,-1],"split_conditions":[2E0,9E0,6E0,6E0,1.1E1,2E0,1.1E1,4E0,7E0,-9.377653E-2,1.7E1,3E0,4E0,3E0,1.5E1,-5.8375457E-3,1.5360351E-2,6.2010687E-2,2.5342703E-2,1.2670579E-2,-1.56206265E-2,-2.7337713E-2,-6.291974E-3,-3.721779E-3,-9.778453E-3,6.220436E-2,-7.918282E-3,-1.461601E-2,1.0611794E-2],"split_indices":[0,1,1,1,1,1,1,1,1,0,1,0,1,0,1,0,0,0,0,0,0,0,0,0,0,0,0,0,0],"split_type":[0,0,0,0,0,0,0,0,0,0,0,0,0,0,0,0,0,0,0,0,0,0,0,0,0,0,0,0,0],"sum_hessian":[1.826E3,6.44E2,1.182E3,1.8E2,4.64E2,2.93E2,8.89E2,1.35E2,4.5E1,4.8E1,4.16E2,8.5E1,2.08E2,1.78E2,7.11E2,1.11E2,2.4E1,2.2E1,2.3E1,1.56E2,2.6E2,4.3E1,4.2E1,1.07E2,1.01E2,9.1E1,8.7E1,1.97E2,5.14E2],"tree_param":{"num_deleted":"0","num_feature":"2","num_nodes":"29","size_leaf_vector":"1"}},{"base_weights":[-9.526768E-4,1.45779075E-2,-1.8394625E-1,-5.0275106E-2,8.6555436E-2,-2.35141E-1,4.471048E-3,-1.0587312E-2,-7.14437E-1,2.4685898E-1,-2.3243108E-3,-1.9924833E-2,-3.5925616E-2,-6.6015497E-3,4.743532E-3,-1.2057636E-1,-4.0038574E-2,5.381126E-2,-3.2318007E-2,-7.4184663E-3,1.6200813E-2],"categories":[],"categories_nodes":[],"categories_segments":[],"categories_sizes":[],"default_left":[0,0,0,0,0,0,0,0,0,0,0,0,0,0,0,0,0,0,0,0,0],"id":46,"left_children":[1,3,5,7,9,11,-1,13,15,17,19,-1,-1,-1,-1,-1,-1,-1,-1,-1,-1],"loss_changes":[5.1950107E0,7.8698635E0,1.6844745E0,2.3372978E1,1.1384518E1,4.496336E-1,0E0,2.6982143E0,7.232317E0,4.74913E1,6.093647E0,0E0,0E0,0E0,0E0,0E0,0E0,0E0,0E0,0E0,0E0],"parents":[2147483647,0,0,1,1,2,2,3,3,4,4,5,5,7,7,8,8,9,9,10,10],"right_children":[2,4,6,8,10,12,-1,14,16,18,20,-1,-1,-1,-1,-1,-1,-1,-1,-1,-1],"split_conditions":[2.2E1,1.3E1,3E0,1.2E1,1.7E1,2.3E1,4.471048E-3,6E0,2E0,3E0,3E0,-1.9924833E-2,-3.5925616E-2,-6.6015497E-3,4.743532E-3,-1.2057636E-1,-4.0038574E-2,5.381126E-2,-3.2318007E-2,-7.4184663E-3,1.6200813E-2],"split_indices":[1,1,0,1,1,1,0,1,0,0,0,0,0,0,0,0,0,0,0,0,0],"split_type":[0,0,0,0,0,0,0,0,0,0,0,0,0,0,0,0,0,0,0,0,0],"sum_hessian":[1.826E3,1.684E3,1.42E2,8.86E2,7.98E2,1.16E2,2.6E1,8.37E2,4.9E1,2.84E2,5.14E2,9.2E1,2.4E1,4.28E2,4.09E2,1.8E1,3.1E1,1.88E2,9.6E1,3.58E2,1.56E2],"tree_param":{"num_deleted":"0","num_feature":"2","num_nodes":"21","size_leaf_vector":"1"}},{"base_weights":[-9.5801806E-4,-6.7917086E-2,3.5550483E-2,9.202596E-2,-1.3002843E-1,-8.1523076E-2,7.4184276E-2,-1.1231184E-2,3.9530736E-1,-8.505493E-2,-4.505109E-2,-1.4806072E-1,-5.375389E-2,1.35217E-1,-6.646573E-2,-4.6047536E-3,1.451953E-2,5.5625584E-2,2.2459395E-2,9.376693E-3,-1.2838204E-2,2.625071E-3,-2.0478059E-2,5.5277825E-4,-6.7386325E-3,4.623248E-3,2.7067617E-2,1.2893019E-3,-1.6879981E-2],"categories":[],"categories_nodes":[],"categories_segments":[],"categories_sizes":[],"default_left":[0,0,0,0,0,0,0,0,0,0,0,0,0,0,0,0,0,0,0,0,0,0,0,0,0,0,0,0,0],"id":47,"left_children":[1,3,5,7,9,11,13,15,17,-1,19,21,23,25,27,-1,-1,-1,-1,-1,-1,-1,-1,-1,-1,-1,-1,-1,-1],"loss_changes":[4.4686527E0,6.4195747E0,5.3567514E0,5.6726313E0,2.8432673E1,5.352639E-1,7.64897E0,7.4736905E-1,1.138967E0,0E0,4.8358264E0,8.556504E-1,1.6927648E-1,7.4728785E0,2.1948748E0,0E0,0E0,0E0,0E0,0E0,0E0,0E0,0E0,0E0,0E0,0E0,0E0,0E0,0E0],"parents":[2147483647,0,0,1,1,2,2,3,3,4,4,5,5,6,6,7,7,8,8,10,10,11,11,12,12,13,13,14,14],"right_children":[2,4,6,8,10,12,14,16,18,-1,20,22,24,26,28,-1,-1,-1,-1,-1,-1,-1,-1,-1,-1,-1,-1,-1,-1],"split_conditions":[2E0,9E0,6E0,6E0,1.1E1,2E0,1.9E1,4E0,7E0,-8.505493E-2,1.7E1,1E0,3E0,1.5E1,3E0,-4.6047536E-3,1.451953E-2,5.5625584E-2,2.2459395E-2,9.376693E-3,-1.2838204E-2,2.625071E-3,-2.0478059E-2,5.5277825E-4,-6.7386325E-3,4.623248E-3,2.7067617E-2,1.2893019E-3,-1.6879981E-2],"split_indices":[0,1,1,1,1,1,1,1,1,0,1,1,0,1,0,0,0,0,0,0,0,0,0,0,0,0,0,0,0],"split_type":[0,0,0,0,0,0,0,0,0,0,0,0,0,0,0,0,0,0,0,0,0,0,0,0,0,0,0,0,0],"sum_hessian":[1.826E3,6.44E2,1.182E3,1.8E2,4.64E2,2.93E2,8.89E2,1.35E2,4.5E1,4.8E1,4.16E2,8.5E1,2.08E2,6.2E2,2.69E2,1.11E2,2.4E1,2.2E1,2.3E1,1.56E2,2.6E2,2.1E1,6.4E1,3.9E1,1.69E2,3.75E2,2.45E2,1.52E2,1.17E2],"tree_param":{"num_deleted":"0","num_feature":"2","num_nodes":"29","size_leaf_vector":"1"}},{"base_weights":[-8.6680724E-4,1.2373436E-2,-1.568734E-1,-3.764669E-2,8.178894E-2,-2.0480952E-1,5.665984E-3,-5.6919046E-3,-2.2464292E-1,3.0429456E-1,-1.3234157E-3,-1.7367354E-2,-3.1244293E-2,-5.351941E-3,4.436588E-3,-6.5244734E-2,5.3024496E-4,8.072508E-2,-5.086256E-2,-6.508687E-3,1.44488085E-2],"categories":[],"categories_nodes":[],"categories_segments":[],"categories_sizes":[],"default_left":[0,0,0,0,0,0,0,0,0,0,0,0,0,0,0,0,0,0,0,0,0],"id":48,"left_children":[1,3,5,7,9,11,-1,13,15,17,19,-1,-1,-1,-1,-1,-1,-1,-1,-1,-1],"loss_changes":[3.775729E0,5.8536897E0,1.4753456E0,5.854637E0,1.3056437E1,3.378353E-1,0E0,2.0086627E0,1.4070606E1,7.891232E1,4.7975883E0,0E0,0E0,0E0,0E0,0E0,0E0,0E0,0E0,0E0,0E0],"parents":[2147483647,0,0,1,1,2,2,3,3,4,4,5,5,7,7,8,8,9,9,10,10],"right_children":[2,4,6,8,10,12,-1,14,16,18,20,-1,-1,-1,-1,-1,-1,-1,-1,-1,-1],"split_conditions":[2.2E1,1.5E1,3E0,1.2E1,1.7E1,2.3E1,5.665984E-3,6E0,1.3E1,3E0,3E0,-1.7367354E-2,-3.1244293E-2,-5.351941E-3,4.436588E-3,-6.5244734E-2,5.3024496E-4,8.072508E-2,-5.086256E-2,-6.508687E-3,1.44488085E-2],"split_indices":[1,1,0,1,1,1,0,1,1,0,0,0,0,0,0,0,0,0,0,0,0],"split_type":[0,0,0,0,0,0,0,0,0,0,0,0,0,0,0,0,0,0,0,0,0],"sum_hessian":[1.826E3,1.684E3,1.42E2,9.79E2,7.05E2,1.16E2,2.6E1,8.37E2,1.42E2,1.91E2,5.14E2,9.2E1,2.4E1,4.28E2,4.09E2,4.9E1,9.3E1,1.18E2,7.3E1,3.58E2,1.56E2],"tree_param":{"num_deleted":"0","num_feature":"2","num_nodes":"21","size_leaf_vector":"1"}},{"base_weights":[-8.188029E-4,-6.393361E-2,3.35936E-2,8.6198494E-2,-1.22234635E-1,-6.8118796E-2,6.715523E-2,-4.7223778E-3,3.5313416E-1,-7.7157654E-2,-4.563994E-2,-1.2817255E-1,-4.3081753E-2,2.3928E-1,2.3787966E-2,1.5566035E-2,-3.8744174E-3,4.9880486E-2,1.9881917E-2,-2.5436778E-2,-9.847119E-4,-2.2599265E-2,-2.5096803E-3,-1.5011536E-3,-7.238079E-3,5.4686196E-2,-8.500202E-3,-1.3339204E-2,8.417214E-3],"categories":[],"categories_nodes":[],"categories_segments":[],"categories_sizes":[],"default_left":[0,0,0,0,0,0,0,0,0,0,0,0,0,0,0,0,0,0,0,0,0,0,0,0,0,0,0,0,0],"id":49,"left_children":[1,3,5,7,9,11,13,15,17,-1,19,21,23,25,27,-1,-1,-1,-1,-1,-1,-1,-1,-1,-1,-1,-1,-1,-1],"loss_changes":[3.9702673E0,5.6561284E0,4.0429034E0,4.3945417E0,2.3092093E1,4.3652725E-1,6.6377835E0,7.4811614E-1,9.3486977E-1,0E0,3.1128845E0,8.6145604E-1,1.7080143E-1,1.7900532E1,6.768952E0,0E0,0E0,0E0,0E0,0E0,0E0,0E0,0E0,0E0,0E0,0E0,0E0,0E0,0E0],"parents":[2147483647,0,0,1,1,2,2,3,3,4,4,5,5,6,6,7,7,8,8,10,10,11,11,12,12,13,13,14,14],"right_children":[2,4,6,8,10,12,14,16,18,-1,20,22,24,26,28,-1,-1,-1,-1,-1,-1,-1,-1,-1,-1,-1,-1,-1,-1],"split_conditions":[2E0,9E0,6E0,6E0,1.1E1,2E0,1.1E1,2E0,7E0,-7.7157654E-2,1.3E1,3E0,4E0,3E0,1.5E1,1.5566035E-2,-3.8744174E-3,4.9880486E-2,1.9881917E-2,-2.5436778E-2,-9.847119E-4,-2.2599265E-2,-2.5096803E-3,-1.5011536E-3,-7.238079E-3,5.4686196E-2,-8.500202E-3,-1.3339204E-2,8.417214E-3],"split_indices":[0,1,1,1,1,1,1,1,1,0,1,0,1,0,1,0,0,0,0,0,0,0,0,0,0,0,0,0,0],"split_type":[0,0,0,0,0,0,0,0,0,0,0,0,0,0,0,0,0,0,0,0,0,0,0,0,0,0,0,0,0],"sum_hessian":[1.826E3,6.44E2,1.182E3,1.8E2,4.64E2,2.93E2,8.89E2,1.35E2,4.5E1,4.8E1,4.16E2,8.5E1,2.08E2,1.78E2,7.11E2,2.3E1,1.12E2,2.2E1,2.3E1,6E1,3.56E2,4.3E1,4.2E1,1.07E2,1.01E2,9.1E1,8.7E1,1.97E2,5.14E2],"tree_param":{"num_deleted":"0","num_feature":"2","num_nodes":"29","size_leaf_vector":"1"}}]},"name":"gbtree"},"learner_model_param":{"base_score":"[1.3042716E1]","boost_from_average":"1","num_class":"0","num_feature":"2","num_target":"1"},"objective":{"name":"reg:squarederror","reg_loss_param":{"scale_pos_weight":"1"}}},"version":[3,2,1]}