{"learner":{"attributes":{},"feature_names":["day_of_week","hour_of_day"],"feature_types":[],"gradient_booster":{"model":{"cats":{"enc":[],"feature_segments":[],"sorted_idx":[]},"gbtree_model_param":{"num_parallel_tree":"1","num_trees":"50"},"iteration_indptr":[0,1,2,3,4,5,6,7,8,9,10,11,12,13,14,15,16,17,18,19,20,21,22,23,24,25,26,27,28,29,30,31,32,33,34,35,36,37,38,39,40,41,42,43,44,45,46,47,48,49,50],"tree_info":[0,0,0,0,0,0,0,0,0,0,0,0,0,0,0,0,0,0,0,0,0,0,0,0,0,0,0,0,0,0,0,0,0,0,0,0,0,0,0,0,0,0,0,0,0,0,0,0,0,0],"trees":[{"base_weights":[1.4467044E-7,1.618008E0,-6.3200083E0,-1.0177197E1,3.0346527E0,-3.1279967E0,-7.8699007E0,-1.072743E1,-5.963032E0,4.045931E0,-3.848198E-1,-5.625735E0,-1.4761548E0,-9.73765E0,-5.7561984E0,-1.1482462E0,-8.719309E-1,-4.3228778E-1,-8.309893E-1,-2.0182677E-1,4.6886736E-1,4.9992267E-2,-1.806381E-1,-5.9141207E-1,-4.7360775E-1,-5.7112075E-2,-3.9249197E-1,-1.0752537E0,-8.5589725E-1,-4.1079918E-1,-9.057503E-1],"categories":[],"categories_nodes":[],"categories_segments":[],"categories_sizes":[],"default_left":[0,0,0,0,0,0,0,0,0,0,0,0,0,0,0,0,0,0,0,0,0,0,0,0,0,0,0,0,0,0,0],"id":0,"left_children":[1,3,5,7,9,11,13,15,17,19,21,23,25,27,29,-1,-1,-1,-1,-1,-1,-1,-1,-1,-1,-1,-1,-1,-1,-1,-1],"loss_changes":[2.4241338E5,3.1540812E5,2.3880625E4,4.6292344E3,5.8272953E4,6.5146934E3,1.2782391E4,2.6123438E3,8.724912E2,5.0699312E4,4.8393345E3,1.3336914E2,2.1098118E3,1.9714531E3,8.276996E3,0E0,0E0,0E0,0E0,0E0,0E0,0E0,0E0,0E0,0E0,0E0,0E0,0E0,0E0,0E0,0E0],"parents":[2147483647,0,0,1,1,2,2,3,3,4,4,5,5,6,6,7,7,8,8,9,9,10,10,11,11,12,12,13,13,14,14],"right_children":[2,4,6,8,10,12,14,16,18,20,22,24,26,28,30,-1,-1,-1,-1,-1,-1,-1,-1,-1,-1,-1,-1,-1,-1,-1,-1],"split_conditions":[2.1E1,4E0,2.2E1,3E0,1.8E1,4E0,5E0,6E0,5E0,5E0,2E1,3E0,7E0,3E0,7E0,-1.1482462E0,-8.719309E-1,-4.3228778E-1,-8.309893E-1,-2.0182677E-1,4.6886736E-1,4.9992267E-2,-1.806381E-1,-5.9141207E-1,-4.7360775E-1,-5.7112075E-2,-3.9249197E-1,-1.0752537E0,-8.5589725E-1,-4.1079918E-1,-9.057503E-1],"split_indices":[1,1,1,1,1,0,0,0,0,1,1,0,0,0,0,0,0,0,0,0,0,0,0,0,0,0,0,0,0,0,0],"split_type":[0,0,0,0,0,0,0,0,0,0,0,0,0,0,0,0,0,0,0,0,0,0,0,0,0,0,0,0,0,0,0],"sum_hessian":[2.3704E4,1.8873E4,4.831E3,2.023E3,1.685E4,1.58E3,3.251E3,1.788E3,2.35E2,1.3004E4,3.846E3,6.28E2,9.52E2,1.724E3,1.527E3,1.296E3,4.92E2,1.4E2,9.5E1,1.246E3,1.1758E4,2.371E3,1.475E3,4.7E2,1.58E2,6.96E2,2.56E2,9.22E2,8.02E2,1.02E3,5.07E2],"tree_param":{"num_deleted":"0","num_feature":"2","num_nodes":"31","size_leaf_vector":"1"}},{"base_weights":[-3.336533E-4,1.4560404E0,-5.688993E0,-9.1611E0,2.7311954E0,-2.816155E0,-7.0839095E0,-9.655817E0,-5.3720813E0,3.6413584E0,-3.4637195E-1,-5.064854E0,-1.3290113E0,-8.765005E0,-5.18144E0,-1.0335101E0,-7.849147E-1,-3.8936558E-1,-7.4875593E-1,-1.8166025E-1,4.2198458E-1,4.499511E-2,-1.6258651E-1,-5.3239644E-1,-4.2654482E-1,-5.1409107E-2,-3.5339546E-1,-9.678449E-1,-7.704142E-1,-3.6975953E-1,-8.153535E-1],"categories":[],"categories_nodes":[],"categories_segments":[],"categories_sizes":[],"default_left":[0,0,0,0,0,0,0,0,0,0,0,0,0,0,0,0,0,0,0,0,0,0,0,0,0,0,0,0,0,0,0],"id":1,"left_children":[1,3,5,7,9,11,13,15,17,19,21,23,25,27,29,-1,-1,-1,-1,-1,-1,-1,-1,-1,-1,-1,-1,-1,-1,-1,-1],"loss_changes":[1.9639984E5,2.5555067E5,1.9343672E4,3.7420938E3,4.7202383E4,5.2803535E3,1.0355219E4,2.1144062E3,7.089536E2,4.1069188E4,3.920401E3,1.07578125E2,1.7105841E3,1.5970312E3,6.7085273E3,0E0,0E0,0E0,0E0,0E0,0E0,0E0,0E0,0E0,0E0,0E0,0E0,0E0,0E0,0E0,0E0],"parents":[2147483647,0,0,1,1,2,2,3,3,4,4,5,5,6,6,7,7,8,8,9,9,10,10,11,11,12,12,13,13,14,14],"right_children":[2,4,6,8,10,12,14,16,18,20,22,24,26,28,30,-1,-1,-1,-1,-1,-1,-1,-1,-1,-1,-1,-1,-1,-1,-1,-1],"split_conditions":[2.1E1,4E0,2.2E1,3E0,1.8E1,4E0,5E0,6E0,5E0,5E0,2E1,3E0,7E0,3E0,7E0,-1.0335101E0,-7.849147E-1,-3.8936558E-1,-7.4875593E-1,-1.8166025E-1,4.2198458E-1,4.499511E-2,-1.6258651E-1,-5.3239644E-1,-4.2654482E-1,-5.1409107E-2,-3.5339546E-1,-9.678449E-1,-7.704142E-1,-3.6975953E-1,-8.153535E-1],"split_indices":[1,1,1,1,1,0,0,0,0,1,1,0,0,0,0,0,0,0,0,0,0,0,0,0,0,0,0,0,0,0,0],"split_type":[0,0,0,0,0,0,0,0,0,0,0,0,0,0,0,0,0,0,0,0,0,0,0,0,0,0,0,0,0,0,0],"sum_hessian":[2.3704E4,1.8873E4,4.831E3,2.023E3,1.685E4,1.58E3,3.251E3,1.788E3,2.35E2,1.3004E4,3.846E3,6.28E2,9.52E2,1.724E3,1.527E3,1.296E3,4.92E2,1.4E2,9.5E1,1.246E3,1.1758E4,2.371E3,1.475E3,4.7E2,1.58E2,6.96E2,2.56E2,9.22E2,8.02E2,1.02E3,5.07E2],"tree_param":{"num_deleted":"0","num_feature":"2","num_nodes":"31","size_leaf_vector":"1"}},{"base_weights":[-6.008128E-4,1.310286E0,-5.120981E0,-8.246451E0,2.458083E0,-2.535402E0,-6.3764176E0,-8.691251E0,-4.839696E0,3.2772408E0,-3.117656E-1,-4.1154246E0,-7.5685966E-1,-7.889512E0,-4.6640716E0,-9.3023884E-1,-7.0658237E-1,-3.5070524E-1,-6.7466027E-1,-1.6350874E-1,3.797897E-1,1.1302679E-1,-9.1342755E-2,-4.5598933E-1,-2.7580744E-1,5.1921602E-2,-3.181934E-1,-8.711652E-1,-6.934687E-1,-3.3281976E-1,-7.339787E-1],"categories":[],"categories_nodes":[],"categories_segments":[],"categories_sizes":[],"default_left":[0,0,0,0,0,0,0,0,0,0,0,0,0,0,0,0,0,0,0,0,0,0,0,0,0,0,0,0,0,0,0],"id":2,"left_children":[1,3,5,7,9,11,13,15,17,19,21,23,25,27,29,-1,-1,-1,-1,-1,-1,-1,-1,-1,-1,-1,-1,-1,-1,-1,-1],"loss_changes":[1.5912033E5,2.0705281E5,1.5668641E4,3.0249531E3,3.8234984E4,4.439713E3,8.3889375E3,1.7113906E3,5.7606885E2,3.3268266E4,3.3387534E3,4.9238477E2,2.307113E3,1.2937109E3,5.4372812E3,0E0,0E0,0E0,0E0,0E0,0E0,0E0,0E0,0E0,0E0,0E0,0E0,0E0,0E0,0E0,0E0],"parents":[2147483647,0,0,1,1,2,2,3,3,4,4,5,5,6,6,7,7,8,8,9,9,10,10,11,11,12,12,13,13,14,14],"right_children":[2,4,6,8,10,12,14,16,18,20,22,24,26,28,30,-1,-1,-1,-1,-1,-1,-1,-1,-1,-1,-1,-1,-1,-1,-1,-1],"split_conditions":[2.1E1,4E0,2.2E1,3E0,1.8E1,5E0,5E0,6E0,5E0,5E0,1.9E1,4E0,7E0,3E0,7E0,-9.3023884E-1,-7.0658237E-1,-3.5070524E-1,-6.7466027E-1,-1.6350874E-1,3.797897E-1,1.1302679E-1,-9.1342755E-2,-4.5598933E-1,-2.7580744E-1,5.1921602E-2,-3.181934E-1,-8.711652E-1,-6.934687E-1,-3.3281976E-1,-7.339787E-1],"split_indices":[1,1,1,1,1,0,0,0,0,1,1,0,0,0,0,0,0,0,0,0,0,0,0,0,0,0,0,0,0,0,0],"split_type":[0,0,0,0,0,0,0,0,0,0,0,0,0,0,0,0,0,0,0,0,0,0,0,0,0,0,0,0,0,0,0],"sum_hessian":[2.3704E4,1.8873E4,4.831E3,2.023E3,1.685E4,1.58E3,3.251E3,1.788E3,2.35E2,1.3004E4,3.846E3,8.36E2,7.44E2,1.724E3,1.527E3,1.296E3,4.92E2,1.4E2,9.5E1,1.246E3,1.1758E4,1.132E3,2.714E3,6.28E2,2.08E2,4.88E2,2.56E2,9.22E2,8.02E2,1.02E3,5.07E2],"tree_param":{"num_deleted":"0","num_feature":"2","num_nodes":"31","size_leaf_vector":"1"}},{"base_weights":[-7.957669E-4,1.1791294E0,-4.609634E0,-7.4231215E0,2.2122893E0,-2.2824936E0,-5.739585E0,-7.8230414E0,-4.3600707E0,2.949534E0,-2.805832E-1,-3.7047567E0,-6.8153125E-1,-7.1014676E0,-4.198363E0,-8.3728665E-1,-6.360675E-1,-3.1588343E-1,-6.07897E-1,8.850167E-2,4.071364E-1,3.98747E-2,-1.372108E-1,-4.3376777E-1,-2.8823853E-1,4.6740036E-2,-2.864979E-1,-7.8414303E-1,-6.2420815E-1,-2.9957038E-1,-6.6072536E-1],"categories":[],"categories_nodes":[],"categories_segments":[],"categories_sizes":[],"default_left":[0,0,0,0,0,0,0,0,0,0,0,0,0,0,0,0,0,0,0,0,0,0,0,0,0,0,0,0,0,0,0],"id":3,"left_children":[1,3,5,7,9,11,13,15,17,19,21,23,25,27,29,-1,-1,-1,-1,-1,-1,-1,-1,-1,-1,-1,-1,-1,-1,-1,-1],"loss_changes":[1.28915234E5,1.677591E5,1.2692898E4,2.44525E3,3.0970555E4,3.5973965E3,6.796008E3,1.3851797E3,4.680913E2,3.0116477E4,2.8531196E3,4.2315234E2,1.8702698E3,1.0480078E3,4.4069375E3,0E0,0E0,0E0,0E0,0E0,0E0,0E0,0E0,0E0,0E0,0E0,0E0,0E0,0E0,0E0,0E0],"parents":[2147483647,0,0,1,1,2,2,3,3,4,4,5,5,6,6,7,7,8,8,9,9,10,10,11,11,12,12,13,13,14,14],"right_children":[2,4,6,8,10,12,14,16,18,20,22,24,26,28,30,-1,-1,-1,-1,-1,-1,-1,-1,-1,-1,-1,-1,-1,-1,-1,-1],"split_conditions":[2.1E1,4E0,2.2E1,3E0,1.8E1,5E0,5E0,6E0,5E0,1E1,2E1,3E0,7E0,3E0,7E0,-8.3728665E-1,-6.360675E-1,-3.1588343E-1,-6.07897E-1,8.850167E-2,4.071364E-1,3.98747E-2,-1.372108E-1,-4.3376777E-1,-2.8823853E-1,4.6740036E-2,-2.864979E-1,-7.8414303E-1,-6.2420815E-1,-2.9957038E-1,-6.6072536E-1],"split_indices":[1,1,1,1,1,0,0,0,0,1,1,0,0,0,0,0,0,0,0,0,0,0,0,0,0,0,0,0,0,0,0],"split_type":[0,0,0,0,0,0,0,0,0,0,0,0,0,0,0,0,0,0,0,0,0,0,0,0,0,0,0,0,0,0,0],"sum_hessian":[2.3704E4,1.8873E4,4.831E3,2.023E3,1.685E4,1.58E3,3.251E3,1.788E3,2.35E2,1.3004E4,3.846E3,8.36E2,7.44E2,1.724E3,1.527E3,1.296E3,4.92E2,1.4E2,9.5E1,4.579E3,8.425E3,2.371E3,1.475E3,4.7E2,3.66E2,4.88E2,2.56E2,9.22E2,8.02E2,1.02E3,5.07E2],"tree_param":{"num_deleted":"0","num_feature":"2","num_nodes":"31","size_leaf_vector":"1"}},{"base_weights":[-9.409671E-4,1.0611106E0,-4.1493597E0,-6.6819935E0,1.991084E0,-2.0548525E0,-5.1663547E0,-7.0415606E0,-3.927978E0,2.6546187E0,-2.5255036E-1,-3.335144E0,-6.136997E-1,-6.392137E0,-3.779155E0,-7.5362253E-1,-5.725898E-1,-2.8451908E-1,-5.477405E-1,-1.5601413E-1,3.1013533E-1,-1.6441818E-1,2.7320102E-2,-3.7081072E-1,-2.1967271E-1,4.207562E-2,-2.5795957E-1,-5.760078E-1,-7.2256744E-1,-2.1163939E-1,-5.4132545E-1],"categories":[],"categories_nodes":[],"categories_segments":[],"categories_sizes":[],"default_left":[0,0,0,0,0,0,0,0,0,0,0,0,0,0,0,0,0,0,0,0,0,0,0,0,0,0,0,0,0,0,0],"id":4,"left_children":[1,3,5,7,9,11,13,15,17,19,21,23,25,27,29,-1,-1,-1,-1,-1,-1,-1,-1,-1,-1,-1,-1,-1,-1,-1,-1],"loss_changes":[1.0444471E5,1.3592272E5,1.0282039E4,1.9766172E3,2.5087258E4,2.9150483E3,5.5055547E3,1.1211641E3,3.8035278E2,2.4491664E4,2.815115E3,3.4723535E2,1.5161416E3,8.671875E2,4.140299E3,0E0,0E0,0E0,0E0,0E0,0E0,0E0,0E0,0E0,0E0,0E0,0E0,0E0,0E0,0E0,0E0],"parents":[2147483647,0,0,1,1,2,2,3,3,4,4,5,5,6,6,7,7,8,8,9,9,10,10,11,11,12,12,13,13,14,14],"right_children":[2,4,6,8,10,12,14,16,18,20,22,24,26,28,30,-1,-1,-1,-1,-1,-1,-1,-1,-1,-1,-1,-1,-1,-1,-1,-1],"split_conditions":[2.1E1,4E0,2.2E1,3E0,1.8E1,5E0,5E0,6E0,5E0,5E0,3E0,4E0,7E0,2.3E1,2.3E1,-7.5362253E-1,-5.725898E-1,-2.8451908E-1,-5.477405E-1,-1.5601413E-1,3.1013533E-1,-1.6441818E-1,2.7320102E-2,-3.7081072E-1,-2.1967271E-1,4.207562E-2,-2.5795957E-1,-5.760078E-1,-7.2256744E-1,-2.1163939E-1,-5.4132545E-1],"split_indices":[1,1,1,1,1,0,0,0,0,1,0,0,0,1,1,0,0,0,0,0,0,0,0,0,0,0,0,0,0,0,0],"split_type":[0,0,0,0,0,0,0,0,0,0,0,0,0,0,0,0,0,0,0,0,0,0,0,0,0,0,0,0,0,0,0],"sum_hessian":[2.3704E4,1.8873E4,4.831E3,2.023E3,1.685E4,1.58E3,3.251E3,1.788E3,2.35E2,1.3004E4,3.846E3,8.36E2,7.44E2,1.724E3,1.527E3,1.296E3,4.92E2,1.4E2,9.5E1,1.246E3,1.1758E4,1.054E3,2.792E3,6.28E2,2.08E2,4.88E2,2.56E2,9.85E2,7.39E2,7.58E2,7.69E2],"tree_param":{"num_deleted":"0","num_feature":"2","num_nodes":"31","size_leaf_vector":"1"}},{"base_weights":[-1.0574649E-3,1.1382587E0,-3.144067E0,-4.2584643E0,2.3871014E0,-1.5401483E0,-4.6503496E0,-6.3381453E0,-1.7450991E0,2.904493E0,6.5343365E-2,-3.2249806E0,-4.654344E-1,-6.1469207E0,-3.685812E0,-6.783183E-1,-5.154469E-1,3.3986714E-2,-5.9284085E-1,3.414131E-1,4.21606E-2,-4.443655E-1,1.2161714E-1,-3.5022137E-1,-2.379622E-1,1.7495658E-2,-2.2654207E-1,-5.6388384E-1,-6.7776483E-1,-2.4649666E-1,-5.014923E-1],"categories":[],"categories_nodes":[],"categories_segments":[],"categories_sizes":[],"default_left":[0,0,0,0,0,0,0,0,0,0,0,0,0,0,0,0,0,0,0,0,0,0,0,0,0,0,0,0,0,0,0],"id":5,"left_children":[1,3,5,7,9,11,13,15,17,19,21,23,25,27,29,-1,-1,-1,-1,-1,-1,-1,-1,-1,-1,-1,-1,-1,-1,-1,-1],"loss_changes":[8.488838E4,1.1727347E5,1.5230273E4,1.708123E4,1.6973594E4,5.5320366E3,4.6715938E3,9.074453E2,1.2928106E4,1.4619953E4,1.33724795E4,2.7055664E2,2.152478E3,3.6973047E2,3.2004668E3,0E0,0E0,0E0,0E0,0E0,0E0,0E0,0E0,0E0,0E0,0E0,0E0,0E0,0E0,0E0,0E0],"parents":[2147483647,0,0,1,1,2,2,3,3,4,4,5,5,6,6,7,7,8,8,9,9,10,10,11,11,12,12,13,13,14,14],"right_children":[2,4,6,8,10,12,14,16,18,20,22,24,26,28,30,-1,-1,-1,-1,-1,-1,-1,-1,-1,-1,-1,-1,-1,-1,-1,-1],"split_conditions":[2E1,5E0,2.2E1,3E0,7E0,4E0,4E0,6E0,6E0,1.8E1,1E1,3E0,7E0,2.3E1,2.3E1,-6.783183E-1,-5.154469E-1,3.3986714E-2,-5.9284085E-1,3.414131E-1,4.21606E-2,-4.443655E-1,1.2161714E-1,-3.5022137E-1,-2.379622E-1,1.7495658E-2,-2.2654207E-1,-5.6388384E-1,-6.7776483E-1,-2.4649666E-1,-5.014923E-1],"split_indices":[1,1,1,1,0,0,0,0,0,1,1,0,0,1,1,0,0,0,0,0,0,0,0,0,0,0,0,0,0,0,0],"split_type":[0,0,0,0,0,0,0,0,0,0,0,0,0,0,0,0,0,0,0,0,0,0,0,0,0,0,0,0,0,0,0],"sum_hessian":[2.3704E4,1.7398E4,6.306E3,3.269E3,1.4129E4,3.055E3,3.251E3,1.788E3,1.481E3,1.1554E4,2.575E3,1.189E3,1.866E3,1.272E3,1.979E3,1.296E3,4.92E2,9.89E2,4.92E2,9.586E3,1.968E3,5.23E2,2.052E3,8.93E2,2.96E2,1.377E3,4.89E2,7.1E2,5.62E2,1.033E3,9.46E2],"tree_param":{"num_deleted":"0","num_feature":"2","num_nodes":"31","size_leaf_vector":"1"}},{"base_weights":[-1.140931E-3,8.616204E-1,-3.3711238E0,-5.4297504E0,1.6172358E0,-2.5811183E0,-5.1091003E0,-5.7049985E0,-3.3202245E0,2.0590978E0,-6.8413466E-1,-3.8190544E0,-1.078723E0,-6.1010866E0,-4.5139604E0,-6.27734E-1,-4.914646E-1,-2.5964355E-1,-4.3487045E-1,2.9589877E-1,5.590063E-2,-3.1001598E-1,-3.0160611E-2,-2.7651033E-1,-4.7098637E-1,-1.3903578E-2,-3.0329105E-1,-6.260864E-1,-5.4523325E-1,-3.8569412E-1,-6.089217E-1],"categories":[],"categories_nodes":[],"categories_segments":[],"categories_sizes":[],"default_left":[0,0,0,0,0,0,0,0,0,0,0,0,0,0,0,0,0,0,0,0,0,0,0,0,0,0,0,0,0,0,0],"id":6,"left_children":[1,3,5,7,9,11,13,15,17,19,21,23,25,27,29,-1,-1,-1,-1,-1,-1,-1,-1,-1,-1,-1,-1,-1,-1,-1,-1],"loss_changes":[6.892498E4,8.973306E4,6.621199E3,1.1562734E3,1.7136992E4,6.178086E3,8.633281E2,7.7840625E2,1.6438794E2,1.9082117E4,2.508264E3,1.6975957E3,2.7595742E3,2.4222656E1,9.5663477E2,0E0,0E0,0E0,0E0,0E0,0E0,0E0,0E0,0E0,0E0,0E0,0E0,0E0,0E0,0E0,0E0],"parents":[2147483647,0,0,1,1,2,2,3,3,4,4,5,5,6,6,7,7,8,8,9,9,10,10,11,11,12,12,13,13,14,14],"right_children":[2,4,6,8,10,12,14,16,18,20,22,24,26,28,30,-1,-1,-1,-1,-1,-1,-1,-1,-1,-1,-1,-1,-1,-1,-1,-1],"split_conditions":[2.1E1,4E0,2.3E1,3E0,1.9E1,5E0,4E0,5E0,5E0,6E0,2E0,2.2E1,7E0,3E0,7E0,-6.27734E-1,-4.914646E-1,-2.5964355E-1,-4.3487045E-1,2.9589877E-1,5.590063E-2,-3.1001598E-1,-3.0160611E-2,-2.7651033E-1,-4.7098637E-1,-1.3903578E-2,-3.0329105E-1,-6.260864E-1,-5.4523325E-1,-3.8569412E-1,-6.089217E-1],"split_indices":[1,1,1,1,1,0,0,0,0,0,0,1,0,0,0,0,0,0,0,0,0,0,0,0,0,0,0,0,0,0,0],"split_type":[0,0,0,0,0,0,0,0,0,0,0,0,0,0,0,0,0,0,0,0,0,0,0,0,0,0,0,0,0,0,0],"sum_hessian":[2.3704E4,1.8873E4,4.831E3,2.023E3,1.685E4,3.323E3,1.508E3,1.788E3,2.35E2,1.4136E4,2.714E3,1.821E3,1.502E3,5.62E2,9.46E2,1.033E3,7.55E2,1.4E2,9.5E1,8.835E3,5.301E3,3.7E2,2.344E3,8.36E2,9.85E2,1.015E3,4.87E2,4.44E2,1.18E2,6.7E2,2.76E2],"tree_param":{"num_deleted":"0","num_feature":"2","num_nodes":"31","size_leaf_vector":"1"}},{"base_weights":[-1.2389624E-3,9.2336714E-1,-2.5519319E0,-3.5812404E0,1.9657694E0,-1.2410038E0,-3.7830648E0,-5.135124E0,-1.7030497E0,2.4018996E0,8.684586E-3,-2.672048E0,-3.282111E-1,-4.703055E0,-2.741988E0,-5.5057704E-1,-4.1496006E-1,8.887638E-3,-5.297986E-1,2.8356898E-1,2.8856888E-2,-4.0559316E-1,1.0461178E-1,-2.8985202E-1,-1.9813475E-1,2.1903971E-2,-1.8665446E-1,-5.249112E-1,-4.069538E-1,-1.7630075E-1,-4.704187E-1],"categories":[],"categories_nodes":[],"categories_segments":[],"categories_sizes":[],"default_left":[0,0,0,0,0,0,0,0,0,0,0,0,0,0,0,0,0,0,0,0,0,0,0,0,0,0,0,0,0,0,0],"id":7,"left_children":[1,3,5,7,9,11,13,15,17,19,21,23,25,27,29,-1,-1,-1,-1,-1,-1,-1,-1,-1,-1,-1,-1,-1,-1,-1,-1],"loss_changes":[5.5907906E4,8.170601E4,1.017434E4,9.534719E3,1.2060555E4,3.9910137E3,3.1018086E3,6.306367E2,9.547308E3,1.0592133E4,1.0866636E4,1.8040234E2,1.5721508E3,5.753789E2,2.9269268E3,0E0,0E0,0E0,0E0,0E0,0E0,0E0,0E0,0E0,0E0,0E0,0E0,0E0,0E0,0E0,0E0],"parents":[2147483647,0,0,1,1,2,2,3,3,4,4,5,5,6,6,7,7,8,8,9,9,10,10,11,11,12,12,13,13,14,14],"right_children":[2,4,6,8,10,12,14,16,18,20,22,24,26,28,30,-1,-1,-1,-1,-1,-1,-1,-1,-1,-1,-1,-1,-1,-1,-1,-1],"split_conditions":[2E1,5E0,2.2E1,3E0,7E0,4E0,5E0,6E0,6E0,1.8E1,1E1,3E0,7E0,3E0,7E0,-5.5057704E-1,-4.1496006E-1,8.887638E-3,-5.297986E-1,2.8356898E-1,2.8856888E-2,-4.0559316E-1,1.0461178E-1,-2.8985202E-1,-1.9813475E-1,2.1903971E-2,-1.8665446E-1,-5.249112E-1,-4.069538E-1,-1.7630075E-1,-4.704187E-1],"split_indices":[1,1,1,1,0,0,0,0,0,1,1,0,0,0,0,0,0,0,0,0,0,0,0,0,0,0,0,0,0,0,0],"split_type":[0,0,0,0,0,0,0,0,0,0,0,0,0,0,0,0,0,0,0,0,0,0,0,0,0,0,0,0,0,0,0],"sum_hessian":[2.3704E4,1.7398E4,6.306E3,3.269E3,1.4129E4,3.055E3,3.251E3,1.788E3,1.481E3,1.1554E4,2.575E3,1.189E3,1.866E3,1.724E3,1.527E3,1.296E3,4.92E2,9.89E2,4.92E2,9.586E3,1.968E3,5.23E2,2.052E3,8.93E2,2.96E2,1.377E3,4.89E2,9.22E2,8.02E2,1.02E3,5.07E2],"tree_param":{"num_deleted":"0","num_feature":"2","num_nodes":"31","size_leaf_vector":"1"}},{"base_weights":[-1.2715313E-3,6.996229E-1,-2.738995E0,-3.2235708E0,1.5216764E0,-2.064938E0,-4.221982E0,-4.6221514E0,-1.5330961E0,2.0842328E0,-1.9826743E-1,-3.097157E0,-8.1226474E-1,-4.83737E0,-3.625087E0,-5.1001686E-1,-3.9622417E-1,7.999798E-3,-4.7692624E-1,2.5521502E-1,1.8882811E-3,-1.2373058E-1,1.9427953E-2,-2.2942047E-1,-3.7756297E-1,-4.4219145E-3,-2.409646E-1,-5.1124525E-1,-4.407474E-1,-2.839073E-1,-5.013773E-1],"categories":[],"categories_nodes":[],"categories_segments":[],"categories_sizes":[],"default_left":[0,0,0,0,0,0,0,0,0,0,0,0,0,0,0,0,0,0,0,0,0,0,0,0,0,0,0,0,0,0,0],"id":8,"left_children":[1,3,5,7,9,11,13,15,17,19,21,23,25,27,29,-1,-1,-1,-1,-1,-1,-1,-1,-1,-1,-1,-1,-1,-1,-1,-1],"loss_changes":[4.5488383E4,6.0874977E4,4.8214336E3,7.7240586E3,1.5099273E4,4.2955273E3,5.3675195E2,5.441289E2,7.7367773E3,1.1363996E4,1.5693215E3,9.8392773E2,1.8438662E3,6.4978516E1,8.262412E2,0E0,0E0,0E0,0E0,0E0,0E0,0E0,0E0,0E0,0E0,0E0,0E0,0E0,0E0,0E0,0E0],"parents":[2147483647,0,0,1,1,2,2,3,3,4,4,5,5,6,6,7,7,8,8,9,9,10,10,11,11,12,12,13,13,14,14],"right_children":[2,4,6,8,10,12,14,16,18,20,22,24,26,28,30,-1,-1,-1,-1,-1,-1,-1,-1,-1,-1,-1,-1,-1,-1,-1,-1],"split_conditions":[2.1E1,5E0,2.3E1,3E0,1.8E1,5E0,5E0,5E0,6E0,7E0,3E0,2.2E1,7E0,3E0,7E0,-5.1001686E-1,-3.9622417E-1,7.999798E-3,-4.7692624E-1,2.5521502E-1,1.8882811E-3,-1.2373058E-1,1.9427953E-2,-2.2942047E-1,-3.7756297E-1,-4.4219145E-3,-2.409646E-1,-5.1124525E-1,-4.407474E-1,-2.839073E-1,-5.013773E-1],"split_indices":[1,1,1,1,1,0,0,0,0,0,0,1,0,0,0,0,0,0,0,0,0,0,0,0,0,0,0,0,0,0,0],"split_type":[0,0,0,0,0,0,0,0,0,0,0,0,0,0,0,0,0,0,0,0,0,0,0,0,0,0,0,0,0,0,0],"sum_hessian":[2.3704E4,1.8873E4,4.831E3,3.269E3,1.5604E4,3.323E3,1.508E3,1.788E3,1.481E3,1.1758E4,3.846E3,1.821E3,1.502E3,7.39E2,7.69E2,1.033E3,7.55E2,9.89E2,4.92E2,9.586E3,2.172E3,1.054E3,2.792E3,8.36E2,9.85E2,1.015E3,4.87E2,4.44E2,2.95E2,4.93E2,2.76E2],"tree_param":{"num_deleted":"0","num_feature":"2","num_nodes":"31","size_leaf_vector":"1"}},{"base_weights":[-1.3050805E-3,7.531486E-1,-2.0826018E0,-2.9016342E0,1.5988944E0,-1.0230266E0,-3.0776753E0,-4.160443E0,-1.3801028E0,1.9545195E0,3.0680727E-3,-1.9852276E0,1.9180713E-2,-4.0797925E0,-2.4318306E0,-4.5906445E-1,-3.566542E-1,7.2006644E-3,-4.293304E-1,2.296962E-1,2.861856E-2,-6.218881E-1,5.5507746E-2,-2.4298361E-1,-1.4112835E-1,8.1136875E-2,-1.5636179E-1,-3.742709E-1,-4.4982415E-1,-1.55892E-1,-3.3823666E-1],"categories":[],"categories_nodes":[],"categories_segments":[],"categories_sizes":[],"default_left":[0,0,0,0,0,0,0,0,0,0,0,0,0,0,0,0,0,0,0,0,0,0,0,0,0,0,0,0,0,0,0],"id":9,"left_children":[1,3,5,7,9,11,13,15,17,19,21,23,25,27,29,-1,-1,-1,-1,-1,-1,-1,-1,-1,-1,-1,-1,-1,-1,-1,-1],"loss_changes":[3.7224156E4,5.3785246E4,6.646672E3,6.2573438E3,8.018996E3,3.0646343E3,2.0948125E3,4.4070898E2,6.2695938E3,6.6008086E3,8.850914E3,4.0205273E2,1.8419559E3,1.6272266E2,1.6375986E3,0E0,0E0,0E0,0E0,0E0,0E0,0E0,0E0,0E0,0E0,0E0,0E0,0E0,0E0,0E0,0E0],"parents":[2147483647,0,0,1,1,2,2,3,3,4,4,5,5,6,6,7,7,8,8,9,9,10,10,11,11,12,12,13,13,14,14],"right_children":[2,4,6,8,10,12,14,16,18,20,22,24,26,28,30,-1,-1,-1,-1,-1,-1,-1,-1,-1,-1,-1,-1,-1,-1,-1,-1],"split_conditions":[2E1,5E0,2.2E1,3E0,7E0,5E0,4E0,5E0,6E0,1.8E1,8E0,3E0,7E0,2.3E1,2.3E1,-4.5906445E-1,-3.566542E-1,7.2006644E-3,-4.293304E-1,2.296962E-1,2.861856E-2,-6.218881E-1,5.5507746E-2,-2.4298361E-1,-1.4112835E-1,8.1136875E-2,-1.5636179E-1,-3.742709E-1,-4.4982415E-1,-1.55892E-1,-3.3823666E-1],"split_indices":[1,1,1,1,0,0,0,0,0,1,1,0,0,1,1,0,0,0,0,0,0,0,0,0,0,0,0,0,0,0,0],"split_type":[0,0,0,0,0,0,0,0,0,0,0,0,0,0,0,0,0,0,0,0,0,0,0,0,0,0,0,0,0,0,0],"sum_hessian":[2.3704E4,1.7398E4,6.306E3,3.269E3,1.4129E4,3.055E3,3.251E3,1.788E3,1.481E3,1.1554E4,2.575E3,1.588E3,1.467E3,1.272E3,1.979E3,1.033E3,7.55E2,9.89E2,4.92E2,9.586E3,1.968E3,2.09E2,2.366E3,8.93E2,6.95E2,9.78E2,4.89E2,7.1E2,5.62E2,1.033E3,9.46E2],"tree_param":{"num_deleted":"0","num_feature":"2","num_nodes":"31","size_leaf_vector":"1"}},{"base_weights":[-1.3147215E-3,6.777449E-1,-1.8746233E0,-2.6118493E0,1.4389831E0,-9.208741E-1,-2.770313E0,-3.5930839E0,-1.0171173E0,1.9752394E0,5.5510116E-1,-1.7869464E0,1.721151E-2,-3.6724603E0,-2.188897E0,-3.870207E-1,-2.9097182E-1,4.6739437E-2,-4.185001E-1,2.3243292E-1,3.511633E-2,-6.517329E-1,9.39135E-2,-2.187124E-1,-1.2703578E-1,7.303151E-2,-1.4075755E-1,-3.3689642E-1,-4.049216E-1,-1.7014247E-1,-3.5980654E-1],"categories":[],"categories_nodes":[],"categories_segments":[],"categories_sizes":[],"default_left":[0,0,0,0,0,0,0,0,0,0,0,0,0,0,0,0,0,0,0,0,0,0,0,0,0,0,0,0,0,0,0],"id":10,"left_children":[1,3,5,7,9,11,13,15,17,19,21,23,25,27,29,-1,-1,-1,-1,-1,-1,-1,-1,-1,-1,-1,-1,-1,-1,-1,-1],"loss_changes":[3.015612E4,4.357372E4,5.385287E3,5.1132617E3,6.696342E3,2.4828782E3,1.6977109E3,3.720371E2,5.866298E3,4.984926E3,1.4501691E4,3.2571094E2,1.4925464E3,1.3191797E2,1.354001E3,0E0,0E0,0E0,0E0,0E0,0E0,0E0,0E0,0E0,0E0,0E0,0E0,0E0,0E0,0E0,0E0],"parents":[2147483647,0,0,1,1,2,2,3,3,4,4,5,5,6,6,7,7,8,8,9,9,10,10,11,11,12,12,13,13,14,14],"right_children":[2,4,6,8,10,12,14,16,18,20,22,24,26,28,30,-1,-1,-1,-1,-1,-1,-1,-1,-1,-1,-1,-1,-1,-1,-1,-1],"split_conditions":[2E1,5E0,2.2E1,4E0,6E0,5E0,4E0,6E0,6E0,1.8E1,7E0,3E0,7E0,2.3E1,7E0,-3.870207E-1,-2.9097182E-1,4.6739437E-2,-4.185001E-1,2.3243292E-1,3.511633E-2,-6.517329E-1,9.39135E-2,-2.187124E-1,-1.2703578E-1,7.303151E-2,-1.4075755E-1,-3.3689642E-1,-4.049216E-1,-1.7014247E-1,-3.5980654E-1],"split_indices":[1,1,1,1,0,0,0,0,0,1,1,0,0,1,0,0,0,0,0,0,0,0,0,0,0,0,0,0,0,0,0],"split_type":[0,0,0,0,0,0,0,0,0,0,0,0,0,0,0,0,0,0,0,0,0,0,0,0,0,0,0,0,0,0,0],"sum_hessian":[2.3704E4,1.7398E4,6.306E3,3.269E3,1.4129E4,3.055E3,3.251E3,2.023E3,1.246E3,8.793E3,5.336E3,1.588E3,1.467E3,1.272E3,1.979E3,1.436E3,5.87E2,8.49E2,3.97E2,7.237E3,1.556E3,2.74E2,5.062E3,8.93E2,6.95E2,9.78E2,4.89E2,7.1E2,5.62E2,1.472E3,5.07E2],"tree_param":{"num_deleted":"0","num_feature":"2","num_nodes":"31","size_leaf_vector":"1"}},{"base_weights":[-1.3110786E-3,6.098931E-1,-1.6874281E0,-2.3509855E0,1.2950639E0,-8.2892174E-1,-2.4936728E0,-3.384465E0,-1.1018318E0,1.5949284E0,-5.0522093E-2,-1.6084689E0,1.5444285E-2,-3.1354046E0,-1.7675726E0,-3.6444017E-1,-2.6937494E-1,7.946121E-3,-3.4717673E-1,1.8791649E-1,2.1018011E-2,-3.3313093E-1,7.868783E-2,-2.2262816E-1,-1.3366517E-1,6.5735824E-2,-1.2671052E-1,-3.503845E-1,-2.7080002E-1,-1.0337472E-1,-3.238967E-1],"categories":[],"categories_nodes":[],"categories_segments":[],"categories_sizes":[],"default_left":[0,0,0,0,0,0,0,0,0,0,0,0,0,0,0,0,0,0,0,0,0,0,0,0,0,0,0,0,0,0,0],"id":11,"left_children":[1,3,5,7,9,11,13,15,17,19,21,23,25,27,29,-1,-1,-1,-1,-1,-1,-1,-1,-1,-1,-1,-1,-1,-1,-1,-1],"loss_changes":[2.4430496E4,3.5300523E4,4.363424E3,4.217758E3,5.7014434E3,2.0115544E3,1.5097656E3,3.1138477E2,4.1492656E3,4.5476035E3,7.0797495E3,2.6386865E2,1.2094174E3,2.621543E2,1.6465044E3,0E0,0E0,0E0,0E0,0E0,0E0,0E0,0E0,0E0,0E0,0E0,0E0,0E0,0E0,0E0,0E0],"parents":[2147483647,0,0,1,1,2,2,3,3,4,4,5,5,6,6,7,7,8,8,9,9,10,10,11,11,12,12,13,13,14,14],"right_children":[2,4,6,8,10,12,14,16,18,20,22,24,26,28,30,-1,-1,-1,-1,-1,-1,-1,-1,-1,-1,-1,-1,-1,-1,-1,-1],"split_conditions":[2E1,5E0,2.2E1,3E0,7E0,5E0,5E0,6E0,6E0,1.8E1,1E1,2E0,7E0,3E0,7E0,-3.6444017E-1,-2.6937494E-1,7.946121E-3,-3.4717673E-1,1.8791649E-1,2.1018011E-2,-3.3313093E-1,7.868783E-2,-2.2262816E-1,-1.3366517E-1,6.5735824E-2,-1.2671052E-1,-3.503845E-1,-2.7080002E-1,-1.0337472E-1,-3.238967E-1],"split_indices":[1,1,1,1,0,0,0,0,0,1,1,0,0,0,0,0,0,0,0,0,0,0,0,0,0,0,0,0,0,0,0],"split_type":[0,0,0,0,0,0,0,0,0,0,0,0,0,0,0,0,0,0,0,0,0,0,0,0,0,0,0,0,0,0,0],"sum_hessian":[2.3704E4,1.7398E4,6.306E3,3.269E3,1.4129E4,3.055E3,3.251E3,1.788E3,1.481E3,1.1554E4,2.575E3,1.588E3,1.467E3,1.724E3,1.527E3,1.296E3,4.92E2,9.89E2,4.92E2,9.586E3,1.968E3,5.23E2,2.052E3,4.83E2,1.105E3,9.78E2,4.89E2,9.22E2,8.02E2,1.02E3,5.07E2],"tree_param":{"num_deleted":"0","num_feature":"2","num_nodes":"31","size_leaf_vector":"1"}},{"base_weights":[-1.2844705E-3,4.6254873E-1,-1.8130367E0,-2.1161845E0,1.0028881E0,-1.3280503E0,-2.880155E0,-2.9195275E0,-8.1058526E-1,1.309767E0,-4.5456308E-1,-2.0509748E0,-4.50807E-1,-3.171179E0,-2.3459435E0,-3.1555492E-1,-2.3377545E-1,4.127729E-2,-3.4212482E-1,1.5659362E-2,1.7118774E-1,-1.4608936E-1,-8.3046695E-3,-1.5356901E-1,-2.486312E-1,7.7310326E-3,-1.5494062E-1,-3.399934E-1,-2.9731283E-1,-1.11171655E-1,-3.4959546E-1],"categories":[],"categories_nodes":[],"categories_segments":[],"categories_sizes":[],"default_left":[0,0,0,0,0,0,0,0,0,0,0,0,0,0,0,0,0,0,0,0,0,0,0,0,0,0,0,0,0,0,0],"id":12,"left_children":[1,3,5,7,9,11,13,15,17,19,21,23,25,27,29,-1,-1,-1,-1,-1,-1,-1,-1,-1,-1,-1,-1,-1,-1,-1,-1],"loss_changes":[1.9921355E4,2.6300984E4,2.496917E3,3.4273545E3,6.9801064E3,2.1070923E3,2.2716406E2,2.7054102E2,3.9840505E3,5.977328E3,1.0149311E3,4.0489795E2,8.7214417E2,3.4018555E1,7.568982E2,0E0,0E0,0E0,0E0,0E0,0E0,0E0,0E0,0E0,0E0,0E0,0E0,0E0,0E0,0E0,0E0],"parents":[2147483647,0,0,1,1,2,2,3,3,4,4,5,5,6,6,7,7,8,8,9,9,10,10,11,11,12,12,13,13,14,14],"right_children":[2,4,6,8,10,12,14,16,18,20,22,24,26,28,30,-1,-1,-1,-1,-1,-1,-1,-1,-1,-1,-1,-1,-1,-1,-1,-1],"split_conditions":[2.1E1,5E0,2.3E1,4E0,1.9E1,5E0,6E0,6E0,6E0,1E1,3E0,2.2E1,7E0,3E0,7E0,-3.1555492E-1,-2.3377545E-1,4.127729E-2,-3.4212482E-1,1.5659362E-2,1.7118774E-1,-1.4608936E-1,-8.3046695E-3,-1.5356901E-1,-2.486312E-1,7.7310326E-3,-1.5494062E-1,-3.399934E-1,-2.9731283E-1,-1.11171655E-1,-3.4959546E-1],"split_indices":[1,1,1,1,1,0,0,0,0,1,0,1,0,0,0,0,0,0,0,0,0,0,0,0,0,0,0,0,0,0,0],"split_type":[0,0,0,0,0,0,0,0,0,0,0,0,0,0,0,0,0,0,0,0,0,0,0,0,0,0,0,0,0,0,0],"sum_hessian":[2.3704E4,1.8873E4,4.831E3,3.269E3,1.5604E4,3.323E3,1.508E3,2.023E3,1.246E3,1.289E4,2.714E3,1.821E3,1.502E3,9.73E2,5.35E2,1.436E3,5.87E2,8.49E2,3.97E2,3.333E3,9.557E3,7.31E2,1.983E3,8.36E2,9.85E2,1.015E3,4.87E2,4.44E2,5.29E2,2.59E2,2.76E2],"tree_param":{"num_deleted":"0","num_feature":"2","num_nodes":"31","size_leaf_vector":"1"}},{"base_weights":[-1.2602012E-3,4.1625032E-1,-1.632074E0,-1.9048258E0,9.02601E-1,-1.1954106E0,-2.5928671E0,-2.7534847E0,-8.7907994E-1,1.2520884E0,-1.6590054E-1,-1.8460981E0,-4.0582448E-1,-2.8547153E0,-2.1122086E0,-3.0660403E-1,-2.3223524E-1,8.074918E-3,-2.8047428E-1,1.4093895E-2,1.6915996E-1,-8.514793E-2,9.312253E-3,-1.3823043E-1,-2.2379331E-1,6.958656E-3,-1.3947831E-1,-3.0607042E-1,-2.676376E-1,-1.0009724E-1,-3.1476212E-1],"categories":[],"categories_nodes":[],"categories_segments":[],"categories_sizes":[],"default_left":[0,0,0,0,0,0,0,0,0,0,0,0,0,0,0,0,0,0,0,0,0,0,0,0,0,0,0,0,0,0,0],"id":13,"left_children":[1,3,5,7,9,11,13,15,17,19,21,23,25,27,29,-1,-1,-1,-1,-1,-1,-1,-1,-1,-1,-1,-1,-1,-1,-1,-1],"loss_changes":[1.6140985E4,2.1307766E4,2.0241328E3,2.8441426E3,5.82755E3,1.7070347E3,1.8389258E2,2.3395215E2,2.7394177E3,5.742418E3,6.832323E2,3.2802002E2,7.0675024E2,2.7588867E1,6.135642E2,0E0,0E0,0E0,0E0,0E0,0E0,0E0,0E0,0E0,0E0,0E0,0E0,0E0,0E0,0E0,0E0],"parents":[2147483647,0,0,1,1,2,2,3,3,4,4,5,5,6,6,7,7,8,8,9,9,10,10,11,11,12,12,13,13,14,14],"right_children":[2,4,6,8,10,12,14,16,18,20,22,24,26,28,30,-1,-1,-1,-1,-1,-1,-1,-1,-1,-1,-1,-1,-1,-1,-1,-1],"split_conditions":[2.1E1,5E0,2.3E1,3E0,1.8E1,5E0,6E0,5E0,6E0,1E1,3E0,2.2E1,7E0,3E0,7E0,-3.0660403E-1,-2.3223524E-1,8.074918E-3,-2.8047428E-1,1.4093895E-2,1.6915996E-1,-8.514793E-2,9.312253E-3,-1.3823043E-1,-2.2379331E-1,6.958656E-3,-1.3947831E-1,-3.0607042E-1,-2.676376E-1,-1.0009724E-1,-3.1476212E-1],"split_indices":[1,1,1,1,1,0,0,0,0,1,0,1,0,0,0,0,0,0,0,0,0,0,0,0,0,0,0,0,0,0,0],"split_type":[0,0,0,0,0,0,0,0,0,0,0,0,0,0,0,0,0,0,0,0,0,0,0,0,0,0,0,0,0,0,0],"sum_hessian":[2.3704E4,1.8873E4,4.831E3,3.269E3,1.5604E4,3.323E3,1.508E3,1.788E3,1.481E3,1.1758E4,3.846E3,1.821E3,1.502E3,9.73E2,5.35E2,1.033E3,7.55E2,9.89E2,4.92E2,3.333E3,8.425E3,1.054E3,2.792E3,8.36E2,9.85E2,1.015E3,4.87E2,4.44E2,5.29E2,2.59E2,2.76E2],"tree_param":{"num_deleted":"0","num_feature":"2","num_nodes":"31","size_leaf_vector":"1"}},{"base_weights":[-1.2267561E-3,4.4786677E-1,-1.2401323E0,-1.7145913E0,9.482765E-1,-8.9584345E-1,-2.3342357E0,-2.4784374E0,-7.913556E-1,1.4125316E0,1.8312618E-1,-1.5327766E0,-1.5893349E-1,-2.569833E0,-1.9017617E0,-2.0887116E-1,-2.7810732E-1,-2.6662389E-2,-3.8823718E-1,1.6574126E-1,2.7325029E-2,-4.059545E-1,6.468548E-2,-1.23297766E-1,-2.0143667E-1,3.816646E-2,-1.2878957E-1,-2.755322E-1,-2.4092436E-1,-9.012598E-2,-2.8339955E-1],"categories":[],"categories_nodes":[],"categories_segments":[],"categories_sizes":[],"default_left":[0,0,0,0,0,0,0,0,0,0,0,0,0,0,0,0,0,0,0,0,0,0,0,0,0,0,0,0,0,0,0],"id":14,"left_children":[1,3,5,7,9,11,13,15,17,19,21,23,25,27,29,-1,-1,-1,-1,-1,-1,-1,-1,-1,-1,-1,-1,-1,-1,-1,-1],"loss_changes":[1.3189649E4,1.8829346E4,2.3736758E3,2.3040752E3,5.0190713E3,2.252227E3,1.4886523E2,2.0519531E2,2.4027007E3,2.4529688E3,1.05028955E4,3.691504E2,1.3590524E3,2.2374512E1,4.973739E2,0E0,0E0,0E0,0E0,0E0,0E0,0E0,0E0,0E0,0E0,0E0,0E0,0E0,0E0,0E0,0E0],"parents":[2147483647,0,0,1,1,2,2,3,3,4,4,5,5,6,6,7,7,8,8,9,9,10,10,11,11,12,12,13,13,14,14],"right_children":[2,4,6,8,10,12,14,16,18,20,22,24,26,28,30,-1,-1,-1,-1,-1,-1,-1,-1,-1,-1,-1,-1,-1,-1,-1,-1],"split_conditions":[2E1,5E0,2.3E1,3E0,6E0,5E0,6E0,1E0,7E0,1.8E1,8E0,2.2E1,7E0,3E0,7E0,-2.0887116E-1,-2.7810732E-1,-2.6662389E-2,-3.8823718E-1,1.6574126E-1,2.7325029E-2,-4.059545E-1,6.468548E-2,-1.23297766E-1,-2.0143667E-1,3.816646E-2,-1.2878957E-1,-2.755322E-1,-2.4092436E-1,-9.012598E-2,-2.8339955E-1],"split_indices":[1,1,1,1,0,0,0,1,0,1,1,1,0,0,0,0,0,0,0,0,0,0,0,0,0,0,0,0,0,0,0],"split_type":[0,0,0,0,0,0,0,0,0,0,0,0,0,0,0,0,0,0,0,0,0,0,0,0,0,0,0,0,0,0,0],"sum_hessian":[2.3704E4,1.7398E4,6.306E3,3.269E3,1.4129E4,4.798E3,1.508E3,1.788E3,1.481E3,8.793E3,5.336E3,2.573E3,2.225E3,9.73E2,5.35E2,7.85E2,1.003E3,1.267E3,2.14E2,7.237E3,1.556E3,5.25E2,4.811E3,1.588E3,9.85E2,1.505E3,7.2E2,4.44E2,5.29E2,2.59E2,2.76E2],"tree_param":{"num_deleted":"0","num_feature":"2","num_nodes":"31","size_leaf_vector":"1"}},{"base_weights":[-1.2033605E-3,4.5833993E-1,-9.853298E-1,-1.5434078E0,9.660784E-1,-4.76034E-1,-1.6576669E0,-2.1419873E0,-5.706183E-1,1.2529166E0,-2.8828484E-1,-1.0824476E0,-6.303093E-2,-2.3615384E0,-1.3781257E0,-2.3558962E-1,-1.6155778E-1,-2.1176273E-4,-4.1968995E-1,6.2476277E-2,1.4826076E-1,-2.905356E-1,4.4247363E-2,-1.5881722E-1,-8.461277E-2,1.9637715E-2,-7.994839E-2,-2.5488472E-1,-2.2121203E-1,-9.0347484E-2,-1.9410644E-1],"categories":[],"categories_nodes":[],"categories_segments":[],"categories_sizes":[],"default_left":[0,0,0,0,0,0,0,0,0,0,0,0,0,0,0,0,0,0,0,0,0,0,0,0,0,0,0,0,0,0,0],"id":15,"left_children":[1,3,5,7,9,11,13,15,17,19,21,23,25,27,29,-1,-1,-1,-1,-1,-1,-1,-1,-1,-1,-1,-1,-1,-1,-1,-1],"loss_changes":[1.0721007E4,1.6425938E4,2.5831006E3,1.9028726E3,4.638532E3,1.0756174E3,6.366133E2,2.2410352E2,2.5707354E3,1.512873E3,4.591158E3,2.066084E2,4.884599E2,2.0194336E1,6.208208E2,0E0,0E0,0E0,0E0,0E0,0E0,0E0,0E0,0E0,0E0,0E0,0E0,0E0,0E0,0E0,0E0],"parents":[2147483647,0,0,1,1,2,2,3,3,4,4,5,5,6,6,7,7,8,8,9,9,10,10,11,11,12,12,13,13,14,14],"right_children":[2,4,6,8,10,12,14,16,18,20,22,24,26,28,30,-1,-1,-1,-1,-1,-1,-1,-1,-1,-1,-1,-1,-1,-1,-1,-1],"split_conditions":[1.9E1,5E0,2.2E1,4E0,7E0,4E0,3E0,6E0,7E0,1E1,1E1,2E0,7E0,2E0,2.3E1,-2.3558962E-1,-1.6155778E-1,-2.1176273E-4,-4.1968995E-1,6.2476277E-2,1.4826076E-1,-2.905356E-1,4.4247363E-2,-1.5881722E-1,-8.461277E-2,1.9637715E-2,-7.994839E-2,-2.5488472E-1,-2.2121203E-1,-9.0347484E-2,-1.9410644E-1],"split_indices":[1,1,1,1,0,0,0,0,0,1,1,0,0,0,1,0,0,0,0,0,0,0,0,0,0,0,0,0,0,0,0],"split_type":[0,0,0,0,0,0,0,0,0,0,0,0,0,0,0,0,0,0,0,0,0,0,0,0,0,0,0,0,0,0,0],"sum_hessian":[2.3704E4,1.6159E4,7.545E3,3.269E3,1.289E4,4.294E3,3.251E3,2.023E3,1.246E3,1.0491E4,2.399E3,1.739E3,2.555E3,9.22E2,2.329E3,1.436E3,5.87E2,1.078E3,1.68E2,2.81E3,7.681E3,5.23E2,1.876E3,5.52E2,1.187E3,1.89E3,6.65E2,4.02E2,5.2E2,1.265E3,1.064E3],"tree_param":{"num_deleted":"0","num_feature":"2","num_nodes":"31","size_leaf_vector":"1"}},{"base_weights":[-1.1637979E-3,3.0639428E-1,-1.2024987E0,-1.3893169E0,6.6170794E-1,-8.8759553E-1,-1.8953651E0,-2.0157678E0,-6.321577E-1,8.840886E-1,-3.5163015E-1,-1.3746568E0,-2.9656878E-1,-2.1007903E0,-1.518538E0,-1.6577199E-1,-2.2940646E-1,1.3281569E-2,-2.167029E-1,1.1934409E-1,-3.9812E-3,-5.234336E-1,-9.1624195E-3,-1.0463487E-1,-1.6519581E-1,6.193666E-3,-1.0423577E-1,-2.2458465E-1,-1.975034E-1,-6.181208E-2,-2.3582129E-1],"categories":[],"categories_nodes":[],"categories_segments":[],"categories_sizes":[],"default_left":[0,0,0,0,0,0,0,0,0,0,0,0,0,0,0,0,0,0,0,0,0,0,0,0,0,0,0,0,0,0,0],"id":16,"left_children":[1,3,5,7,9,11,13,15,17,19,21,23,25,27,29,-1,-1,-1,-1,-1,-1,-1,-1,-1,-1,-1,-1,-1,-1,-1,-1],"loss_changes":[8.758897E3,1.1372681E4,1.0525913E3,1.5497622E3,3.5168472E3,9.564597E2,1.1362109E2,1.7445947E2,1.740357E3,3.6575684E3,3.565638E3,1.6414673E2,4.0192072E2,1.3331543E1,4.037893E2,0E0,0E0,0E0,0E0,0E0,0E0,0E0,0E0,0E0,0E0,0E0,0E0,0E0,0E0,0E0,0E0],"parents":[2147483647,0,0,1,1,2,2,3,3,4,4,5,5,6,6,7,7,8,8,9,9,10,10,11,11,12,12,13,13,14,14],"right_children":[2,4,6,8,10,12,14,16,18,20,22,24,26,28,30,-1,-1,-1,-1,-1,-1,-1,-1,-1,-1,-1,-1,-1,-1,-1,-1],"split_conditions":[2.1E1,5E0,2.3E1,3E0,7E0,5E0,6E0,1E0,6E0,1.8E1,7E0,2.2E1,7E0,3E0,7E0,-1.6577199E-1,-2.2940646E-1,1.3281569E-2,-2.167029E-1,1.1934409E-1,-3.9812E-3,-5.234336E-1,-9.1624195E-3,-1.0463487E-1,-1.6519581E-1,6.193666E-3,-1.0423577E-1,-2.2458465E-1,-1.975034E-1,-6.181208E-2,-2.3582129E-1],"split_indices":[1,1,1,1,0,0,0,1,0,1,1,1,0,0,0,0,0,0,0,0,0,0,0,0,0,0,0,0,0,0,0],"split_type":[0,0,0,0,0,0,0,0,0,0,0,0,0,0,0,0,0,0,0,0,0,0,0,0,0,0,0,0,0,0,0],"sum_hessian":[2.3704E4,1.8873E4,4.831E3,3.269E3,1.5604E4,3.323E3,1.508E3,1.788E3,1.481E3,1.2796E4,2.808E3,1.821E3,1.502E3,9.73E2,5.35E2,7.85E2,1.003E3,9.89E2,4.92E2,9.586E3,3.21E3,1.41E2,2.667E3,8.36E2,9.85E2,1.015E3,4.87E2,4.44E2,5.29E2,2.59E2,2.76E2],"tree_param":{"num_deleted":"0","num_feature":"2","num_nodes":"31","size_leaf_vector":"1"}},{"base_weights":[-1.1363633E-3,3.758052E-1,-8.0836856E-1,-8.6725706E-1,9.384736E-1,-3.996163E-1,-1.3479697E0,-2.5688946E-1,-2.292356E0,1.1373119E0,1.2717289E-1,-9.340355E-1,-3.5653472E-2,-1.8115103E0,-1.049265E0,-1.943563E-1,9.0236776E-2,-1.6415802E-1,-3.506656E-1,8.207654E-2,1.3832328E-1,-8.8485E-2,6.079004E-2,-1.3925412E-1,-7.1982026E-2,1.8917434E-2,-6.739624E-2,-2.102841E-1,-1.6746359E-1,-7.598887E-2,-1.886277E-1],"categories":[],"categories_nodes":[],"categories_segments":[],"categories_sizes":[],"default_left":[0,0,0,0,0,0,0,0,0,0,0,0,0,0,0,0,0,0,0,0,0,0,0,0,0,0,0,0,0,0,0],"id":17,"left_children":[1,3,5,7,9,11,13,15,17,19,21,23,25,27,29,-1,-1,-1,-1,-1,-1,-1,-1,-1,-1,-1,-1,-1,-1,-1,-1],"loss_changes":[7.2132466E3,1.1303632E4,1.663831E3,4.3798955E3,1.7945146E3,8.3538165E2,4.4837695E2,6.898056E3,1.1875015E3,6.944131E2,1.0664752E3,1.6989844E2,3.6693802E2,4.7240234E1,4.7814526E2,0E0,0E0,0E0,0E0,0E0,0E0,0E0,0E0,0E0,0E0,0E0,0E0,0E0,0E0,0E0,0E0],"parents":[2147483647,0,0,1,1,2,2,3,3,4,4,5,5,6,6,7,7,8,8,9,9,10,10,11,11,12,12,13,13,14,14],"right_children":[2,4,6,8,10,12,14,16,18,20,22,24,26,28,30,-1,-1,-1,-1,-1,-1,-1,-1,-1,-1,-1,-1,-1,-1,-1,-1],"split_conditions":[1.9E1,8E0,2.2E1,6E0,7E0,4E0,4E0,4E0,5E0,1.3E1,1.2E1,2E0,7E0,2E0,7E0,-1.943563E-1,9.0236776E-2,-1.6415802E-1,-3.506656E-1,8.207654E-2,1.3832328E-1,-8.8485E-2,6.079004E-2,-1.3925412E-1,-7.1982026E-2,1.8917434E-2,-6.739624E-2,-2.102841E-1,-1.6746359E-1,-7.598887E-2,-1.886277E-1],"split_indices":[1,1,1,0,0,0,0,1,1,1,1,0,0,0,0,0,0,0,0,0,0,0,0,0,0,0,0,0,0,0,0],"split_type":[0,0,0,0,0,0,0,0,0,0,0,0,0,0,0,0,0,0,0,0,0,0,0,0,0,0,0,0,0,0,0],"sum_hessian":[2.3704E4,1.6159E4,7.545E3,5.035E3,1.1124E4,4.294E3,3.251E3,3.526E3,1.509E3,8.934E3,2.19E3,1.739E3,2.555E3,1.272E3,1.979E3,1.436E3,2.09E3,9.84E2,5.25E2,3.908E3,5.026E3,7.05E2,1.485E3,5.52E2,1.187E3,1.89E3,6.65E2,4.02E2,8.7E2,1.472E3,5.07E2],"tree_param":{"num_deleted":"0","num_feature":"2","num_nodes":"31","size_leaf_vector":"1"}},{"base_weights":[-1.078624E-3,3.3819842E-1,-7.276511E-1,-5.7188374E-1,9.6687955E-1,-3.5971487E-1,-1.2133702E0,-1.5552531E0,-1.371869E-1,1.1708775E0,3.939031E-1,-8.4075296E-1,-3.2106858E-2,-1.5372921E0,-8.4689206E-1,-1.7493421E-1,-1.07827865E-1,6.348311E-2,-1.649715E-1,7.010701E-2,1.5609406E-1,9.3550146E-2,-5.453353E-2,-1.2535384E-1,-6.4789854E-2,1.7026726E-2,-6.066674E-2,-1.3356379E-1,-1.8039054E-1,-4.225824E-2,-1.6980205E-1],"categories":[],"categories_nodes":[],"categories_segments":[],"categories_sizes":[],"default_left":[0,0,0,0,0,0,0,0,0,0,0,0,0,0,0,0,0,0,0,0,0,0,0,0,0,0,0,0,0,0,0],"id":18,"left_children":[1,3,5,7,9,11,13,15,17,19,21,23,25,27,29,-1,-1,-1,-1,-1,-1,-1,-1,-1,-1,-1,-1,-1,-1,-1,-1],"loss_changes":[5.8437505E3,9.246521E3,1.3481367E3,2.822355E3,1.1167344E3,6.7683044E2,3.8474365E2,1.8548682E2,5.349108E3,1.2904834E3,1.2778306E3,1.3770483E2,2.9730524E2,9.0333496E1,5.5110754E2,0E0,0E0,0E0,0E0,0E0,0E0,0E0,0E0,0E0,0E0,0E0,0E0,0E0,0E0,0E0,0E0],"parents":[2147483647,0,0,1,1,2,2,3,3,4,4,5,5,6,6,7,7,8,8,9,9,10,10,11,11,12,12,13,13,14,14],"right_children":[2,4,6,8,10,12,14,16,18,20,22,24,26,28,30,-1,-1,-1,-1,-1,-1,-1,-1,-1,-1,-1,-1,-1,-1,-1,-1],"split_conditions":[1.9E1,1E1,2.2E1,4E0,1.7E1,4E0,5E0,6E0,6E0,1.3E1,6E0,2E0,7E0,2.3E1,7E0,-1.7493421E-1,-1.07827865E-1,6.348311E-2,-1.649715E-1,7.010701E-2,1.5609406E-1,9.3550146E-2,-5.453353E-2,-1.2535384E-1,-6.4789854E-2,1.7026726E-2,-6.066674E-2,-1.3356379E-1,-1.8039054E-1,-4.225824E-2,-1.6980205E-1],"split_indices":[1,1,1,1,1,0,0,0,0,1,0,0,0,1,0,0,0,0,0,0,0,0,0,0,0,0,0,0,0,0,0],"split_type":[0,0,0,0,0,0,0,0,0,0,0,0,0,0,0,0,0,0,0,0,0,0,0,0,0,0,0,0,0,0,0],"sum_hessian":[2.3704E4,1.6159E4,7.545E3,6.602E3,9.557E3,4.294E3,3.251E3,2.023E3,4.579E3,7.047E3,2.51E3,1.739E3,2.555E3,1.724E3,1.527E3,1.436E3,5.87E2,3.032E3,1.547E3,3.198E3,3.849E3,1.592E3,9.18E2,5.52E2,1.187E3,1.89E3,6.65E2,9.85E2,7.39E2,1.02E3,5.07E2],"tree_param":{"num_deleted":"0","num_feature":"2","num_nodes":"31","size_leaf_vector":"1"}},{"base_weights":[-1.0075894E-3,2.2559728E-1,-8.8613576E-1,-1.0395248E0,4.906869E-1,-6.356572E-1,-1.4372984E0,-1.4720882E0,-5.166535E-1,6.6386056E-1,-2.9841742E-1,-9.261208E-1,2.6963197E-2,-1.6073877E-1,-1.1255367E0,-1.1402984E-1,-1.7303698E-1,-1.6259642E-2,-2.6023635E-1,9.013129E-2,-4.5301393E-3,-4.2025828E-1,-9.051266E-3,-1.2389212E-1,-7.076516E-2,7.014553E-2,-7.0148826E-2,-4.3875396E-2,-1.7661071E-1],"categories":[],"categories_nodes":[],"categories_segments":[],"categories_sizes":[],"default_left":[0,0,0,0,0,0,0,0,0,0,0,0,0,0,0,0,0,0,0,0,0,0,0,0,0,0,0,0,0],"id":19,"left_children":[1,3,5,7,9,11,13,15,17,19,21,23,25,-1,27,-1,-1,-1,-1,-1,-1,-1,-1,-1,-1,-1,-1,-1,-1],"loss_changes":[4.754815E3,6.330298E3,6.661658E2,7.388318E2,2.132654E3,6.3978577E2,7.8208984E1,1.5133545E2,1.0939751E3,2.154955E3,2.2796697E3,1.5705054E2,4.9870554E2,0E0,2.3502905E2,0E0,0E0,0E0,0E0,0E0,0E0,0E0,0E0,0E0,0E0,0E0,0E0,0E0,0E0],"parents":[2147483647,0,0,1,1,2,2,3,3,4,4,5,5,6,6,7,7,8,8,9,9,10,10,11,11,12,12,14,14],"right_children":[2,4,6,8,10,12,14,16,18,20,22,24,26,-1,28,-1,-1,-1,-1,-1,-1,-1,-1,-1,-1,-1,-1,-1,-1],"split_conditions":[2.1E1,5E0,2.3E1,3E0,7E0,6E0,6E0,1E0,7E0,1.8E1,7E0,3E0,7E0,-1.6073877E-1,7E0,-1.1402984E-1,-1.7303698E-1,-1.6259642E-2,-2.6023635E-1,9.013129E-2,-4.5301393E-3,-4.2025828E-1,-9.051266E-3,-1.2389212E-1,-7.076516E-2,7.014553E-2,-7.0148826E-2,-4.3875396E-2,-1.7661071E-1],"split_indices":[1,1,1,1,0,0,0,1,0,1,1,0,0,0,0,0,0,0,0,0,0,0,0,0,0,0,0,0,0],"split_type":[0,0,0,0,0,0,0,0,0,0,0,0,0,0,0,0,0,0,0,0,0,0,0,0,0,0,0,0,0],"sum_hessian":[2.3704E4,1.8873E4,4.831E3,3.269E3,1.5604E4,3.323E3,1.508E3,1.788E3,1.481E3,1.2796E4,2.808E3,2.31E3,1.013E3,9.73E2,5.35E2,7.85E2,1.003E3,1.267E3,2.14E2,9.586E3,3.21E3,1.41E2,2.667E3,9.48E2,1.362E3,5.26E2,4.87E2,2.59E2,2.76E2],"tree_param":{"num_deleted":"0","num_feature":"2","num_nodes":"29","size_leaf_vector":"1"}},{"base_weights":[-9.6969004E-4,2.7709123E-1,-5.964459E-1,-4.922174E-1,8.085275E-1,-4.220611E-1,-1.2938212E0,-1.1731781E-1,-1.2767298E0,9.8253214E-1,3.198007E-1,-8.733241E-1,-1.1389269E-1,-1.446814E0,-1.0133944E0,-1.4434958E-1,5.110485E-2,-1.8091236E-1,9.5181697E-4,5.5771716E-2,1.3352595E-1,7.964435E-2,-5.0676275E-2,-3.5508346E-2,-1.02315426E-1,7.588738E-3,-6.835291E-2,-1.5430473E-1,-1.4225994E-1,-3.95047E-2,-1.5901344E-1],"categories":[],"categories_nodes":[],"categories_segments":[],"categories_sizes":[],"default_left":[0,0,0,0,0,0,0,0,0,0,0,0,0,0,0,0,0,0,0,0,0,0,0,0,0,0,0,0,0,0,0],"id":20,"left_children":[1,3,5,7,9,11,13,15,17,19,21,23,25,27,29,-1,-1,-1,-1,-1,-1,-1,-1,-1,-1,-1,-1,-1,-1,-1,-1],"loss_changes":[3.9252083E3,6.6072285E3,9.171355E2,1.9418809E3,8.125049E2,8.395751E2,6.327466E1,3.7248694E3,1.4620444E3,1.055355E3,9.896761E2,1.8987439E2,3.88043E2,7.446289E-2,1.9052313E2,0E0,0E0,0E0,0E0,0E0,0E0,0E0,0E0,0E0,0E0,0E0,0E0,0E0,0E0,0E0,0E0],"parents":[2147483647,0,0,1,1,2,2,3,3,4,4,5,5,6,6,7,7,8,8,9,9,10,10,11,11,12,12,13,13,14,14],"right_children":[2,4,6,8,10,12,14,16,18,20,22,24,26,28,30,-1,-1,-1,-1,-1,-1,-1,-1,-1,-1,-1,-1,-1,-1,-1,-1],"split_conditions":[1.9E1,1E1,2.3E1,6E0,1.7E1,4E0,6E0,4E0,8E0,1.3E1,6E0,2E1,7E0,2E0,7E0,-1.4434958E-1,5.110485E-2,-1.8091236E-1,9.5181697E-4,5.5771716E-2,1.3352595E-1,7.964435E-2,-5.0676275E-2,-3.5508346E-2,-1.02315426E-1,7.588738E-3,-6.835291E-2,-1.5430473E-1,-1.4225994E-1,-3.95047E-2,-1.5901344E-1],"split_indices":[1,1,1,0,1,0,0,1,1,1,0,1,0,0,0,0,0,0,0,0,0,0,0,0,0,0,0,0,0,0,0],"split_type":[0,0,0,0,0,0,0,0,0,0,0,0,0,0,0,0,0,0,0,0,0,0,0,0,0,0,0,0,0,0,0],"sum_hessian":[2.3704E4,1.6159E4,7.545E3,6.602E3,9.557E3,6.037E3,1.508E3,4.468E3,2.134E3,7.047E3,2.51E3,2.449E3,3.588E3,9.73E2,5.35E2,1.436E3,3.032E3,1.509E3,6.25E2,3.198E3,3.849E3,1.592E3,9.18E2,5.5E2,1.899E3,2.692E3,8.96E2,1.83E2,7.9E2,2.59E2,2.76E2],"tree_param":{"num_deleted":"0","num_feature":"2","num_nodes":"31","size_leaf_vector":"1"}},{"base_weights":[-9.042265E-4,2.493788E-1,-5.368932E-1,-4.4303724E-1,7.2769785E-1,-2.577338E-1,-9.054211E-1,-2.2968632E-1,-1.6011823E0,1.0760833E0,5.2814054E-1,-5.600535E-1,7.054034E-2,-1.1566284E0,-6.212339E-1,-1.22904144E-1,2.0439459E-2,8.230961E-2,-1.9167908E-1,1.7082816E-2,1.5416364E-1,7.4968226E-2,-1.031671E-2,-9.908112E-2,-4.1826677E-2,3.1677097E-2,-4.4531893E-2,-1.3251482E-1,-9.614849E-2,-2.912504E-2,-1.2832259E-1],"categories":[],"categories_nodes":[],"categories_segments":[],"categories_sizes":[],"default_left":[0,0,0,0,0,0,0,0,0,0,0,0,0,0,0,0,0,0,0,0,0,0,0,0,0,0,0,0,0,0,0],"id":21,"left_children":[1,3,5,7,9,11,13,15,17,19,21,23,25,27,29,-1,-1,-1,-1,-1,-1,-1,-1,-1,-1,-1,-1,-1,-1,-1,-1],"loss_changes":[3.1801345E3,5.352447E3,7.76084E2,1.6311764E3,6.6393115E2,4.262914E2,2.3144165E2,2.4195593E3,7.8735815E2,1.4663625E3,8.5029236E2,1.3615094E2,2.6180298E2,5.5453613E1,3.3341235E2,0E0,0E0,0E0,0E0,0E0,0E0,0E0,0E0,0E0,0E0,0E0,0E0,0E0,0E0,0E0,0E0],"parents":[2147483647,0,0,1,1,2,2,3,3,4,4,5,5,6,6,7,7,8,8,9,9,10,10,11,11,12,12,13,13,14,14],"right_children":[2,4,6,8,10,12,14,16,18,20,22,24,26,28,30,-1,-1,-1,-1,-1,-1,-1,-1,-1,-1,-1,-1,-1,-1,-1,-1],"split_conditions":[1.9E1,1E1,2.2E1,7E0,4E0,5E0,5E0,4E0,1E0,1.3E1,1.7E1,2E0,7E0,3E0,7E0,-1.22904144E-1,2.0439459E-2,8.230961E-2,-1.9167908E-1,1.7082816E-2,1.5416364E-1,7.4968226E-2,-1.031671E-2,-9.908112E-2,-4.1826677E-2,3.1677097E-2,-4.4531893E-2,-1.3251482E-1,-9.614849E-2,-2.912504E-2,-1.2832259E-1],"split_indices":[1,1,1,0,0,0,0,1,1,1,1,0,0,0,0,0,0,0,0,0,0,0,0,0,0,0,0,0,0,0,0],"split_type":[0,0,0,0,0,0,0,0,0,0,0,0,0,0,0,0,0,0,0,0,0,0,0,0,0,0,0,0,0,0,0],"sum_hessian":[2.3704E4,1.6159E4,7.545E3,6.602E3,9.557E3,4.294E3,3.251E3,5.576E3,1.026E3,3.479E3,6.078E3,2.235E3,2.059E3,1.724E3,1.527E3,1.688E3,3.888E3,1.18E2,9.08E2,1.182E3,2.297E3,4.499E3,1.579E3,5.52E2,1.683E3,1.394E3,6.65E2,9.22E2,8.02E2,1.02E3,5.07E2],"tree_param":{"num_deleted":"0","num_feature":"2","num_nodes":"31","size_leaf_vector":"1"}},{"base_weights":[-8.3550904E-4,1.6665523E-1,-6.5506136E-1,-5.3759515E-1,4.2291927E-1,-8.564125E-1,-2.2775854E-1,-1.0562135E-1,-1.5462269E0,6.3130003E-1,-1.18482225E-1,-7.08741E-1,-1.2059118E-1,3.0813983E-1,-7.787905E-1,-1.1764282E-1,6.303208E-2,-9.3500786E-2,-2.6878706E-1,3.165622E-2,9.181036E-2,-5.880766E-2,5.8940095E-3,-1.1149315E-1,-6.2287856E-2,6.2074937E-2,-3.2668073E-2,-3.1816177E-3,-1.1551558E-1],"categories":[],"categories_nodes":[],"categories_segments":[],"categories_sizes":[],"default_left":[0,0,0,0,0,0,0,0,0,0,0,0,0,0,0,0,0,0,0,0,0,0,0,0,0,0,0,0,0],"id":22,"left_children":[1,3,5,7,9,11,13,15,17,19,21,23,-1,25,27,-1,-1,-1,-1,-1,-1,-1,-1,-1,-1,-1,-1,-1,-1],"loss_changes":[2.5976265E3,3.4064946E3,4.1554004E2,2.1940344E3,1.5613584E3,1.6863599E2,4.5765518E2,2.7802004E3,1.0511562E3,9.0175684E2,3.205533E2,7.990503E1,0E0,1.5618521E2,2.1475055E2,0E0,0E0,0E0,0E0,0E0,0E0,0E0,0E0,0E0,0E0,0E0,0E0,0E0,0E0],"parents":[2147483647,0,0,1,1,2,2,3,3,4,4,5,5,6,6,7,7,8,8,9,9,10,10,11,11,13,13,14,14],"right_children":[2,4,6,8,10,12,14,16,18,20,22,24,-1,26,28,-1,-1,-1,-1,-1,-1,-1,-1,-1,-1,-1,-1,-1,-1],"split_conditions":[2.1E1,8E0,6E0,6E0,1.8E1,2.3E1,7E0,4E0,5E0,1.3E1,3E0,2E0,-1.2059118E-1,2.3E1,2.2E1,-1.1764282E-1,6.303208E-2,-9.3500786E-2,-2.6878706E-1,3.165622E-2,9.181036E-2,-5.880766E-2,5.8940095E-3,-1.1149315E-1,-6.2287856E-2,6.2074937E-2,-3.2668073E-2,-3.1816177E-3,-1.1551558E-1],"split_indices":[1,1,0,0,1,1,0,1,1,1,0,0,0,1,1,0,0,0,0,0,0,0,0,0,0,0,0,0,0],"split_type":[0,0,0,0,0,0,0,0,0,0,0,0,0,0,0,0,0,0,0,0,0,0,0,0,0,0,0,0,0],"sum_hessian":[2.3704E4,1.8873E4,4.831E3,5.035E3,1.3838E4,3.283E3,1.548E3,3.526E3,1.509E3,9.992E3,3.846E3,2.31E3,9.73E2,7.85E2,7.63E2,1.436E3,2.09E3,9.84E2,5.25E2,4.765E3,5.227E3,1.054E3,2.792E3,4.01E2,1.909E3,5.26E2,2.59E2,2.56E2,5.07E2],"tree_param":{"num_deleted":"0","num_feature":"2","num_nodes":"29","size_leaf_vector":"1"}},{"base_weights":[-7.8268355E-4,2.0301981E-1,-4.372321E-1,-3.6533964E-1,5.956411E-1,-3.0413625E-1,-9.695023E-1,-1.8388428E-1,-1.3503554E0,9.1406536E-1,4.1325712E-1,-5.7827324E-1,9.31276E-3,-1.0854445E-1,-7.570076E-1,-9.9223904E-2,1.67233E-2,8.341931E-2,-1.6348559E-1,1.22130895E-2,1.321352E-1,6.0988974E-2,-1.47034E-2,-1.1884814E-2,-6.93708E-2,2.5690986E-2,-5.2122336E-2,-2.9413823E-2,-1.1887369E-1],"categories":[],"categories_nodes":[],"categories_segments":[],"categories_sizes":[],"default_left":[0,0,0,0,0,0,0,0,0,0,0,0,0,0,0,0,0,0,0,0,0,0,0,0,0,0,0,0,0],"id":23,"left_children":[1,3,5,7,9,11,13,15,17,19,21,23,25,-1,27,-1,-1,-1,-1,-1,-1,-1,-1,-1,-1,-1,-1,-1,-1],"loss_changes":[2.1086365E3,3.6063218E3,5.34286E2,1.179948E3,5.5470776E2,5.188384E2,3.6355713E1,1.5830708E3,6.3964954E2,1.1222925E3,6.6982227E2,1.7073889E2,3.7030414E2,0E0,1.06761536E2,0E0,0E0,0E0,0E0,0E0,0E0,0E0,0E0,0E0,0E0,0E0,0E0,0E0,0E0],"parents":[2147483647,0,0,1,1,2,2,3,3,4,4,5,5,6,6,7,7,8,8,9,9,10,10,11,11,12,12,14,14],"right_children":[2,4,6,8,10,12,14,16,18,20,22,24,26,-1,28,-1,-1,-1,-1,-1,-1,-1,-1,-1,-1,-1,-1,-1,-1],"split_conditions":[1.9E1,1E1,2.3E1,7E0,4E0,5E0,6E0,4E0,1E0,1.3E1,1.7E1,2E1,7E0,-1.0854445E-1,7E0,-9.9223904E-2,1.67233E-2,8.341931E-2,-1.6348559E-1,1.22130895E-2,1.321352E-1,6.0988974E-2,-1.47034E-2,-1.1884814E-2,-6.93708E-2,2.5690986E-2,-5.2122336E-2,-2.9413823E-2,-1.1887369E-1],"split_indices":[1,1,1,0,0,0,0,1,1,1,1,1,0,0,0,0,0,0,0,0,0,0,0,0,0,0,0,0,0],"split_type":[0,0,0,0,0,0,0,0,0,0,0,0,0,0,0,0,0,0,0,0,0,0,0,0,0,0,0,0,0],"sum_hessian":[2.3704E4,1.6159E4,7.545E3,6.602E3,9.557E3,6.037E3,1.508E3,5.576E3,1.026E3,3.479E3,6.078E3,3.22E3,2.817E3,9.73E2,5.35E2,1.688E3,3.888E3,1.18E2,9.08E2,1.182E3,2.297E3,4.499E3,1.579E3,6.47E2,2.573E3,1.921E3,8.96E2,2.59E2,2.76E2],"tree_param":{"num_deleted":"0","num_feature":"2","num_nodes":"29","size_leaf_vector":"1"}},{"base_weights":[-7.187177E-4,1.3565774E-1,-5.3341085E-1,-6.295019E-1,2.959869E-1,-7.040595E-1,-1.7127821E-1,-8.506404E-1,-3.6212918E-1,4.2485356E-1,-2.911982E-1,-5.887158E-1,-9.7701155E-2,2.698632E-1,-6.2489843E-1,-1.0850487E-1,-5.2890934E-2,-1.3216681E-2,-1.7166881E-1,6.1273135E-2,5.057967E-3,-2.986088E-1,-1.4765789E-2,-9.345175E-2,-5.1562626E-2,5.3315014E-2,-2.648372E-2,2.32722E-3,-9.5158145E-2],"categories":[],"categories_nodes":[],"categories_segments":[],"categories_sizes":[],"default_left":[0,0,0,0,0,0,0,0,0,0,0,0,0,0,0,0,0,0,0,0,0,0,0,0,0,0,0,0,0],"id":24,"left_children":[1,3,5,7,9,11,13,15,17,19,21,23,-1,25,27,-1,-1,-1,-1,-1,-1,-1,-1,-1,-1,-1,-1,-1,-1],"loss_changes":[1.7221616E3,2.3155994E3,2.9848462E2,1.9303528E2,1.1809321E3,1.0281592E2,3.1014005E2,1.3434607E2,4.614126E2,8.9982544E2,1.0861514E3,5.792749E1,0E0,1.1079399E2,1.6179633E2,0E0,0E0,0E0,0E0,0E0,0E0,0E0,0E0,0E0,0E0,0E0,0E0,0E0,0E0],"parents":[2147483647,0,0,1,1,2,2,3,3,4,4,5,5,6,6,7,7,8,8,9,9,10,10,11,11,13,13,14,14],"right_children":[2,4,6,8,10,12,14,16,18,20,22,24,-1,26,28,-1,-1,-1,-1,-1,-1,-1,-1,-1,-1,-1,-1,-1,-1],"split_conditions":[2.1E1,5E0,6E0,3E0,7E0,2.3E1,7E0,5E0,7E0,1.7E1,7E0,2E0,-9.7701155E-2,2.3E1,2.2E1,-1.0850487E-1,-5.2890934E-2,-1.3216681E-2,-1.7166881E-1,6.1273135E-2,5.057967E-3,-2.986088E-1,-1.4765789E-2,-9.345175E-2,-5.1562626E-2,5.3315014E-2,-2.648372E-2,2.32722E-3,-9.5158145E-2],"split_indices":[1,1,0,1,0,1,0,0,0,1,1,0,0,1,1,0,0,0,0,0,0,0,0,0,0,0,0,0,0],"split_type":[0,0,0,0,0,0,0,0,0,0,0,0,0,0,0,0,0,0,0,0,0,0,0,0,0,0,0,0,0],"sum_hessian":[2.3704E4,1.8873E4,4.831E3,3.269E3,1.5604E4,3.283E3,1.548E3,1.788E3,1.481E3,1.2796E4,2.808E3,2.31E3,9.73E2,7.85E2,7.63E2,1.033E3,7.55E2,1.267E3,2.14E2,8.519E3,4.277E3,1.41E2,2.667E3,4.01E2,1.909E3,5.26E2,2.59E2,2.56E2,5.07E2],"tree_param":{"num_deleted":"0","num_feature":"2","num_nodes":"29","size_leaf_vector":"1"}},{"base_weights":[-6.85061E-4,1.6718616E-1,-3.6018655E-1,-3.1655326E-1,5.013527E-1,-2.532653E-1,-7.877746E-1,-5.6606747E-2,-8.605272E-1,6.257858E-1,1.5188815E-1,-5.6063944E-1,-4.336841E-2,-8.7941074E-1,-6.19787E-1,-8.70745E-2,3.2914113E-2,-1.2638068E-1,1.1361462E-2,3.685662E-2,9.257489E-2,5.166164E-2,-4.8049923E-2,-8.424737E-2,-4.307188E-2,8.8288775E-3,-4.385852E-2,-8.531898E-2,-9.1310725E-2,-2.3845553E-2,-9.754779E-2],"categories":[],"categories_nodes":[],"categories_segments":[],"categories_sizes":[],"default_left":[0,0,0,0,0,0,0,0,0,0,0,0,0,0,0,0,0,0,0,0,0,0,0,0,0,0,0,0,0,0,0],"id":25,"left_children":[1,3,5,7,9,11,13,15,17,19,21,23,25,27,29,-1,-1,-1,-1,-1,-1,-1,-1,-1,-1,-1,-1,-1,-1,-1,-1],"loss_changes":[1.4306559E3,2.6124153E3,3.4479034E2,9.336427E2,4.1553394E2,3.8952853E2,2.2684143E1,1.4037854E3,8.388817E2,5.434568E2,5.7940924E2,8.934656E1,1.8678561E2,8.148193E-2,7.246835E1,0E0,0E0,0E0,0E0,0E0,0E0,0E0,0E0,0E0,0E0,0E0,0E0,0E0,0E0,0E0,0E0],"parents":[2147483647,0,0,1,1,2,2,3,3,4,4,5,5,6,6,7,7,8,8,9,9,10,10,11,11,12,12,13,13,14,14],"right_children":[2,4,6,8,10,12,14,16,18,20,22,24,26,28,30,-1,-1,-1,-1,-1,-1,-1,-1,-1,-1,-1,-1,-1,-1,-1,-1],"split_conditions":[1.9E1,1E1,2.3E1,6E0,1.7E1,4E0,6E0,4E0,8E0,1.4E1,6E0,2E0,7E0,4E0,7E0,-8.70745E-2,3.2914113E-2,-1.2638068E-1,1.1361462E-2,3.685662E-2,9.257489E-2,5.166164E-2,-4.8049923E-2,-8.424737E-2,-4.307188E-2,8.8288775E-3,-4.385852E-2,-8.531898E-2,-9.1310725E-2,-2.3845553E-2,-9.754779E-2],"split_indices":[1,1,1,0,1,0,0,1,1,1,0,0,0,0,0,0,0,0,0,0,0,0,0,0,0,0,0,0,0,0,0],"split_type":[0,0,0,0,0,0,0,0,0,0,0,0,0,0,0,0,0,0,0,0,0,0,0,0,0,0,0,0,0,0,0],"sum_hessian":[2.3704E4,1.6159E4,7.545E3,6.602E3,9.557E3,6.037E3,1.508E3,4.468E3,2.134E3,7.047E3,2.51E3,2.449E3,3.588E3,9.73E2,5.35E2,1.436E3,3.032E3,1.509E3,6.25E2,3.795E3,3.252E3,1.592E3,9.18E2,7.71E2,1.678E3,2.692E3,8.96E2,5.62E2,4.11E2,2.59E2,2.76E2],"tree_param":{"num_deleted":"0","num_feature":"2","num_nodes":"31","size_leaf_vector":"1"}},{"base_weights":[-6.373327E-4,1.1147856E-1,-4.3856668E-1,-2.8492323E-1,3.2475507E-1,-5.8773553E-1,-1.2203405E-1,-5.0957747E-2,-7.745283E-1,5.153732E-1,-9.283593E-2,-3.8195658E-1,-6.836074E-1,2.4485984E-1,-4.9933323E-1,-7.837311E-2,2.9623851E-2,-1.1375097E-1,1.0227113E-2,8.295658E-2,3.3806305E-2,-5.1508117E-2,6.6692024E-3,-3.4884717E-2,-5.1210254E-2,-8.459378E-2,-5.6932148E-2,4.7112383E-2,-2.1470157E-2,6.464222E-3,-7.836686E-2],"categories":[],"categories_nodes":[],"categories_segments":[],"categories_sizes":[],"default_left":[0,0,0,0,0,0,0,0,0,0,0,0,0,0,0,0,0,0,0,0,0,0,0,0,0,0,0,0,0,0,0],"id":26,"left_children":[1,3,5,7,9,11,13,15,17,19,21,23,25,27,29,-1,-1,-1,-1,-1,-1,-1,-1,-1,-1,-1,-1,-1,-1,-1,-1],"loss_changes":[1.1639369E3,1.5957609E3,2.2807996E2,7.5633875E2,9.7690405E2,6.452698E1,2.1454843E2,1.137218E3,6.7960547E2,4.6912817E2,2.5916803E2,4.328644E0,4.105652E1,8.183116E1,1.225643E2,0E0,0E0,0E0,0E0,0E0,0E0,0E0,0E0,0E0,0E0,0E0,0E0,0E0,0E0,0E0,0E0],"parents":[2147483647,0,0,1,1,2,2,3,3,4,4,5,5,6,6,7,7,8,8,9,9,10,10,11,11,12,12,13,13,14,14],"right_children":[2,4,6,8,10,12,14,16,18,20,22,24,26,28,30,-1,-1,-1,-1,-1,-1,-1,-1,-1,-1,-1,-1,-1,-1,-1,-1],"split_conditions":[2.1E1,1E1,6E0,6E0,1.8E1,2.2E1,7E0,4E0,8E0,4E0,3E0,5E0,3E0,2.3E1,2.2E1,-7.837311E-2,2.9623851E-2,-1.1375097E-1,1.0227113E-2,8.295658E-2,3.3806305E-2,-5.1508117E-2,6.6692024E-3,-3.4884717E-2,-5.1210254E-2,-8.459378E-2,-5.6932148E-2,4.7112383E-2,-2.1470157E-2,6.464222E-3,-7.836686E-2],"split_indices":[1,1,0,0,1,1,0,1,1,0,0,0,0,1,1,0,0,0,0,0,0,0,0,0,0,0,0,0,0,0,0],"split_type":[0,0,0,0,0,0,0,0,0,0,0,0,0,0,0,0,0,0,0,0,0,0,0,0,0,0,0,0,0,0,0],"sum_hessian":[2.3704E4,1.8873E4,4.831E3,6.602E3,1.2271E4,3.283E3,1.548E3,4.468E3,2.134E3,8.425E3,3.846E3,1.045E3,2.238E3,7.85E2,7.63E2,1.436E3,3.032E3,1.509E3,6.25E2,3.038E3,5.387E3,1.054E3,2.792E3,8.36E2,2.09E2,9.22E2,1.316E3,5.26E2,2.59E2,2.56E2,5.07E2],"tree_param":{"num_deleted":"0","num_feature":"2","num_nodes":"31","size_leaf_vector":"1"}},{"base_weights":[-5.8832683E-4,1.3592926E-1,-2.92945E-1,-2.564537E-1,4.0698686E-1,-4.6439388E-1,-1.0358605E-1,-4.587251E-2,-6.971238E-1,6.499434E-1,2.6783636E-1,-5.141838E-2,-5.4502887E-1,7.887583E-2,-4.7915456E-1,-7.054125E-2,2.6662493E-2,-1.0238339E-1,9.206026E-3,-7.1004047E-3,1.0208011E-1,4.131693E-2,-1.4625604E-2,-1.5960872E-2,5.57401E-2,-4.258516E-2,-6.5449424E-2,2.163765E-2,-4.562561E-2,-3.0582074E-2,-7.054561E-2],"categories":[],"categories_nodes":[],"categories_segments":[],"categories_sizes":[],"default_left":[0,0,0,0,0,0,0,0,0,0,0,0,0,0,0,0,0,0,0,0,0,0,0,0,0,0,0,0,0,0,0],"id":27,"left_children":[1,3,5,7,9,11,13,15,17,19,21,23,25,27,29,-1,-1,-1,-1,-1,-1,-1,-1,-1,-1,-1,-1,-1,-1,-1,-1],"loss_changes":[9.4614966E2,1.7188557E3,2.4493567E2,6.127055E2,3.2295813E2,1.3184106E2,2.4584392E2,9.212693E2,5.505707E2,9.305161E2,3.6590234E2,4.2771675E1,4.2941956E1,1.7779683E2,4.579602E1,0E0,0E0,0E0,0E0,0E0,0E0,0E0,0E0,0E0,0E0,0E0,0E0,0E0,0E0,0E0,0E0],"parents":[2147483647,0,0,1,1,2,2,3,3,4,4,5,5,6,6,7,7,8,8,9,9,10,10,11,11,12,12,13,13,14,14],"right_children":[2,4,6,8,10,12,14,16,18,20,22,24,26,28,30,-1,-1,-1,-1,-1,-1,-1,-1,-1,-1,-1,-1,-1,-1,-1,-1],"split_conditions":[1.9E1,1E1,5E0,6E0,4E0,2E1,7E0,4E0,8E0,1.3E1,1.7E1,4E0,2.2E1,2.3E1,2.2E1,-7.054125E-2,2.6662493E-2,-1.0238339E-1,9.206026E-3,-7.1004047E-3,1.0208011E-1,4.131693E-2,-1.4625604E-2,-1.5960872E-2,5.57401E-2,-4.258516E-2,-6.5449424E-2,2.163765E-2,-4.562561E-2,-3.0582074E-2,-7.054561E-2],"split_indices":[1,1,0,0,0,1,0,1,1,1,1,0,1,1,1,0,0,0,0,0,0,0,0,0,0,0,0,0,0,0,0],"split_type":[0,0,0,0,0,0,0,0,0,0,0,0,0,0,0,0,0,0,0,0,0,0,0,0,0,0,0,0,0,0,0],"sum_hessian":[2.3704E4,1.6159E4,7.545E3,6.602E3,9.557E3,3.959E3,3.586E3,4.468E3,2.134E3,3.479E3,6.078E3,6.47E2,3.312E3,2.414E3,1.172E3,1.436E3,3.032E3,1.509E3,6.25E2,1.182E3,2.297E3,4.499E3,1.579E3,5.5E2,9.7E1,1.588E3,1.724E3,1.921E3,4.93E2,6.65E2,5.07E2],"tree_param":{"num_deleted":"0","num_feature":"2","num_nodes":"31","size_leaf_vector":"1"}},{"base_weights":[-5.3827534E-4,1.2233543E-1,-2.6367617E-1,-2.308292E-1,3.6630106E-1,-5.238257E-1,-1.6173603E-1,-1.093635E-1,-8.902093E-1,4.6668836E-1,8.438315E-2,-3.9113557E-1,-6.960572E-1,-6.522867E-2,-5.565847E-1,-6.0276724E-2,7.215073E-3,1.8117933E-2,-1.4091347E-1,2.4915041E-2,7.203949E-2,3.870491E-2,-4.4035155E-2,-5.571984E-2,-2.4925267E-2,-8.0872945E-2,-6.0756784E-2,5.610233E-4,-3.3863995E-2,-6.644034E-2,-4.4893455E-2],"categories":[],"categories_nodes":[],"categories_segments":[],"categories_sizes":[],"default_left":[0,0,0,0,0,0,0,0,0,0,0,0,0,0,0,0,0,0,0,0,0,0,0,0,0,0,0,0,0,0,0],"id":28,"left_children":[1,3,5,7,9,11,13,15,17,19,21,23,25,27,29,-1,-1,-1,-1,-1,-1,-1,-1,-1,-1,-1,-1,-1,-1,-1,-1],"loss_changes":[7.6647943E2,1.3924307E3,2.0003284E2,5.2875055E2,2.7046143E2,4.826837E1,2.0661145E2,4.995185E2,5.712373E2,3.888053E2,3.9896573E2,2.8182007E1,8.711243E0,8.442768E1,1.2062866E1,0E0,0E0,0E0,0E0,0E0,0E0,0E0,0E0,0E0,0E0,0E0,0E0,0E0,0E0,0E0,0E0],"parents":[2147483647,0,0,1,1,2,2,3,3,4,4,5,5,6,6,7,7,8,8,9,9,10,10,11,11,12,12,13,13,14,14],"right_children":[2,4,6,8,10,12,14,16,18,20,22,24,26,28,30,-1,-1,-1,-1,-1,-1,-1,-1,-1,-1,-1,-1,-1,-1,-1,-1],"split_conditions":[1.9E1,1E1,3E0,7E0,1.7E1,2.2E1,2.3E1,3E0,4E0,1.4E1,6E0,2E0,2E0,7E0,6E0,-6.0276724E-2,7.215073E-3,1.8117933E-2,-1.4091347E-1,2.4915041E-2,7.203949E-2,3.870491E-2,-4.4035155E-2,-5.571984E-2,-2.4925267E-2,-8.0872945E-2,-6.0756784E-2,5.610233E-4,-3.3863995E-2,-6.644034E-2,-4.4893455E-2],"split_indices":[1,1,0,0,1,1,1,1,1,1,0,0,0,0,0,0,0,0,0,0,0,0,0,0,0,0,0,0,0,0,0],"split_type":[0,0,0,0,0,0,0,0,0,0,0,0,0,0,0,0,0,0,0,0,0,0,0,0,0,0,0,0,0,0,0],"sum_hessian":[2.3704E4,1.6159E4,7.545E3,6.602E3,9.557E3,2.123E3,5.422E3,5.576E3,1.026E3,7.047E3,2.51E3,1.201E3,9.22E2,4.358E3,1.064E3,1.499E3,4.077E3,3.35E2,6.91E2,3.795E3,3.252E3,1.592E3,9.18E2,5.52E2,6.49E2,4.02E2,5.2E2,3.462E3,8.96E2,5.29E2,5.35E2],"tree_param":{"num_deleted":"0","num_feature":"2","num_nodes":"31","size_leaf_vector":"1"}},{"base_weights":[-5.0358527E-4,8.196416E-2,-3.2262602E-1,-2.0777322E-1,2.3785186E-1,-4.4853863E-1,-5.547326E-2,-2.8936613E-2,-5.820182E-1,3.8174012E-1,-7.7365294E-2,-2.9788148E-1,-5.187212E-1,2.3537822E-1,-3.5462743E-1,-5.8126103E-2,2.3275778E-2,-8.85091E-2,1.4996563E-2,6.426203E-2,2.3452472E-2,-4.5692056E-2,6.6031837E-3,-2.5102263E-2,-4.83229E-2,-7.280572E-2,-4.7251485E-2,4.019441E-2,-1.0314332E-2,1.2239901E-2,-5.9525967E-2],"categories":[],"categories_nodes":[],"categories_segments":[],"categories_sizes":[],"default_left":[0,0,0,0,0,0,0,0,0,0,0,0,0,0,0,0,0,0,0,0,0,0,0,0,0,0,0,0,0,0,0],"id":29,"left_children":[1,3,5,7,9,11,13,15,17,19,21,23,25,27,29,-1,-1,-1,-1,-1,-1,-1,-1,-1,-1,-1,-1,-1,-1,-1,-1],"loss_changes":[6.297429E2,8.525219E2,1.6251343E2,4.419134E2,5.566389E2,3.456891E1,1.3486108E2,6.4608545E2,4.7377045E2,3.2345483E2,2.0941138E2,8.963379E0,2.131305E1,4.4360962E1,8.777085E1,0E0,0E0,0E0,0E0,0E0,0E0,0E0,0E0,0E0,0E0,0E0,0E0,0E0,0E0,0E0,0E0],"parents":[2147483647,0,0,1,1,2,2,3,3,4,4,5,5,6,6,7,7,8,8,9,9,10,10,11,11,12,12,13,13,14,14],"right_children":[2,4,6,8,10,12,14,16,18,20,22,24,26,28,30,-1,-1,-1,-1,-1,-1,-1,-1,-1,-1,-1,-1,-1,-1,-1,-1],"split_conditions":[2.1E1,1E1,6E0,6E0,1.8E1,2.2E1,7E0,4E0,8E0,4E0,3E0,5E0,2E0,2.3E1,2.2E1,-5.8126103E-2,2.3275778E-2,-8.85091E-2,1.4996563E-2,6.426203E-2,2.3452472E-2,-4.5692056E-2,6.6031837E-3,-2.5102263E-2,-4.83229E-2,-7.280572E-2,-4.7251485E-2,4.019441E-2,-1.0314332E-2,1.2239901E-2,-5.9525967E-2],"split_indices":[1,1,0,0,1,1,0,1,1,0,0,0,0,1,1,0,0,0,0,0,0,0,0,0,0,0,0,0,0,0,0],"split_type":[0,0,0,0,0,0,0,0,0,0,0,0,0,0,0,0,0,0,0,0,0,0,0,0,0,0,0,0,0,0,0],"sum_hessian":[2.3704E4,1.8873E4,4.831E3,6.602E3,1.2271E4,3.283E3,1.548E3,4.468E3,2.134E3,8.425E3,3.846E3,1.045E3,2.238E3,7.85E2,7.63E2,1.436E3,3.032E3,1.509E3,6.25E2,3.038E3,5.387E3,1.054E3,2.792E3,8.36E2,2.09E2,4.02E2,1.836E3,5.26E2,2.59E2,2.56E2,5.07E2],"tree_param":{"num_deleted":"0","num_feature":"2","num_nodes":"31","size_leaf_vector":"1"}},{"base_weights":[-4.6465595E-4,7.376453E-2,-2.9040697E-1,-1.8701206E-1,2.1407044E-1,-4.0374357E-1,-4.9937163E-2,-8.4311776E-2,-7.445315E-1,3.8183033E-1,-1.2261771E-2,-2.681634E-1,-4.669026E-1,2.118783E-1,-3.1922644E-1,-4.8033144E-2,6.1375764E-3,1.21335745E-1,-1.0000258E-1,4.860709E-2,-6.2975697E-3,-5.1845577E-2,6.7843455E-3,-2.2595016E-2,-4.3513644E-2,-6.554322E-2,-4.2528894E-2,3.6182594E-2,-9.286897E-3,1.1020717E-2,-5.358509E-2],"categories":[],"categories_nodes":[],"categories_segments":[],"categories_sizes":[],"default_left":[0,0,0,0,0,0,0,0,0,0,0,0,0,0,0,0,0,0,0,0,0,0,0,0,0,0,0,0,0,0,0],"id":30,"left_children":[1,3,5,7,9,11,13,15,17,19,21,23,25,27,29,-1,-1,-1,-1,-1,-1,-1,-1,-1,-1,-1,-1,-1,-1,-1,-1],"loss_changes":[5.102048E2,6.906114E2,1.316713E2,3.780079E2,4.6596613E2,2.7996033E1,1.0927848E2,3.217952E2,5.149489E2,3.2682397E2,2.1190253E2,7.2743835E0,1.728714E1,3.5950764E1,7.113078E1,0E0,0E0,0E0,0E0,0E0,0E0,0E0,0E0,0E0,0E0,0E0,0E0,0E0,0E0,0E0,0E0],"parents":[2147483647,0,0,1,1,2,2,3,3,4,4,5,5,6,6,7,7,8,8,9,9,10,10,11,11,12,12,13,13,14,14],"right_children":[2,4,6,8,10,12,14,16,18,20,22,24,26,28,30,-1,-1,-1,-1,-1,-1,-1,-1,-1,-1,-1,-1,-1,-1,-1,-1],"split_conditions":[2.1E1,1E1,6E0,7E0,1.7E1,2.2E1,7E0,3E0,1E0,7E0,2E0,5E0,2E0,2.3E1,2.2E1,-4.8033144E-2,6.1375764E-3,1.21335745E-1,-1.0000258E-1,4.860709E-2,-6.2975697E-3,-5.1845577E-2,6.7843455E-3,-2.2595016E-2,-4.3513644E-2,-6.554322E-2,-4.2528894E-2,3.6182594E-2,-9.286897E-3,1.1020717E-2,-5.358509E-2],"split_indices":[1,1,0,0,1,1,0,1,1,0,0,0,0,1,1,0,0,0,0,0,0,0,0,0,0,0,0,0,0,0,0],"split_type":[0,0,0,0,0,0,0,0,0,0,0,0,0,0,0,0,0,0,0,0,0,0,0,0,0,0,0,0,0,0,0],"sum_hessian":[2.3704E4,1.8873E4,4.831E3,6.602E3,1.2271E4,3.283E3,1.548E3,5.576E3,1.026E3,7.047E3,5.224E3,1.045E3,2.238E3,7.85E2,7.63E2,1.499E3,4.077E3,1.18E2,9.08E2,5.709E3,1.338E3,7.13E2,4.511E3,8.36E2,2.09E2,4.02E2,1.836E3,5.26E2,2.59E2,2.56E2,5.07E2],"tree_param":{"num_deleted":"0","num_feature":"2","num_nodes":"31","size_leaf_vector":"1"}},{"base_weights":[-4.2713797E-4,9.044347E-2,-1.950294E-1,-1.06824756E-1,3.2762077E-1,-3.2071236E-1,-5.622273E-2,2.0722207E-3,-6.755019E-1,6.776643E-1,1.4127664E-1,-1.36498995E-2,-3.8067484E-1,8.928511E-2,-3.557498E-1,-4.0164065E-2,1.2132178E-2,1.0930411E-1,-8.36872E-2,-4.1033495E-2,7.9668E-2,2.8214503E-2,-1.4509655E-2,-1.0292308E-2,4.8842333E-2,-5.0172176E-2,-3.3634692E-2,3.6440954E-2,-7.614042E-3,-2.8842738E-2,-5.724734E-2],"categories":[],"categories_nodes":[],"categories_segments":[],"categories_sizes":[],"default_left":[0,0,0,0,0,0,0,0,0,0,0,0,0,0,0,0,0,0,0,0,0,0,0,0,0,0,0,0,0,0,0],"id":31,"left_children":[1,3,5,7,9,11,13,15,17,19,21,23,25,27,29,-1,-1,-1,-1,-1,-1,-1,-1,-1,-1,-1,-1,-1,-1,-1,-1],"loss_changes":[4.1920798E2,7.5612177E2,1.3162674E2,5.4638525E2,4.7855133E2,7.2907196E1,1.563659E2,3.5659268E2,4.0559766E2,3.303944E2,1.9327396E2,2.9094713E1,1.7608032E1,1.0994068E2,1.6949356E1,0E0,0E0,0E0,0E0,0E0,0E0,0E0,0E0,0E0,0E0,0E0,0E0,0E0,0E0,0E0,0E0],"parents":[2147483647,0,0,1,1,2,2,3,3,4,4,5,5,6,6,7,7,8,8,9,9,10,10,11,11,12,12,13,13,14,14],"right_children":[2,4,6,8,10,12,14,16,18,20,22,24,26,28,30,-1,-1,-1,-1,-1,-1,-1,-1,-1,-1,-1,-1,-1,-1,-1,-1],"split_conditions":[1.9E1,1.2E1,5E0,7E0,4E0,2E1,7E0,4E0,1E0,1.3E1,1.7E1,4E0,2E0,2.1E1,2.3E1,-4.0164065E-2,1.2132178E-2,1.0930411E-1,-8.36872E-2,-4.1033495E-2,7.9668E-2,2.8214503E-2,-1.4509655E-2,-1.0292308E-2,4.8842333E-2,-5.0172176E-2,-3.3634692E-2,3.6440954E-2,-7.614042E-3,-2.8842738E-2,-5.724734E-2],"split_indices":[1,1,0,0,0,1,0,1,1,1,1,0,0,1,1,0,0,0,0,0,0,0,0,0,0,0,0,0,0,0,0],"split_type":[0,0,0,0,0,0,0,0,0,0,0,0,0,0,0,0,0,0,0,0,0,0,0,0,0,0,0,0,0,0,0],"sum_hessian":[2.3704E4,1.6159E4,7.545E3,8.822E3,7.337E3,3.959E3,3.586E3,7.405E3,1.417E3,2.548E3,4.789E3,6.47E2,3.312E3,2.414E3,1.172E3,1.688E3,5.717E3,1.18E2,1.299E3,2.51E2,2.297E3,3.21E3,1.579E3,5.5E2,9.7E1,8.85E2,2.427E3,9.06E2,1.508E3,8.96E2,2.76E2],"tree_param":{"num_deleted":"0","num_feature":"2","num_nodes":"31","size_leaf_vector":"1"}},{"base_weights":[-3.8691476E-4,9.252743E-2,-1.6128992E-1,-9.614291E-2,3.60743E-1,-3.80341E-1,-7.525346E-2,1.8608194E-3,-6.079338E-1,7.753076E-1,1.474561E-1,-3.2281923E-1,-4.7496757E-1,-9.4131455E-3,-3.946783E-1,-3.92193E-2,1.0192496E-2,2.8899565E-2,-8.856442E-2,-3.69465E-2,9.302389E-2,2.5393842E-2,-2.3731567E-2,-5.643032E-2,-2.5745848E-2,-5.4000404E-2,-4.2374942E-2,5.585201E-3,-2.4427805E-2,-4.8639428E-2,-3.0325264E-2],"categories":[],"categories_nodes":[],"categories_segments":[],"categories_sizes":[],"default_left":[0,0,0,0,0,0,0,0,0,0,0,0,0,0,0,0,0,0,0,0,0,0,0,0,0,0,0,0,0,0,0],"id":32,"left_children":[1,3,5,7,9,11,13,15,17,19,21,23,25,27,29,-1,-1,-1,-1,-1,-1,-1,-1,-1,-1,-1,-1,-1,-1,-1,-1],"loss_changes":[3.5440933E2,7.6051636E2,1.6352026E2,4.4253998E2,5.4862787E2,1.3165924E1,1.3106168E2,2.9206342E2,3.5346082E2,3.742207E2,1.6800195E2,2.3924667E1,2.8457336E0,7.92313E1,8.782715E0,0E0,0E0,0E0,0E0,0E0,0E0,0E0,0E0,0E0,0E0,0E0,0E0,0E0,0E0,0E0,0E0],"parents":[2147483647,0,0,1,1,2,2,3,3,4,4,5,5,6,6,7,7,8,8,9,9,10,10,11,11,12,12,13,13,14,14],"right_children":[2,4,6,8,10,12,14,16,18,20,22,24,26,28,30,-1,-1,-1,-1,-1,-1,-1,-1,-1,-1,-1,-1,-1,-1,-1,-1],"split_conditions":[1.8E1,1.2E1,3E0,7E0,4E0,2.2E1,2.3E1,3E0,4E0,1.3E1,1.7E1,1.9E1,2E0,7E0,6E0,-3.92193E-2,1.0192496E-2,2.8899565E-2,-8.856442E-2,-3.69465E-2,9.302389E-2,2.5393842E-2,-2.3731567E-2,-5.643032E-2,-2.5745848E-2,-5.4000404E-2,-4.2374942E-2,5.585201E-3,-2.4427805E-2,-4.8639428E-2,-3.0325264E-2],"split_indices":[1,1,0,0,0,1,1,1,1,1,1,1,0,0,0,0,0,0,0,0,0,0,0,0,0,0,0,0,0,0,0],"split_type":[0,0,0,0,0,0,0,0,0,0,0,0,0,0,0,0,0,0,0,0,0,0,0,0,0,0,0,0,0,0,0],"sum_hessian":[2.3704E4,1.5027E4,8.677E3,8.822E3,6.205E3,2.446E3,6.231E3,7.405E3,1.417E3,2.107E3,4.098E3,1.524E3,9.22E2,5.167E3,1.064E3,1.499E3,5.906E3,3.35E2,1.082E3,2.51E2,1.856E3,3.21E3,8.88E2,3.23E2,1.201E3,4.02E2,5.2E2,4.044E3,1.123E3,5.29E2,5.35E2],"tree_param":{"num_deleted":"0","num_feature":"2","num_nodes":"31","size_leaf_vector":"1"}},{"base_weights":[-3.614316E-4,8.327242E-2,-1.451931E-1,-8.65389E-2,3.2467785E-1,-3.423801E-1,-6.774416E-2,1.670542E-3,-5.471825E-1,6.978041E-1,1.3271035E-1,-2.905916E-1,-4.2757526E-1,-8.475865E-3,-3.5528478E-1,-2.3496697E-2,1.427857E-2,9.559988E-2,-6.843605E-2,-3.3266436E-2,8.372657E-2,2.2855187E-2,-2.1361113E-2,-5.0804753E-2,-2.3173442E-2,-4.8613768E-2,-3.8145583E-2,5.0267763E-3,-2.1987222E-2,-4.3784678E-2,-2.7298419E-2],"categories":[],"categories_nodes":[],"categories_segments":[],"categories_sizes":[],"default_left":[0,0,0,0,0,0,0,0,0,0,0,0,0,0,0,0,0,0,0,0,0,0,0,0,0,0,0,0,0,0,0],"id":33,"left_children":[1,3,5,7,9,11,13,15,17,19,21,23,25,27,29,-1,-1,-1,-1,-1,-1,-1,-1,-1,-1,-1,-1,-1,-1,-1,-1],"loss_changes":[2.8714676E2,6.1607654E2,1.3250659E2,3.585069E2,4.444314E2,1.0672211E1,1.06202995E2,2.4734312E2,2.9305066E2,3.0322095E2,1.3610272E2,1.9400497E1,2.3074799E0,6.4188255E1,7.11705E0,0E0,0E0,0E0,0E0,0E0,0E0,0E0,0E0,0E0,0E0,0E0,0E0,0E0,0E0,0E0,0E0],"parents":[2147483647,0,0,1,1,2,2,3,3,4,4,5,5,6,6,7,7,8,8,9,9,10,10,11,11,12,12,13,13,14,14],"right_children":[2,4,6,8,10,12,14,16,18,20,22,24,26,28,30,-1,-1,-1,-1,-1,-1,-1,-1,-1,-1,-1,-1,-1,-1,-1,-1],"split_conditions":[1.8E1,1.2E1,3E0,7E0,4E0,2.2E1,2.3E1,5E0,1E0,1.3E1,1.7E1,1.9E1,2E0,7E0,6E0,-2.3496697E-2,1.427857E-2,9.559988E-2,-6.843605E-2,-3.3266436E-2,8.372657E-2,2.2855187E-2,-2.1361113E-2,-5.0804753E-2,-2.3173442E-2,-4.8613768E-2,-3.8145583E-2,5.0267763E-3,-2.1987222E-2,-4.3784678E-2,-2.7298419E-2],"split_indices":[1,1,0,0,0,1,1,1,1,1,1,1,0,0,0,0,0,0,0,0,0,0,0,0,0,0,0,0,0,0,0],"split_type":[0,0,0,0,0,0,0,0,0,0,0,0,0,0,0,0,0,0,0,0,0,0,0,0,0,0,0,0,0,0,0],"sum_hessian":[2.3704E4,1.5027E4,8.677E3,8.822E3,6.205E3,2.446E3,6.231E3,7.405E3,1.417E3,2.107E3,4.098E3,1.524E3,9.22E2,5.167E3,1.064E3,2.766E3,4.639E3,1.18E2,1.299E3,2.51E2,1.856E3,3.21E3,8.88E2,3.23E2,1.201E3,4.02E2,5.2E2,4.044E3,1.123E3,5.29E2,5.35E2],"tree_param":{"num_deleted":"0","num_feature":"2","num_nodes":"31","size_leaf_vector":"1"}},{"base_weights":[-3.3297407E-4,6.7468464E-2,-1.4553188E-1,-1.3375503E-1,2.0647362E-1,-2.5007054E-1,-3.0082006E-2,-2.6250859E-3,-4.0817466E-1,2.669454E-1,3.6656193E-2,5.473932E-3,-2.999778E-1,8.706219E-2,-2.712356E-1,-3.8245864E-2,1.7733647E-2,-6.9512725E-2,2.8464733E-2,1.2223947E-2,4.3572396E-2,2.7073642E-2,-3.6913972E-2,-6.996598E-3,4.2957515E-2,-3.783798E-2,-2.7124465E-2,3.1740807E-2,-5.144726E-3,-2.1325376E-2,-4.580171E-2],"categories":[],"categories_nodes":[],"categories_segments":[],"categories_sizes":[],"default_left":[0,0,0,0,0,0,0,0,0,0,0,0,0,0,0,0,0,0,0,0,0,0,0,0,0,0,0,0,0,0,0],"id":34,"left_children":[1,3,5,7,9,11,13,15,17,19,21,23,25,27,29,-1,-1,-1,-1,-1,-1,-1,-1,-1,-1,-1,-1,-1,-1,-1,-1],"loss_changes":[2.333783E2,4.5204062E2,9.106497E1,2.3760544E2,9.814285E1,5.0505615E1,1.0135544E2,3.0554828E2,4.246509E2,1.7208188E2,2.386168E2,2.076227E1,7.3606567E0,7.706709E1,1.2605835E1,0E0,0E0,0E0,0E0,0E0,0E0,0E0,0E0,0E0,0E0,0E0,0E0,0E0,0E0,0E0,0E0],"parents":[2147483647,0,0,1,1,2,2,3,3,4,4,5,5,6,6,7,7,8,8,9,9,10,10,11,11,12,12,13,13,14,14],"right_children":[2,4,6,8,10,12,14,16,18,20,22,24,26,28,30,-1,-1,-1,-1,-1,-1,-1,-1,-1,-1,-1,-1,-1,-1,-1,-1],"split_conditions":[1.9E1,1E1,5E0,6E0,1.7E1,2E1,7E0,4E0,8E0,1.4E1,6E0,4E0,2E0,2.1E1,2.3E1,-3.8245864E-2,1.7733647E-2,-6.9512725E-2,2.8464733E-2,1.2223947E-2,4.3572396E-2,2.7073642E-2,-3.6913972E-2,-6.996598E-3,4.2957515E-2,-3.783798E-2,-2.7124465E-2,3.1740807E-2,-5.144726E-3,-2.1325376E-2,-4.580171E-2],"split_indices":[1,1,0,0,1,1,0,1,1,1,0,0,0,1,1,0,0,0,0,0,0,0,0,0,0,0,0,0,0,0,0],"split_type":[0,0,0,0,0,0,0,0,0,0,0,0,0,0,0,0,0,0,0,0,0,0,0,0,0,0,0,0,0,0,0],"sum_hessian":[2.3704E4,1.6159E4,7.545E3,6.602E3,9.557E3,3.959E3,3.586E3,4.468E3,2.134E3,7.047E3,2.51E3,6.47E2,3.312E3,2.414E3,1.172E3,1.436E3,3.032E3,1.509E3,6.25E2,3.795E3,3.252E3,1.592E3,9.18E2,5.5E2,9.7E1,8.85E2,2.427E3,9.06E2,1.508E3,8.96E2,2.76E2],"tree_param":{"num_deleted":"0","num_feature":"2","num_nodes":"31","size_leaf_vector":"1"}},{"base_weights":[-3.0325126E-4,6.81022E-2,-1.18763365E-1,-1.2038915E-1,2.1580459E-1,-2.8690735E-1,-5.2722435E-2,-2.3675794E-3,-3.673765E-1,3.3536825E-1,1.1250697E-1,-4.8438954E-1,-2.5664786E-1,-2.1543968E-3,-2.980585E-1,1.8591804E-2,-3.877932E-2,2.8459126E-2,-6.1478585E-2,-1.6587723E-2,6.5938815E-2,3.41234E-2,-2.0909784E-3,-3.702439E-2,-7.816253E-2,-1.8233119E-2,-3.5315055E-2,4.544479E-3,-1.7345026E-2,-3.7677582E-2,-2.1966627E-2],"categories":[],"categories_nodes":[],"categories_segments":[],"categories_sizes":[],"default_left":[0,0,0,0,0,0,0,0,0,0,0,0,0,0,0,0,0,0,0,0,0,0,0,0,0,0,0,0,0,0,0],"id":35,"left_children":[1,3,5,7,9,11,13,15,17,19,21,23,25,27,29,-1,-1,-1,-1,-1,-1,-1,-1,-1,-1,-1,-1,-1,-1,-1,-1],"loss_changes":[1.9209723E2,4.1841486E2,9.634872E1,1.924755E2,1.0402878E2,1.4498245E1,7.731457E1,3.2438788E2,3.4455673E2,6.34334E2,1.3800053E2,1.0703339E1,1.51684265E1,4.2145393E1,6.4891663E0,0E0,0E0,0E0,0E0,0E0,0E0,0E0,0E0,0E0,0E0,0E0,0E0,0E0,0E0,0E0,0E0],"parents":[2147483647,0,0,1,1,2,2,3,3,4,4,5,5,6,6,7,7,8,8,9,9,10,10,11,11,12,12,13,13,14,14],"right_children":[2,4,6,8,10,12,14,16,18,20,22,24,26,28,30,-1,-1,-1,-1,-1,-1,-1,-1,-1,-1,-1,-1,-1,-1,-1,-1],"split_conditions":[1.8E1,1E1,3E0,6E0,5E0,1.9E1,2.3E1,7E0,4E0,1.3E1,1.3E1,2E0,2.2E1,7E0,6E0,1.8591804E-2,-3.877932E-2,2.8459126E-2,-6.1478585E-2,-1.6587723E-2,6.5938815E-2,3.41234E-2,-2.0909784E-3,-3.702439E-2,-7.816253E-2,-1.8233119E-2,-3.5315055E-2,4.544479E-3,-1.7345026E-2,-3.7677582E-2,-2.1966627E-2],"split_indices":[1,1,0,0,0,1,1,1,1,1,1,0,1,0,0,0,0,0,0,0,0,0,0,0,0,0,0,0,0,0,0],"split_type":[0,0,0,0,0,0,0,0,0,0,0,0,0,0,0,0,0,0,0,0,0,0,0,0,0,0,0,0,0,0,0],"sum_hessian":[2.3704E4,1.5027E4,8.677E3,6.602E3,8.425E3,2.446E3,6.231E3,4.468E3,2.134E3,3.904E3,4.521E3,3.23E2,2.123E3,5.167E3,1.064E3,3.002E3,1.466E3,5.87E2,1.547E3,1.533E3,2.371E3,1.665E3,2.856E3,2.35E2,8.8E1,1.201E3,9.22E2,4.044E3,1.123E3,5.29E2,5.35E2],"tree_param":{"num_deleted":"0","num_feature":"2","num_nodes":"31","size_leaf_vector":"1"}},{"base_weights":[-2.8176332E-4,3.245888E-2,-2.0620944E-1,-1.9452706E-1,7.5648375E-2,-2.8857696E-1,-2.4131427E-2,-2.4999295E-1,-6.560364E-2,1.1425036E0,4.7677692E-2,-3.64673E-1,-2.7172598E-1,2.8372648E-1,-3.313358E-1,-3.9634667E-2,-9.376229E-3,2.561806E-2,-5.408386E-2,1.8431102E-1,-5.352457E-1,-4.2014603E-2,8.799743E-3,-4.5398798E-2,-2.559014E-2,-2.3029454E-2,-3.262228E-2,5.7125628E-2,8.3760265E-4,-2.5927553E-2,-3.904934E-2],"categories":[],"categories_nodes":[],"categories_segments":[],"categories_sizes":[],"default_left":[0,0,0,0,0,0,0,0,0,0,0,0,0,0,0,0,0,0,0,0,0,0,0,0,0,0,0,0,0,0,0],"id":36,"left_children":[1,3,5,7,9,11,13,15,17,19,21,23,25,27,29,-1,-1,-1,-1,-1,-1,-1,-1,-1,-1,-1,-1,-1,-1,-1,-1],"loss_changes":[1.5983064E2,2.0053365E2,4.8764313E1,2.336689E1,5.1275757E2,2.7719727E0,9.599336E1,5.2232086E1,1.5076782E2,2.007496E3,3.1592776E2,3.7989426E0,4.0726013E0,4.0135143E1,2.064312E0,0E0,0E0,0E0,0E0,0E0,0E0,0E0,0E0,0E0,0E0,0E0,0E0,0E0,0E0,0E0,0E0],"parents":[2147483647,0,0,1,1,2,2,3,3,4,4,5,5,6,6,7,7,8,8,9,9,10,10,11,11,12,12,13,13,14,14],"right_children":[2,4,6,8,10,12,14,16,18,20,22,24,26,28,30,-1,-1,-1,-1,-1,-1,-1,-1,-1,-1,-1,-1,-1,-1,-1,-1],"split_conditions":[2.2E1,5E0,6E0,6E0,6E0,2E0,7E0,2E0,4E0,6E0,8E0,2.3E1,2.3E1,2.3E1,2.3E1,-3.9634667E-2,-9.376229E-3,2.561806E-2,-5.408386E-2,1.8431102E-1,-5.352457E-1,-4.2014603E-2,8.799743E-3,-4.5398798E-2,-2.559014E-2,-2.3029454E-2,-3.262228E-2,5.7125628E-2,8.3760265E-4,-2.5927553E-2,-3.904934E-2],"split_indices":[1,1,0,0,1,0,0,1,1,0,1,1,1,1,1,0,0,0,0,0,0,0,0,0,0,0,0,0,0,0,0],"split_type":[0,0,0,0,0,0,0,0,0,0,0,0,0,0,0,0,0,0,0,0,0,0,0,0,0,0,0,0,0,0,0],"sum_hessian":[2.3704E4,2.0453E4,3.251E3,3.269E3,1.7184E4,2.238E3,1.013E3,2.285E3,9.84E2,4.38E2,1.6746E4,4.02E2,1.836E3,5.06E2,5.07E2,1.179E3,1.106E3,5.87E2,3.97E2,3.96E2,4.2E1,1.328E3,1.5418E4,2.19E2,1.83E2,1.046E3,7.9E2,2.47E2,2.59E2,2.31E2,2.76E2],"tree_param":{"num_deleted":"0","num_feature":"2","num_nodes":"31","size_leaf_vector":"1"}},{"base_weights":[-2.7892386E-4,6.002223E-2,-1.0470454E-1,-5.9893545E-2,2.3049545E-1,-1.9590127E-1,-6.9749695E-3,1.5039681E-2,-4.5121625E-1,4.1189504E-1,-2.6818493E-2,-6.4415924E-2,-2.4255458E-1,8.796242E-2,-1.9623445E-1,-2.7856454E-2,8.959382E-3,2.8619641E-2,-6.795814E-2,-3.0035416E-2,5.506099E-2,7.795519E-2,-1.6945468E-2,-2.6050616E-2,1.626783E-2,-3.4768697E-2,-2.1154823E-2,2.4164002E-2,-4.2757485E-3,-6.939494E-3,-2.4743497E-2],"categories":[],"categories_nodes":[],"categories_segments":[],"categories_sizes":[],"default_left":[0,0,0,0,0,0,0,0,0,0,0,0,0,0,0,0,0,0,0,0,0,0,0,0,0,0,0,0,0,0,0],"id":37,"left_children":[1,3,5,7,9,11,13,15,17,19,21,23,25,27,29,-1,-1,-1,-1,-1,-1,-1,-1,-1,-1,-1,-1,-1,-1,-1,-1],"loss_changes":[1.492763E2,3.0722263E2,7.734232E1,2.5872427E2,2.8968625E2,2.752092E1,7.5302345E1,1.6213792E2,2.3898474E2,3.5979565E2,2.9538226E2,5.245532E1,1.0726074E1,5.6077957E1,9.074776E0,0E0,0E0,0E0,0E0,0E0,0E0,0E0,0E0,0E0,0E0,0E0,0E0,0E0,0E0,0E0,0E0],"parents":[2147483647,0,0,1,1,2,2,3,3,4,4,5,5,6,6,7,7,8,8,9,9,10,10,11,11,12,12,13,13,14,14],"right_children":[2,4,6,8,10,12,14,16,18,20,22,24,26,28,30,-1,-1,-1,-1,-1,-1,-1,-1,-1,-1,-1,-1,-1,-1,-1,-1],"split_conditions":[1.8E1,1.2E1,5E0,7E0,6E0,2E1,7E0,3E0,4E0,1.3E1,1.3E1,3E0,2.1E1,2.1E1,2E1,-2.7856454E-2,8.959382E-3,2.8619641E-2,-6.795814E-2,-3.0035416E-2,5.506099E-2,7.795519E-2,-1.6945468E-2,-2.6050616E-2,1.626783E-2,-3.4768697E-2,-2.1154823E-2,2.4164002E-2,-4.2757485E-3,-6.939494E-3,-2.4743497E-2],"split_indices":[1,1,0,0,0,1,0,1,1,1,1,0,1,1,1,0,0,0,0,0,0,0,0,0,0,0,0,0,0,0,0],"split_type":[0,0,0,0,0,0,0,0,0,0,0,0,0,0,0,0,0,0,0,0,0,0,0,0,0,0,0,0,0,0,0],"sum_hessian":[2.3704E4,1.5027E4,8.677E3,8.822E3,6.205E3,4.488E3,4.189E3,7.405E3,1.417E3,3.639E3,2.566E3,1.176E3,3.312E3,2.79E3,1.399E3,1.499E3,5.906E3,3.35E2,1.082E3,5.93E2,3.046E3,3.85E2,2.181E3,6.31E2,5.45E2,7.52E2,2.56E3,1.282E3,1.508E3,4.03E2,9.96E2],"tree_param":{"num_deleted":"0","num_feature":"2","num_nodes":"31","size_leaf_vector":"1"}},{"base_weights":[-2.531748E-4,5.4021813E-2,-9.4243065E-2,-9.357178E-2,1.6967651E-1,-1.7632572E-1,-6.2804557E-3,2.118534E-3,-2.938277E-1,2.5990182E-1,9.172439E-2,-5.7982665E-2,-2.183159E-1,7.917305E-2,-1.7663364E-1,1.7346531E-2,-3.4863573E-2,-6.390026E-2,2.0203209E-2,-1.5736265E-2,5.2964207E-2,2.9645285E-2,-2.769085E-3,-2.3449682E-2,1.4644029E-2,-3.1296402E-2,-1.9040167E-2,2.174947E-2,-3.8484891E-3,-2.6221255E-2,-1.0504935E-2],"categories":[],"categories_nodes":[],"categories_segments":[],"categories_sizes":[],"default_left":[0,0,0,0,0,0,0,0,0,0,0,0,0,0,0,0,0,0,0,0,0,0,0,0,0,0,0,0,0,0,0],"id":38,"left_children":[1,3,5,7,9,11,13,15,17,19,21,23,25,27,29,-1,-1,-1,-1,-1,-1,-1,-1,-1,-1,-1,-1,-1,-1,-1,-1],"loss_changes":[1.20931404E2,2.565422E2,6.2655823E1,1.26530975E2,5.9238358E1,2.2294296E1,6.1008976E1,2.6865012E2,3.655523E2,4.396028E2,1.10560715E2,4.2504665E1,8.693451E0,4.5430885E1,8.549E0,0E0,0E0,0E0,0E0,0E0,0E0,0E0,0E0,0E0,0E0,0E0,0E0,0E0,0E0,0E0,0E0],"parents":[2147483647,0,0,1,1,2,2,3,3,4,4,5,5,6,6,7,7,8,8,9,9,10,10,11,11,12,12,13,13,14,14],"right_children":[2,4,6,8,10,12,14,16,18,20,22,24,26,28,30,-1,-1,-1,-1,-1,-1,-1,-1,-1,-1,-1,-1,-1,-1,-1,-1],"split_conditions":[1.8E1,1E1,5E0,6E0,5E0,2E1,7E0,7E0,7E0,1.3E1,1.3E1,3E0,2.1E1,2.1E1,2.1E1,1.7346531E-2,-3.4863573E-2,-6.390026E-2,2.0203209E-2,-1.5736265E-2,5.2964207E-2,2.9645285E-2,-2.769085E-3,-2.3449682E-2,1.4644029E-2,-3.1296402E-2,-1.9040167E-2,2.174947E-2,-3.8484891E-3,-2.6221255E-2,-1.0504935E-2],"split_indices":[1,1,0,0,0,1,0,1,1,1,1,0,1,1,1,0,0,0,0,0,0,0,0,0,0,0,0,0,0,0,0],"split_type":[0,0,0,0,0,0,0,0,0,0,0,0,0,0,0,0,0,0,0,0,0,0,0,0,0,0,0,0,0,0,0],"sum_hessian":[2.3704E4,1.5027E4,8.677E3,6.602E3,8.425E3,4.488E3,4.189E3,4.468E3,2.134E3,3.904E3,4.521E3,1.176E3,3.312E3,2.79E3,1.399E3,3.002E3,1.466E3,1.258E3,8.76E2,1.533E3,2.371E3,1.665E3,2.856E3,6.31E2,5.45E2,7.52E2,2.56E3,1.282E3,1.508E3,6.36E2,7.63E2],"tree_param":{"num_deleted":"0","num_feature":"2","num_nodes":"31","size_leaf_vector":"1"}},{"base_weights":[-2.3095732E-4,4.8619945E-2,-8.4827766E-2,-8.422379E-2,1.5271662E-1,-1.5870623E-1,-5.6570615E-3,1.9028913E-3,-2.6446545E-1,3.8517556E-1,1.2535007E-1,-5.2191585E-2,-1.9649948E-1,7.126196E-2,-1.5899658E-1,-2.304376E-2,2.4509357E-2,-5.05882E-2,3.182878E-2,-9.411868E-2,5.919181E-2,-1.595383E-2,1.8661348E-2,-2.1108402E-2,1.3182344E-2,-2.817089E-2,-1.71369E-2,-1.1141167E-2,1.4369263E-2,-9.956825E-3,-2.6315112E-2],"categories":[],"categories_nodes":[],"categories_segments":[],"categories_sizes":[],"default_left":[0,0,0,0,0,0,0,0,0,0,0,0,0,0,0,0,0,0,0,0,0,0,0,0,0,0,0,0,0,0,0],"id":39,"left_children":[1,3,5,7,9,11,13,15,17,19,21,23,25,27,29,-1,-1,-1,-1,-1,-1,-1,-1,-1,-1,-1,-1,-1,-1,-1,-1],"loss_changes":[9.796813E1,2.0782893E2,5.0756805E1,1.02502945E2,5.3554565E1,1.8060364E1,4.9431225E1,2.5256854E2,3.0052628E2,2.437863E2,1.316271E2,3.4441647E1,7.046036E0,3.694422E1,8.639423E0,0E0,0E0,0E0,0E0,0E0,0E0,0E0,0E0,0E0,0E0,0E0,0E0,0E0,0E0,0E0,0E0],"parents":[2147483647,0,0,1,1,2,2,3,3,4,4,5,5,6,6,7,7,8,8,9,9,10,10,11,11,12,12,13,13,14,14],"right_children":[2,4,6,8,10,12,14,16,18,20,22,24,26,28,30,-1,-1,-1,-1,-1,-1,-1,-1,-1,-1,-1,-1,-1,-1,-1,-1],"split_conditions":[1.8E1,1E1,5E0,6E0,1.1E1,2E1,7E0,5E0,8E0,3E0,1.2E1,3E0,2.1E1,2E1,2.2E1,-2.304376E-2,2.4509357E-2,-5.05882E-2,3.182878E-2,-9.411868E-2,5.919181E-2,-1.595383E-2,1.8661348E-2,-2.1108402E-2,1.3182344E-2,-2.817089E-2,-1.71369E-2,-1.1141167E-2,1.4369263E-2,-9.956825E-3,-2.6315112E-2],"split_indices":[1,1,0,0,1,1,0,1,1,0,1,0,1,1,1,0,0,0,0,0,0,0,0,0,0,0,0,0,0,0,0],"split_type":[0,0,0,0,0,0,0,0,0,0,0,0,0,0,0,0,0,0,0,0,0,0,0,0,0,0,0,0,0,0,0],"sum_hessian":[2.3704E4,1.5027E4,8.677E3,6.602E3,8.425E3,4.488E3,4.189E3,4.468E3,2.134E3,8.86E2,7.539E3,1.176E3,3.312E3,2.79E3,1.399E3,2.285E3,2.183E3,1.509E3,6.25E2,1.19E2,7.67E2,1.334E3,6.205E3,6.31E2,5.45E2,7.52E2,2.56E3,7.92E2,1.998E3,8.92E2,5.07E2],"tree_param":{"num_deleted":"0","num_feature":"2","num_nodes":"31","size_leaf_vector":"1"}},{"base_weights":[-2.1370448E-4,2.7802294E-2,-1.3517858E-1,1.0257699E-1,-7.331622E-2,-3.850202E-1,8.891633E-2,-1.3947068E-1,1.8117364E-1,-3.029408E-1,-3.1022841E-2,3.7180966E-1,-5.4451126E-1,5.21938E-1,-1.4312309E-1,-2.0740386E-2,1.83008E-2,9.91712E-2,1.371242E-2,-9.7940795E-2,-2.4072409E-2,3.8366597E-3,-1.0199625E-2,1.8833634E-2,1.4959686E-1,-1.1509519E-1,-3.97558E-2,5.6254775E-3,6.521698E-2,-2.2609174E-2,-7.3759006E-3],"categories":[],"categories_nodes":[],"categories_segments":[],"categories_sizes":[],"default_left":[0,0,0,0,0,0,0,0,0,0,0,0,0,0,0,0,0,0,0,0,0,0,0,0,0,0,0,0,0,0,0],"id":40,"left_children":[1,3,5,7,9,11,13,15,17,19,21,23,25,27,29,-1,-1,-1,-1,-1,-1,-1,-1,-1,-1,-1,-1,-1,-1,-1,-1],"loss_changes":[8.963653E1,1.4843959E2,2.281863E2,2.1473166E2,8.1043594E1,2.3280603E2,2.1600212E2,6.065462E1,3.0405997E2,5.4393875E1,3.4718864E1,6.901933E1,1.4141904E2,4.5448364E1,8.040388E0,0E0,0E0,0E0,0E0,0E0,0E0,0E0,0E0,0E0,0E0,0E0,0E0,0E0,0E0,0E0,0E0],"parents":[2147483647,0,0,1,1,2,2,3,3,4,4,5,5,6,6,7,7,8,8,9,9,10,10,11,11,12,12,13,13,14,14],"right_children":[2,4,6,8,10,12,14,16,18,20,22,24,26,28,30,-1,-1,-1,-1,-1,-1,-1,-1,-1,-1,-1,-1,-1,-1,-1,-1],"split_conditions":[7E0,1.7E1,1.5E1,5E0,2E0,4E0,1.8E1,6E0,6E0,1.8E1,2.1E1,3E0,7E0,1.6E1,2.1E1,-2.0740386E-2,1.83008E-2,9.91712E-2,1.371242E-2,-9.7940795E-2,-2.4072409E-2,3.8366597E-3,-1.0199625E-2,1.8833634E-2,1.4959686E-1,-1.1509519E-1,-3.97558E-2,5.6254775E-3,6.521698E-2,-2.2609174E-2,-7.3759006E-3],"split_indices":[0,1,1,1,0,1,1,0,1,1,1,1,1,1,1,0,0,0,0,0,0,0,0,0,0,0,0,0,0,0,0],"split_type":[0,0,0,0,0,0,0,0,0,0,0,0,0,0,0,0,0,0,0,0,0,0,0,0,0,0,0,0,0,0,0],"sum_hessian":[2.3704E4,1.963E4,4.074E3,1.1285E4,8.345E3,1.926E3,2.148E3,2.766E3,8.519E3,1.297E3,7.048E3,3.35E2,1.591E3,7.49E2,1.399E3,2.285E3,4.81E2,4.38E2,8.081E3,1.08E2,1.189E3,3.564E3,3.484E3,2.89E2,4.6E1,3.09E2,1.282E3,1.64E2,5.85E2,6.36E2,7.63E2],"tree_param":{"num_deleted":"0","num_feature":"2","num_nodes":"31","size_leaf_vector":"1"}},{"base_weights":[-1.9069941E-4,2.5021298E-2,-1.21647514E-1,9.232941E-2,-6.600008E-2,-3.4651157E-1,8.004383E-2,-3.444114E-2,2.16131E-1,-2.7274063E-1,-2.79216E-2,9.429804E-2,-4.3114564E-1,4.6983954E-1,-1.2883247E-1,-2.1486733E-2,3.1932995E-3,1.5512449E-2,3.8740743E-2,-8.823661E-2,-2.166718E-2,1.0295706E-3,-1.5141143E-2,-2.2904178E-2,-5.7211865E-2,5.0664083E-3,5.87065E-2,-3.8313607E-4,-1.7935565E-2],"categories":[],"categories_nodes":[],"categories_segments":[],"categories_sizes":[],"default_left":[0,0,0,0,0,0,0,0,0,0,0,0,0,0,0,0,0,0,0,0,0,0,0,0,0,0,0,0,0],"id":41,"left_children":[1,3,5,7,9,11,13,15,17,19,21,-1,23,25,27,-1,-1,-1,-1,-1,-1,-1,-1,-1,-1,-1,-1,-1,-1],"loss_changes":[7.259175E1,1.2027499E2,1.8484178E2,1.7713438E2,6.569516E1,2.107096E2,1.7503014E2,6.679496E1,5.9603577E1,4.4175743E1,3.3268955E1,0E0,5.1409515E1,3.6823776E1,8.840948E0,0E0,0E0,0E0,0E0,0E0,0E0,0E0,0E0,0E0,0E0,0E0,0E0,0E0,0E0],"parents":[2147483647,0,0,1,1,2,2,3,3,4,4,5,5,6,6,7,7,8,8,9,9,10,10,12,12,13,13,14,14],"right_children":[2,4,6,8,10,12,14,16,18,20,22,-1,24,26,28,-1,-1,-1,-1,-1,-1,-1,-1,-1,-1,-1,-1,-1,-1],"split_conditions":[7E0,1.7E1,1.5E1,1E1,2E0,1E0,1.8E1,3E0,6E0,1.8E1,6E0,9.429804E-2,9E0,1.6E1,2E1,-2.1486733E-2,3.1932995E-3,1.5512449E-2,3.8740743E-2,-8.823661E-2,-2.166718E-2,1.0295706E-3,-1.5141143E-2,-2.2904178E-2,-5.7211865E-2,5.0664083E-3,5.87065E-2,-3.8313607E-4,-1.7935565E-2],"split_indices":[0,1,1,1,0,1,1,1,0,1,0,0,1,1,1,0,0,0,0,0,0,0,0,0,0,0,0,0,0],"split_type":[0,0,0,0,0,0,0,0,0,0,0,0,0,0,0,0,0,0,0,0,0,0,0,0,0,0,0,0,0],"sum_hessian":[2.3704E4,1.963E4,4.074E3,1.1285E4,8.345E3,1.926E3,2.148E3,5.576E3,5.709E3,1.297E3,7.048E3,1.18E2,1.808E3,7.49E2,1.399E3,1.499E3,4.077E3,4.211E3,1.498E3,1.08E2,1.189E3,5.383E3,1.665E3,7.44E2,1.064E3,1.64E2,5.85E2,4.03E2,9.96E2],"tree_param":{"num_deleted":"0","num_feature":"2","num_nodes":"29","size_leaf_vector":"1"}},{"base_weights":[-1.727699E-4,2.0289943E-2,-1.2887639E-1,-7.042132E-2,6.352891E-2,-2.0133302E-1,3.124125E-2,2.011848E-3,-2.2200607E-1,1.459916E-1,-2.1887766E-2,-1.8353996E-1,-2.605402E-1,2.7452594E-1,-2.1162602E-1,1.7650403E-2,-3.551811E-2,-5.1428396E-2,1.9783415E-2,8.973825E-3,3.9186012E-2,-2.542659E-2,1.3346192E-3,-2.2556616E-2,-1.705996E-2,-1.7092127E-2,-3.6659285E-2,5.3337913E-2,2.6563932E-3,-1.4695925E-2,-2.650234E-2],"categories":[],"categories_nodes":[],"categories_segments":[],"categories_sizes":[],"default_left":[0,0,0,0,0,0,0,0,0,0,0,0,0,0,0,0,0,0,0,0,0,0,0,0,0,0,0,0,0,0,0],"id":42,"left_children":[1,3,5,7,9,11,13,15,17,19,21,23,25,27,29,-1,-1,-1,-1,-1,-1,-1,-1,-1,-1,-1,-1,-1,-1,-1,-1],"loss_changes":[6.24327E1,8.0230415E1,3.773464E1,7.2499825E1,9.7572365E1,2.310913E0,5.997118E1,2.7860373E2,2.6208762E2,9.744522E1,5.5720024E1,8.996353E-1,4.8320694E0,3.2528008E1,1.7151966E0,0E0,0E0,0E0,0E0,0E0,0E0,0E0,0E0,0E0,0E0,0E0,0E0,0E0,0E0,0E0,0E0],"parents":[2147483647,0,0,1,1,2,2,3,3,4,4,5,5,6,6,7,7,8,8,9,9,10,10,11,11,12,12,13,13,14,14],"right_children":[2,4,6,8,10,12,14,16,18,20,22,24,26,28,30,-1,-1,-1,-1,-1,-1,-1,-1,-1,-1,-1,-1,-1,-1,-1,-1],"split_conditions":[2.2E1,1E1,6E0,6E0,1.7E1,5E0,7E0,7E0,7E0,1.6E1,2E0,2E0,2.3E1,2.3E1,2.3E1,1.7650403E-2,-3.551811E-2,-5.1428396E-2,1.9783415E-2,8.973825E-3,3.9186012E-2,-2.542659E-2,1.3346192E-3,-2.2556616E-2,-1.705996E-2,-1.7092127E-2,-3.6659285E-2,5.3337913E-2,2.6563932E-3,-1.4695925E-2,-2.650234E-2],"split_indices":[1,1,0,0,1,0,0,1,1,1,0,0,1,1,1,0,0,0,0,0,0,0,0,0,0,0,0,0,0,0,0],"split_type":[0,0,0,0,0,0,0,0,0,0,0,0,0,0,0,0,0,0,0,0,0,0,0,0,0,0,0,0,0,0,0],"sum_hessian":[2.3704E4,2.0453E4,3.251E3,6.602E3,1.3851E4,2.238E3,1.013E3,4.468E3,2.134E3,7.047E3,6.804E3,1.724E3,5.14E2,5.06E2,5.07E2,3.002E3,1.466E3,1.258E3,8.76E2,5.736E3,1.311E3,8.95E2,5.909E3,4.02E2,1.322E3,2.8E2,2.34E2,2.47E2,2.59E2,2.31E2,2.76E2],"tree_param":{"num_deleted":"0","num_feature":"2","num_nodes":"31","size_leaf_vector":"1"}},{"base_weights":[-1.5987827E-4,2.1797743E-2,-1.0593899E-1,7.763511E-2,-5.3711757E-2,-3.0277914E-1,7.061609E-2,-1.20982066E-1,1.4212996E-1,-2.2103289E-1,-2.2893691E-2,9.004711E-2,-3.817642E-1,4.061088E-1,-1.09162584E-1,-1.9351522E-2,2.2327464E-2,8.7858E-2,1.021097E-2,-7.6974615E-2,-1.7058685E-2,1.5058039E-3,-1.4552829E-2,-1.7564645E-2,-5.2559137E-2,3.6709167E-3,5.094276E-2,-1.9804752E-2,-3.4910135E-3],"categories":[],"categories_nodes":[],"categories_segments":[],"categories_sizes":[],"default_left":[0,0,0,0,0,0,0,0,0,0,0,0,0,0,0,0,0,0,0,0,0,0,0,0,0,0,0,0,0],"id":43,"left_children":[1,3,5,7,9,11,13,15,17,19,21,-1,23,25,27,-1,-1,-1,-1,-1,-1,-1,-1,-1,-1,-1,-1,-1,-1],"loss_changes":[5.5060917E1,8.27734E1,1.4164038E2,1.4458842E2,4.3031193E1,1.8348355E2,1.2966003E2,6.913525E1,2.5101955E2,3.579786E1,3.280961E1,0E0,5.3536102E1,2.8605751E1,9.232981E0,0E0,0E0,0E0,0E0,0E0,0E0,0E0,0E0,0E0,0E0,0E0,0E0,0E0,0E0],"parents":[2147483647,0,0,1,1,2,2,3,3,4,4,5,5,6,6,7,7,8,8,9,9,10,10,12,12,13,13,14,14],"right_children":[2,4,6,8,10,12,14,16,18,20,22,-1,24,26,28,-1,-1,-1,-1,-1,-1,-1,-1,-1,-1,-1,-1,-1,-1],"split_conditions":[7E0,1.7E1,1.5E1,5E0,2E0,1E0,1.8E1,6E0,6E0,1.8E1,6E0,9.004711E-2,9E0,1.6E1,2.1E1,-1.9351522E-2,2.2327464E-2,8.7858E-2,1.021097E-2,-7.6974615E-2,-1.7058685E-2,1.5058039E-3,-1.4552829E-2,-1.7564645E-2,-5.2559137E-2,3.6709167E-3,5.094276E-2,-1.9804752E-2,-3.4910135E-3],"split_indices":[0,1,1,1,0,1,1,0,1,1,0,0,1,1,1,0,0,0,0,0,0,0,0,0,0,0,0,0,0],"split_type":[0,0,0,0,0,0,0,0,0,0,0,0,0,0,0,0,0,0,0,0,0,0,0,0,0,0,0,0,0],"sum_hessian":[2.3704E4,1.963E4,4.074E3,1.1285E4,8.345E3,1.926E3,2.148E3,2.766E3,8.519E3,1.297E3,7.048E3,1.18E2,1.808E3,7.49E2,1.399E3,2.285E3,4.81E2,4.38E2,8.081E3,1.08E2,1.189E3,5.383E3,1.665E3,7.44E2,1.064E3,1.64E2,5.85E2,6.36E2,7.63E2],"tree_param":{"num_deleted":"0","num_feature":"2","num_nodes":"29","size_leaf_vector":"1"}},{"base_weights":[-1.4165197E-4,-1.1744369E-1,1.7682519E-2,2.9915413E-1,-2.0725882E-1,1.2304403E-1,-2.6901174E-2,-3.723715E-2,1.9492991E-1,-3.7717938E-1,-7.206787E-2,-5.637924E-1,1.8653175E-1,-3.2612497E-1,4.5612976E-2,-5.9364118E-2,2.140463E-2,1.0017739E-2,-1.8890815E-2,-6.338843E-2,-2.6073838E-2,1.2695006E-1,3.3391237E-3,5.246023E-2,-4.8909124E-2,3.7169624E-2,-7.4415765E-4],"categories":[],"categories_nodes":[],"categories_segments":[],"categories_sizes":[],"default_left":[0,0,0,0,0,0,0,0,0,0,0,0,0,0,0,0,0,0,0,0,0,0,0,0,0,0,0],"id":44,"left_children":[1,3,5,7,9,11,13,15,-1,-1,17,19,21,23,25,-1,-1,-1,-1,-1,-1,-1,-1,-1,-1,-1,-1],"loss_changes":[4.9564762E1,1.170643E2,9.667121E1,3.0814996E2,1.2396387E3,2.6692834E2,3.1378906E2,6.472165E1,0E0,0E0,4.9929382E1,1.0837875E1,9.2902905E2,3.9135956E2,2.0139441E2,0E0,0E0,0E0,0E0,0E0,0E0,0E0,0E0,0E0,0E0,0E0,0E0],"parents":[2147483647,0,0,1,1,2,2,3,3,4,4,5,5,6,6,7,7,10,10,11,11,12,12,13,13,14,14],"right_children":[2,4,6,8,10,12,14,16,-1,-1,18,20,22,24,26,-1,-1,-1,-1,-1,-1,-1,-1,-1,-1,-1,-1],"split_conditions":[2E0,6E0,4E0,5E0,7E0,4E0,8E0,1E0,1.9492991E-1,-3.7717938E-1,1.6E1,2E0,7E0,1E0,1.1E1,-5.9364118E-2,2.140463E-2,1.0017739E-2,-1.8890815E-2,-6.338843E-2,-2.6073838E-2,1.2695006E-1,3.3391237E-3,5.246023E-2,-4.8909124E-2,3.7169624E-2,-7.4415765E-4],"split_indices":[0,1,0,1,1,1,1,1,0,0,1,1,1,1,1,0,0,0,0,0,0,0,0,0,0,0,0],"split_type":[0,0,0,0,0,0,0,0,0,0,0,0,0,0,0,0,0,0,0,0,0,0,0,0,0,0,0],"sum_hessian":[2.3704E4,3.126E3,2.0578E4,5.54E2,2.572E3,6.118E3,1.446E4,4.61E2,9.3E1,9.3E1,2.479E3,5.17E2,5.601E3,2.82E3,1.164E4,1.43E2,3.18E2,1.002E3,1.477E3,4.19E2,9.8E1,6.93E2,4.908E3,4.53E2,2.367E3,1.628E3,1.0012E4],"tree_param":{"num_deleted":"0","num_feature":"2","num_nodes":"27","size_leaf_vector":"1"}},{"base_weights":[-1.3394498E-4,1.734187E-2,-1.10050984E-1,-6.479319E-2,5.6492932E-2,-1.7699817E-1,3.788274E-2,1.0844477E-2,-1.6161628E-1,1.23673126E-1,-1.30945025E-2,-1.5947427E-1,-2.3535106E-1,2.6245064E-1,-1.8631767E-1,-8.597197E-3,7.31981E-2,-1.03925146E-1,-4.17345E-3,7.4998005E-3,3.364212E-2,5.146692E-3,-1.3447973E-2,-1.716209E-2,-1.4531383E-2,-1.5464968E-2,-3.3084784E-2,4.9549136E-2,3.9156233E-3,-1.2810956E-2,-2.3439696E-2],"categories":[],"categories_nodes":[],"categories_segments":[],"categories_sizes":[],"default_left":[0,0,0,0,0,0,0,0,0,0,0,0,0,0,0,0,0,0,0,0,0,0,0,0,0,0,0,0,0,0,0],"id":45,"left_children":[1,3,5,7,9,11,13,15,17,19,21,23,25,27,29,-1,-1,-1,-1,-1,-1,-1,-1,-1,-1,-1,-1,-1,-1,-1,-1],"loss_changes":[4.553661E1,6.577708E1,3.2213688E1,4.835865E1,6.475829E1,2.2520065E0,5.110199E1,2.589476E2,3.0465195E2,7.296059E1,5.3336365E1,2.7176285E-1,3.9177952E0,2.6363197E1,1.3916645E0,0E0,0E0,0E0,0E0,0E0,0E0,0E0,0E0,0E0,0E0,0E0,0E0,0E0,0E0,0E0,0E0],"parents":[2147483647,0,0,1,1,2,2,3,3,4,4,5,5,6,6,7,7,8,8,9,9,10,10,11,11,12,12,13,13,14,14],"right_children":[2,4,6,8,10,12,14,16,18,20,22,24,26,28,30,-1,-1,-1,-1,-1,-1,-1,-1,-1,-1,-1,-1,-1,-1,-1,-1],"split_conditions":[2.2E1,1E1,6E0,6E0,1.7E1,5E0,7E0,5E0,2E0,1.6E1,6E0,3E0,2.3E1,2.3E1,2.3E1,-8.597197E-3,7.31981E-2,-1.03925146E-1,-4.17345E-3,7.4998005E-3,3.364212E-2,5.146692E-3,-1.3447973E-2,-1.716209E-2,-1.4531383E-2,-1.5464968E-2,-3.3084784E-2,4.9549136E-2,3.9156233E-3,-1.2810956E-2,-2.3439696E-2],"split_indices":[1,1,0,1,1,0,0,1,0,1,0,0,1,1,1,0,0,0,0,0,0,0,0,0,0,0,0,0,0,0,0],"split_type":[0,0,0,0,0,0,0,0,0,0,0,0,0,0,0,0,0,0,0,0,0,0,0,0,0,0,0,0,0,0,0],"sum_hessian":[2.3704E4,2.0453E4,3.251E3,6.602E3,1.3851E4,2.238E3,1.013E3,3.707E3,2.895E3,7.047E3,6.804E3,1.724E3,5.14E2,5.06E2,5.07E2,3.269E3,4.38E2,3.47E2,2.548E3,5.736E3,1.311E3,4.442E3,2.362E3,9.22E2,8.02E2,2.8E2,2.34E2,2.47E2,2.59E2,2.31E2,2.76E2],"tree_param":{"num_deleted":"0","num_feature":"2","num_nodes":"31","size_leaf_vector":"1"}},{"base_weights":[-1.2362239E-4,1.8594263E-2,-9.0295576E-2,6.473638E-2,-4.380431E-2,-2.7053502E-1,7.136645E-2,-5.3688213E-2,1.3826837E-1,-1.3400348E-1,8.8298705E-4,3.6953676E-1,-4.054556E-1,3.5795927E-1,-8.22164E-2,1.5958933E-2,-4.765291E-2,-1.698084E-2,2.7016459E-2,-2.468549E-2,-9.982993E-3,1.9935546E-2,-5.2250517E-3,1.8573362E-2,1.4957789E-1,-8.893179E-2,-2.8822819E-2,2.6344901E-3,4.507211E-2,-1.641043E-2,-1.3833131E-3],"categories":[],"categories_nodes":[],"categories_segments":[],"categories_sizes":[],"default_left":[0,0,0,0,0,0,0,0,0,0,0,0,0,0,0,0,0,0,0,0,0,0,0,0,0,0,0,0,0,0,0],"id":46,"left_children":[1,3,5,7,9,11,13,15,17,19,21,23,25,27,29,-1,-1,-1,-1,-1,-1,-1,-1,-1,-1,-1,-1,-1,-1,-1,-1],"loss_changes":[4.001165E1,5.6524456E1,1.1875615E2,9.828585E1,3.364082E1,1.6656335E2,9.461926E1,3.9002505E2,2.8298154E2,1.0638672E1,5.8875607E1,6.9276474E1,9.004501E1,2.305899E1,7.8373985E0,0E0,0E0,0E0,0E0,0E0,0E0,0E0,0E0,0E0,0E0,0E0,0E0,0E0,0E0,0E0,0E0],"parents":[2147483647,0,0,1,1,2,2,3,3,4,4,5,5,6,6,7,7,8,8,9,9,10,10,11,11,12,12,13,13,14,14],"right_children":[2,4,6,8,10,12,14,16,18,20,22,24,26,28,30,-1,-1,-1,-1,-1,-1,-1,-1,-1,-1,-1,-1,-1,-1,-1,-1],"split_conditions":[7E0,1.7E1,1.5E1,8E0,3E0,4E0,1.8E1,5E0,3E0,1.9E1,4E0,3E0,7E0,1.6E1,2.1E1,1.5958933E-2,-4.765291E-2,-1.698084E-2,2.7016459E-2,-2.468549E-2,-9.982993E-3,1.9935546E-2,-5.2250517E-3,1.8573362E-2,1.4957789E-1,-8.893179E-2,-2.8822819E-2,2.6344901E-3,4.507211E-2,-1.641043E-2,-1.3833131E-3],"split_indices":[0,1,1,1,0,1,1,0,0,1,0,1,1,1,1,0,0,0,0,0,0,0,0,0,0,0,0,0,0,0,0],"split_type":[0,0,0,0,0,0,0,0,0,0,0,0,0,0,0,0,0,0,0,0,0,0,0,0,0,0,0,0,0,0,0],"sum_hessian":[2.3704E4,1.963E4,4.074E3,1.1285E4,8.345E3,1.926E3,2.148E3,4.323E3,6.962E3,2.764E3,5.581E3,3.35E2,1.591E3,7.49E2,1.399E3,2.874E3,1.449E3,2.087E3,4.875E3,6.41E2,2.123E3,1.178E3,4.403E3,2.89E2,4.6E1,3.09E2,1.282E3,1.64E2,5.85E2,6.36E2,7.63E2],"tree_param":{"num_deleted":"0","num_feature":"2","num_nodes":"31","size_leaf_vector":"1"}},{"base_weights":[-1.0945338E-4,1.5104424E-2,-9.5799655E-2,-5.3622954E-2,4.786444E-2,-1.560852E-1,3.7410535E-2,-2.1761492E-2,-2.652331E-1,2.9502827E-1,3.0952351E-2,-1.4088503E-1,-2.0669533E-1,2.4152581E-1,-1.6637659E-1,1.9031985E-2,-1.7640823E-2,-1.6697596E-1,2.683276E-2,-8.937742E-2,4.8039448E-2,-1.8156737E-2,5.5340496E-3,-1.4485806E-2,-1.2940918E-2,-1.340334E-2,-2.9270088E-2,4.513461E-2,4.0460625E-3,-1.1397625E-2,-2.0966362E-2],"categories":[],"categories_nodes":[],"categories_segments":[],"categories_sizes":[],"default_left":[0,0,0,0,0,0,0,0,0,0,0,0,0,0,0,0,0,0,0,0,0,0,0,0,0,0,0,0,0,0,0],"id":47,"left_children":[1,3,5,7,9,11,13,15,17,19,21,23,25,27,29,-1,-1,-1,-1,-1,-1,-1,-1,-1,-1,-1,-1,-1,-1,-1,-1],"loss_changes":[3.451164E1,4.605495E1,2.6121506E1,4.451303E1,5.7893017E1,1.693306E0,4.22186E1,1.8829231E2,6.4792975E2,1.9589206E2,6.721232E1,5.990219E-2,3.1791725E0,2.1370829E1,1.128377E0,0E0,0E0,0E0,0E0,0E0,0E0,0E0,0E0,0E0,0E0,0E0,0E0,0E0,0E0,0E0,0E0],"parents":[2147483647,0,0,1,1,2,2,3,3,4,4,5,5,6,6,7,7,8,8,9,9,10,10,11,11,12,12,13,13,14,14],"right_children":[2,4,6,8,10,12,14,16,18,20,22,24,26,28,30,-1,-1,-1,-1,-1,-1,-1,-1,-1,-1,-1,-1,-1,-1,-1,-1],"split_conditions":[2.2E1,1E1,6E0,9E0,1.1E1,5E0,7E0,4E0,3E0,3E0,1.2E1,4E0,2.3E1,2.3E1,2.3E1,1.9031985E-2,-1.7640823E-2,-1.6697596E-1,2.683276E-2,-8.937742E-2,4.8039448E-2,-1.8156737E-2,5.5340496E-3,-1.4485806E-2,-1.2940918E-2,-1.340334E-2,-2.9270088E-2,4.513461E-2,4.0460625E-3,-1.1397625E-2,-2.0966362E-2],"split_indices":[1,1,0,1,1,0,0,0,0,0,1,0,1,1,1,0,0,0,0,0,0,0,0,0,0,0,0,0,0,0,0],"split_type":[0,0,0,0,0,0,0,0,0,0,0,0,0,0,0,0,0,0,0,0,0,0,0,0,0,0,0,0,0,0,0],"sum_hessian":[2.3704E4,2.0453E4,3.251E3,6.602E3,1.3851E4,2.238E3,1.013E3,5.739E3,8.63E2,8.86E2,1.2965E4,1.724E3,5.14E2,5.06E2,5.07E2,2.42E3,3.319E3,2.37E2,6.26E2,1.19E2,7.67E2,1.334E3,1.1631E4,1.272E3,4.52E2,2.8E2,2.34E2,2.47E2,2.59E2,2.31E2,2.76E2],"tree_param":{"num_deleted":"0","num_feature":"2","num_nodes":"31","size_leaf_vector":"1"}},{"base_weights":[-1.0872663E-4,1.6696928E-2,-8.106865E-2,5.893531E-2,-4.0422544E-2,-2.427366E-1,6.393609E-2,-9.195724E-2,1.0793305E-1,-1.1947197E-1,-1.2587894E-3,3.506717E-1,-3.6782607E-1,3.1670088E-1,-7.1519285E-2,-1.7868128E-2,3.19543E-2,6.57103E-2,7.8089754E-3,-2.2773301E-2,-8.669275E-3,1.7985059E-2,-4.9743513E-3,1.8480413E-2,1.366649E-1,-7.830892E-2,-2.67203E-2,1.8227132E-3,4.0020168E-2,-1.5324476E-2,-3.2854523E-4],"categories":[],"categories_nodes":[],"categories_segments":[],"categories_sizes":[],"default_left":[0,0,0,0,0,0,0,0,0,0,0,0,0,0,0,0,0,0,0,0,0,0,0,0,0,0,0,0,0,0,0],"id":48,"left_children":[1,3,5,7,9,11,13,15,17,19,21,23,25,27,29,-1,-1,-1,-1,-1,-1,-1,-1,-1,-1,-1,-1,-1,-1,-1,-1],"loss_changes":[3.225401E1,4.7364803E1,9.5544174E1,8.3451775E1,2.5838E1,1.4316855E2,7.360086E1,9.880293E1,1.3958331E2,9.792446E0,4.90247E1,5.6369392E1,6.631253E1,1.8684792E1,7.8065157E0,0E0,0E0,0E0,0E0,0E0,0E0,0E0,0E0,0E0,0E0,0E0,0E0,0E0,0E0,0E0,0E0],"parents":[2147483647,0,0,1,1,2,2,3,3,4,4,5,5,6,6,7,7,8,8,9,9,10,10,11,11,12,12,13,13,14,14],"right_children":[2,4,6,8,10,12,14,16,18,20,22,24,26,28,30,-1,-1,-1,-1,-1,-1,-1,-1,-1,-1,-1,-1,-1,-1,-1,-1],"split_conditions":[7E0,1.7E1,1.5E1,5E0,3E0,4E0,1.8E1,6E0,6E0,1.9E1,4E0,3E0,7E0,1.6E1,2.1E1,-1.7868128E-2,3.19543E-2,6.57103E-2,7.8089754E-3,-2.2773301E-2,-8.669275E-3,1.7985059E-2,-4.9743513E-3,1.8480413E-2,1.366649E-1,-7.830892E-2,-2.67203E-2,1.8227132E-3,4.0020168E-2,-1.5324476E-2,-3.2854523E-4],"split_indices":[0,1,1,1,0,1,1,0,1,1,0,1,1,1,1,0,0,0,0,0,0,0,0,0,0,0,0,0,0,0,0],"split_type":[0,0,0,0,0,0,0,0,0,0,0,0,0,0,0,0,0,0,0,0,0,0,0,0,0,0,0,0,0,0,0],"sum_hessian":[2.3704E4,1.963E4,4.074E3,1.1285E4,8.345E3,1.926E3,2.148E3,2.766E3,8.519E3,2.764E3,5.581E3,3.35E2,1.591E3,7.49E2,1.399E3,2.285E3,4.81E2,4.38E2,8.081E3,6.41E2,2.123E3,1.178E3,4.403E3,2.89E2,4.6E1,3.09E2,1.282E3,1.64E2,5.85E2,6.36E2,7.63E2],"tree_param":{"num_deleted":"0","num_feature":"2","num_nodes":"31","size_leaf_vector":"1"}},{"base_weights":[-9.1615075E-5,1.315541E-2,-8.341098E-2,-4.8140325E-2,4.237304E-2,-1.3760327E-1,3.633258E-2,-1.9234996E-2,-2.401177E-1,2.6573625E-1,2.7089562E-2,-1.2452437E-1,-1.8114406E-1,2.2243468E-1,-1.494747E-1,1.727981E-2,-1.5926298E-2,-1.511262E-1,2.4277303E-2,-8.128842E-2,4.3392472E-2,-1.6646875E-2,4.9301847E-3,-1.2904939E-2,-1.1153346E-2,-1.15721375E-2,-2.5860209E-2,4.113479E-2,4.1385014E-3,-1.0230041E-2,-1.8844567E-2],"categories":[],"categories_nodes":[],"categories_segments":[],"categories_sizes":[],"default_left":[0,0,0,0,0,0,0,0,0,0,0,0,0,0,0,0,0,0,0,0,0,0,0,0,0,0,0,0,0,0,0],"id":49,"left_children":[1,3,5,7,9,11,13,15,17,19,21,23,25,27,29,-1,-1,-1,-1,-1,-1,-1,-1,-1,-1,-1,-1,-1,-1,-1,-1],"loss_changes":[2.6165104E1,3.663344E1,2.1107807E1,3.6636543E1,4.7280296E1,1.2524757E0,3.5096485E1,1.5437613E2,5.307107E2,1.612647E2,5.5753857E1,8.700752E-2,2.5798435E0,1.7323734E1,9.1464233E-1,0E0,0E0,0E0,0E0,0E0,0E0,0E0,0E0,0E0,0E0,0E0,0E0,0E0,0E0,0E0,0E0],"parents":[2147483647,0,0,1,1,2,2,3,3,4,4,5,5,6,6,7,7,8,8,9,9,10,10,11,11,12,12,13,13,14,14],"right_children":[2,4,6,8,10,12,14,16,18,20,22,24,26,28,30,-1,-1,-1,-1,-1,-1,-1,-1,-1,-1,-1,-1,-1,-1,-1,-1],"split_conditions":[2.2E1,1E1,6E0,9E0,1.1E1,5E0,7E0,4E0,3E0,3E0,1.2E1,4E0,2.3E1,2.3E1,2.3E1,1.727981E-2,-1.5926298E-2,-1.511262E-1,2.4277303E-2,-8.128842E-2,4.3392472E-2,-1.6646875E-2,4.9301847E-3,-1.2904939E-2,-1.1153346E-2,-1.15721375E-2,-2.5860209E-2,4.113479E-2,4.1385014E-3,-1.0230041E-2,-1.8844567E-2],"split_indices":[1,1,0,1,1,0,0,0,0,0,1,0,1,1,1,0,0,0,0,0,0,0,0,0,0,0,0,0,0,0,0],"split_type":[0,0,0,0,0,0,0,0,0,0,0,0,0,0,0,0,0,0,0,0,0,0,0,0,0,0,0,0,0,0,0],"sum_hessian":[2.3704E4,2.0453E4,3.251E3,6.602E3,1.3851E4,2.238E3,1.013E3,5.739E3,8.63E2,8.86E2,1.2965E4,1.724E3,5.14E2,5.06E2,5.07E2,2.42E3,3.319E3,2.37E2,6.26E2,1.19E2,7.67E2,1.334E3,1.1631E4,1.272E3,4.52E2,2.8E2,2.34E2,2.47E2,2.59E2,2.31E2,2.76E2],"tree_param":{"num_deleted":"0","num_feature":"2","num_nodes":"31","size_leaf_vector":"1"}}]},"name":"gbtree"},"learner_model_param":{"base_score":"[1.363947E1]","boost_from_average":"1","num_class":"0","num_feature":"2","num_target":"1"},"objective":{"name":"reg:squarederror","reg_loss_param":{"scale_pos_weight":"1"}}},"version":[3,2,1]}