{"learner":{"attributes":{},"feature_names":["day_of_week","hour_of_day"],"feature_types":[],"gradient_booster":{"model":{"cats":{"enc":[],"feature_segments":[],"sorted_idx":[]},"gbtree_model_param":{"num_parallel_tree":"1","num_trees":"50"},"iteration_indptr":[0,1,2,3,4,5,6,7,8,9,10,11,12,13,14,15,16,17,18,19,20,21,22,23,24,25,26,27,28,29,30,31,32,33,34,35,36,37,38,39,40,41,42,43,44,45,46,47,48,49,50],"tree_info":[0,0,0,0,0,0,0,0,0,0,0,0,0,0,0,0,0,0,0,0,0,0,0,0,0,0,0,0,0,0,0,0,0,0,0,0,0,0,0,0,0,0,0,0,0,0,0,0,0,0],"trees":[{"base_weights":[5.1900642E-8,-5.9080374E-1,6.6957766E-1,-3.0091324E-1,-5.322531E-1,-6.181195E-2,-1.3315064E-2],"categories":[],"categories_nodes":[],"categories_segments":[],"categories_sizes":[],"default_left":[0,0,0,0,0,0,0],"id":0,"left_children":[1,3,-1,-1,5,-1,-1],"loss_changes":[5.854717E2,1.7655266E1,0E0,0E0,4.5098114E0,0E0,0E0],"parents":[2147483647,0,0,1,1,4,4],"right_children":[2,4,-1,-1,6,-1,-1],"split_conditions":[1.2E1,4E0,6.6957766E-1,-3.0091324E-1,4E0,-6.181195E-2,-1.3315064E-2],"split_indices":[1,0,0,0,1,0,0],"split_type":[0,0,0,0,0,0,0],"sum_hessian":[1.46E2,1.35E2,1.1E1,2E0,1.33E2,1.09E2,2.4E1],"tree_param":{"num_deleted":"0","num_feature":"2","num_nodes":"7","size_leaf_vector":"1"}},{"base_weights":[1.9968771E-3,-5.344884E-1,6.081997E-1,-2.8085235E-1,-4.7958842E-1,-5.568695E-2,-1.2036804E-2],"categories":[],"categories_nodes":[],"categories_segments":[],"categories_sizes":[],"default_left":[0,0,0,0,0,0,0],"id":1,"left_children":[1,3,-1,-1,5,-1,-1],"loss_changes":[4.827398E2,1.5631905E1,0E0,0E0,3.6529408E0,0E0,0E0],"parents":[2147483647,0,0,1,1,4,4],"right_children":[2,4,-1,-1,6,-1,-1],"split_conditions":[1.2E1,4E0,6.081997E-1,-2.8085235E-1,4E0,-5.568695E-2,-1.2036804E-2],"split_indices":[1,0,0,0,1,0,0],"split_type":[0,0,0,0,0,0,0],"sum_hessian":[1.46E2,1.35E2,1.1E1,2E0,1.33E2,1.09E2,2.4E1],"tree_param":{"num_deleted":"0","num_feature":"2","num_nodes":"7","size_leaf_vector":"1"}},{"base_weights":[3.5633652E-3,-4.836026E-1,5.524481E-1,-2.6212886E-1,-4.32135E-1,-5.0168883E-2,-1.08812675E-2],"categories":[],"categories_nodes":[],"categories_segments":[],"categories_sizes":[],"default_left":[0,0,0,0,0,0,0],"id":2,"left_children":[1,3,-1,-1,5,-1,-1],"loss_changes":[3.980433E2,1.3830189E1,0E0,0E0,2.9588432E0,0E0,0E0],"parents":[2147483647,0,0,1,1,4,4],"right_children":[2,4,-1,-1,6,-1,-1],"split_conditions":[1.2E1,4E0,5.524481E-1,-2.6212886E-1,4E0,-5.0168883E-2,-1.08812675E-2],"split_indices":[1,0,0,0,1,0,0],"split_type":[0,0,0,0,0,0,0],"sum_hessian":[1.46E2,1.35E2,1.1E1,2E0,1.33E2,1.09E2,2.4E1],"tree_param":{"num_deleted":"0","num_feature":"2","num_nodes":"7","size_leaf_vector":"1"}},{"base_weights":[4.7667692E-3,-4.3761855E-1,5.01807E-1,-2.4465361E-1,-3.8937697E-1,-4.519759E-2,-9.83665E-3],"categories":[],"categories_nodes":[],"categories_segments":[],"categories_sizes":[],"default_left":[0,0,0,0,0,0,0],"id":3,"left_children":[1,3,-1,-1,5,-1,-1],"loss_changes":[3.282143E2,1.2227591E1,0E0,0E0,2.3966103E0,0E0,0E0],"parents":[2147483647,0,0,1,1,4,4],"right_children":[2,4,-1,-1,6,-1,-1],"split_conditions":[1.2E1,4E0,5.01807E-1,-2.4465361E-1,4E0,-4.519759E-2,-9.83665E-3],"split_indices":[1,0,0,0,1,0,0],"split_type":[0,0,0,0,0,0,0],"sum_hessian":[1.46E2,1.35E2,1.1E1,2E0,1.33E2,1.09E2,2.4E1],"tree_param":{"num_deleted":"0","num_feature":"2","num_nodes":"7","size_leaf_vector":"1"}},{"base_weights":[5.665033E-3,-3.9606032E-1,4.55808E-1,-2.2834337E-1,-3.5085002E-1,-4.0718924E-2,-8.892334E-3],"categories":[],"categories_nodes":[],"categories_segments":[],"categories_sizes":[],"default_left":[0,0,0,0,0,0,0],"id":4,"left_children":[1,3,-1,-1,5,-1,-1],"loss_changes":[2.706419E2,1.0803562E1,0E0,0E0,1.9411964E0,0E0,0E0],"parents":[2147483647,0,0,1,1,4,4],"right_children":[2,4,-1,-1,6,-1,-1],"split_conditions":[1.2E1,4E0,4.55808E-1,-2.2834337E-1,4E0,-4.0718924E-2,-8.892334E-3],"split_indices":[1,0,0,0,1,0,0],"split_type":[0,0,0,0,0,0,0],"sum_hessian":[1.46E2,1.35E2,1.1E1,2E0,1.33E2,1.09E2,2.4E1],"tree_param":{"num_deleted":"0","num_feature":"2","num_nodes":"7","size_leaf_vector":"1"}},{"base_weights":[6.3084713E-3,-3.58498E-1,4.140256E-1,-2.1312046E-1,-3.1613517E-1,-3.6684047E-2,-8.038654E-3],"categories":[],"categories_nodes":[],"categories_segments":[],"categories_sizes":[],"default_left":[0,0,0,0,0,0,0],"id":5,"left_children":[1,3,-1,-1,5,-1,-1],"loss_changes":[2.2317363E2,9.539421E0,0E0,0E0,1.5723057E0,0E0,0E0],"parents":[2147483647,0,0,1,1,4,4],"right_children":[2,4,-1,-1,6,-1,-1],"split_conditions":[1.2E1,4E0,4.140256E-1,-2.1312046E-1,4E0,-3.6684047E-2,-8.038654E-3],"split_indices":[1,0,0,0,1,0,0],"split_type":[0,0,0,0,0,0,0],"sum_hessian":[1.46E2,1.35E2,1.1E1,2E0,1.33E2,1.09E2,2.4E1],"tree_param":{"num_deleted":"0","num_feature":"2","num_nodes":"7","size_leaf_vector":"1"}},{"base_weights":[6.740051E-3,-3.2454413E-1,3.7607324E-1,-1.9891243E-1,-2.8485543E-1,-3.304899E-2,-7.2669485E-3],"categories":[],"categories_nodes":[],"categories_segments":[],"categories_sizes":[],"default_left":[0,0,0,0,0,0,0],"id":6,"left_children":[1,3,-1,-1,5,-1,-1],"loss_changes":[1.8403534E2,8.418229E0,0E0,0E0,1.2735043E0,0E0,0E0],"parents":[2147483647,0,0,1,1,4,4],"right_children":[2,4,-1,-1,6,-1,-1],"split_conditions":[1.2E1,4E0,3.7607324E-1,-1.9891243E-1,4E0,-3.304899E-2,-7.2669485E-3],"split_indices":[1,0,0,0,1,0,0],"split_type":[0,0,0,0,0,0,0],"sum_hessian":[1.46E2,1.35E2,1.1E1,2E0,1.33E2,1.09E2,2.4E1],"tree_param":{"num_deleted":"0","num_feature":"2","num_nodes":"7","size_leaf_vector":"1"}},{"base_weights":[6.9971182E-3,-2.938486E-1,3.415999E-1,-1.856516E-1,-2.5667062E-1,-2.977412E-2,-6.569317E-3],"categories":[],"categories_nodes":[],"categories_segments":[],"categories_sizes":[],"default_left":[0,0,0,0,0,0,0],"id":7,"left_children":[1,3,-1,-1,5,-1,-1],"loss_changes":[1.5176457E2,7.424656E0,0E0,0E0,1.0314779E0,0E0,0E0],"parents":[2147483647,0,0,1,1,4,4],"right_children":[2,4,-1,-1,6,-1,-1],"split_conditions":[1.2E1,4E0,3.415999E-1,-1.856516E-1,4E0,-2.977412E-2,-6.569317E-3],"split_indices":[1,0,0,0,1,0,0],"split_type":[0,0,0,0,0,0,0],"sum_hessian":[1.46E2,1.35E2,1.1E1,2E0,1.33E2,1.09E2,2.4E1],"tree_param":{"num_deleted":"0","num_feature":"2","num_nodes":"7","size_leaf_vector":"1"}},{"base_weights":[7.1111405E-3,-2.66096E-1,3.102866E-1,-1.7327484E-1,-2.312747E-1,-2.6823768E-2,-5.93866E-3],"categories":[],"categories_nodes":[],"categories_segments":[],"categories_sizes":[],"default_left":[0,0,0,0,0,0,0],"id":8,"left_children":[1,3,-1,-1,5,-1,-1],"loss_changes":[1.25155655E2,6.544878E0,0E0,0E0,8.3543825E-1,0E0,0E0],"parents":[2147483647,0,0,1,1,4,4],"right_children":[2,4,-1,-1,6,-1,-1],"split_conditions":[1.2E1,4E0,3.102866E-1,-1.7327484E-1,4E0,-2.6823768E-2,-5.93866E-3],"split_indices":[1,0,0,0,1,0,0],"split_type":[0,0,0,0,0,0,0],"sum_hessian":[1.46E2,1.35E2,1.1E1,2E0,1.33E2,1.09E2,2.4E1],"tree_param":{"num_deleted":"0","num_feature":"2","num_nodes":"7","size_leaf_vector":"1"}},{"base_weights":[7.109314E-3,-2.4100126E-1,2.818437E-1,-1.6172318E-1,-2.0839162E-1,-2.416576E-2,-5.3685647E-3],"categories":[],"categories_nodes":[],"categories_segments":[],"categories_sizes":[],"default_left":[0,0,0,0,0,0,0],"id":9,"left_children":[1,3,-1,-1,5,-1,-1],"loss_changes":[1.032147E2,5.7664447E0,0E0,0E0,6.766505E-1,0E0,0E0],"parents":[2147483647,0,0,1,1,4,4],"right_children":[2,4,-1,-1,6,-1,-1],"split_conditions":[1.2E1,4E0,2.818437E-1,-1.6172318E-1,4E0,-2.416576E-2,-5.3685647E-3],"split_indices":[1,0,0,0,1,0,0],"split_type":[0,0,0,0,0,0,0],"sum_hessian":[1.46E2,1.35E2,1.1E1,2E0,1.33E2,1.09E2,2.4E1],"tree_param":{"num_deleted":"0","num_feature":"2","num_nodes":"7","size_leaf_vector":"1"}},{"base_weights":[7.014524E-3,-2.183075E-1,2.5600797E-1,-1.5094166E-1,-1.8777291E-1,-2.1771163E-2,-4.8531685E-3],"categories":[],"categories_nodes":[],"categories_segments":[],"categories_sizes":[],"default_left":[0,0,0,0,0,0,0],"id":10,"left_children":[1,3,-1,-1,5,-1,-1],"loss_changes":[8.5122375E1,5.078165E0,0E0,0E0,5.480404E-1,0E0,0E0],"parents":[2147483647,0,0,1,1,4,4],"right_children":[2,4,-1,-1,6,-1,-1],"split_conditions":[1.2E1,4E0,2.5600797E-1,-1.5094166E-1,4E0,-2.1771163E-2,-4.8531685E-3],"split_indices":[1,0,0,0,1,0,0],"split_type":[0,0,0,0,0,0,0],"sum_hessian":[1.46E2,1.35E2,1.1E1,2E0,1.33E2,1.09E2,2.4E1],"tree_param":{"num_deleted":"0","num_feature":"2","num_nodes":"7","size_leaf_vector":"1"}},{"base_weights":[6.8465252E-3,-1.9778255E-1,2.3254053E-1,-1.4087887E-1,-1.6919447E-1,-1.9613862E-2,-4.3872492E-3],"categories":[],"categories_nodes":[],"categories_segments":[],"categories_sizes":[],"default_left":[0,0,0,0,0,0,0],"id":11,"left_children":[1,3,-1,-1,5,-1,-1],"loss_changes":[7.020328E1,4.4700036E0,0E0,0E0,4.4387197E-1,0E0,0E0],"parents":[2147483647,0,0,1,1,4,4],"right_children":[2,4,-1,-1,6,-1,-1],"split_conditions":[1.2E1,4E0,2.3254053E-1,-1.4087887E-1,4E0,-1.9613862E-2,-4.3872492E-3],"split_indices":[1,0,0,0,1,0,0],"split_type":[0,0,0,0,0,0,0],"sum_hessian":[1.46E2,1.35E2,1.1E1,2E0,1.33E2,1.09E2,2.4E1],"tree_param":{"num_deleted":"0","num_feature":"2","num_nodes":"7","size_leaf_vector":"1"}},{"base_weights":[6.622123E-3,-1.792167E-1,2.1122436E-1,-1.3148694E-1,-1.5245421E-1,-1.7670317E-2,-3.9660647E-3],"categories":[],"categories_nodes":[],"categories_segments":[],"categories_sizes":[],"default_left":[0,0,0,0,0,0,0],"id":12,"left_children":[1,3,-1,-1,5,-1,-1],"loss_changes":[5.7900566E1,3.9329782E0,0E0,0E0,3.5949898E-1,0E0,0E0],"parents":[2147483647,0,0,1,1,4,4],"right_children":[2,4,-1,-1,6,-1,-1],"split_conditions":[1.2E1,4E0,2.1122436E-1,-1.3148694E-1,4E0,-1.7670317E-2,-3.9660647E-3],"split_indices":[1,0,0,0,1,0,0],"split_type":[0,0,0,0,0,0,0],"sum_hessian":[1.46E2,1.35E2,1.1E1,2E0,1.33E2,1.09E2,2.4E1],"tree_param":{"num_deleted":"0","num_feature":"2","num_nodes":"7","size_leaf_vector":"1"}},{"base_weights":[6.3550165E-3,-1.6242108E-1,1.9186212E-1,-1.2272115E-1,-1.373704E-1,-1.5919361E-2,-3.585346E-3],"categories":[],"categories_nodes":[],"categories_segments":[],"categories_sizes":[],"default_left":[0,0,0,0,0,0,0],"id":13,"left_children":[1,3,-1,-1,5,-1,-1],"loss_changes":[4.775512E1,3.459045E0,0E0,0E0,2.911594E-1,0E0,0E0],"parents":[2147483647,0,0,1,1,4,4],"right_children":[2,4,-1,-1,6,-1,-1],"split_conditions":[1.2E1,4E0,1.9186212E-1,-1.2272115E-1,4E0,-1.5919361E-2,-3.585346E-3],"split_indices":[1,0,0,0,1,0,0],"split_type":[0,0,0,0,0,0,0],"sum_hessian":[1.46E2,1.35E2,1.1E1,2E0,1.33E2,1.09E2,2.4E1],"tree_param":{"num_deleted":"0","num_feature":"2","num_nodes":"7","size_leaf_vector":"1"}},{"base_weights":[6.057035E-3,-1.4722489E-1,1.7427474E-1,-1.14539735E-1,-1.2377906E-1,-1.4341915E-2,-3.2411502E-3],"categories":[],"categories_nodes":[],"categories_segments":[],"categories_sizes":[],"default_left":[0,0,0,0,0,0,0],"id":14,"left_children":[1,3,-1,-1,5,-1,-1],"loss_changes":[3.9388454E1,3.0410304E0,0E0,0E0,2.3581004E-1,0E0,0E0],"parents":[2147483647,0,0,1,1,4,4],"right_children":[2,4,-1,-1,6,-1,-1],"split_conditions":[1.2E1,4E0,1.7427474E-1,-1.14539735E-1,4E0,-1.4341915E-2,-3.2411502E-3],"split_indices":[1,0,0,0,1,0,0],"split_type":[0,0,0,0,0,0,0],"sum_hessian":[1.46E2,1.35E2,1.1E1,2E0,1.33E2,1.09E2,2.4E1],"tree_param":{"num_deleted":"0","num_feature":"2","num_nodes":"7","size_leaf_vector":"1"}},{"base_weights":[5.737997E-3,-1.33474E-1,1.582996E-1,-1.06903754E-1,-1.1153248E-1,-1.2920774E-2,-2.9300118E-3],"categories":[],"categories_nodes":[],"categories_segments":[],"categories_sizes":[],"default_left":[0,0,0,0,0,0,0],"id":15,"left_children":[1,3,-1,-1,5,-1,-1],"loss_changes":[3.2488552E1,2.6725338E0,0E0,0E0,1.909802E-1,0E0,0E0],"parents":[2147483647,0,0,1,1,4,4],"right_children":[2,4,-1,-1,6,-1,-1],"split_conditions":[1.2E1,4E0,1.582996E-1,-1.06903754E-1,4E0,-1.2920774E-2,-2.9300118E-3],"split_indices":[1,0,0,0,1,0,0],"split_type":[0,0,0,0,0,0,0],"sum_hessian":[1.46E2,1.35E2,1.1E1,2E0,1.33E2,1.09E2,2.4E1],"tree_param":{"num_deleted":"0","num_feature":"2","num_nodes":"7","size_leaf_vector":"1"}},{"base_weights":[5.4061217E-3,-1.210291E-1,1.4378881E-1,-9.9776834E-2,-1.0049741E-1,-1.1640431E-2,-2.648716E-3],"categories":[],"categories_nodes":[],"categories_segments":[],"categories_sizes":[],"default_left":[0,0,0,0,0,0,0],"id":16,"left_children":[1,3,-1,-1,5,-1,-1],"loss_changes":[2.6798105E1,2.3478549E0,0E0,0E0,1.5467131E-1,0E0,0E0],"parents":[2147483647,0,0,1,1,4,4],"right_children":[2,4,-1,-1,6,-1,-1],"split_conditions":[1.2E1,4E0,1.4378881E-1,-9.9776834E-2,4E0,-1.1640431E-2,-2.648716E-3],"split_indices":[1,0,0,0,1,0,0],"split_type":[0,0,0,0,0,0,0],"sum_hessian":[1.46E2,1.35E2,1.1E1,2E0,1.33E2,1.09E2,2.4E1],"tree_param":{"num_deleted":"0","num_feature":"2","num_nodes":"7","size_leaf_vector":"1"}},{"base_weights":[5.0677895E-3,-1.09764785E-1,1.3060813E-1,-9.312504E-2,-9.055417E-2,-1.0486957E-1,-2.3944282E-3,-1.094247E-2,-8.288168E-3],"categories":[],"categories_nodes":[],"categories_segments":[],"categories_sizes":[],"default_left":[0,0,0,0,0,0,0,0,0],"id":17,"left_children":[1,3,-1,-1,5,7,-1,-1,-1],"loss_changes":[2.2104975E1,2.06192E0,0E0,0E0,1.2526429E-1,1.9481182E-3,0E0,0E0,0E0],"parents":[2147483647,0,0,1,1,4,4,5,5],"right_children":[2,4,-1,-1,6,8,-1,-1,-1],"split_conditions":[1.2E1,4E0,1.3060813E-1,-9.312504E-2,4E0,3E0,-2.3944282E-3,-1.094247E-2,-8.288168E-3],"split_indices":[1,0,0,0,1,1,0,0,0],"split_type":[0,0,0,0,0,0,0,0,0],"sum_hessian":[1.46E2,1.35E2,1.1E1,2E0,1.33E2,1.09E2,2.4E1,8.7E1,2.2E1],"tree_param":{"num_deleted":"0","num_feature":"2","num_nodes":"9","size_leaf_vector":"1"}},{"base_weights":[4.6687936E-3,-9.9632114E-2,1.1863567E-1,-8.691671E-2,-8.1660196E-2,-9.455746E-2,-2.1645853E-3,-9.860661E-3,-7.4953856E-3],"categories":[],"categories_nodes":[],"categories_segments":[],"categories_sizes":[],"default_left":[0,0,0,0,0,0,0,0,0],"id":18,"left_children":[1,3,-1,-1,5,7,-1,-1,-1],"loss_changes":[1.8236115E1,1.8099064E0,0E0,0E0,1.01671934E-1,1.3406277E-3,0E0,0E0,0E0],"parents":[2147483647,0,0,1,1,4,4,5,5],"right_children":[2,4,-1,-1,6,8,-1,-1,-1],"split_conditions":[1.2E1,4E0,1.1863567E-1,-8.691671E-2,4E0,3E0,-2.1645853E-3,-9.860661E-3,-7.4953856E-3],"split_indices":[1,0,0,0,1,1,0,0,0],"split_type":[0,0,0,0,0,0,0,0,0],"sum_hessian":[1.46E2,1.35E2,1.1E1,2E0,1.33E2,1.09E2,2.4E1,8.7E1,2.2E1],"tree_param":{"num_deleted":"0","num_feature":"2","num_nodes":"9","size_leaf_vector":"1"}},{"base_weights":[4.284901E-3,-9.0451494E-2,1.07760705E-1,-8.1122264E-2,-7.363982E-2,-8.52594E-2,-1.9568063E-3,-8.885788E-3,-6.778441E-3],"categories":[],"categories_nodes":[],"categories_segments":[],"categories_sizes":[],"default_left":[0,0,0,0,0,0,0,0,0],"id":19,"left_children":[1,3,-1,-1,5,7,-1,-1,-1],"loss_changes":[1.5044824E1,1.5882245E0,0E0,0E0,8.252263E-2,8.9401007E-4,0E0,0E0,0E0],"parents":[2147483647,0,0,1,1,4,4,5,5],"right_children":[2,4,-1,-1,6,8,-1,-1,-1],"split_conditions":[1.2E1,4E0,1.07760705E-1,-8.1122264E-2,4E0,3E0,-1.9568063E-3,-8.885788E-3,-6.778441E-3],"split_indices":[1,0,0,0,1,1,0,0,0],"split_type":[0,0,0,0,0,0,0,0,0],"sum_hessian":[1.46E2,1.35E2,1.1E1,2E0,1.33E2,1.09E2,2.4E1,8.7E1,2.2E1],"tree_param":{"num_deleted":"0","num_feature":"2","num_nodes":"9","size_leaf_vector":"1"}},{"base_weights":[3.9178208E-3,-8.2132354E-2,9.788267E-2,-7.571411E-2,-6.640729E-2,-7.6875836E-2,-1.76894E-3,-8.007306E-3,-6.130061E-3],"categories":[],"categories_nodes":[],"categories_segments":[],"categories_sizes":[],"default_left":[0,0,0,0,0,0,0,0,0],"id":20,"left_children":[1,3,-1,-1,5,7,-1,-1,-1],"loss_changes":[1.2412382E1,1.3933E0,0E0,0E0,6.69809E-2,5.6910515E-4,0E0,0E0,0E0],"parents":[2147483647,0,0,1,1,4,4,5,5],"right_children":[2,4,-1,-1,6,8,-1,-1,-1],"split_conditions":[1.2E1,4E0,9.788267E-2,-7.571411E-2,4E0,3E0,-1.76894E-3,-8.007306E-3,-6.130061E-3],"split_indices":[1,0,0,0,1,1,0,0,0],"split_type":[0,0,0,0,0,0,0,0,0],"sum_hessian":[1.46E2,1.35E2,1.1E1,2E0,1.33E2,1.09E2,2.4E1,8.7E1,2.2E1],"tree_param":{"num_deleted":"0","num_feature":"2","num_nodes":"9","size_leaf_vector":"1"}},{"base_weights":[3.5686865E-3,-7.459278E-2,8.8910125E-2,-7.066651E-2,-5.988524E-2,-6.931679E-2,-1.5991022E-3,-7.2156736E-3,-5.543712E-3],"categories":[],"categories_nodes":[],"categories_segments":[],"categories_sizes":[],"default_left":[0,0,0,0,0,0,0,0,0],"id":21,"left_children":[1,3,-1,-1,5,7,-1,-1,-1],"loss_changes":[1.0240853E1,1.2219678E0,0E0,0E0,5.436629E-2,3.3575296E-4,0E0,0E0,0E0],"parents":[2147483647,0,0,1,1,4,4,5,5],"right_children":[2,4,-1,-1,6,8,-1,-1,-1],"split_conditions":[1.2E1,4E0,8.8910125E-2,-7.066651E-2,4E0,3E0,-1.5991022E-3,-7.2156736E-3,-5.543712E-3],"split_indices":[1,0,0,0,1,1,0,0,0],"split_type":[0,0,0,0,0,0,0,0,0],"sum_hessian":[1.46E2,1.35E2,1.1E1,2E0,1.33E2,1.09E2,2.4E1,8.7E1,2.2E1],"tree_param":{"num_deleted":"0","num_feature":"2","num_nodes":"9","size_leaf_vector":"1"}},{"base_weights":[3.2383285E-3,-6.775859E-2,8.0760024E-2,-6.595541E-2,-5.4003775E-2,-6.250101E-2,-1.4455757E-3,-6.5022954E-3,-5.0134445E-3],"categories":[],"categories_nodes":[],"categories_segments":[],"categories_sizes":[],"default_left":[0,0,0,0,0,0,0,0,0],"id":22,"left_children":[1,3,-1,-1,5,7,-1,-1,-1],"loss_changes":[8.449482E0,1.0714264E0,0E0,0E0,4.4127077E-2,1.707375E-4,0E0,0E0,0E0],"parents":[2147483647,0,0,1,1,4,4,5,5],"right_children":[2,4,-1,-1,6,8,-1,-1,-1],"split_conditions":[1.2E1,4E0,8.0760024E-2,-6.595541E-2,4E0,3E0,-1.4455757E-3,-6.5022954E-3,-5.0134445E-3],"split_indices":[1,0,0,0,1,1,0,0,0],"split_type":[0,0,0,0,0,0,0,0,0],"sum_hessian":[1.46E2,1.35E2,1.1E1,2E0,1.33E2,1.09E2,2.4E1,8.7E1,2.2E1],"tree_param":{"num_deleted":"0","num_feature":"2","num_nodes":"9","size_leaf_vector":"1"}},{"base_weights":[2.9271257E-3,-6.156291E-2,7.335703E-2,-6.1558377E-2,-4.870003E-2,-5.6355536E-2,-1.3067818E-3,-5.8594467E-3,-4.5338953E-3],"categories":[],"categories_nodes":[],"categories_segments":[],"categories_sizes":[],"default_left":[0,0,0,0,0,0,0,0,0],"id":23,"left_children":[1,3,-1,-1,5,7,-1,-1,-1],"loss_changes":[6.9716835E0,9.391982E-1,0E0,0E0,3.58164E-2,5.6564808E-5,0E0,0E0,0E0],"parents":[2147483647,0,0,1,1,4,4,5,5],"right_children":[2,4,-1,-1,6,8,-1,-1,-1],"split_conditions":[1.2E1,4E0,7.335703E-2,-6.1558377E-2,4E0,3E0,-1.3067818E-3,-5.8594467E-3,-4.5338953E-3],"split_indices":[1,0,0,0,1,1,0,0,0],"split_type":[0,0,0,0,0,0,0,0,0],"sum_hessian":[1.46E2,1.35E2,1.1E1,2E0,1.33E2,1.09E2,2.4E1,8.7E1,2.2E1],"tree_param":{"num_deleted":"0","num_feature":"2","num_nodes":"9","size_leaf_vector":"1"}},{"base_weights":[2.6351197E-3,-5.5945277E-2,6.663267E-2,-5.7454485E-2,-4.3917336E-2,-5.0814506E-3,-1.1813088E-3],"categories":[],"categories_nodes":[],"categories_segments":[],"categories_sizes":[],"default_left":[0,0,0,0,0,0,0],"id":24,"left_children":[1,3,-1,-1,5,-1,-1],"loss_changes":[5.752537E0,8.230927E-1,0E0,0E0,2.9071152E-2,0E0,0E0],"parents":[2147483647,0,0,1,1,4,4],"right_children":[2,4,-1,-1,6,-1,-1],"split_conditions":[1.2E1,4E0,6.663267E-2,-5.7454485E-2,4E0,-5.0814506E-3,-1.1813088E-3],"split_indices":[1,0,0,0,1,0,0],"split_type":[0,0,0,0,0,0,0],"sum_hessian":[1.46E2,1.35E2,1.1E1,2E0,1.33E2,1.09E2,2.4E1],"tree_param":{"num_deleted":"0","num_feature":"2","num_nodes":"7","size_leaf_vector":"1"}},{"base_weights":[2.3913942E-3,-5.0819334E-2,6.0524702E-2,-5.362419E-2,-3.9572414E-2,-4.577932E-2,-1.067913E-3,-4.7778036E-3,-3.6141656E-3],"categories":[],"categories_nodes":[],"categories_segments":[],"categories_sizes":[],"default_left":[0,0,0,0,0,0,0,0,0],"id":25,"left_children":[1,3,-1,-1,5,7,-1,-1,-1],"loss_changes":[4.746281E0,7.212727E-1,0E0,0E0,2.3542404E-2,3.9213896E-4,0E0,0E0,0E0],"parents":[2147483647,0,0,1,1,4,4,5,5],"right_children":[2,4,-1,-1,6,8,-1,-1,-1],"split_conditions":[1.2E1,4E0,6.0524702E-2,-5.362419E-2,4E0,3E0,-1.067913E-3,-4.7778036E-3,-3.6141656E-3],"split_indices":[1,0,0,0,1,1,0,0,0],"split_type":[0,0,0,0,0,0,0,0,0],"sum_hessian":[1.46E2,1.35E2,1.1E1,2E0,1.33E2,1.09E2,2.4E1,8.7E1,2.2E1],"tree_param":{"num_deleted":"0","num_feature":"2","num_nodes":"9","size_leaf_vector":"1"}},{"base_weights":[2.1349362E-3,-4.620114E-2,5.497659E-2,-5.004924E-2,-3.568566E-2,-4.1277587E-2,-9.65374E-4,-4.3054423E-3,-3.2684577E-3],"categories":[],"categories_nodes":[],"categories_segments":[],"categories_sizes":[],"default_left":[0,0,0,0,0,0,0,0,0],"id":26,"left_children":[1,3,-1,-1,5,7,-1,-1,-1],"loss_changes":[3.9165387E0,6.3182425E-1,0E0,0E0,1.9107714E-2,2.7230382E-4,0E0,0E0,0E0],"parents":[2147483647,0,0,1,1,4,4,5,5],"right_children":[2,4,-1,-1,6,8,-1,-1,-1],"split_conditions":[1.2E1,4E0,5.497659E-2,-5.004924E-2,4E0,3E0,-9.65374E-4,-4.3054423E-3,-3.2684577E-3],"split_indices":[1,0,0,0,1,1,0,0,0],"split_type":[0,0,0,0,0,0,0,0,0],"sum_hessian":[1.46E2,1.35E2,1.1E1,2E0,1.33E2,1.09E2,2.4E1,8.7E1,2.2E1],"tree_param":{"num_deleted":"0","num_feature":"2","num_nodes":"9","size_leaf_vector":"1"}},{"base_weights":[1.8968915E-3,-4.201181E-2,4.9937073E-2,-4.6712626E-2,-3.2180797E-2,-3.7218697E-2,-8.726806E-4,-3.8797928E-3,-2.9558234E-3],"categories":[],"categories_nodes":[],"categories_segments":[],"categories_sizes":[],"default_left":[0,0,0,0,0,0,0,0,0],"id":27,"left_children":[1,3,-1,-1,5,7,-1,-1,-1],"loss_changes":[3.2319634E0,5.5335283E-1,0E0,0E0,1.5508473E-2,1.8395483E-4,0E0,0E0,0E0],"parents":[2147483647,0,0,1,1,4,4,5,5],"right_children":[2,4,-1,-1,6,8,-1,-1,-1],"split_conditions":[1.2E1,4E0,4.9937073E-2,-4.6712626E-2,4E0,3E0,-8.726806E-4,-3.8797928E-3,-2.9558234E-3],"split_indices":[1,0,0,0,1,1,0,0,0],"split_type":[0,0,0,0,0,0,0,0,0],"sum_hessian":[1.46E2,1.35E2,1.1E1,2E0,1.33E2,1.09E2,2.4E1,8.7E1,2.2E1],"tree_param":{"num_deleted":"0","num_feature":"2","num_nodes":"9","size_leaf_vector":"1"}},{"base_weights":[1.6766868E-3,-3.8210787E-2,4.5359503E-2,-4.359845E-2,-2.902025E-2,-3.3558972E-2,-7.889061E-4,-3.4962264E-3,-2.6730776E-3],"categories":[],"categories_nodes":[],"categories_segments":[],"categories_sizes":[],"default_left":[0,0,0,0,0,0,0,0,0],"id":28,"left_children":[1,3,-1,-1,5,7,-1,-1,-1],"loss_changes":[2.6671367E0,4.8453018E-1,0E0,0E0,1.2587011E-2,1.1944026E-4,0E0,0E0,0E0],"parents":[2147483647,0,0,1,1,4,4,5,5],"right_children":[2,4,-1,-1,6,8,-1,-1,-1],"split_conditions":[1.2E1,4E0,4.5359503E-2,-4.359845E-2,4E0,3E0,-7.889061E-4,-3.4962264E-3,-2.6730776E-3],"split_indices":[1,0,0,0,1,1,0,0,0],"split_type":[0,0,0,0,0,0,0,0,0],"sum_hessian":[1.46E2,1.35E2,1.1E1,2E0,1.33E2,1.09E2,2.4E1,8.7E1,2.2E1],"tree_param":{"num_deleted":"0","num_feature":"2","num_nodes":"9","size_leaf_vector":"1"}},{"base_weights":[1.4735971E-3,-3.476152E-2,4.1201543E-2,-4.0691886E-2,-2.6170224E-2,-3.025919E-2,-7.131958E-4,-3.1505823E-3,-2.417385E-3],"categories":[],"categories_nodes":[],"categories_segments":[],"categories_sizes":[],"default_left":[0,0,0,0,0,0,0,0,0],"id":29,"left_children":[1,3,-1,-1,5,7,-1,-1,-1],"loss_changes":[2.2010987E0,4.2418545E-1,0E0,0E0,1.0215662E-2,7.286668E-5,0E0,0E0,0E0],"parents":[2147483647,0,0,1,1,4,4,5,5],"right_children":[2,4,-1,-1,6,8,-1,-1,-1],"split_conditions":[1.2E1,4E0,4.1201543E-2,-4.0691886E-2,4E0,3E0,-7.131958E-4,-3.1505823E-3,-2.417385E-3],"split_indices":[1,0,0,0,1,1,0,0,0],"split_type":[0,0,0,0,0,0,0,0,0],"sum_hessian":[1.46E2,1.35E2,1.1E1,2E0,1.33E2,1.09E2,2.4E1,8.7E1,2.2E1],"tree_param":{"num_deleted":"0","num_feature":"2","num_nodes":"9","size_leaf_vector":"1"}},{"base_weights":[1.2869291E-3,-3.1630795E-2,3.7424725E-2,-3.7979092E-2,-2.3600116E-2,-2.7283972E-2,-6.4471434E-4,-2.839114E-3,-2.1861594E-3],"categories":[],"categories_nodes":[],"categories_segments":[],"categories_sizes":[],"default_left":[0,0,0,0,0,0,0,0,0],"id":30,"left_children":[1,3,-1,-1,5,7,-1,-1,-1],"loss_changes":[1.8165574E0,3.7128776E-1,0E0,0E0,8.291438E-3,3.9696693E-5,0E0,0E0,0E0],"parents":[2147483647,0,0,1,1,4,4,5,5],"right_children":[2,4,-1,-1,6,8,-1,-1,-1],"split_conditions":[1.2E1,4E0,3.7424725E-2,-3.7979092E-2,4E0,3E0,-6.4471434E-4,-2.839114E-3,-2.1861594E-3],"split_indices":[1,0,0,0,1,1,0,0,0],"split_type":[0,0,0,0,0,0,0,0,0],"sum_hessian":[1.46E2,1.35E2,1.1E1,2E0,1.33E2,1.09E2,2.4E1,8.7E1,2.2E1],"tree_param":{"num_deleted":"0","num_feature":"2","num_nodes":"9","size_leaf_vector":"1"}},{"base_weights":[1.1157973E-3,-2.8788736E-2,3.399409E-2,-3.5447154E-2,-2.128249E-2,-2.460134E-2,-5.828247E-4,-2.5584358E-3,-1.9770612E-3],"categories":[],"categories_nodes":[],"categories_segments":[],"categories_sizes":[],"default_left":[0,0,0,0,0,0,0,0,0],"id":31,"left_children":[1,3,-1,-1,5,7,-1,-1,-1],"loss_changes":[1.49925E0,3.249291E-1,0E0,0E0,6.729521E-3,1.6532838E-5,0E0,0E0,0E0],"parents":[2147483647,0,0,1,1,4,4,5,5],"right_children":[2,4,-1,-1,6,8,-1,-1,-1],"split_conditions":[1.2E1,4E0,3.399409E-2,-3.5447154E-2,4E0,3E0,-5.828247E-4,-2.5584358E-3,-1.9770612E-3],"split_indices":[1,0,0,0,1,1,0,0,0],"split_type":[0,0,0,0,0,0,0,0,0],"sum_hessian":[1.46E2,1.35E2,1.1E1,2E0,1.33E2,1.09E2,2.4E1,8.7E1,2.2E1],"tree_param":{"num_deleted":"0","num_feature":"2","num_nodes":"9","size_leaf_vector":"1"}},{"base_weights":[9.595249E-4,-2.6208164E-2,3.0878006E-2,-3.308401E-2,-1.9192463E-2,-2.2182434E-3,-5.268898E-4],"categories":[],"categories_nodes":[],"categories_segments":[],"categories_sizes":[],"default_left":[0,0,0,0,0,0,0],"id":32,"left_children":[1,3,-1,-1,5,-1,-1],"loss_changes":[1.2374201E0,2.8431046E-1,0E0,0E0,5.4616816E-3,0E0,0E0],"parents":[2147483647,0,0,1,1,4,4],"right_children":[2,4,-1,-1,6,-1,-1],"split_conditions":[1.2E1,4E0,3.0878006E-2,-3.308401E-2,4E0,-2.2182434E-3,-5.268898E-4],"split_indices":[1,0,0,0,1,0,0],"split_type":[0,0,0,0,0,0,0],"sum_hessian":[1.46E2,1.35E2,1.1E1,2E0,1.33E2,1.09E2,2.4E1],"tree_param":{"num_deleted":"0","num_feature":"2","num_nodes":"7","size_leaf_vector":"1"}},{"base_weights":[8.299043E-4,-2.3850778E-2,2.8047515E-2,-3.087841E-2,-1.7293682E-2,-1.9984351E-2,-4.762993E-4,-2.0861924E-3,-1.57578E-3],"categories":[],"categories_nodes":[],"categories_segments":[],"categories_sizes":[],"default_left":[0,0,0,0,0,0,0,0,0],"id":33,"left_children":[1,3,-1,-1,5,7,-1,-1,-1],"loss_changes":[1.0212593E0,2.487535E-1,0E0,0E0,4.4227466E-3,7.926673E-5,0E0,0E0,0E0],"parents":[2147483647,0,0,1,1,4,4,5,5],"right_children":[2,4,-1,-1,6,8,-1,-1,-1],"split_conditions":[1.2E1,4E0,2.8047515E-2,-3.087841E-2,4E0,3E0,-4.762993E-4,-2.0861924E-3,-1.57578E-3],"split_indices":[1,0,0,0,1,1,0,0,0],"split_type":[0,0,0,0,0,0,0,0,0],"sum_hessian":[1.46E2,1.35E2,1.1E1,2E0,1.33E2,1.09E2,2.4E1,8.7E1,2.2E1],"tree_param":{"num_deleted":"0","num_feature":"2","num_nodes":"9","size_leaf_vector":"1"}},{"base_weights":[6.9949415E-4,-2.1723183E-2,2.547649E-2,-2.8819848E-2,-1.5595205E-2,-1.8019212E-2,-4.3057633E-4,-1.8799419E-3,-1.4250631E-3],"categories":[],"categories_nodes":[],"categories_segments":[],"categories_sizes":[],"default_left":[0,0,0,0,0,0,0,0,0],"id":34,"left_children":[1,3,-1,-1,5,7,-1,-1,-1],"loss_changes":[8.429677E-1,2.175873E-1,0E0,0E0,3.5894178E-3,5.5525452E-5,0E0,0E0,0E0],"parents":[2147483647,0,0,1,1,4,4,5,5],"right_children":[2,4,-1,-1,6,8,-1,-1,-1],"split_conditions":[1.2E1,4E0,2.547649E-2,-2.8819848E-2,4E0,3E0,-4.3057633E-4,-1.8799419E-3,-1.4250631E-3],"split_indices":[1,0,0,0,1,1,0,0,0],"split_type":[0,0,0,0,0,0,0,0,0],"sum_hessian":[1.46E2,1.35E2,1.1E1,2E0,1.33E2,1.09E2,2.4E1,8.7E1,2.2E1],"tree_param":{"num_deleted":"0","num_feature":"2","num_nodes":"9","size_leaf_vector":"1"}},{"base_weights":[5.81361E-4,-1.9790275E-2,2.3141146E-2,-2.6898524E-2,-1.4063595E-2,-1.6247379E-2,-3.8924027E-4,-1.6940875E-3,-1.2887592E-3],"categories":[],"categories_nodes":[],"categories_segments":[],"categories_sizes":[],"default_left":[0,0,0,0,0,0,0,0,0],"id":35,"left_children":[1,3,-1,-1,5,7,-1,-1,-1],"loss_changes":[6.958305E-1,1.9029722E-1,0E0,0E0,2.9131249E-3,3.7973747E-5,0E0,0E0,0E0],"parents":[2147483647,0,0,1,1,4,4,5,5],"right_children":[2,4,-1,-1,6,8,-1,-1,-1],"split_conditions":[1.2E1,4E0,2.3141146E-2,-2.6898524E-2,4E0,3E0,-3.8924027E-4,-1.6940875E-3,-1.2887592E-3],"split_indices":[1,0,0,0,1,1,0,0,0],"split_type":[0,0,0,0,0,0,0,0,0],"sum_hessian":[1.46E2,1.35E2,1.1E1,2E0,1.33E2,1.09E2,2.4E1,8.7E1,2.2E1],"tree_param":{"num_deleted":"0","num_feature":"2","num_nodes":"9","size_leaf_vector":"1"}},{"base_weights":[4.7474777E-4,-1.8033814E-2,2.1019889E-2,-2.5105288E-2,-1.2682389E-2,-1.4649712E-2,-3.5188676E-4,-1.5265947E-3,-1.1654999E-3],"categories":[],"categories_nodes":[],"categories_segments":[],"categories_sizes":[],"default_left":[0,0,0,0,0,0,0,0,0],"id":36,"left_children":[1,3,-1,-1,5,7,-1,-1,-1],"loss_changes":[5.7439935E-1,1.6640589E-1,0E0,0E0,2.3641493E-3,2.5074929E-5,0E0,0E0,0E0],"parents":[2147483647,0,0,1,1,4,4,5,5],"right_children":[2,4,-1,-1,6,8,-1,-1,-1],"split_conditions":[1.2E1,4E0,2.1019889E-2,-2.5105288E-2,4E0,3E0,-3.5188676E-4,-1.5265947E-3,-1.1654999E-3],"split_indices":[1,0,0,0,1,1,0,0,0],"split_type":[0,0,0,0,0,0,0,0,0],"sum_hessian":[1.46E2,1.35E2,1.1E1,2E0,1.33E2,1.09E2,2.4E1,8.7E1,2.2E1],"tree_param":{"num_deleted":"0","num_feature":"2","num_nodes":"9","size_leaf_vector":"1"}},{"base_weights":[3.7877454E-4,-1.6437415E-2,1.9093068E-2,-2.3431601E-2,-1.1436868E-2,-1.3209239E-2,-3.1809616E-4,-1.3756704E-3,-1.0540278E-3],"categories":[],"categories_nodes":[],"categories_segments":[],"categories_sizes":[],"default_left":[0,0,0,0,0,0,0,0,0],"id":37,"left_children":[1,3,-1,-1,5,7,-1,-1,-1],"loss_changes":[4.7417885E-1,1.4549379E-1,0E0,0E0,1.9187406E-3,1.5728176E-5,0E0,0E0,0E0],"parents":[2147483647,0,0,1,1,4,4,5,5],"right_children":[2,4,-1,-1,6,8,-1,-1,-1],"split_conditions":[1.2E1,4E0,1.9093068E-2,-2.3431601E-2,4E0,3E0,-3.1809616E-4,-1.3756704E-3,-1.0540278E-3],"split_indices":[1,0,0,0,1,1,0,0,0],"split_type":[0,0,0,0,0,0,0,0,0],"sum_hessian":[1.46E2,1.35E2,1.1E1,2E0,1.33E2,1.09E2,2.4E1,8.7E1,2.2E1],"tree_param":{"num_deleted":"0","num_feature":"2","num_nodes":"9","size_leaf_vector":"1"}},{"base_weights":[2.9271274E-4,-1.49861155E-2,1.7342838E-2,-2.1869494E-2,-1.0313634E-2,-1.1910328E-2,-2.8756334E-4,-1.2396601E-3,-9.531965E-4],"categories":[],"categories_nodes":[],"categories_segments":[],"categories_sizes":[],"default_left":[0,0,0,0,0,0,0,0,0],"id":38,"left_children":[1,3,-1,-1,5,7,-1,-1,-1],"loss_changes":[3.9145958E-1,1.2719277E-1,0E0,0E0,1.557163E-3,9.054318E-6,0E0,0E0,0E0],"parents":[2147483647,0,0,1,1,4,4,5,5],"right_children":[2,4,-1,-1,6,8,-1,-1,-1],"split_conditions":[1.2E1,4E0,1.7342838E-2,-2.1869494E-2,4E0,3E0,-2.8756334E-4,-1.2396601E-3,-9.531965E-4],"split_indices":[1,0,0,0,1,1,0,0,0],"split_type":[0,0,0,0,0,0,0,0,0],"sum_hessian":[1.46E2,1.35E2,1.1E1,2E0,1.33E2,1.09E2,2.4E1,8.7E1,2.2E1],"tree_param":{"num_deleted":"0","num_feature":"2","num_nodes":"9","size_leaf_vector":"1"}},{"base_weights":[2.1582923E-4,-1.3666503E-2,1.5753096E-2,-2.0411529E-2,-9.300736E-3,-1.073915E-2,-2.599678E-4,-1.1170913E-3,-8.620272E-4],"categories":[],"categories_nodes":[],"categories_segments":[],"categories_sizes":[],"default_left":[0,0,0,0,0,0,0,0,0],"id":39,"left_children":[1,3,-1,-1,5,7,-1,-1,-1],"loss_changes":[3.231863E-1,1.1117948E-1,0E0,0E0,1.2636948E-3,4.3371692E-6,0E0,0E0,0E0],"parents":[2147483647,0,0,1,1,4,4,5,5],"right_children":[2,4,-1,-1,6,8,-1,-1,-1],"split_conditions":[1.2E1,4E0,1.5753096E-2,-2.0411529E-2,4E0,3E0,-2.599678E-4,-1.1170913E-3,-8.620272E-4],"split_indices":[1,0,0,0,1,1,0,0,0],"split_type":[0,0,0,0,0,0,0,0,0],"sum_hessian":[1.46E2,1.35E2,1.1E1,2E0,1.33E2,1.09E2,2.4E1,8.7E1,2.2E1],"tree_param":{"num_deleted":"0","num_feature":"2","num_nodes":"9","size_leaf_vector":"1"}},{"base_weights":[1.4725915E-4,-1.2466497E-2,1.4309089E-2,-1.905076E-2,-8.387468E-3,-9.683325E-3,-2.350197E-4,-1.0066661E-3,-7.795635E-4],"categories":[],"categories_nodes":[],"categories_segments":[],"categories_sizes":[],"default_left":[0,0,0,0,0,0,0,0,0],"id":40,"left_children":[1,3,-1,-1,5,7,-1,-1,-1],"loss_changes":[2.6683307E-1,9.7170055E-2,0E0,0E0,1.0255836E-3,1.1222437E-6,0E0,0E0,0E0],"parents":[2147483647,0,0,1,1,4,4,5,5],"right_children":[2,4,-1,-1,6,8,-1,-1,-1],"split_conditions":[1.2E1,4E0,1.4309089E-2,-1.905076E-2,4E0,3E0,-2.350197E-4,-1.0066661E-3,-7.795635E-4],"split_indices":[1,0,0,0,1,1,0,0,0],"split_type":[0,0,0,0,0,0,0,0,0],"sum_hessian":[1.46E2,1.35E2,1.1E1,2E0,1.33E2,1.09E2,2.4E1,8.7E1,2.2E1],"tree_param":{"num_deleted":"0","num_feature":"2","num_nodes":"9","size_leaf_vector":"1"}},{"base_weights":[8.653743E-5,-1.1374789E-2,1.2997436E-2,-1.7780712E-2,-7.563806E-3,-8.731264E-4,-2.124443E-4],"categories":[],"categories_nodes":[],"categories_segments":[],"categories_sizes":[],"default_left":[0,0,0,0,0,0,0],"id":41,"left_children":[1,3,-1,-1,5,-1,-1],"loss_changes":[2.203154E-1,8.491593E-2,0E0,0E0,8.323812E-4,0E0,0E0],"parents":[2147483647,0,0,1,1,4,4],"right_children":[2,4,-1,-1,6,-1,-1],"split_conditions":[1.2E1,4E0,1.2997436E-2,-1.7780712E-2,4E0,-8.731264E-4,-2.124443E-4],"split_indices":[1,0,0,0,1,0,0],"split_type":[0,0,0,0,0,0,0],"sum_hessian":[1.46E2,1.35E2,1.1E1,2E0,1.33E2,1.09E2,2.4E1],"tree_param":{"num_deleted":"0","num_feature":"2","num_nodes":"7","size_leaf_vector":"1"}},{"base_weights":[3.7950926E-5,-1.0376034E-2,1.1805995E-2,-1.6595332E-2,-6.815528E-3,-7.866107E-3,-1.9203567E-4,-8.2083186E-4,-6.2147743E-4],"categories":[],"categories_nodes":[],"categories_segments":[],"categories_sizes":[],"default_left":[0,0,0,0,0,0,0,0,0],"id":42,"left_children":[1,3,-1,-1,5,7,-1,-1,-1],"loss_changes":[1.8189967E-1,7.4203946E-2,0E0,0E0,6.7402516E-4,1.1148397E-5,0E0,0E0,0E0],"parents":[2147483647,0,0,1,1,4,4,5,5],"right_children":[2,4,-1,-1,6,8,-1,-1,-1],"split_conditions":[1.2E1,4E0,1.1805995E-2,-1.6595332E-2,4E0,3E0,-1.9203567E-4,-8.2083186E-4,-6.2147743E-4],"split_indices":[1,0,0,0,1,1,0,0,0],"split_type":[0,0,0,0,0,0,0,0,0],"sum_hessian":[1.46E2,1.35E2,1.1E1,2E0,1.33E2,1.09E2,2.4E1,8.7E1,2.2E1],"tree_param":{"num_deleted":"0","num_feature":"2","num_nodes":"9","size_leaf_vector":"1"}},{"base_weights":[-9.429901E-6,-9.472381E-3,1.0723813E-2,-1.5488975E-2,-6.1460785E-3,-7.0925322E-3,-1.7358399E-4,-7.396747E-4,-5.62021E-4],"categories":[],"categories_nodes":[],"categories_segments":[],"categories_sizes":[],"default_left":[0,0,0,0,0,0,0,0,0],"id":43,"left_children":[1,3,-1,-1,5,7,-1,-1,-1],"loss_changes":[1.5020293E-1,6.4831525E-2,0E0,0E0,5.4701604E-4,7.697847E-6,0E0,0E0,0E0],"parents":[2147483647,0,0,1,1,4,4,5,5],"right_children":[2,4,-1,-1,6,8,-1,-1,-1],"split_conditions":[1.2E1,4E0,1.0723813E-2,-1.5488975E-2,4E0,3E0,-1.7358399E-4,-7.396747E-4,-5.62021E-4],"split_indices":[1,0,0,0,1,1,0,0,0],"split_type":[0,0,0,0,0,0,0,0,0],"sum_hessian":[1.46E2,1.35E2,1.1E1,2E0,1.33E2,1.09E2,2.4E1,8.7E1,2.2E1],"tree_param":{"num_deleted":"0","num_feature":"2","num_nodes":"9","size_leaf_vector":"1"}},{"base_weights":[-5.106415E-5,-8.650002E-3,9.740782E-3,-1.4456378E-2,-5.542604E-3,-6.39526E-3,-1.5692138E-4,-6.6656363E-4,-5.0827215E-4],"categories":[],"categories_nodes":[],"categories_segments":[],"categories_sizes":[],"default_left":[0,0,0,0,0,0,0,0,0],"id":44,"left_children":[1,3,-1,-1,5,7,-1,-1,-1],"loss_changes":[1.24034874E-1,5.6636732E-2,0E0,0E0,4.4394797E-4,5.1571988E-6,0E0,0E0,0E0],"parents":[2147483647,0,0,1,1,4,4,5,5],"right_children":[2,4,-1,-1,6,8,-1,-1,-1],"split_conditions":[1.2E1,4E0,9.740782E-3,-1.4456378E-2,4E0,3E0,-1.5692138E-4,-6.6656363E-4,-5.0827215E-4],"split_indices":[1,0,0,0,1,1,0,0,0],"split_type":[0,0,0,0,0,0,0,0,0],"sum_hessian":[1.46E2,1.35E2,1.1E1,2E0,1.33E2,1.09E2,2.4E1,8.7E1,2.2E1],"tree_param":{"num_deleted":"0","num_feature":"2","num_nodes":"9","size_leaf_vector":"1"}},{"base_weights":[-8.7081775E-5,-7.901058E-3,8.847857E-3,-1.3492619E-2,-4.998248E-3,-5.766355E-3,-1.4186479E-4,-6.0065824E-4,-4.5965132E-4],"categories":[],"categories_nodes":[],"categories_segments":[],"categories_sizes":[],"default_left":[0,0,0,0,0,0,0,0,0],"id":45,"left_children":[1,3,-1,-1,5,7,-1,-1,-1],"loss_changes":[1.02430396E-1,4.947285E-2,0E0,0E0,3.602549E-4,3.3034012E-6,0E0,0E0,0E0],"parents":[2147483647,0,0,1,1,4,4,5,5],"right_children":[2,4,-1,-1,6,8,-1,-1,-1],"split_conditions":[1.2E1,4E0,8.847857E-3,-1.3492619E-2,4E0,3E0,-1.4186479E-4,-6.0065824E-4,-4.5965132E-4],"split_indices":[1,0,0,0,1,1,0,0,0],"split_type":[0,0,0,0,0,0,0,0,0],"sum_hessian":[1.46E2,1.35E2,1.1E1,2E0,1.33E2,1.09E2,2.4E1,8.7E1,2.2E1],"tree_param":{"num_deleted":"0","num_feature":"2","num_nodes":"9","size_leaf_vector":"1"}},{"base_weights":[-1.1814715E-4,-7.2189867E-3,8.036789E-3,-1.2593112E-2,-4.5073796E-3,-5.1994086E-3,-1.2821579E-4,-5.412817E-4,-4.156828E-4],"categories":[],"categories_nodes":[],"categories_segments":[],"categories_sizes":[],"default_left":[0,0,0,0,0,0,0,0,0],"id":46,"left_children":[1,3,-1,-1,5,7,-1,-1,-1],"loss_changes":[8.459338E-2,4.321087E-2,0E0,0E0,2.9241457E-4,1.9744039E-6,0E0,0E0,0E0],"parents":[2147483647,0,0,1,1,4,4,5,5],"right_children":[2,4,-1,-1,6,8,-1,-1,-1],"split_conditions":[1.2E1,4E0,8.036789E-3,-1.2593112E-2,4E0,3E0,-1.2821579E-4,-5.412817E-4,-4.156828E-4],"split_indices":[1,0,0,0,1,1,0,0,0],"split_type":[0,0,0,0,0,0,0,0,0],"sum_hessian":[1.46E2,1.35E2,1.1E1,2E0,1.33E2,1.09E2,2.4E1,8.7E1,2.2E1],"tree_param":{"num_deleted":"0","num_feature":"2","num_nodes":"9","size_leaf_vector":"1"}},{"base_weights":[-1.4476306E-4,-6.5977285E-3,7.300091E-3,-1.1753571E-2,-4.0648053E-3,-4.68825E-3,-1.15905765E-4,-4.877768E-4,-3.7593013E-4],"categories":[],"categories_nodes":[],"categories_segments":[],"categories_sizes":[],"default_left":[0,0,0,0,0,0,0,0,0],"id":47,"left_children":[1,3,-1,-1,5,7,-1,-1,-1],"loss_changes":[6.98666E-2,3.773788E-2,0E0,0E0,2.3731682E-4,1.0286458E-6,0E0,0E0,0E0],"parents":[2147483647,0,0,1,1,4,4,5,5],"right_children":[2,4,-1,-1,6,8,-1,-1,-1],"split_conditions":[1.2E1,4E0,7.300091E-3,-1.1753571E-2,4E0,3E0,-1.15905765E-4,-4.877768E-4,-3.7593013E-4],"split_indices":[1,0,0,0,1,1,0,0,0],"split_type":[0,0,0,0,0,0,0,0,0],"sum_hessian":[1.46E2,1.35E2,1.1E1,2E0,1.33E2,1.09E2,2.4E1,8.7E1,2.2E1],"tree_param":{"num_deleted":"0","num_feature":"2","num_nodes":"9","size_leaf_vector":"1"}},{"base_weights":[-1.672407E-4,-6.0315453E-3,6.630882E-3,-1.0969999E-2,-3.6655986E-3,-4.2272333E-4,-1.0477829E-4],"categories":[],"categories_nodes":[],"categories_segments":[],"categories_sizes":[],"default_left":[0,0,0,0,0,0,0],"id":48,"left_children":[1,3,-1,-1,5,-1,-1],"loss_changes":[5.7705816E-2,3.2955155E-2,0E0,0E0,1.9258505E-4,0E0,0E0],"parents":[2147483647,0,0,1,1,4,4],"right_children":[2,4,-1,-1,6,-1,-1],"split_conditions":[1.2E1,4E0,6.630882E-3,-1.0969999E-2,4E0,-4.2272333E-4,-1.0477829E-4],"split_indices":[1,0,0,0,1,0,0],"split_type":[0,0,0,0,0,0,0],"sum_hessian":[1.46E2,1.35E2,1.1E1,2E0,1.33E2,1.09E2,2.4E1],"tree_param":{"num_deleted":"0","num_feature":"2","num_nodes":"7","size_leaf_vector":"1"}},{"base_weights":[-1.8360237E-4,-5.512915E-3,6.0230573E-3,-1.0238666E-2,-3.3029586E-3,-3.8083596E-3,-9.4707495E-5,-3.977597E-4,-2.9952632E-4],"categories":[],"categories_nodes":[],"categories_segments":[],"categories_sizes":[],"default_left":[0,0,0,0,0,0,0,0,0],"id":49,"left_children":[1,3,-1,-1,5,7,-1,-1,-1],"loss_changes":[4.7661055E-2,2.8777622E-2,0E0,0E0,1.5594251E-4,3.2228418E-6,0E0,0E0,0E0],"parents":[2147483647,0,0,1,1,4,4,5,5],"right_children":[2,4,-1,-1,6,8,-1,-1,-1],"split_conditions":[1.2E1,4E0,6.0230573E-3,-1.0238666E-2,4E0,3E0,-9.4707495E-5,-3.977597E-4,-2.9952632E-4],"split_indices":[1,0,0,0,1,1,0,0,0],"split_type":[0,0,0,0,0,0,0,0,0],"sum_hessian":[1.46E2,1.35E2,1.1E1,2E0,1.33E2,1.09E2,2.4E1,8.7E1,2.2E1],"tree_param":{"num_deleted":"0","num_feature":"2","num_nodes":"9","size_leaf_vector":"1"}}]},"name":"gbtree"},"learner_model_param":{"base_score":"[4.5136986E0]","boost_from_average":"1","num_class":"0","num_feature":"2","num_target":"1"},"objective":{"name":"reg:squarederror","reg_loss_param":{"scale_pos_weight":"1"}}},"version":[3,2,1]}