{"learner":{"attributes":{},"feature_names":["day_of_week","hour_of_day"],"feature_types":[],"gradient_booster":{"model":{"cats":{"enc":[],"feature_segments":[],"sorted_idx":[]},"gbtree_model_param":{"num_parallel_tree":"1","num_trees":"50"},"iteration_indptr":[0,1,2,3,4,5,6,7,8,9,10,11,12,13,14,15,16,17,18,19,20,21,22,23,24,25,26,27,28,29,30,31,32,33,34,35,36,37,38,39,40,41,42,43,44,45,46,47,48,49,50],"tree_info":[0,0,0,0,0,0,0,0,0,0,0,0,0,0,0,0,0,0,0,0,0,0,0,0,0,0,0,0,0,0,0,0,0,0,0,0,0,0,0,0,0,0,0,0,0,0,0,0,0,0],"trees":[{"base_weights":[-5.6514033E-8,1.5344323E0,-6.087593E0,-1.0025053E1,2.897199E0,-3.0090258E0,-7.6814446E0,-1.0657885E1,-5.8780203E0,3.7717044E0,-6.1389983E-2,-5.3206205E0,-1.4483836E0,-1.007448E1,-6.293437E0,-1.1563729E0,-8.4658223E-1,-3.4728575E-1,-8.7113553E-1,-8.267972E-2,4.6638775E-1,1.3287619E-1,-6.792052E-2,-6.1740893E-1,-4.7970673E-1,-7.458257E-2,-3.645588E-1,-1.0676712E0,-8.599642E-1,-5.345368E-1,-8.8752633E-1],"categories":[],"categories_nodes":[],"categories_segments":[],"categories_sizes":[],"default_left":[0,0,0,0,0,0,0,0,0,0,0,0,0,0,0,0,0,0,0,0,0,0,0,0,0,0,0,0,0,0,0],"id":0,"left_children":[1,3,5,7,9,11,13,15,17,19,21,23,25,27,29,-1,-1,-1,-1,-1,-1,-1,-1,-1,-1,-1,-1,-1,-1,-1,-1],"loss_changes":[1.6898802E5,2.2764244E5,1.7847375E4,3.936875E3,3.3443703E4,4.4801133E3,7.905E3,2.5251719E3,1.3599321E3,4.093608E4,2.5345305E3,1.9424707E2,1.1457664E3,6.8891406E2,3.6755898E3,0E0,0E0,0E0,0E0,0E0,0E0,0E0,0E0,0E0,0E0,0E0,0E0,0E0,0E0,0E0,0E0],"parents":[2147483647,0,0,1,1,2,2,3,3,4,4,5,5,6,6,7,7,8,8,9,9,10,10,11,11,12,12,13,13,14,14],"right_children":[2,4,6,8,10,12,14,16,18,20,22,24,26,28,30,-1,-1,-1,-1,-1,-1,-1,-1,-1,-1,-1,-1,-1,-1,-1,-1],"split_conditions":[2.1E1,4E0,2.2E1,3E0,1.8E1,4E0,4E0,6E0,5E0,7E0,1.9E1,2E0,7E0,3E0,7E0,-1.1563729E0,-8.4658223E-1,-3.4728575E-1,-8.7113553E-1,-8.267972E-2,4.6638775E-1,1.3287619E-1,-6.792052E-2,-6.1740893E-1,-4.7970673E-1,-7.458257E-2,-3.645588E-1,-1.0676712E0,-8.599642E-1,-5.345368E-1,-8.8752633E-1],"split_indices":[1,1,1,1,1,0,0,0,0,1,1,0,0,0,0,0,0,0,0,0,0,0,0,0,0,0,0,0,0,0,0],"split_type":[0,0,0,0,0,0,0,0,0,0,0,0,0,0,0,0,0,0,0,0,0,0,0,0,0,0,0,0,0,0,0],"sum_hessian":[1.8089E4,1.4448E4,3.641E3,1.523E3,1.2925E4,1.243E3,2.398E3,1.32E3,2.03E2,9.976E3,2.949E3,5E2,7.43E2,8.78E2,1.52E3,9.31E2,3.89E2,1.11E2,9.2E1,1.621E3,8.355E3,9.07E2,2.042E3,1.86E2,3.14E2,5.64E2,1.79E2,6.19E2,2.59E2,1.114E3,4.06E2],"tree_param":{"num_deleted":"0","num_feature":"2","num_nodes":"31","size_leaf_vector":"1"}},{"base_weights":[-4.2352022E-4,1.3807971E0,-5.4801755E0,-9.024662E0,2.6075137E0,-2.7093585E0,-6.9146967E0,-9.593612E0,-5.2961903E0,3.3945723E0,-5.522895E-2,-4.790748E0,-1.3041358E0,-9.069225E0,-5.6650286E0,-1.0408596E0,-7.621411E-1,-3.1286722E-1,-7.849587E-1,-7.441684E-2,4.197545E-1,1.1960317E-1,-6.1131775E-2,-5.559982E-1,-4.3188834E-1,-6.713757E-2,-3.2830542E-1,-9.6107626E-1,-7.742985E-1,-4.2713833E-1,-7.355148E-1],"categories":[],"categories_nodes":[],"categories_segments":[],"categories_sizes":[],"default_left":[0,0,0,0,0,0,0,0,0,0,0,0,0,0,0,0,0,0,0,0,0,0,0,0,0,0,0,0,0,0,0],"id":1,"left_children":[1,3,5,7,9,11,13,15,17,19,21,23,25,27,29,-1,-1,-1,-1,-1,-1,-1,-1,-1,-1,-1,-1,-1,-1,-1,-1],"loss_changes":[1.3692619E5,1.844585E5,1.4457477E4,3.1820781E3,2.7089648E4,3.6322246E3,6.407797E3,2.0439219E3,1.1044863E3,3.3159656E4,2.0533765E3,1.5783691E2,9.294181E2,5.568828E2,3.5511875E3,0E0,0E0,0E0,0E0,0E0,0E0,0E0,0E0,0E0,0E0,0E0,0E0,0E0,0E0,0E0,0E0],"parents":[2147483647,0,0,1,1,2,2,3,3,4,4,5,5,6,6,7,7,8,8,9,9,10,10,11,11,12,12,13,13,14,14],"right_children":[2,4,6,8,10,12,14,16,18,20,22,24,26,28,30,-1,-1,-1,-1,-1,-1,-1,-1,-1,-1,-1,-1,-1,-1,-1,-1],"split_conditions":[2.1E1,4E0,2.2E1,3E0,1.8E1,4E0,4E0,6E0,5E0,7E0,1.9E1,2E0,7E0,3E0,2.3E1,-1.0408596E0,-7.621411E-1,-3.1286722E-1,-7.849587E-1,-7.441684E-2,4.197545E-1,1.1960317E-1,-6.1131775E-2,-5.559982E-1,-4.3188834E-1,-6.713757E-2,-3.2830542E-1,-9.6107626E-1,-7.742985E-1,-4.2713833E-1,-7.355148E-1],"split_indices":[1,1,1,1,1,0,0,0,0,1,1,0,0,0,1,0,0,0,0,0,0,0,0,0,0,0,0,0,0,0,0],"split_type":[0,0,0,0,0,0,0,0,0,0,0,0,0,0,0,0,0,0,0,0,0,0,0,0,0,0,0,0,0,0,0],"sum_hessian":[1.8089E4,1.4448E4,3.641E3,1.523E3,1.2925E4,1.243E3,2.398E3,1.32E3,2.03E2,9.976E3,2.949E3,5E2,7.43E2,8.78E2,1.52E3,9.31E2,3.89E2,1.11E2,9.2E1,1.621E3,8.355E3,9.07E2,2.042E3,1.86E2,3.14E2,5.64E2,1.79E2,6.19E2,2.59E2,8.35E2,6.85E2],"tree_param":{"num_deleted":"0","num_feature":"2","num_nodes":"31","size_leaf_vector":"1"}},{"base_weights":[-7.560113E-4,1.2425444E0,-4.9333334E0,-8.124099E0,2.3467934E0,-2.4395344E0,-6.224435E0,-8.635616E0,-4.7719526E0,3.0551493E0,-4.9686443E-2,-4.3136454E0,-1.1742536E0,-7.6955323E0,-4.6777353E0,-9.3688536E-1,-6.8612236E-1,-2.8185984E-1,-7.0730686E-1,-6.697972E-2,3.7778407E-1,1.0765604E-1,-5.5021625E-2,-4.5696503E-1,-3.1258655E-1,-6.043568E-2,-2.9565728E-1,-8.6512357E-1,-6.7099303E-1,-3.222295E-1,-7.4054736E-1],"categories":[],"categories_nodes":[],"categories_segments":[],"categories_sizes":[],"default_left":[0,0,0,0,0,0,0,0,0,0,0,0,0,0,0,0,0,0,0,0,0,0,0,0,0,0,0,0,0,0,0],"id":2,"left_children":[1,3,5,7,9,11,13,15,17,19,21,23,25,27,29,-1,-1,-1,-1,-1,-1,-1,-1,-1,-1,-1,-1,-1,-1,-1,-1],"loss_changes":[1.1094623E5,1.4946661E5,1.1711133E4,2.571961E3,2.1942828E4,2.9448032E3,5.4225625E3,1.6544141E3,8.9702246E2,2.6860477E4,1.6635665E3,1.380586E2,7.5392224E2,1.0986562E3,4.629049E3,0E0,0E0,0E0,0E0,0E0,0E0,0E0,0E0,0E0,0E0,0E0,0E0,0E0,0E0,0E0,0E0],"parents":[2147483647,0,0,1,1,2,2,3,3,4,4,5,5,6,6,7,7,8,8,9,9,10,10,11,11,12,12,13,13,14,14],"right_children":[2,4,6,8,10,12,14,16,18,20,22,24,26,28,30,-1,-1,-1,-1,-1,-1,-1,-1,-1,-1,-1,-1,-1,-1,-1,-1],"split_conditions":[2.1E1,4E0,2.2E1,3E0,1.8E1,4E0,5E0,6E0,5E0,7E0,1.9E1,3E0,7E0,3E0,7E0,-9.3688536E-1,-6.8612236E-1,-2.8185984E-1,-7.0730686E-1,-6.697972E-2,3.7778407E-1,1.0765604E-1,-5.5021625E-2,-4.5696503E-1,-3.1258655E-1,-6.043568E-2,-2.9565728E-1,-8.6512357E-1,-6.7099303E-1,-3.222295E-1,-7.4054736E-1],"split_indices":[1,1,1,1,1,0,0,0,0,1,1,0,0,0,0,0,0,0,0,0,0,0,0,0,0,0,0,0,0,0,0],"split_type":[0,0,0,0,0,0,0,0,0,0,0,0,0,0,0,0,0,0,0,0,0,0,0,0,0,0,0,0,0,0,0],"sum_hessian":[1.8089E4,1.4448E4,3.641E3,1.523E3,1.2925E4,1.243E3,2.398E3,1.32E3,2.03E2,9.976E3,2.949E3,5E2,7.43E2,1.227E3,1.171E3,9.31E2,3.89E2,1.11E2,9.2E1,1.621E3,8.355E3,9.07E2,2.042E3,4.09E2,9.1E1,5.64E2,1.79E2,6.19E2,6.08E2,7.65E2,4.06E2],"tree_param":{"num_deleted":"0","num_feature":"2","num_nodes":"31","size_leaf_vector":"1"}},{"base_weights":[-1.0106744E-3,1.1181343E0,-4.441023E0,-7.3134036E0,2.112142E0,-2.196486E0,-5.6030746E0,-7.7732835E0,-4.299607E0,2.7496657E0,-4.470025E-2,-3.8838162E0,-1.0573071E0,-6.92723E0,-4.2108684E0,-8.432974E-1,-6.1768615E-1,-2.5392556E-1,-6.373367E-1,7.129088E-2,3.8501653E-1,-1.2342735E-1,4.0307503E-2,-4.5524356E-1,-3.4745604E-1,-5.4402836E-2,-2.6625583E-1,-7.787508E-1,-6.040039E-1,-2.9004863E-1,-6.6667455E-1],"categories":[],"categories_nodes":[],"categories_segments":[],"categories_sizes":[],"default_left":[0,0,0,0,0,0,0,0,0,0,0,0,0,0,0,0,0,0,0,0,0,0,0,0,0,0,0,0,0,0,0],"id":3,"left_children":[1,3,5,7,9,11,13,15,17,19,21,23,25,27,29,-1,-1,-1,-1,-1,-1,-1,-1,-1,-1,-1,-1,-1,-1,-1,-1],"loss_changes":[8.9894484E4,1.2111273E5,9.487008E3,2.0788203E3,1.7773863E4,2.3870742E3,4.393383E3,1.3391172E3,7.2852783E2,2.2360203E4,1.5718489E3,1.21274414E2,6.1156384E2,8.9020703E2,3.7523203E3,0E0,0E0,0E0,0E0,0E0,0E0,0E0,0E0,0E0,0E0,0E0,0E0,0E0,0E0,0E0,0E0],"parents":[2147483647,0,0,1,1,2,2,3,3,4,4,5,5,6,6,7,7,8,8,9,9,10,10,11,11,12,12,13,13,14,14],"right_children":[2,4,6,8,10,12,14,16,18,20,22,24,26,28,30,-1,-1,-1,-1,-1,-1,-1,-1,-1,-1,-1,-1,-1,-1,-1,-1],"split_conditions":[2.1E1,4E0,2.2E1,3E0,1.8E1,4E0,5E0,6E0,5E0,1E1,3E0,2E0,7E0,3E0,7E0,-8.432974E-1,-6.1768615E-1,-2.5392556E-1,-6.373367E-1,7.129088E-2,3.8501653E-1,-1.2342735E-1,4.0307503E-2,-4.5524356E-1,-3.4745604E-1,-5.4402836E-2,-2.6625583E-1,-7.787508E-1,-6.040039E-1,-2.9004863E-1,-6.6667455E-1],"split_indices":[1,1,1,1,1,0,0,0,0,1,0,0,0,0,0,0,0,0,0,0,0,0,0,0,0,0,0,0,0,0,0],"split_type":[0,0,0,0,0,0,0,0,0,0,0,0,0,0,0,0,0,0,0,0,0,0,0,0,0,0,0,0,0,0,0],"sum_hessian":[1.8089E4,1.4448E4,3.641E3,1.523E3,1.2925E4,1.243E3,2.398E3,1.32E3,2.03E2,9.976E3,2.949E3,5E2,7.43E2,1.227E3,1.171E3,9.31E2,3.89E2,1.11E2,9.2E1,3.5E3,6.476E3,8.06E2,2.143E3,1.86E2,3.14E2,5.64E2,1.79E2,6.19E2,6.08E2,7.65E2,4.06E2],"tree_param":{"num_deleted":"0","num_feature":"2","num_nodes":"31","size_leaf_vector":"1"}},{"base_weights":[-1.2102779E-3,1.0061841E0,-3.9978714E0,-6.5836067E0,1.900957E0,-1.9777403E0,-5.0437427E0,-6.9970613E0,-3.874015E0,2.4136095E0,-3.154804E-1,-3.4970372E0,-9.5200723E-1,-6.235633E0,-3.790598E0,-7.8143686E-1,-5.942635E-1,-2.2875975E-1,-5.742883E-1,3.148484E-1,-2.8897438E-3,-4.7836113E-1,1.06338575E-1,-3.7182924E-1,-2.4729972E-1,-4.897215E-2,-2.397782E-1,-7.0100135E-1,-5.437027E-1,-2.2763053E-1,-5.5285525E-1],"categories":[],"categories_nodes":[],"categories_segments":[],"categories_sizes":[],"default_left":[0,0,0,0,0,0,0,0,0,0,0,0,0,0,0,0,0,0,0,0,0,0,0,0,0,0,0,0,0,0,0],"id":4,"left_children":[1,3,5,7,9,11,13,15,17,19,21,23,25,27,29,-1,-1,-1,-1,-1,-1,-1,-1,-1,-1,-1,-1,-1,-1,-1,-1],"loss_changes":[7.2838234E4,9.8137695E4,7.684832E3,1.6802188E3,1.4688086E4,1.9353115E3,3.5595312E3,1.0919883E3,5.9168286E2,1.8843328E4,1.4970046E4,1.0431836E2,4.9608643E2,7.213086E2,3.0718516E3,0E0,0E0,0E0,0E0,0E0,0E0,0E0,0E0,0E0,0E0,0E0,0E0,0E0,0E0,0E0,0E0],"parents":[2147483647,0,0,1,1,2,2,3,3,4,4,5,5,6,6,7,7,8,8,9,9,10,10,11,11,12,12,13,13,14,14],"right_children":[2,4,6,8,10,12,14,16,18,20,22,24,26,28,30,-1,-1,-1,-1,-1,-1,-1,-1,-1,-1,-1,-1,-1,-1,-1,-1],"split_conditions":[2.1E1,4E0,2.2E1,3E0,7E0,4E0,5E0,5E0,5E0,1.8E1,1E1,3E0,7E0,3E0,2.3E1,-7.8143686E-1,-5.942635E-1,-2.2875975E-1,-5.742883E-1,3.148484E-1,-2.8897438E-3,-4.7836113E-1,1.06338575E-1,-3.7182924E-1,-2.4729972E-1,-4.897215E-2,-2.397782E-1,-7.0100135E-1,-5.437027E-1,-2.2763053E-1,-5.5285525E-1],"split_indices":[1,1,1,1,0,0,0,0,0,1,1,0,0,0,1,0,0,0,0,0,0,0,0,0,0,0,0,0,0,0,0],"split_type":[0,0,0,0,0,0,0,0,0,0,0,0,0,0,0,0,0,0,0,0,0,0,0,0,0,0,0,0,0,0,0],"sum_hessian":[1.8089E4,1.4448E4,3.641E3,1.523E3,1.2925E4,1.243E3,2.398E3,1.32E3,2.03E2,1.0497E4,2.428E3,5E2,7.43E2,1.227E3,1.171E3,7.4E2,5.8E2,1.11E2,9.2E1,8.069E3,2.428E3,5.72E2,1.856E3,4.09E2,9.1E1,5.64E2,1.79E2,6.19E2,6.08E2,6.27E2,5.44E2],"tree_param":{"num_deleted":"0","num_feature":"2","num_nodes":"31","size_leaf_vector":"1"}},{"base_weights":[-1.3749974E-3,9.054109E-1,-3.5988894E0,-4.179612E0,2.0178978E0,-1.780696E0,-4.540212E0,-6.2983966E0,-1.9793818E0,2.704765E0,-5.666022E-2,-3.1485693E0,-8.571945E-1,-5.6130834E0,-3.412204E0,-6.848342E-1,-4.9680194E-1,-1.5106897E-2,-6.1078966E-1,3.3137152E-1,2.5612032E-2,9.574196E-2,-5.073346E-2,-3.7297866E-1,-2.7935338E-1,-4.4083595E-2,-2.1593356E-1,-6.310143E-1,-4.8942167E-1,-2.2412501E-1,-5.6076306E-1],"categories":[],"categories_nodes":[],"categories_segments":[],"categories_sizes":[],"default_left":[0,0,0,0,0,0,0,0,0,0,0,0,0,0,0,0,0,0,0,0,0,0,0,0,0,0,0,0,0,0,0],"id":5,"left_children":[1,3,5,7,9,11,13,15,17,19,21,23,25,27,29,-1,-1,-1,-1,-1,-1,-1,-1,-1,-1,-1,-1,-1,-1,-1,-1],"loss_changes":[5.9016008E4,8.1746734E4,6.2252266E3,1.2080281E4,1.6894312E4,1.5687632E3,2.884129E3,9.3246875E2,9.615506E3,1.3280395E4,1.3486942E3,9.296338E1,4.0241333E2,5.8446094E2,3.0003418E3,0E0,0E0,0E0,0E0,0E0,0E0,0E0,0E0,0E0,0E0,0E0,0E0,0E0,0E0,0E0,0E0],"parents":[2147483647,0,0,1,1,2,2,3,3,4,4,5,5,6,6,7,7,8,8,9,9,10,10,11,11,12,12,13,13,14,14],"right_children":[2,4,6,8,10,12,14,16,18,20,22,24,26,28,30,-1,-1,-1,-1,-1,-1,-1,-1,-1,-1,-1,-1,-1,-1,-1,-1],"split_conditions":[2.1E1,5E0,2.2E1,3E0,1.8E1,4E0,5E0,6E0,6E0,7E0,1.9E1,2E0,7E0,3E0,7E0,-6.848342E-1,-4.9680194E-1,-1.5106897E-2,-6.1078966E-1,3.3137152E-1,2.5612032E-2,9.574196E-2,-5.073346E-2,-3.7297866E-1,-2.7935338E-1,-4.4083595E-2,-2.1593356E-1,-6.310143E-1,-4.8942167E-1,-2.2412501E-1,-5.6076306E-1],"split_indices":[1,1,1,1,1,0,0,0,0,0,1,0,0,0,0,0,0,0,0,0,0,0,0,0,0,0,0,0,0,0,0],"split_type":[0,0,0,0,0,0,0,0,0,0,0,0,0,0,0,0,0,0,0,0,0,0,0,0,0,0,0,0,0,0,0],"sum_hessian":[1.8089E4,1.4448E4,3.641E3,2.593E3,1.1855E4,1.243E3,2.398E3,1.32E3,1.273E3,8.906E3,2.949E3,5E2,7.43E2,1.227E3,1.171E3,9.31E2,3.89E2,8.83E2,3.9E2,7.132E3,1.774E3,9.07E2,2.042E3,1.86E2,3.14E2,5.64E2,1.79E2,6.19E2,6.08E2,7.65E2,4.06E2],"tree_param":{"num_deleted":"0","num_feature":"2","num_nodes":"31","size_leaf_vector":"1"}},{"base_weights":[-1.4708395E-3,8.1477267E-1,-3.2397742E0,-3.7623477E0,1.8161421E0,-1.6033599E0,-4.086985E0,-5.669451E0,-1.7819347E0,2.434329E0,-5.0978966E-2,-2.8350146E0,-7.7182454E-1,-5.388532E0,-3.3321223E0,-6.350076E-1,-4.7916326E-1,-1.3597885E-2,-5.498669E-1,2.9823902E-1,2.3052288E-2,-1.1033634E-1,3.4516152E-2,-3.0262247E-1,-1.9520684E-1,-3.9683044E-2,-1.9446014E-1,-5.680146E-1,-4.6724197E-1,-2.2058086E-1,-4.6998572E-1],"categories":[],"categories_nodes":[],"categories_segments":[],"categories_sizes":[],"default_left":[0,0,0,0,0,0,0,0,0,0,0,0,0,0,0,0,0,0,0,0,0,0,0,0,0,0,0,0,0,0,0],"id":6,"left_children":[1,3,5,7,9,11,13,15,17,19,21,23,25,27,29,-1,-1,-1,-1,-1,-1,-1,-1,-1,-1,-1,-1,-1,-1,-1,-1],"loss_changes":[4.7818926E4,6.623221E4,5.042672E3,9.787051E3,1.3684676E4,1.2718726E3,2.3390352E3,7.588242E2,7.793051E3,1.0757371E4,1.2302124E3,7.867529E1,3.2642786E2,1.5702148E2,2.3327305E3,0E0,0E0,0E0,0E0,0E0,0E0,0E0,0E0,0E0,0E0,0E0,0E0,0E0,0E0,0E0,0E0],"parents":[2147483647,0,0,1,1,2,2,3,3,4,4,5,5,6,6,7,7,8,8,9,9,10,10,11,11,12,12,13,13,14,14],"right_children":[2,4,6,8,10,12,14,16,18,20,22,24,26,28,30,-1,-1,-1,-1,-1,-1,-1,-1,-1,-1,-1,-1,-1,-1,-1,-1],"split_conditions":[2.1E1,5E0,2.2E1,3E0,1.8E1,4E0,4E0,5E0,6E0,7E0,3E0,3E0,7E0,3E0,2.3E1,-6.350076E-1,-4.7916326E-1,-1.3597885E-2,-5.498669E-1,2.9823902E-1,2.3052288E-2,-1.1033634E-1,3.4516152E-2,-3.0262247E-1,-1.9520684E-1,-3.9683044E-2,-1.9446014E-1,-5.680146E-1,-4.6724197E-1,-2.2058086E-1,-4.6998572E-1],"split_indices":[1,1,1,1,1,0,0,0,0,0,0,0,0,0,1,0,0,0,0,0,0,0,0,0,0,0,0,0,0,0,0],"split_type":[0,0,0,0,0,0,0,0,0,0,0,0,0,0,0,0,0,0,0,0,0,0,0,0,0,0,0,0,0,0,0],"sum_hessian":[1.8089E4,1.4448E4,3.641E3,2.593E3,1.1855E4,1.243E3,2.398E3,1.32E3,1.273E3,8.906E3,2.949E3,5E2,7.43E2,8.78E2,1.52E3,7.4E2,5.8E2,8.83E2,3.9E2,7.132E3,1.774E3,8.06E2,2.143E3,4.09E2,9.1E1,5.64E2,1.79E2,6.19E2,2.59E2,8.35E2,6.85E2],"tree_param":{"num_deleted":"0","num_feature":"2","num_nodes":"31","size_leaf_vector":"1"}},{"base_weights":[-1.5386611E-3,7.331964E-1,-2.9164715E0,-3.3867598E0,1.6345487E0,-1.4436121E0,-3.679006E0,-5.103349E0,-1.6041839E0,2.1909325E0,-4.5906946E-2,-2.5525067E0,-6.9495654E-1,-4.576494E0,-2.7354956E0,-5.5618536E-1,-3.9945564E-1,-1.223967E-2,-4.9502087E-1,2.6841936E-1,2.074836E-2,8.676653E-2,-4.519166E-2,-3.057798E-1,-2.2444367E-1,-3.572173E-2,-1.7512219E-1,-5.1130486E-1,-4.022734E-1,-1.6880508E-1,-4.700133E-1],"categories":[],"categories_nodes":[],"categories_segments":[],"categories_sizes":[],"default_left":[0,0,0,0,0,0,0,0,0,0,0,0,0,0,0,0,0,0,0,0,0,0,0,0,0,0,0,0,0,0,0],"id":7,"left_children":[1,3,5,7,9,11,13,15,17,19,21,23,25,27,29,-1,-1,-1,-1,-1,-1,-1,-1,-1,-1,-1,-1,-1,-1,-1,-1],"loss_changes":[3.8745555E4,5.3662363E4,4.085041E3,7.929326E3,1.1085203E4,1.0309702E3,2.0189297E3,6.493594E2,6.31601E3,8.71368E3,1.0946036E3,7.1125244E1,2.647907E2,3.4429883E2,2.4038652E3,0E0,0E0,0E0,0E0,0E0,0E0,0E0,0E0,0E0,0E0,0E0,0E0,0E0,0E0,0E0,0E0],"parents":[2147483647,0,0,1,1,2,2,3,3,4,4,5,5,6,6,7,7,8,8,9,9,10,10,11,11,12,12,13,13,14,14],"right_children":[2,4,6,8,10,12,14,16,18,20,22,24,26,28,30,-1,-1,-1,-1,-1,-1,-1,-1,-1,-1,-1,-1,-1,-1,-1,-1],"split_conditions":[2.1E1,5E0,2.2E1,3E0,1.8E1,4E0,5E0,6E0,6E0,7E0,1.9E1,2E0,7E0,3E0,7E0,-5.5618536E-1,-3.9945564E-1,-1.223967E-2,-4.9502087E-1,2.6841936E-1,2.074836E-2,8.676653E-2,-4.519166E-2,-3.057798E-1,-2.2444367E-1,-3.572173E-2,-1.7512219E-1,-5.1130486E-1,-4.022734E-1,-1.6880508E-1,-4.700133E-1],"split_indices":[1,1,1,1,1,0,0,0,0,0,1,0,0,0,0,0,0,0,0,0,0,0,0,0,0,0,0,0,0,0,0],"split_type":[0,0,0,0,0,0,0,0,0,0,0,0,0,0,0,0,0,0,0,0,0,0,0,0,0,0,0,0,0,0,0],"sum_hessian":[1.8089E4,1.4448E4,3.641E3,2.593E3,1.1855E4,1.243E3,2.398E3,1.32E3,1.273E3,8.906E3,2.949E3,5E2,7.43E2,1.227E3,1.171E3,9.31E2,3.89E2,8.83E2,3.9E2,7.132E3,1.774E3,9.07E2,2.042E3,1.86E2,3.14E2,5.64E2,1.79E2,6.19E2,6.08E2,7.65E2,4.06E2],"tree_param":{"num_deleted":"0","num_feature":"2","num_nodes":"31","size_leaf_vector":"1"}},{"base_weights":[-1.574194E-3,-4.34615E0,3.9808387E-1,-4.5937376E0,-2.7215939E0,1.431166E0,-2.2067733E0,-5.1604905E0,-3.863002E0,-2.0203016E0,-3.5368962E0,-4.2950398E-1,1.8813795E0,-1.0567721E0,-3.3117526E0,-4.7794053E-1,-5.350608E-1,-2.8987658E-1,-4.509525E-1,-2.2876254E-1,-1.5870193E-1,-3.055981E-1,-3.9240882E-1,1.305742E-1,-4.3386945E-1,2.2530413E-1,3.7049454E-2,-2.3841234E-1,-1.8886311E-2,-4.119589E-1,-2.4624911E-1],"categories":[],"categories_nodes":[],"categories_segments":[],"categories_sizes":[],"default_left":[0,0,0,0,0,0,0,0,0,0,0,0,0,0,0,0,0,0,0,0,0,0,0,0,0,0,0,0,0,0,0],"id":8,"left_children":[1,3,5,7,9,11,13,15,17,19,21,23,25,27,29,-1,-1,-1,-1,-1,-1,-1,-1,-1,-1,-1,-1,-1,-1,-1,-1],"loss_changes":[3.1412209E4,6.0048047E2,4.4585477E4,5.2715234E2,1.0949451E2,9.938428E3,5.9752734E3,2.8113281E1,3.4912305E2,9.342102E0,5.3253174E0,1.5688903E4,5.3629766E3,2.6572603E3,1.6357227E3,0E0,0E0,0E0,0E0,0E0,0E0,0E0,0E0,0E0,0E0,0E0,0E0,0E0,0E0,0E0,0E0],"parents":[2147483647,0,0,1,1,2,2,3,3,4,4,5,5,6,6,7,7,8,8,9,9,10,10,11,11,12,12,13,13,14,14],"right_children":[2,4,6,8,10,12,14,16,18,20,22,24,26,28,30,-1,-1,-1,-1,-1,-1,-1,-1,-1,-1,-1,-1,-1,-1,-1,-1],"split_conditions":[4E0,3E0,2E1,5E0,5E0,8E0,2.2E1,2E0,1E0,3E0,7E0,6E0,1.8E1,4E0,5E0,-4.7794053E-1,-5.350608E-1,-2.8987658E-1,-4.509525E-1,-2.2876254E-1,-1.5870193E-1,-3.055981E-1,-3.9240882E-1,1.305742E-1,-4.3386945E-1,2.2530413E-1,3.7049454E-2,-2.3841234E-1,-1.8886311E-2,-4.119589E-1,-2.4624911E-1],"split_indices":[1,1,1,0,0,1,1,0,1,0,0,0,1,0,0,0,0,0,0,0,0,0,0,0,0,0,0,0,0,0,0],"split_type":[0,0,0,0,0,0,0,0,0,0,0,0,0,0,0,0,0,0,0,0,0,0,0,0,0,0,0,0,0,0,0],"sum_hessian":[1.8089E4,1.523E3,1.6566E4,1.32E3,2.03E2,1.1862E4,4.704E3,7.4E2,5.8E2,1.11E2,9.2E1,2.311E3,9.551E3,2.306E3,2.398E3,2.55E2,4.85E2,2.35E2,3.45E2,6.6E1,4.5E1,4.5E1,4.7E1,1.601E3,7.1E2,7.665E3,1.886E3,9.11E2,1.395E3,1.227E3,1.171E3],"tree_param":{"num_deleted":"0","num_feature":"2","num_nodes":"31","size_leaf_vector":"1"}},{"base_weights":[-1.626382E-3,5.955715E-1,-2.3709044E0,-2.783419E0,1.3348179E0,-1.7814566E0,-3.8659928E0,-4.1356916E0,-1.3790737E0,1.7859005E0,-2.7598096E-2,-2.6968637E0,-7.08838E-1,-3.6344635E0,-4.7516495E-1,-4.5255557E-1,-3.1934118E-1,-1.990438E-2,-4.0434408E-1,2.2229886E-1,2.8416063E-3,-9.2468195E-2,3.1007646E-2,-1.8765979E-1,-3.4286115E-1,6.109481E-3,-2.399993E-1,-4.0980536E-1,-2.1475875E-1],"categories":[],"categories_nodes":[],"categories_segments":[],"categories_sizes":[],"default_left":[0,0,0,0,0,0,0,0,0,0,0,0,0,0,0,0,0,0,0,0,0,0,0,0,0,0,0,0,0],"id":9,"left_children":[1,3,5,7,9,11,13,15,17,19,21,23,25,27,-1,-1,-1,-1,-1,-1,-1,-1,-1,-1,-1,-1,-1,-1,-1],"loss_changes":[2.5597459E4,3.609597E4,3.2027227E3,4.920453E3,7.286297E3,2.5647295E3,1.9373242E2,4.7083203E2,4.0046929E3,6.842074E3,8.939078E2,8.398877E2,1.5691477E3,5.564258E2,0E0,0E0,0E0,0E0,0E0,0E0,0E0,0E0,0E0,0E0,0E0,0E0,0E0,0E0,0E0],"parents":[2147483647,0,0,1,1,2,2,3,3,4,4,5,5,6,6,7,7,8,8,9,9,10,10,11,11,12,12,13,13],"right_children":[2,4,6,8,10,12,14,16,18,20,22,24,26,28,-1,-1,-1,-1,-1,-1,-1,-1,-1,-1,-1,-1,-1,-1,-1],"split_conditions":[2.1E1,5E0,2.3E1,3E0,1.8E1,5E0,7E0,6E0,6E0,7E0,3E0,2.2E1,7E0,6E0,-4.7516495E-1,-4.5255557E-1,-3.1934118E-1,-1.990438E-2,-4.0434408E-1,2.2229886E-1,2.8416063E-3,-9.2468195E-2,3.1007646E-2,-1.8765979E-1,-3.4286115E-1,6.109481E-3,-2.399993E-1,-4.0980536E-1,-2.1475875E-1],"split_indices":[1,1,1,1,1,0,0,0,0,0,0,1,0,0,0,0,0,0,0,0,0,0,0,0,0,0,0,0,0],"split_type":[0,0,0,0,0,0,0,0,0,0,0,0,0,0,0,0,0,0,0,0,0,0,0,0,0,0,0,0,0],"sum_hessian":[1.8089E4,1.4448E4,3.641E3,2.593E3,1.1855E4,2.613E3,1.028E3,1.32E3,1.273E3,8.906E3,2.949E3,1.409E3,1.204E3,8.19E2,2.09E2,9.31E2,3.89E2,8.83E2,3.9E2,7.132E3,1.774E3,8.06E2,2.143E3,6.66E2,7.43E2,8.28E2,3.76E2,6.23E2,1.96E2],"tree_param":{"num_deleted":"0","num_feature":"2","num_nodes":"29","size_leaf_vector":"1"}},{"base_weights":[-1.6241545E-3,5.359425E-1,-2.1343257E0,-2.5055382E0,1.2013495E0,-1.6036031E0,-3.4804623E0,-3.7227068E0,-1.2414997E0,1.5279385E0,-3.68081E-1,-2.4275534E0,-6.38148E-1,-4.1730943E-1,-3.2223098E0,-4.073486E-1,-2.8748897E-1,-1.7916208E-2,-3.640131E-1,1.8835501E-1,8.362434E-3,-1.4156343E-1,3.0865476E-2,-1.6892189E-1,-3.0862114E-1,5.4993085E-3,-2.1606302E-1,-2.80933E-1,-4.278747E-1],"categories":[],"categories_nodes":[],"categories_segments":[],"categories_sizes":[],"default_left":[0,0,0,0,0,0,0,0,0,0,0,0,0,0,0,0,0,0,0,0,0,0,0,0,0,0,0,0,0],"id":10,"left_children":[1,3,5,7,9,11,13,15,17,19,21,23,25,-1,27,-1,-1,-1,-1,-1,-1,-1,-1,-1,-1,-1,-1,-1,-1],"loss_changes":[2.0740773E4,2.9245219E4,2.5963555E3,3.986371E3,6.077463E3,2.077854E3,1.7054297E2,3.811504E2,3.2456985E3,5.040459E3,1.4487539E3,6.804834E2,1.2717494E3,0E0,3.1693994E2,0E0,0E0,0E0,0E0,0E0,0E0,0E0,0E0,0E0,0E0,0E0,0E0,0E0,0E0],"parents":[2147483647,0,0,1,1,2,2,3,3,4,4,5,5,6,6,7,7,8,8,9,9,10,10,11,11,12,12,14,14],"right_children":[2,4,6,8,10,12,14,16,18,20,22,24,26,-1,28,-1,-1,-1,-1,-1,-1,-1,-1,-1,-1,-1,-1,-1,-1],"split_conditions":[2.1E1,5E0,2.3E1,3E0,1.9E1,5E0,3E0,6E0,6E0,7E0,4E0,2.2E1,7E0,-4.1730943E-1,7E0,-4.073486E-1,-2.8748897E-1,-1.7916208E-2,-3.640131E-1,1.8835501E-1,8.362434E-3,-1.4156343E-1,3.0865476E-2,-1.6892189E-1,-3.0862114E-1,5.4993085E-3,-2.1606302E-1,-2.80933E-1,-4.278747E-1],"split_indices":[1,1,1,1,1,0,0,0,0,0,0,1,0,0,0,0,0,0,0,0,0,0,0,0,0,0,0,0,0],"split_type":[0,0,0,0,0,0,0,0,0,0,0,0,0,0,0,0,0,0,0,0,0,0,0,0,0,0,0,0,0],"sum_hessian":[1.8089E4,1.4448E4,3.641E3,2.593E3,1.1855E4,2.613E3,1.028E3,1.32E3,1.273E3,9.813E3,2.042E3,1.409E3,1.204E3,2.75E2,7.53E2,9.31E2,3.89E2,8.83E2,3.9E2,7.874E3,1.939E3,8.01E2,1.241E3,6.66E2,7.43E2,8.28E2,3.76E2,5.44E2,2.09E2],"tree_param":{"num_deleted":"0","num_feature":"2","num_nodes":"29","size_leaf_vector":"1"}},{"base_weights":[-1.6166723E-3,-3.1840577E0,2.911365E-1,-3.3509622E0,-2.0876622E0,1.052831E0,-1.6294318E0,-3.7870646E0,-2.7889948E0,-1.8604004E0,-2.7875048E-1,-1.2241551E-1,1.5446984E0,-7.9672396E-1,-2.4295268E0,-3.5075074E-1,-4.0090948E-1,-1.8761048E-1,-3.4035993E-1,-2.0250206E-1,-1.7187525E-1,1.0535719E-1,-2.4512671E-1,1.9127572E-1,2.8054247E-2,-1.8603094E-1,-1.0131813E-2,-3.252045E-1,-1.9525886E-1],"categories":[],"categories_nodes":[],"categories_segments":[],"categories_sizes":[],"default_left":[0,0,0,0,0,0,0,0,0,0,0,0,0,0,0,0,0,0,0,0,0,0,0,0,0,0,0,0,0],"id":11,"left_children":[1,3,5,7,9,11,13,15,17,19,-1,21,23,25,27,-1,-1,-1,-1,-1,-1,-1,-1,-1,-1,-1,-1,-1,-1],"loss_changes":[1.6854832E4,2.7188672E2,2.423736E4,3.1318262E2,2.7259766E1,6.8577773E3,3.132748E3,3.1930664E1,3.1959375E2,1.8041992E-1,0E0,9.5907705E3,3.8906328E3,1.706123E3,9.347539E2,0E0,0E0,0E0,0E0,0E0,0E0,0E0,0E0,0E0,0E0,0E0,0E0,0E0,0E0],"parents":[2147483647,0,0,1,1,2,2,3,3,4,4,5,5,6,6,7,7,8,8,9,9,11,11,12,12,13,13,14,14],"right_children":[2,4,6,8,10,12,14,16,18,20,-1,22,24,26,28,-1,-1,-1,-1,-1,-1,-1,-1,-1,-1,-1,-1,-1,-1],"split_conditions":[4E0,3E0,2E1,5E0,7E0,1E1,2.2E1,1E0,1E0,3E0,-2.7875048E-1,6E0,1.8E1,4E0,4E0,-3.5075074E-1,-4.0090948E-1,-1.8761048E-1,-3.4035993E-1,-2.0250206E-1,-1.7187525E-1,1.0535719E-1,-2.4512671E-1,1.9127572E-1,2.8054247E-2,-1.8603094E-1,-1.0131813E-2,-3.252045E-1,-1.9525886E-1],"split_indices":[1,1,1,0,0,1,1,1,1,0,0,0,1,0,0,0,0,0,0,0,0,0,0,0,0,0,0,0,0],"split_type":[0,0,0,0,0,0,0,0,0,0,0,0,0,0,0,0,0,0,0,0,0,0,0,0,0,0,0,0,0],"sum_hessian":[1.8089E4,1.523E3,1.6566E4,1.32E3,2.03E2,1.1862E4,4.704E3,7.4E2,5.8E2,1.56E2,4.7E1,3.5E3,8.362E3,2.306E3,2.398E3,3.35E2,4.05E2,2.35E2,3.45E2,6.6E1,9E1,2.326E3,1.174E3,6.476E3,1.886E3,9.11E2,1.395E3,8.78E2,1.52E3],"tree_param":{"num_deleted":"0","num_feature":"2","num_nodes":"29","size_leaf_vector":"1"}},{"base_weights":[-1.5972977E-3,4.350436E-1,-1.7338935E0,-2.072273E0,9.8358816E-1,-1.2761116E0,-2.8951259E0,-3.0168345E0,-1.0912385E0,1.2515512E0,-3.0411246E-1,-1.9657782E0,-4.6805686E-1,-2.6960762E0,-3.6585814E-1,-3.316364E-1,-2.2933005E-1,-2.2940619E-2,-3.036938E-1,1.7679195E-1,4.67071E-2,-1.19255446E-1,2.6982844E-2,-1.3785754E-1,-2.4895667E-1,1.556453E-2,-1.8382983E-1,-3.081946E-1,-1.4601435E-1],"categories":[],"categories_nodes":[],"categories_segments":[],"categories_sizes":[],"default_left":[0,0,0,0,0,0,0,0,0,0,0,0,0,0,0,0,0,0,0,0,0,0,0,0,0,0,0,0,0],"id":12,"left_children":[1,3,5,7,9,11,13,15,17,19,21,23,25,27,-1,-1,-1,-1,-1,-1,-1,-1,-1,-1,-1,-1,-1,-1,-1],"loss_changes":[1.3683875E4,1.987483E4,1.9323604E3,2.4004307E3,4.0913652E3,1.4558325E3,1.4650879E2,2.7868262E2,2.1356316E3,3.9746357E3,1.0420745E3,4.302412E2,1.0301062E3,3.8656494E2,0E0,0E0,0E0,0E0,0E0,0E0,0E0,0E0,0E0,0E0,0E0,0E0,0E0,0E0,0E0],"parents":[2147483647,0,0,1,1,2,2,3,3,4,4,5,5,6,6,7,7,8,8,9,9,10,10,11,11,12,12,13,13],"right_children":[2,4,6,8,10,12,14,16,18,20,22,24,26,28,-1,-1,-1,-1,-1,-1,-1,-1,-1,-1,-1,-1,-1,-1,-1],"split_conditions":[2.1E1,5E0,2.3E1,3E0,1.9E1,5E0,7E0,6E0,6E0,6E0,4E0,2.2E1,7E0,6E0,-3.6585814E-1,-3.316364E-1,-2.2933005E-1,-2.2940619E-2,-3.036938E-1,1.7679195E-1,4.67071E-2,-1.19255446E-1,2.6982844E-2,-1.3785754E-1,-2.4895667E-1,1.556453E-2,-1.8382983E-1,-3.081946E-1,-1.4601435E-1],"split_indices":[1,1,1,1,1,0,0,0,0,0,0,1,0,0,0,0,0,0,0,0,0,0,0,0,0,0,0,0,0],"split_type":[0,0,0,0,0,0,0,0,0,0,0,0,0,0,0,0,0,0,0,0,0,0,0,0,0,0,0,0,0],"sum_hessian":[1.8089E4,1.4448E4,3.641E3,2.593E3,1.1855E4,2.613E3,1.028E3,1.32E3,1.273E3,9.813E3,2.042E3,1.409E3,1.204E3,8.19E2,2.09E2,9.31E2,3.89E2,8.83E2,3.9E2,5.917E3,3.896E3,8.01E2,1.241E3,6.66E2,7.43E2,8.28E2,3.76E2,6.23E2,1.96E2],"tree_param":{"num_deleted":"0","num_feature":"2","num_nodes":"29","size_leaf_vector":"1"}},{"base_weights":[-1.5555114E-3,4.6398303E-1,-1.3260396E0,-1.6039782E0,1.0989443E0,-9.6737003E-1,-2.6064103E0,-2.5857854E0,-6.80502E-1,1.3008944E0,2.0408812E-1,-1.9042773E0,-3.5926956E-1,-2.4270227E0,-3.2944655E-1,-2.8363255E-1,-2.0382772E-1,7.6247804E-2,-3.9107275E-1,7.367253E-2,1.8869108E-1,4.2961966E-2,-5.0820207E-4,-1.545159E-1,-2.5117618E-1,7.779948E-3,-1.7314377E-1,-2.7742454E-1,-1.3148706E-1],"categories":[],"categories_nodes":[],"categories_segments":[],"categories_sizes":[],"default_left":[0,0,0,0,0,0,0,0,0,0,0,0,0,0,0,0,0,0,0,0,0,0,0,0,0,0,0,0,0],"id":13,"left_children":[1,3,5,7,9,11,13,15,17,19,21,23,25,27,-1,-1,-1,-1,-1,-1,-1,-1,-1,-1,-1,-1,-1,-1,-1],"loss_changes":[1.1154879E4,1.757859E4,2.1581553E3,2.8497349E3,1.8506309E3,2.0942268E3,1.19012695E2,2.0326953E2,7.5633677E3,2.761207E3,8.902041E1,3.1179443E2,1.3381372E3,3.1300732E2,0E0,0E0,0E0,0E0,0E0,0E0,0E0,0E0,0E0,0E0,0E0,0E0,0E0,0E0,0E0],"parents":[2147483647,0,0,1,1,2,2,3,3,4,4,5,5,6,6,7,7,8,8,9,9,10,10,11,11,12,12,13,13],"right_children":[2,4,6,8,10,12,14,16,18,20,22,24,26,28,-1,-1,-1,-1,-1,-1,-1,-1,-1,-1,-1,-1,-1,-1,-1],"split_conditions":[2E1,7E0,2.3E1,4E0,1.8E1,4E0,7E0,6E0,6E0,1.3E1,1.9E1,2.2E1,7E0,6E0,-3.2944655E-1,-2.8363255E-1,-2.0382772E-1,7.6247804E-2,-3.9107275E-1,7.367253E-2,1.8869108E-1,4.2961966E-2,-5.0820207E-4,-1.545159E-1,-2.5117618E-1,7.779948E-3,-1.7314377E-1,-2.7742454E-1,-1.3148706E-1],"split_indices":[1,1,1,1,1,0,0,0,0,1,1,1,0,0,0,0,0,0,0,0,0,0,0,0,0,0,0,0,0],"split_type":[0,0,0,0,0,0,0,0,0,0,0,0,0,0,0,0,0,0,0,0,0,0,0,0,0,0,0,0,0],"sum_hessian":[1.8089E4,1.3385E4,4.704E3,3.144E3,1.0241E4,3.676E3,1.028E3,1.523E3,1.621E3,8.355E3,1.886E3,1.446E3,2.23E3,8.19E2,2.09E2,1.042E3,4.81E2,1.121E3,5E2,4.258E3,4.097E3,9.07E2,9.79E2,9.11E2,5.35E2,1.692E3,5.38E2,6.23E2,1.96E2],"tree_param":{"num_deleted":"0","num_feature":"2","num_nodes":"29","size_leaf_vector":"1"}},{"base_weights":[-1.4997924E-3,3.545402E-1,-1.414026E0,-1.6914239E0,8.021512E-1,-1.0464222E0,-2.346487E0,-2.455658E0,-8.9766824E-1,1.0515757E0,-2.3685111E-1,-1.6214409E0,-3.7271038E-1,-2.1848192E0,-2.9665875E-1,-1.978547E-1,-2.815145E-1,-4.6728093E-2,-3.4940553E-1,1.4037073E-1,1.7073442E-3,-3.038474E-1,4.270966E-2,-1.1270316E-1,-2.0625022E-1,1.3232854E-2,-1.4822716E-1,-2.4972653E-1,-1.184051E-1],"categories":[],"categories_nodes":[],"categories_segments":[],"categories_sizes":[],"default_left":[0,0,0,0,0,0,0,0,0,0,0,0,0,0,0,0,0,0,0,0,0,0,0,0,0,0,0,0,0],"id":14,"left_children":[1,3,5,7,9,11,13,15,17,19,21,23,25,27,-1,-1,-1,-1,-1,-1,-1,-1,-1,-1,-1,-1,-1,-1,-1],"loss_changes":[9.098248E3,1.3233694E4,1.245936E3,1.5713555E3,3.0727617E3,1.0120508E3,9.667627E1,2.2100146E2,1.4220011E3,3.4828652E3,4.272158E3,3.0514697E2,6.7544385E2,2.5344556E2,0E0,0E0,0E0,0E0,0E0,0E0,0E0,0E0,0E0,0E0,0E0,0E0,0E0,0E0,0E0],"parents":[2147483647,0,0,1,1,2,2,3,3,4,4,5,5,6,6,7,7,8,8,9,9,10,10,11,11,12,12,13,13],"right_children":[2,4,6,8,10,12,14,16,18,20,22,24,26,28,-1,-1,-1,-1,-1,-1,-1,-1,-1,-1,-1,-1,-1,-1,-1],"split_conditions":[2.1E1,5E0,2.3E1,3E0,7E0,5E0,7E0,1E0,7E0,1.8E1,1E1,2.2E1,7E0,6E0,-2.9665875E-1,-1.978547E-1,-2.815145E-1,-4.6728093E-2,-3.4940553E-1,1.4037073E-1,1.7073442E-3,-3.038474E-1,4.270966E-2,-1.1270316E-1,-2.0625022E-1,1.3232854E-2,-1.4822716E-1,-2.4972653E-1,-1.184051E-1],"split_indices":[1,1,1,1,0,0,0,1,0,1,1,1,0,0,0,0,0,0,0,0,0,0,0,0,0,0,0,0,0],"split_type":[0,0,0,0,0,0,0,0,0,0,0,0,0,0,0,0,0,0,0,0,0,0,0,0,0,0,0,0,0],"sum_hessian":[1.8089E4,1.4448E4,3.641E3,2.593E3,1.1855E4,2.613E3,1.028E3,1.32E3,1.273E3,9.56E3,2.295E3,1.409E3,1.204E3,8.19E2,2.09E2,5.7E2,7.5E2,1.093E3,1.8E2,7.132E3,2.428E3,4.39E2,1.856E3,6.66E2,7.43E2,8.28E2,3.76E2,6.23E2,1.96E2],"tree_param":{"num_deleted":"0","num_feature":"2","num_nodes":"29","size_leaf_vector":"1"}},{"base_weights":[-1.4668435E-3,3.798354E-1,-1.0862937E0,-1.1134504E0,9.793299E-1,-5.3099865E-1,-1.6198407E0,-5.146587E-1,-2.4407086E0,1.2543869E0,3.7877086E-1,-1.1490872E0,1.5299247E-1,-2.3758166E0,-1.3556132E0,-2.333283E-1,6.696983E-2,-1.9063096E-1,-3.4440756E-1,7.640899E-2,2.0631075E-1,7.735444E-2,-2.74056E-2,-1.695214E-1,-8.879136E-2,7.450184E-2,-1.15441285E-1,-2.1888216E-1,-2.600952E-1,-1.0593448E-1,-2.3524618E-1],"categories":[],"categories_nodes":[],"categories_segments":[],"categories_sizes":[],"default_left":[0,0,0,0,0,0,0,0,0,0,0,0,0,0,0,0,0,0,0,0,0,0,0,0,0,0,0,0,0,0,0],"id":15,"left_children":[1,3,5,7,9,11,13,15,17,19,21,23,25,27,29,-1,-1,-1,-1,-1,-1,-1,-1,-1,-1,-1,-1,-1,-1,-1,-1],"loss_changes":[7.483285E3,1.1984459E4,1.3931177E3,3.0466152E3,1.5774014E3,9.754994E2,4.75979E2,5.696475E3,6.325825E2,2.5959824E3,7.738836E2,1.7136707E2,8.4918365E2,2.0408203E1,5.232041E2,0E0,0E0,0E0,0E0,0E0,0E0,0E0,0E0,0E0,0E0,0E0,0E0,0E0,0E0,0E0,0E0],"parents":[2147483647,0,0,1,1,2,2,3,3,4,4,5,5,6,6,7,7,8,8,9,9,10,10,11,11,12,12,13,13,14,14],"right_children":[2,4,6,8,10,12,14,16,18,20,22,24,26,28,30,-1,-1,-1,-1,-1,-1,-1,-1,-1,-1,-1,-1,-1,-1,-1,-1],"split_conditions":[2E1,8E0,2.2E1,6E0,1.7E1,5E0,3E0,4E0,5E0,1.4E1,6E0,2E0,7E0,2.3E1,7E0,-2.333283E-1,6.696983E-2,-1.9063096E-1,-3.4440756E-1,7.640899E-2,2.0631075E-1,7.735444E-2,-2.74056E-2,-1.695214E-1,-8.879136E-2,7.450184E-2,-1.15441285E-1,-2.1888216E-1,-2.600952E-1,-1.0593448E-1,-2.3524618E-1],"split_indices":[1,1,1,0,1,0,0,1,1,1,0,0,0,1,0,0,0,0,0,0,0,0,0,0,0,0,0,0,0,0,0],"split_type":[0,0,0,0,0,0,0,0,0,0,0,0,0,0,0,0,0,0,0,0,0,0,0,0,0,0,0,0,0,0,0],"sum_hessian":[1.8089E4,1.3385E4,4.704E3,3.834E3,9.551E3,2.306E3,2.398E3,2.643E3,1.191E3,6.55E3,3.001E3,1.211E3,1.095E3,6.19E2,1.779E3,1.042E3,1.601E3,7.79E2,4.12E2,4.079E3,2.471E3,1.87E3,1.131E3,3.9E2,8.21E2,7.54E2,3.41E2,3.44E2,2.75E2,1.373E3,4.06E2],"tree_param":{"num_deleted":"0","num_feature":"2","num_nodes":"31","size_leaf_vector":"1"}},{"base_weights":[-1.4022664E-3,3.418246E-1,-9.779024E-1,-1.0022881E0,8.8143206E-1,-7.086226E-1,-1.9391891E0,-4.6325555E-1,-2.1970866E0,1.0649244E0,1.355212E-1,-1.2876611E0,-5.120593E-2,-1.8092809E0,-2.4372156E-1,-2.1001785E-1,6.0277056E-2,-1.715923E-1,-3.1005022E-1,1.3023637E-1,1.6034966E-2,-3.993698E-2,2.1934263E-2,-1.0343919E-1,-1.6985139E-1,5.2096423E-2,-1.309036E-1,-2.0742352E-1,-9.6085034E-2],"categories":[],"categories_nodes":[],"categories_segments":[],"categories_sizes":[],"default_left":[0,0,0,0,0,0,0,0,0,0,0,0,0,0,0,0,0,0,0,0,0,0,0,0,0,0,0,0,0],"id":16,"left_children":[1,3,5,7,9,11,13,15,17,19,21,23,25,27,-1,-1,-1,-1,-1,-1,-1,-1,-1,-1,-1,-1,-1,-1,-1],"loss_changes":[6.063398E3,9.709659E3,1.2165396E3,2.4688577E3,1.3072275E3,1.3996558E3,6.2164062E1,4.6150527E3,5.1283105E2,1.6463066E3,8.4691864E1,2.0167334E2,1.2407126E3,1.8233936E2,0E0,0E0,0E0,0E0,0E0,0E0,0E0,0E0,0E0,0E0,0E0,0E0,0E0,0E0,0E0],"parents":[2147483647,0,0,1,1,2,2,3,3,4,4,5,5,6,6,7,7,8,8,9,9,10,10,11,11,12,12,13,13],"right_children":[2,4,6,8,10,12,14,16,18,20,22,24,26,28,-1,-1,-1,-1,-1,-1,-1,-1,-1,-1,-1,-1,-1,-1,-1],"split_conditions":[2E1,8E0,2.3E1,6E0,1.8E1,5E0,7E0,4E0,5E0,7E0,2E0,2.2E1,7E0,6E0,-2.4372156E-1,-2.1001785E-1,6.0277056E-2,-1.715923E-1,-3.1005022E-1,1.3023637E-1,1.6034966E-2,-3.993698E-2,2.1934263E-2,-1.0343919E-1,-1.6985139E-1,5.2096423E-2,-1.309036E-1,-2.0742352E-1,-9.6085034E-2],"split_indices":[1,1,1,0,1,0,0,1,1,0,0,1,0,0,0,0,0,0,0,0,0,0,0,0,0,0,0,0,0],"split_type":[0,0,0,0,0,0,0,0,0,0,0,0,0,0,0,0,0,0,0,0,0,0,0,0,0,0,0,0,0],"sum_hessian":[1.8089E4,1.3385E4,4.704E3,3.834E3,9.551E3,3.676E3,1.028E3,2.643E3,1.191E3,7.665E3,1.886E3,1.954E3,1.722E3,8.19E2,2.09E2,1.042E3,1.601E3,7.79E2,4.12E2,6.071E3,1.594E3,2.55E2,1.631E3,1.211E3,7.43E2,1.184E3,5.38E2,6.23E2,1.96E2],"tree_param":{"num_deleted":"0","num_feature":"2","num_nodes":"29","size_leaf_vector":"1"}},{"base_weights":[-1.3393827E-3,3.0760476E-1,-8.8030326E-1,-1.2736198E0,6.876093E-1,-6.37856E-1,-1.745802E0,-1.7913331E0,-7.358074E-1,1.0208406E0,1.8380322E-1,-1.3278133E0,-1.9007209E-1,-2.1351273E0,-1.6009752E0,-1.3546655E-1,-2.1209548E-1,-3.9587554E-2,-2.786358E-1,1.2209689E-1,1.2839655E-2,-2.791203E-1,4.9993645E-2,-1.10325E-1,-1.7074285E-1,1.2468608E-2,-1.1783755E-1,-2.3971455E-1,-1.9330823E-1,-1.3692802E-1,-2.1946548E-1],"categories":[],"categories_nodes":[],"categories_segments":[],"categories_sizes":[],"default_left":[0,0,0,0,0,0,0,0,0,0,0,0,0,0,0,0,0,0,0,0,0,0,0,0,0,0,0,0,0,0,0],"id":17,"left_children":[1,3,5,7,9,11,13,15,17,19,21,23,25,27,29,-1,-1,-1,-1,-1,-1,-1,-1,-1,-1,-1,-1,-1,-1,-1,-1],"loss_changes":[4.912624E3,8.0441543E3,9.861736E2,7.209365E2,1.8117842E3,1.1357633E3,5.4601562E1,1.8726514E2,8.8693524E2,1.1600498E3,4.0436575E3,1.2146948E2,6.9415875E2,9.977417E0,1.0070947E2,0E0,0E0,0E0,0E0,0E0,0E0,0E0,0E0,0E0,0E0,0E0,0E0,0E0,0E0,0E0,0E0],"parents":[2147483647,0,0,1,1,2,2,3,3,4,4,5,5,6,6,7,7,8,8,9,9,10,10,11,11,12,12,13,13,14,14],"right_children":[2,4,6,8,10,12,14,16,18,20,22,24,26,28,30,-1,-1,-1,-1,-1,-1,-1,-1,-1,-1,-1,-1,-1,-1,-1,-1],"split_conditions":[2E1,5E0,2.3E1,3E0,6E0,4E0,3E0,1E0,7E0,1.8E1,8E0,2.2E1,7E0,2E0,7E0,-1.3546655E-1,-2.1209548E-1,-3.9587554E-2,-2.786358E-1,1.2209689E-1,1.2839655E-2,-2.791203E-1,4.9993645E-2,-1.10325E-1,-1.7074285E-1,1.2468608E-2,-1.1783755E-1,-2.3971455E-1,-1.9330823E-1,-1.3692802E-1,-2.1946548E-1],"split_indices":[1,1,1,1,0,0,0,1,0,1,1,1,0,0,0,0,0,0,0,0,0,0,0,0,0,0,0,0,0,0,0],"split_type":[0,0,0,0,0,0,0,0,0,0,0,0,0,0,0,0,0,0,0,0,0,0,0,0,0,0,0,0,0,0,0],"sum_hessian":[1.8089E4,1.3385E4,4.704E3,2.593E3,1.0792E4,3.676E3,1.028E3,1.32E3,1.273E3,6.495E3,4.297E3,1.446E3,2.23E3,2.75E2,7.53E2,5.7E2,7.5E2,1.093E3,1.8E2,5.305E3,1.19E3,4.12E2,3.885E3,9.11E2,5.35E2,1.692E3,5.38E2,1.15E2,1.6E2,5.44E2,2.09E2],"tree_param":{"num_deleted":"0","num_feature":"2","num_nodes":"31","size_leaf_vector":"1"}},{"base_weights":[-1.3124014E-3,2.3562029E-1,-9.4130117E-1,-1.1465143E0,5.3800064E-1,-6.92671E-1,-1.5719892E0,-1.612463E0,-6.62476E-1,7.25245E-1,-2.4195646E-1,-1.0301543E0,3.910912E-2,-1.9231834E0,-1.4413503E0,-1.9317071E-1,-1.2025278E-1,-3.5632372E-2,-2.5092614E-1,9.692978E-2,8.2613074E-4,-2.4372433E-1,2.7832795E-2,-7.850691E-2,-1.23955764E-1,8.330069E-2,-9.086179E-2,-2.1594973E-1,-1.7409746E-1,-1.2326036E-1,-1.9762346E-1],"categories":[],"categories_nodes":[],"categories_segments":[],"categories_sizes":[],"default_left":[0,0,0,0,0,0,0,0,0,0,0,0,0,0,0,0,0,0,0,0,0,0,0,0,0,0,0,0,0,0,0],"id":18,"left_children":[1,3,5,7,9,11,13,15,17,19,21,23,25,27,29,-1,-1,-1,-1,-1,-1,-1,-1,-1,-1,-1,-1,-1,-1,-1,-1],"loss_changes":[4.0291191E3,6.039292E3,5.700061E2,5.839746E2,1.7316562E3,6.456033E2,4.443799E1,1.7055566E2,7.1942236E2,1.6729937E3,2.6231086E3,9.084131E1,6.222379E2,8.124573E0,8.17522E1,0E0,0E0,0E0,0E0,0E0,0E0,0E0,0E0,0E0,0E0,0E0,0E0,0E0,0E0,0E0,0E0],"parents":[2147483647,0,0,1,1,2,2,3,3,4,4,5,5,6,6,7,7,8,8,9,9,10,10,11,11,12,12,13,13,14,14],"right_children":[2,4,6,8,10,12,14,16,18,20,22,24,26,28,30,-1,-1,-1,-1,-1,-1,-1,-1,-1,-1,-1,-1,-1,-1,-1,-1],"split_conditions":[2.1E1,5E0,2.3E1,3E0,7E0,6E0,3E0,5E0,7E0,1.8E1,1E1,2.2E1,7E0,2E0,7E0,-1.9317071E-1,-1.2025278E-1,-3.5632372E-2,-2.5092614E-1,9.692978E-2,8.2613074E-4,-2.4372433E-1,2.7832795E-2,-7.850691E-2,-1.23955764E-1,8.330069E-2,-9.086179E-2,-2.1594973E-1,-1.7409746E-1,-1.2326036E-1,-1.9762346E-1],"split_indices":[1,1,1,1,0,0,0,0,0,1,1,1,0,0,0,0,0,0,0,0,0,0,0,0,0,0,0,0,0,0,0],"split_type":[0,0,0,0,0,0,0,0,0,0,0,0,0,0,0,0,0,0,0,0,0,0,0,0,0,0,0,0,0,0,0],"sum_hessian":[1.8089E4,1.4448E4,3.641E3,2.593E3,1.1855E4,2.613E3,1.028E3,1.32E3,1.273E3,9.56E3,2.295E3,1.788E3,8.25E2,2.75E2,7.53E2,7.4E2,5.8E2,1.093E3,1.8E2,7.132E3,2.428E3,4.39E2,1.856E3,8.26E2,9.62E2,4.49E2,3.76E2,1.15E2,1.6E2,5.44E2,2.09E2],"tree_param":{"num_deleted":"0","num_feature":"2","num_nodes":"31","size_leaf_vector":"1"}},{"base_weights":[-1.2716373E-3,2.5169346E-1,-7.209718E-1,-7.506401E-1,6.540906E-1,-1.0923017E0,-3.2115066E-1,-3.3632144E-1,-1.6690192E0,8.59052E-1,2.0660351E-1,-8.0843014E-1,-1.3715851E0,1.2351983E-1,-1.2243297E0,-1.5674643E-1,4.6543784E-2,-9.187973E-2,-2.1752611E-1,4.1994337E-2,1.5834469E-1,5.55085E-2,-3.6955856E-2,-1.2759939E-1,-5.8504105E-2,-1.6099219E-1,-1.12669125E-1,1.3429146E-1,-2.5057588E-2,-7.569232E-2,-1.614081E-1],"categories":[],"categories_nodes":[],"categories_segments":[],"categories_sizes":[],"default_left":[0,0,0,0,0,0,0,0,0,0,0,0,0,0,0,0,0,0,0,0,0,0,0,0,0,0,0,0,0,0,0],"id":19,"left_children":[1,3,5,7,9,11,13,15,17,19,21,23,25,27,29,-1,-1,-1,-1,-1,-1,-1,-1,-1,-1,-1,-1,-1,-1,-1,-1],"loss_changes":[3.293629E3,5.399549E3,6.981797E2,1.4586621E3,8.7590894E2,1.9225659E2,9.106172E2,2.6105698E3,4.5071582E2,2.0831304E3,6.029521E2,1.25845215E2,6.9861084E1,6.937153E2,1.3504321E2,0E0,0E0,0E0,0E0,0E0,0E0,0E0,0E0,0E0,0E0,0E0,0E0,0E0,0E0,0E0,0E0],"parents":[2147483647,0,0,1,1,2,2,3,3,4,4,5,5,6,6,7,7,8,8,9,9,10,10,11,11,12,12,13,13,14,14],"right_children":[2,4,6,8,10,12,14,16,18,20,22,24,26,28,30,-1,-1,-1,-1,-1,-1,-1,-1,-1,-1,-1,-1,-1,-1,-1,-1],"split_conditions":[2E1,8E0,5E0,6E0,1.7E1,2.2E1,7E0,4E0,4E0,1.4E1,6E0,2E0,3E0,2.1E1,2.2E1,-1.5674643E-1,4.6543784E-2,-9.187973E-2,-2.1752611E-1,4.1994337E-2,1.5834469E-1,5.55085E-2,-3.6955856E-2,-1.2759939E-1,-5.8504105E-2,-1.6099219E-1,-1.12669125E-1,1.3429146E-1,-2.5057588E-2,-7.569232E-2,-1.614081E-1],"split_indices":[1,1,0,0,1,1,0,1,1,1,0,0,0,1,1,0,0,0,0,0,0,0,0,0,0,0,0,0,0,0,0],"split_type":[0,0,0,0,0,0,0,0,0,0,0,0,0,0,0,0,0,0,0,0,0,0,0,0,0,0,0,0,0,0,0],"sum_hessian":[1.8089E4,1.3385E4,4.704E3,3.834E3,9.551E3,2.438E3,2.266E3,2.643E3,1.191E3,6.55E3,3.001E3,1.211E3,1.227E3,1.519E3,7.47E2,1.042E3,1.601E3,4.81E2,7.1E2,4.079E3,2.471E3,1.87E3,1.131E3,3.9E2,8.21E2,6.19E2,6.08E2,3.56E2,1.163E3,3.41E2,4.06E2],"tree_param":{"num_deleted":"0","num_feature":"2","num_nodes":"31","size_leaf_vector":"1"}},{"base_weights":[-1.187868E-3,-9.4095516E-1,1.5611726E-1,-1.3139277E0,-5.5348444E-1,5.6946903E-1,-5.5760384E-1,-9.130925E-1,-1.616941E0,2.3718672E-2,-1.255204E0,7.525527E-1,-1.7401199E-1,-2.4915288E-1,-9.798682E-1,-1.2118949E-1,6.357185E-2,-1.07225336E-1,-1.7432866E-1,-5.7642918E-2,1.3779821E-2,-8.759036E-2,-2.0760238E-1,3.5038732E-2,9.368136E-2,-2.1298043E-1,3.9942086E-2,-9.008223E-2,2.0987734E-3,-7.324018E-2,-1.3086306E-1],"categories":[],"categories_nodes":[],"categories_segments":[],"categories_sizes":[],"default_left":[0,0,0,0,0,0,0,0,0,0,0,0,0,0,0,0,0,0,0,0,0,0,0,0,0,0,0,0,0,0,0],"id":20,"left_children":[1,3,5,7,9,11,13,15,17,19,21,23,25,27,29,-1,-1,-1,-1,-1,-1,-1,-1,-1,-1,-1,-1,-1,-1,-1,-1],"loss_changes":[2.6743953E3,3.7414697E2,4.57221E3,1.5897021E2,5.1604395E2,1.3360056E3,7.400845E2,2.6502255E2,4.9813843E1,4.8004646E1,1.7720044E2,5.8323486E2,2.1765908E3,5.7849414E2,1.942185E2,0E0,0E0,0E0,0E0,0E0,0E0,0E0,0E0,0E0,0E0,0E0,0E0,0E0,0E0,0E0,0E0],"parents":[2147483647,0,0,1,1,2,2,3,3,4,4,5,5,6,6,7,7,8,8,9,9,10,10,11,11,12,12,13,13,14,14],"right_children":[2,4,6,8,10,12,14,16,18,20,22,24,26,28,30,-1,-1,-1,-1,-1,-1,-1,-1,-1,-1,-1,-1,-1,-1,-1,-1],"split_conditions":[5E0,3E0,1.9E1,1E0,5E0,7E0,2.2E1,7E0,2E0,4E0,7E0,1.1E1,1E1,3E0,2.3E1,-1.2118949E-1,6.357185E-2,-1.07225336E-1,-1.7432866E-1,-5.7642918E-2,1.3779821E-2,-8.759036E-2,-2.0760238E-1,3.5038732E-2,9.368136E-2,-2.1298043E-1,3.9942086E-2,-9.008223E-2,2.0987734E-3,-7.324018E-2,-1.3086306E-1],"split_indices":[1,1,1,1,0,0,1,0,0,1,0,1,1,0,1,0,0,0,0,0,0,0,0,0,0,0,0,0,0,0,0],"split_type":[0,0,0,0,0,0,0,0,0,0,0,0,0,0,0,0,0,0,0,0,0,0,0,0,0,0,0,0,0,0,0],"sum_hessian":[1.8089E4,2.593E3,1.5496E4,1.32E3,1.273E3,9.813E3,5.683E3,5.7E2,7.5E2,6.99E2,5.74E2,7.874E3,1.939E3,3.285E3,2.398E3,4.78E2,9.2E1,1.43E2,6.07E2,1.11E2,5.88E2,3.94E2,1.8E2,2.475E3,5.399E3,4.39E2,1.5E3,9.62E2,2.323E3,1.37E3,1.028E3],"tree_param":{"num_deleted":"0","num_feature":"2","num_nodes":"31","size_leaf_vector":"1"}},{"base_weights":[-1.1250637E-3,2.0454146E-1,-5.862581E-1,-4.6493796E-1,6.0670096E-1,-9.093012E-1,-2.384467E-1,-2.4256523E-1,-1.5190887E0,8.695398E-1,1.3703129E-1,-6.760655E-1,-1.1387576E0,1.5975948E-1,-1.0473169E0,-1.2317878E-1,1.7022839E-2,6.846331E-3,-1.8744409E-1,4.6369087E-2,1.3438277E-1,4.4683065E-2,-3.7513446E-2,-1.0588687E-1,-4.9315542E-2,-1.3505088E-1,-9.213118E-2,1.2069058E-1,-1.6153863E-2,-6.8354525E-2,-1.3504192E-1],"categories":[],"categories_nodes":[],"categories_segments":[],"categories_sizes":[],"default_left":[0,0,0,0,0,0,0,0,0,0,0,0,0,0,0,0,0,0,0,0,0,0,0,0,0,0,0,0,0,0,0],"id":21,"left_children":[1,3,5,7,9,11,13,15,17,19,21,23,25,27,29,-1,-1,-1,-1,-1,-1,-1,-1,-1,-1,-1,-1,-1,-1,-1,-1],"loss_changes":[2.1771118E3,3.6042957E3,5.28428E2,1.1773295E3,1.0322712E3,1.2975928E2,7.303615E2,1.6948405E3,4.9375073E2,1.0315044E3,4.764908E2,8.434033E1,5.5298218E1,5.1159302E2,8.155139E1,0E0,0E0,0E0,0E0,0E0,0E0,0E0,0E0,0E0,0E0,0E0,0E0,0E0,0E0,0E0,0E0],"parents":[2147483647,0,0,1,1,2,2,3,3,4,4,5,5,6,6,7,7,8,8,9,9,10,10,11,11,12,12,13,13,14,14],"right_children":[2,4,6,8,10,12,14,16,18,20,22,24,26,28,30,-1,-1,-1,-1,-1,-1,-1,-1,-1,-1,-1,-1,-1,-1,-1,-1],"split_conditions":[2E1,1E1,5E0,7E0,1.7E1,2.2E1,7E0,4E0,2E0,1.4E1,6E0,2E0,3E0,2.1E1,2.2E1,-1.2317878E-1,1.7022839E-2,6.846331E-3,-1.8744409E-1,4.6369087E-2,1.3438277E-1,4.4683065E-2,-3.7513446E-2,-1.0588687E-1,-4.9315542E-2,-1.3505088E-1,-9.213118E-2,1.2069058E-1,-1.6153863E-2,-6.8354525E-2,-1.3504192E-1],"split_indices":[1,1,0,0,1,1,0,1,1,1,0,0,0,1,1,0,0,0,0,0,0,0,0,0,0,0,0,0,0,0,0],"split_type":[0,0,0,0,0,0,0,0,0,0,0,0,0,0,0,0,0,0,0,0,0,0,0,0,0,0,0,0,0,0,0],"sum_hessian":[1.8089E4,1.3385E4,4.704E3,5.023E3,8.362E3,2.438E3,2.266E3,4.149E3,8.74E2,5.361E3,3.001E3,1.211E3,1.227E3,1.519E3,7.47E2,1.221E3,2.928E3,1.6E2,7.14E2,2.89E3,2.471E3,1.87E3,1.131E3,3.9E2,8.21E2,6.19E2,6.08E2,3.56E2,1.163E3,3.41E2,4.06E2],"tree_param":{"num_deleted":"0","num_feature":"2","num_nodes":"31","size_leaf_vector":"1"}},{"base_weights":[-1.0446872E-3,-7.758403E-1,1.2864627E-1,-1.0708331E0,-4.693556E-1,4.6686697E-1,-4.5534855E-1,-7.1987075E-1,-1.3362508E0,2.6517557E-2,-1.072211E0,7.357682E-1,5.8392692E-2,-7.556566E-1,-1.4291655E-1,-9.680366E-2,5.6605726E-2,-1.5287045E-1,-9.994967E-2,-4.4642296E-2,1.6861375E-2,-7.895429E-2,-1.6831598E-1,3.675717E-2,1.2029318E-1,-3.3478013E-1,2.4551015E-2,-5.572176E-2,-1.025067E-1,8.185613E-3,-1.06772795E-1],"categories":[],"categories_nodes":[],"categories_segments":[],"categories_sizes":[],"default_left":[0,0,0,0,0,0,0,0,0,0,0,0,0,0,0,0,0,0,0,0,0,0,0,0,0,0,0,0,0,0,0],"id":22,"left_children":[1,3,5,7,9,11,13,15,17,19,21,23,25,27,29,-1,-1,-1,-1,-1,-1,-1,-1,-1,-1,-1,-1,-1,-1,-1,-1],"loss_changes":[1.817855E3,2.3402295E2,3.0611667E3,1.2209143E2,3.8087772E2,1.0779192E3,5.33198E2,1.8276743E2,4.7144043E1,4.71174E1,9.797119E1,1.017501E3,2.4846074E3,1.5436035E2,5.7942755E2,0E0,0E0,0E0,0E0,0E0,0E0,0E0,0E0,0E0,0E0,0E0,0E0,0E0,0E0,0E0,0E0],"parents":[2147483647,0,0,1,1,2,2,3,3,4,4,5,5,6,6,7,7,8,8,9,9,10,10,11,11,12,12,13,13,14,14],"right_children":[2,4,6,8,10,12,14,16,18,20,22,24,26,28,30,-1,-1,-1,-1,-1,-1,-1,-1,-1,-1,-1,-1,-1,-1,-1,-1],"split_conditions":[5E0,3E0,1.9E1,1E0,5E0,6E0,5E0,7E0,6E0,2E0,7E0,1.4E1,7E0,2.2E1,2.3E1,-9.680366E-2,5.6605726E-2,-1.5287045E-1,-9.994967E-2,-4.4642296E-2,1.6861375E-2,-7.895429E-2,-1.6831598E-1,3.675717E-2,1.2029318E-1,-3.3478013E-1,2.4551015E-2,-5.572176E-2,-1.025067E-1,8.185613E-3,-1.06772795E-1],"split_indices":[1,1,1,1,0,0,0,0,0,0,0,1,1,1,1,0,0,0,0,0,0,0,0,0,0,0,0,0,0,0,0],"split_type":[0,0,0,0,0,0,0,0,0,0,0,0,0,0,0,0,0,0,0,0,0,0,0,0,0,0,0,0,0,0,0],"sum_hessian":[1.8089E4,2.593E3,1.5496E4,1.32E3,1.273E3,9.813E3,5.683E3,5.7E2,7.5E2,6.99E2,5.74E2,5.917E3,3.896E3,2.897E3,2.786E3,4.78E2,9.2E1,4.75E2,2.75E2,1.61E2,5.38E2,3.94E2,1.8E2,3.31E3,2.607E3,2.02E2,3.694E3,1.67E3,1.227E3,2.242E3,5.44E2],"tree_param":{"num_deleted":"0","num_feature":"2","num_nodes":"31","size_leaf_vector":"1"}},{"base_weights":[-9.94158E-4,-6.9847506E-1,1.15755305E-1,-9.639716E-1,-4.226356E-1,4.2016482E-1,-4.0985882E-1,-6.479541E-1,-1.2029624E0,2.382646E-2,-9.6541965E-1,6.622184E-1,5.247344E-2,-8.672324E-1,-2.334087E-1,-1.0809741E-1,-2.8705494E-3,-6.916405E-2,-1.3220863E-1,-4.020561E-2,1.5178407E-2,-7.10788E-2,-1.5157738E-1,3.308263E-2,1.08268514E-1,-3.0146706E-1,2.209654E-2,-7.078859E-2,-1.1133345E-1,-8.234929E-3,-9.042518E-2],"categories":[],"categories_nodes":[],"categories_segments":[],"categories_sizes":[],"default_left":[0,0,0,0,0,0,0,0,0,0,0,0,0,0,0,0,0,0,0,0,0,0,0,0,0,0,0,0,0,0,0],"id":23,"left_children":[1,3,5,7,9,11,13,15,17,19,21,23,25,27,29,-1,-1,-1,-1,-1,-1,-1,-1,-1,-1,-1,-1,-1,-1,-1,-1],"loss_changes":[1.473159E3,1.8956262E2,2.4797222E3,9.89895E1,3.0875458E2,8.7342114E2,4.5851685E2,1.5308093E2,4.4829468E1,3.8207462E1,7.950171E1,8.2425195E2,2.0145934E3,6.1250854E1,4.157119E2,0E0,0E0,0E0,0E0,0E0,0E0,0E0,0E0,0E0,0E0,0E0,0E0,0E0,0E0,0E0,0E0],"parents":[2147483647,0,0,1,1,2,2,3,3,4,4,5,5,6,6,7,7,8,8,9,9,10,10,11,11,12,12,13,13,14,14],"right_children":[2,4,6,8,10,12,14,16,18,20,22,24,26,28,30,-1,-1,-1,-1,-1,-1,-1,-1,-1,-1,-1,-1,-1,-1,-1,-1],"split_conditions":[5E0,3E0,1.9E1,1E0,5E0,6E0,3E0,5E0,2E0,2E0,7E0,1.4E1,7E0,2.2E1,2.3E1,-1.0809741E-1,-2.8705494E-3,-6.916405E-2,-1.3220863E-1,-4.020561E-2,1.5178407E-2,-7.10788E-2,-1.5157738E-1,3.308263E-2,1.08268514E-1,-3.0146706E-1,2.209654E-2,-7.078859E-2,-1.1133345E-1,-8.234929E-3,-9.042518E-2],"split_indices":[1,1,1,1,0,0,0,0,0,0,0,1,1,1,1,0,0,0,0,0,0,0,0,0,0,0,0,0,0,0,0],"split_type":[0,0,0,0,0,0,0,0,0,0,0,0,0,0,0,0,0,0,0,0,0,0,0,0,0,0,0,0,0,0,0],"sum_hessian":[1.8089E4,2.593E3,1.5496E4,1.32E3,1.273E3,9.813E3,5.683E3,5.7E2,7.5E2,6.99E2,5.74E2,5.917E3,3.896E3,1.581E3,4.102E3,3.35E2,2.35E2,1.43E2,6.07E2,1.61E2,5.38E2,3.94E2,1.8E2,3.31E3,2.607E3,2.02E2,3.694E3,9.62E2,6.19E2,3.349E3,7.53E2],"tree_param":{"num_deleted":"0","num_feature":"2","num_nodes":"31","size_leaf_vector":"1"}},{"base_weights":[-9.489714E-4,9.990383E-2,-6.6063267E-1,-6.288434E-1,2.442103E-1,-8.316582E-1,-3.265945E-1,-8.678109E-1,-3.8056642E-1,4.5750958E-1,-6.895326E-2,-7.203056E-1,-1.0021724E0,4.601019E-1,-1.1144214E-1,-1.15696505E-1,-6.481608E-2,2.14079E-3,-8.692646E-2,1.7468793E-2,1.0661004E-1,-6.668917E-2,3.0959286E-3,-9.004965E-2,-4.9296312E-2,-9.092439E-2,-1.3169448E-1,1.10755704E-1,-2.3898741E-2],"categories":[],"categories_nodes":[],"categories_segments":[],"categories_sizes":[],"default_left":[0,0,0,0,0,0,0,0,0,0,0,0,0,0,0,0,0,0,0,0,0,0,0,0,0,0,0,0,0],"id":24,"left_children":[1,3,5,7,9,11,13,15,17,19,21,23,25,27,-1,-1,-1,-1,-1,-1,-1,-1,-1,-1,-1,-1,-1,-1,-1],"loss_changes":[1.203611E3,1.6503705E3,1.3678088E2,1.5357214E2,8.7501276E2,2.9391846E1,5.050141E2,8.315033E1,2.5028839E2,1.3409935E3,3.171288E2,3.900537E1,1.7055359E1,1.8493729E2,0E0,0E0,0E0,0E0,0E0,0E0,0E0,0E0,0E0,0E0,0E0,0E0,0E0,0E0,0E0],"parents":[2147483647,0,0,1,1,2,2,3,3,4,4,5,5,6,6,7,7,8,8,9,9,10,10,11,11,12,12,13,13],"right_children":[2,4,6,8,10,12,14,16,18,20,22,24,26,28,-1,-1,-1,-1,-1,-1,-1,-1,-1,-1,-1,-1,-1,-1,-1],"split_conditions":[2.2E1,5E0,6E0,3E0,1.7E1,2.3E1,7E0,4E0,5E0,1.4E1,2E0,4E0,5E0,2.3E1,-1.1144214E-1,-1.15696505E-1,-6.481608E-2,2.14079E-3,-8.692646E-2,1.7468793E-2,1.0661004E-1,-6.668917E-2,3.0959286E-3,-9.004965E-2,-4.9296312E-2,-9.092439E-2,-1.3169448E-1,1.10755704E-1,-2.3898741E-2],"split_indices":[1,1,0,1,1,1,0,0,0,1,0,0,0,1,0,0,0,0,0,0,0,0,0,0,0,0,0,0,0],"split_type":[0,0,0,0,0,0,0,0,0,0,0,0,0,0,0,0,0,0,0,0,0,0,0,0,0,0,0,0,0],"sum_hessian":[1.8089E4,1.5691E4,2.398E3,2.593E3,1.3098E4,1.585E3,8.13E2,1.32E3,1.273E3,7.791E3,5.307E3,9.62E2,6.23E2,4.07E2,4.06E2,5.68E2,7.52E2,6.99E2,5.74E2,5.32E3,2.471E3,7.59E2,4.548E3,5.35E2,4.27E2,4.84E2,1.39E2,2.11E2,1.96E2],"tree_param":{"num_deleted":"0","num_feature":"2","num_nodes":"29","size_leaf_vector":"1"}},{"base_weights":[-8.8675454E-4,1.3767064E-1,-3.9509046E-1,-3.2091647E-1,4.1314644E-1,-6.2809855E-1,-1.442295E-1,-1.4090689E-1,-1.1743096E0,6.25227E-1,3.4202687E-2,-4.8883122E-1,-7.650398E-1,1.9266972E-1,-8.286447E-1,-8.284888E-2,1.4600535E-2,-2.5597518E-2,-1.6578715E-1,3.391556E-2,9.595342E-2,2.7922768E-2,-3.708114E-2,-7.605475E-2,-3.589895E-2,-9.1188826E-2,-6.1428275E-2,1.0835159E-1,-8.071924E-3,-1.2957399E-1,-6.973048E-2],"categories":[],"categories_nodes":[],"categories_segments":[],"categories_sizes":[],"default_left":[0,0,0,0,0,0,0,0,0,0,0,0,0,0,0,0,0,0,0,0,0,0,0,0,0,0,0,0,0,0,0],"id":25,"left_children":[1,3,5,7,9,11,13,15,17,19,21,23,25,27,29,-1,-1,-1,-1,-1,-1,-1,-1,-1,-1,-1,-1,-1,-1,-1,-1],"loss_changes":[9.8812726E2,1.6911813E3,2.7492902E2,7.7161615E2,6.7208435E2,4.6141296E1,5.2288214E2,8.188149E2,3.881383E2,5.124734E2,2.9801776E2,4.248651E1,2.6625854E1,3.7027966E2,4.4984985E1,0E0,0E0,0E0,0E0,0E0,0E0,0E0,0E0,0E0,0E0,0E0,0E0,0E0,0E0,0E0,0E0],"parents":[2147483647,0,0,1,1,2,2,3,3,4,4,5,5,6,6,7,7,8,8,9,9,10,10,11,11,12,12,13,13,14,14],"right_children":[2,4,6,8,10,12,14,16,18,20,22,24,26,28,30,-1,-1,-1,-1,-1,-1,-1,-1,-1,-1,-1,-1,-1,-1,-1,-1],"split_conditions":[2E1,1E1,5E0,7E0,1.7E1,2.2E1,7E0,4E0,4E0,1.4E1,6E0,2E0,3E0,2.1E1,2.1E1,-8.284888E-2,1.4600535E-2,-2.5597518E-2,-1.6578715E-1,3.391556E-2,9.595342E-2,2.7922768E-2,-3.708114E-2,-7.605475E-2,-3.589895E-2,-9.1188826E-2,-6.1428275E-2,1.0835159E-1,-8.071924E-3,-1.2957399E-1,-6.973048E-2],"split_indices":[1,1,0,0,1,1,0,1,1,1,0,0,0,1,1,0,0,0,0,0,0,0,0,0,0,0,0,0,0,0,0],"split_type":[0,0,0,0,0,0,0,0,0,0,0,0,0,0,0,0,0,0,0,0,0,0,0,0,0,0,0,0,0,0,0],"sum_hessian":[1.8089E4,1.3385E4,4.704E3,5.023E3,8.362E3,2.438E3,2.266E3,4.149E3,8.74E2,5.361E3,3.001E3,1.211E3,1.227E3,1.519E3,7.47E2,1.221E3,2.928E3,3.02E2,5.72E2,2.89E3,2.471E3,1.87E3,1.131E3,3.9E2,8.21E2,6.19E2,6.08E2,3.56E2,1.163E3,1.62E2,5.85E2],"tree_param":{"num_deleted":"0","num_feature":"2","num_nodes":"31","size_leaf_vector":"1"}},{"base_weights":[-8.2604075E-4,-5.2085805E-1,8.6220734E-2,-7.0943195E-1,-3.249185E-1,3.4428504E-1,-2.6253742E-1,-4.2307258E-1,-9.2621195E-1,2.0142686E-2,-7.444279E-1,4.9562728E-1,-2.6409158E-1,-1.0300628E-1,-5.4125834E-1,-6.21278E-2,6.023412E-2,-4.257903E-2,-1.0432096E-1,-3.6670603E-2,1.3637525E-2,-7.716407E-3,-8.7136604E-2,2.1802083E-2,6.4308494E-2,-1.4596798E-1,1.2986267E-2,-3.399126E-2,1.3805183E-2,-6.877597E-2,-2.551498E-2],"categories":[],"categories_nodes":[],"categories_segments":[],"categories_sizes":[],"default_left":[0,0,0,0,0,0,0,0,0,0,0,0,0,0,0,0,0,0,0,0,0,0,0,0,0,0,0,0,0,0,0],"id":26,"left_children":[1,3,5,7,9,11,13,15,17,19,21,23,25,27,29,-1,-1,-1,-1,-1,-1,-1,-1,-1,-1,-1,-1,-1,-1,-1,-1],"loss_changes":[8.189269E2,9.561542E1,1.3948517E3,8.161188E1,1.8443466E2,8.202258E2,2.930109E2,1.1642576E2,4.352539E1,3.1525099E1,4.8635956E1,2.918507E2,8.362269E2,2.3950151E2,1.0037921E2,0E0,0E0,0E0,0E0,0E0,0E0,0E0,0E0,0E0,0E0,0E0,0E0,0E0,0E0,0E0,0E0],"parents":[2147483647,0,0,1,1,2,2,3,3,4,4,5,5,6,6,7,7,8,8,9,9,10,10,11,11,12,12,13,13,14,14],"right_children":[2,4,6,8,10,12,14,16,18,20,22,24,26,28,30,-1,-1,-1,-1,-1,-1,-1,-1,-1,-1,-1,-1,-1,-1,-1,-1],"split_conditions":[5E0,3E0,1.8E1,1E0,5E0,7E0,2.2E1,7E0,2E0,2E0,4E0,1.1E1,1E1,5E0,6E0,-6.21278E-2,6.023412E-2,-4.257903E-2,-1.0432096E-1,-3.6670603E-2,1.3637525E-2,-7.716407E-3,-8.7136604E-2,2.1802083E-2,6.4308494E-2,-1.4596798E-1,1.2986267E-2,-3.399126E-2,1.3805183E-2,-6.877597E-2,-2.551498E-2],"split_indices":[1,1,1,1,0,0,1,0,0,0,1,1,1,0,0,0,0,0,0,0,0,0,0,0,0,0,0,0,0,0,0],"split_type":[0,0,0,0,0,0,0,0,0,0,0,0,0,0,0,0,0,0,0,0,0,0,0,0,0,0,0,0,0,0,0],"sum_hessian":[1.8089E4,2.593E3,1.5496E4,1.32E3,1.273E3,8.906E3,6.59E3,5.7E2,7.5E2,6.99E2,5.74E2,7.132E3,1.774E3,4.192E3,2.398E3,4.78E2,9.2E1,1.43E2,6.07E2,1.61E2,5.38E2,9.2E1,4.82E2,2.475E3,4.657E3,4.39E2,1.335E3,2.114E3,2.078E3,1.585E3,8.13E2],"tree_param":{"num_deleted":"0","num_feature":"2","num_nodes":"31","size_leaf_vector":"1"}},{"base_weights":[-7.6723367E-4,-4.6887508E-1,7.7588096E-2,-6.3860136E-1,-2.9251924E-1,3.0985114E-1,-2.3630123E-1,-3.807686E-1,-8.3378637E-1,8.814496E-2,-6.0578114E-1,5.389989E-1,-2.7785745E-2,-1.5108837E-1,-6.9675094E-1,-7.2647564E-2,1.1303793E-2,-3.835071E-2,-9.390601E-2,-3.3026163E-2,2.5126237E-2,-4.37806E-2,-1.0840868E-1,2.1552572E-2,1.07531205E-1,-2.5813526E-1,1.2468539E-2,-3.787866E-2,8.945579E-3,-1.06146075E-1,-6.497016E-2],"categories":[],"categories_nodes":[],"categories_segments":[],"categories_sizes":[],"default_left":[0,0,0,0,0,0,0,0,0,0,0,0,0,0,0,0,0,0,0,0,0,0,0,0,0,0,0,0,0,0,0],"id":27,"left_children":[1,3,5,7,9,11,13,15,17,19,21,23,25,27,29,-1,-1,-1,-1,-1,-1,-1,-1,-1,-1,-1,-1,-1,-1,-1,-1],"loss_changes":[6.635549E2,7.74574E1,1.1298804E3,6.616193E1,1.5197482E2,6.8913837E2,2.5850073E2,9.755889E1,3.5239197E1,3.939463E1,5.5685455E1,9.2026855E2,1.4027434E3,3.0472757E2,1.6967285E1,0E0,0E0,0E0,0E0,0E0,0E0,0E0,0E0,0E0,0E0,0E0,0E0,0E0,0E0,0E0,0E0],"parents":[2147483647,0,0,1,1,2,2,3,3,4,4,5,5,6,6,7,7,8,8,9,9,10,10,11,11,12,12,13,13,14,14],"right_children":[2,4,6,8,10,12,14,16,18,20,22,24,26,28,30,-1,-1,-1,-1,-1,-1,-1,-1,-1,-1,-1,-1,-1,-1,-1,-1],"split_conditions":[5E0,3E0,1.8E1,1E0,4E0,6E0,2.3E1,5E0,2E0,2E0,7E0,1.4E1,7E0,5E0,2E0,-7.2647564E-2,1.1303793E-2,-3.835071E-2,-9.390601E-2,-3.3026163E-2,2.5126237E-2,-4.37806E-2,-1.0840868E-1,2.1552572E-2,1.07531205E-1,-2.5813526E-1,1.2468539E-2,-3.787866E-2,8.945579E-3,-1.06146075E-1,-6.497016E-2],"split_indices":[1,1,1,1,0,0,1,0,0,0,0,1,1,0,0,0,0,0,0,0,0,0,0,0,0,0,0,0,0,0,0],"split_type":[0,0,0,0,0,0,0,0,0,0,0,0,0,0,0,0,0,0,0,0,0,0,0,0,0,0,0,0,0,0,0],"sum_hessian":[1.8089E4,2.593E3,1.5496E4,1.32E3,1.273E3,8.906E3,6.59E3,5.7E2,7.5E2,5.75E2,6.98E2,5.305E3,3.601E3,5.562E3,1.028E3,3.35E2,2.35E2,1.43E2,6.07E2,1.61E2,4.14E2,5.18E2,1.8E2,3.31E3,1.995E3,2.02E2,3.399E3,2.857E3,2.705E3,1.15E2,9.13E2],"tree_param":{"num_deleted":"0","num_feature":"2","num_nodes":"31","size_leaf_vector":"1"}},{"base_weights":[-7.275294E-4,6.7646235E-2,-4.4796404E-1,-4.221241E-1,1.6463047E-1,-3.5967276E-1,-8.792087E-2,-5.748878E-1,-2.6339328E-1,3.173616E-1,-5.9605684E-2,-5.740104E-1,4.743937E-1,-8.180246E-2,-3.9039955E-2,7.93164E-3,-5.4542102E-2,1.1721234E-2,7.480561E-2,-5.3960044E-2,2.059999E-3,-4.926628E-2,-6.986317E-2,1.0218483E-1,-1.1715341E-2],"categories":[],"categories_nodes":[],"categories_segments":[],"categories_sizes":[],"default_left":[0,0,0,0,0,0,0,0,0,0,0,0,0,0,0,0,0,0,0,0,0,0,0,0,0],"id":28,"left_children":[1,3,5,7,9,11,-1,13,15,17,19,21,23,-1,-1,-1,-1,-1,-1,-1,-1,-1,-1,-1,-1],"loss_changes":[5.532088E2,7.454396E2,9.102603E1,6.274878E1,4.4863132E2,3.565645E2,0E0,5.893524E1,1.2317997E2,6.7160754E2,2.043601E2,1.573407E1,1.3224857E2,0E0,0E0,0E0,0E0,0E0,0E0,0E0,0E0,0E0,0E0,0E0,0E0],"parents":[2147483647,0,0,1,1,2,2,3,3,4,4,5,5,7,7,8,8,9,9,10,10,11,11,12,12],"right_children":[2,4,6,8,10,12,-1,14,16,18,20,22,24,-1,-1,-1,-1,-1,-1,-1,-1,-1,-1,-1,-1],"split_conditions":[2.2E1,5E0,7E0,3E0,1.7E1,6E0,-8.792087E-2,4E0,4E0,1.4E1,2E0,2.3E1,2.3E1,-8.180246E-2,-3.9039955E-2,7.93164E-3,-5.4542102E-2,1.1721234E-2,7.480561E-2,-5.3960044E-2,2.059999E-3,-4.926628E-2,-6.986317E-2,1.0218483E-1,-1.1715341E-2],"split_indices":[1,1,0,1,1,0,0,0,0,1,0,1,1,0,0,0,0,0,0,0,0,0,0,0,0],"split_type":[0,0,0,0,0,0,0,0,0,0,0,0,0,0,0,0,0,0,0,0,0,0,0,0,0],"sum_hessian":[1.8089E4,1.5691E4,2.398E3,2.593E3,1.3098E4,1.992E3,4.06E2,1.32E3,1.273E3,7.791E3,5.307E3,1.585E3,4.07E2,5.68E2,7.52E2,5.75E2,6.98E2,5.32E3,2.471E3,7.59E2,4.548E3,9.62E2,6.23E2,2.11E2,1.96E2],"tree_param":{"num_deleted":"0","num_feature":"2","num_nodes":"25","size_leaf_vector":"1"}},{"base_weights":[-6.685022E-4,9.3448274E-2,-2.684361E-1,-2.156516E-1,2.791262E-1,-3.9808512E-1,-1.321959E-2,-7.67223E-2,-8.74327E-1,4.3331897E-1,3.6228835E-3,-2.75286E-1,-5.166845E-1,5.812465E-1,-6.799894E-1,-5.6361444E-2,1.2643881E-2,-5.4627873E-2,-2.251612E-1,2.279861E-2,6.732801E-2,2.2905242E-2,-3.689763E-2,-4.337233E-2,-4.3282663E-3,-6.363874E-2,-4.394016E-2,7.907448E-2,-1.0549795E-2,-1.19161956E-1,-5.3651553E-2],"categories":[],"categories_nodes":[],"categories_segments":[],"categories_sizes":[],"default_left":[0,0,0,0,0,0,0,0,0,0,0,0,0,0,0,0,0,0,0,0,0,0,0,0,0,0,0,0,0,0,0],"id":29,"left_children":[1,3,5,7,9,11,13,15,17,19,21,23,25,27,29,-1,-1,-1,-1,-1,-1,-1,-1,-1,-1,-1,-1,-1,-1,-1,-1],"loss_changes":[4.559188E2,7.683232E2,1.5567645E2,4.5967572E2,3.5526392E2,4.529709E1,6.290413E2,4.105791E2,3.94109E2,2.640426E2,2.5223706E2,5.6404724E1,1.4392456E1,1.2079184E2,5.4268005E1,0E0,0E0,0E0,0E0,0E0,0E0,0E0,0E0,0E0,0E0,0E0,0E0,0E0,0E0,0E0,0E0],"parents":[2147483647,0,0,1,1,2,2,3,3,4,4,5,5,6,6,7,7,8,8,9,9,10,10,11,11,12,12,13,13,14,14],"right_children":[2,4,6,8,10,12,14,16,18,20,22,24,26,28,30,-1,-1,-1,-1,-1,-1,-1,-1,-1,-1,-1,-1,-1,-1,-1,-1],"split_conditions":[2E1,1E1,6E0,7E0,1.7E1,2.2E1,7E0,4E0,9E0,1.4E1,6E0,4E0,3E0,2.3E1,2.1E1,-5.6361444E-2,1.2643881E-2,-5.4627873E-2,-2.251612E-1,2.279861E-2,6.732801E-2,2.2905242E-2,-3.689763E-2,-4.337233E-2,-4.3282663E-3,-6.363874E-2,-4.394016E-2,7.907448E-2,-1.0549795E-2,-1.19161956E-1,-5.3651553E-2],"split_indices":[1,1,0,0,1,1,0,1,1,1,0,0,0,1,1,0,0,0,0,0,0,0,0,0,0,0,0,0,0,0,0],"split_type":[0,0,0,0,0,0,0,0,0,0,0,0,0,0,0,0,0,0,0,0,0,0,0,0,0,0,0,0,0,0,0],"sum_hessian":[1.8089E4,1.3385E4,4.704E3,5.023E3,8.362E3,3.119E3,1.585E3,4.149E3,8.74E2,5.361E3,3.001E3,1.534E3,1.585E3,8.38E2,7.47E2,1.221E3,2.928E3,7.07E2,1.67E2,2.89E3,2.471E3,1.87E3,1.131E3,9.11E2,6.23E2,6.19E2,9.66E2,6.42E2,1.96E2,1.62E2,5.85E2],"tree_param":{"num_deleted":"0","num_feature":"2","num_nodes":"31","size_leaf_vector":"1"}},{"base_weights":[-6.296157E-4,5.5246133E-2,-3.661159E-1,-3.488531E-1,1.3526584E-1,-2.8999117E-1,-7.379845E-2,-4.615064E-1,-2.3177004E-1,2.1465845E-1,-2.0561562E-1,-4.6508384E-1,3.913495E-1,-2.292714E-2,-6.3746475E-2,2.0049245E-3,-5.379296E-2,-8.433747E-3,3.5458434E-2,-1.1519134E-1,-1.0102105E-4,-3.925165E-2,-5.763295E-2,8.414434E-2,-9.500201E-3],"categories":[],"categories_nodes":[],"categories_segments":[],"categories_sizes":[],"default_left":[0,0,0,0,0,0,0,0,0,0,0,0,0,0,0,0,0,0,0,0,0,0,0,0,0],"id":30,"left_children":[1,3,5,7,9,11,-1,13,15,17,19,21,23,-1,-1,-1,-1,-1,-1,-1,-1,-1,-1,-1,-1],"loss_changes":[3.6945096E2,5.0746222E2,6.7697876E1,3.410736E1,3.5454852E2,2.3794243E2,0E0,5.3834747E1,9.82322E1,4.4455084E2,4.7920258E2,1.25772705E1,8.939269E1,0E0,0E0,0E0,0E0,0E0,0E0,0E0,0E0,0E0,0E0,0E0,0E0],"parents":[2147483647,0,0,1,1,2,2,3,3,4,4,5,5,7,7,8,8,9,9,10,10,11,11,12,12],"right_children":[2,4,6,8,10,12,-1,14,16,18,20,22,24,-1,-1,-1,-1,-1,-1,-1,-1,-1,-1,-1,-1],"split_conditions":[2.2E1,5E0,7E0,3E0,7E0,6E0,-7.379845E-2,1E0,5E0,3E0,1E1,2.3E1,2.3E1,-2.292714E-2,-6.3746475E-2,2.0049245E-3,-5.379296E-2,-8.433747E-3,3.5458434E-2,-1.1519134E-1,-1.0102105E-4,-3.925165E-2,-5.763295E-2,8.414434E-2,-9.500201E-3],"split_indices":[1,1,0,1,0,0,0,1,0,0,1,1,1,0,0,0,0,0,0,0,0,0,0,0,0],"split_type":[0,0,0,0,0,0,0,0,0,0,0,0,0,0,0,0,0,0,0,0,0,0,0,0,0],"sum_hessian":[1.8089E4,1.5691E4,2.398E3,2.593E3,1.3098E4,1.992E3,4.06E2,1.32E3,1.273E3,1.0624E4,2.474E3,1.585E3,4.07E2,5.7E2,7.5E2,6.99E2,5.74E2,3.387E3,7.237E3,4.39E2,2.035E3,9.62E2,6.23E2,2.11E2,1.96E2],"tree_param":{"num_deleted":"0","num_feature":"2","num_nodes":"25","size_leaf_vector":"1"}},{"base_weights":[-5.8422127E-4,8.047651E-2,-2.3120661E-1,-1.7427298E-1,2.3350544E-1,-3.4220335E-1,-1.27065675E-2,4.8568944E-4,-5.2970034E-1,3.717336E-1,-1.3467574E-2,-5.3147805E-1,-2.8883907E-1,4.8604584E-1,-5.7211906E-1,-3.228607E-2,3.778961E-2,-7.315804E-2,-1.1053652E-3,1.8645497E-2,5.8826633E-2,1.896046E-2,-3.4909878E-2,-4.826672E-2,-7.6674275E-2,5.479378E-5,-3.6433164E-2,6.604133E-2,-8.554968E-3,-1.0730886E-1,-4.317946E-2],"categories":[],"categories_nodes":[],"categories_segments":[],"categories_sizes":[],"default_left":[0,0,0,0,0,0,0,0,0,0,0,0,0,0,0,0,0,0,0,0,0,0,0,0,0,0,0,0,0,0,0],"id":31,"left_children":[1,3,5,7,9,11,13,15,17,19,21,23,25,27,29,-1,-1,-1,-1,-1,-1,-1,-1,-1,-1,-1,-1,-1,-1,-1,-1],"loss_changes":[3.3820062E2,5.218811E2,1.1410506E2,3.1206107E2,2.8550638E2,3.1360046E1,4.427853E2,4.1125555E2,1.7338242E2,2.1500775E2,2.0467456E2,7.496109E0,5.321843E1,8.367766E1,5.211972E1,0E0,0E0,0E0,0E0,0E0,0E0,0E0,0E0,0E0,0E0,0E0,0E0,0E0,0E0,0E0,0E0],"parents":[2147483647,0,0,1,1,2,2,3,3,4,4,5,5,6,6,7,7,8,8,9,9,10,10,11,11,12,12,13,13,14,14],"right_children":[2,4,6,8,10,12,14,16,18,20,22,24,26,28,30,-1,-1,-1,-1,-1,-1,-1,-1,-1,-1,-1,-1,-1,-1,-1,-1],"split_conditions":[2E1,1E1,6E0,6E0,1.7E1,2E0,7E0,5E0,8E0,1.4E1,6E0,2.3E1,2.1E1,2.3E1,2.1E1,-3.228607E-2,3.778961E-2,-7.315804E-2,-1.1053652E-3,1.8645497E-2,5.8826633E-2,1.896046E-2,-3.4909878E-2,-4.826672E-2,-7.6674275E-2,5.479378E-5,-3.6433164E-2,6.604133E-2,-8.554968E-3,-1.0730886E-1,-4.317946E-2],"split_indices":[1,1,0,0,1,0,0,1,1,1,0,1,1,1,1,0,0,0,0,0,0,0,0,0,0,0,0,0,0,0,0],"split_type":[0,0,0,0,0,0,0,0,0,0,0,0,0,0,0,0,0,0,0,0,0,0,0,0,0,0,0,0,0,0,0],"sum_hessian":[1.8089E4,1.3385E4,4.704E3,5.023E3,8.362E3,3.119E3,1.585E3,3.368E3,1.655E3,5.361E3,3.001E3,6.84E2,2.435E3,8.38E2,7.47E2,1.814E3,1.554E3,1.191E3,4.64E2,2.89E3,2.471E3,1.87E3,1.131E3,5.69E2,1.15E2,5.04E2,1.931E3,6.42E2,1.96E2,1.62E2,5.85E2],"tree_param":{"num_deleted":"0","num_feature":"2","num_nodes":"31","size_leaf_vector":"1"}},{"base_weights":[-5.4035E-4,7.242817E-2,-2.0813993E-1,-1.5685956E-1,2.1016212E-1,-3.0803466E-1,-1.14944605E-2,-5.2356727E-2,-6.523223E-1,3.345744E-1,-1.2125936E-2,-4.7851273E-1,-2.5996998E-1,4.3751E-1,-5.151084E-1,-5.8308154E-2,6.5267803E-3,-3.524502E-2,-1.9121861E-1,2.0859255E-2,5.989429E-2,1.7065436E-2,-3.142194E-2,-4.3448526E-2,-6.9072954E-2,4.9363694E-5,-3.279173E-2,5.9447497E-2,-7.7038105E-3,-9.664386E-2,-3.8868878E-2],"categories":[],"categories_nodes":[],"categories_segments":[],"categories_sizes":[],"default_left":[0,0,0,0,0,0,0,0,0,0,0,0,0,0,0,0,0,0,0,0,0,0,0,0,0,0,0,0,0,0,0],"id":32,"left_children":[1,3,5,7,9,11,13,15,17,19,21,23,25,27,29,-1,-1,-1,-1,-1,-1,-1,-1,-1,-1,-1,-1,-1,-1,-1,-1],"loss_changes":[2.740466E2,4.2277228E2,9.2420746E1,2.6009482E2,2.3128586E2,2.5440796E1,3.588595E2,2.5910703E2,3.2989932E2,1.7845984E2,1.6581427E2,6.1000977E0,4.3112E1,6.78085E1,4.2302994E1,0E0,0E0,0E0,0E0,0E0,0E0,0E0,0E0,0E0,0E0,0E0,0E0,0E0,0E0,0E0,0E0],"parents":[2147483647,0,0,1,1,2,2,3,3,4,4,5,5,6,6,7,7,8,8,9,9,10,10,11,11,12,12,13,13,14,14],"right_children":[2,4,6,8,10,12,14,16,18,20,22,24,26,28,30,-1,-1,-1,-1,-1,-1,-1,-1,-1,-1,-1,-1,-1,-1,-1,-1],"split_conditions":[2E1,1E1,6E0,7E0,1.7E1,2E0,7E0,2E0,9E0,1.5E1,6E0,2.3E1,2.1E1,2.3E1,2.1E1,-5.8308154E-2,6.5267803E-3,-3.524502E-2,-1.9121861E-1,2.0859255E-2,5.989429E-2,1.7065436E-2,-3.142194E-2,-4.3448526E-2,-6.9072954E-2,4.9363694E-5,-3.279173E-2,5.9447497E-2,-7.7038105E-3,-9.664386E-2,-3.8868878E-2],"split_indices":[1,1,0,0,1,0,0,0,1,1,0,1,1,1,1,0,0,0,0,0,0,0,0,0,0,0,0,0,0,0,0],"split_type":[0,0,0,0,0,0,0,0,0,0,0,0,0,0,0,0,0,0,0,0,0,0,0,0,0,0,0,0,0,0,0],"sum_hessian":[1.8089E4,1.3385E4,4.704E3,5.023E3,8.362E3,3.119E3,1.585E3,4.149E3,8.74E2,5.361E3,3.001E3,6.84E2,2.435E3,8.38E2,7.47E2,7.52E2,3.397E3,7.07E2,1.67E2,3.632E3,1.729E3,1.87E3,1.131E3,5.69E2,1.15E2,5.04E2,1.931E3,6.42E2,1.96E2,1.62E2,5.85E2],"tree_param":{"num_deleted":"0","num_feature":"2","num_nodes":"31","size_leaf_vector":"1"}},{"base_weights":[-5.1062123E-4,6.5169595E-2,-1.8737458E-1,-1.8907973E-1,1.6724047E-1,-3.484549E-1,-8.843042E-2,1.5837917E-2,-6.4345324E-1,-9.969115E-2,2.525927E-1,-6.343482E-1,-2.6278666E-1,4.1052755E-2,-4.637788E-1,-2.8225554E-2,6.676738E-2,-2.0320773E-2,-1.4733516E-1,-1.6775654E-1,2.0617504E-2,1.0093981E-1,1.1065027E-2,-4.970073E-2,-9.890025E-2,-7.6804585E-3,-3.684911E-2,5.7559103E-2,-1.1528991E-2,-8.703879E-2,-3.498862E-2],"categories":[],"categories_nodes":[],"categories_segments":[],"categories_sizes":[],"default_left":[0,0,0,0,0,0,0,0,0,0,0,0,0,0,0,0,0,0,0,0,0,0,0,0,0,0,0,0,0,0,0],"id":33,"left_children":[1,3,5,7,9,11,13,15,17,19,21,23,25,27,29,-1,-1,-1,-1,-1,-1,-1,-1,-1,-1,-1,-1,-1,-1,-1,-1],"loss_changes":[2.2203558E2,3.4741772E2,7.4957275E1,3.570838E2,2.1765042E2,4.367395E1,1.4174042E2,5.139388E2,4.3520853E2,1.1176074E3,7.7741455E2,1.95764E1,2.7081642E1,1.8133217E2,3.433516E1,0E0,0E0,0E0,0E0,0E0,0E0,0E0,0E0,0E0,0E0,0E0,0E0,0E0,0E0,0E0,0E0],"parents":[2147483647,0,0,1,1,2,2,3,3,4,4,5,5,6,6,7,7,8,8,9,9,10,10,11,11,12,12,13,13,14,14],"right_children":[2,4,6,8,10,12,14,16,18,20,22,24,26,28,30,-1,-1,-1,-1,-1,-1,-1,-1,-1,-1,-1,-1,-1,-1,-1,-1],"split_conditions":[2E1,8E0,4E0,6E0,3E0,2.1E1,7E0,5E0,5E0,1.1E1,4E0,3E0,2.2E1,2.1E1,2.1E1,-2.8225554E-2,6.676738E-2,-2.0320773E-2,-1.4733516E-1,-1.6775654E-1,2.0617504E-2,1.0093981E-1,1.1065027E-2,-4.970073E-2,-9.890025E-2,-7.6804585E-3,-3.684911E-2,5.7559103E-2,-1.1528991E-2,-8.703879E-2,-3.498862E-2],"split_indices":[1,1,0,0,0,1,0,1,1,1,0,0,1,1,1,0,0,0,0,0,0,0,0,0,0,0,0,0,0,0,0],"split_type":[0,0,0,0,0,0,0,0,0,0,0,0,0,0,0,0,0,0,0,0,0,0,0,0,0,0,0,0,0,0,0],"sum_hessian":[1.8089E4,1.3385E4,4.704E3,3.834E3,9.551E3,1.789E3,2.915E3,2.643E3,1.191E3,2.314E3,7.237E3,4.11E2,1.378E3,2.168E3,7.47E2,1.814E3,8.29E2,7.79E2,4.12E2,3.75E2,1.939E3,1.142E3,6.095E3,2.98E2,1.13E2,5E2,8.78E2,4.9E2,1.678E3,1.62E2,5.85E2],"tree_param":{"num_deleted":"0","num_feature":"2","num_nodes":"31","size_leaf_vector":"1"}},{"base_weights":[-4.8347696E-4,6.900412E-2,-1.521605E-1,-1.7020515E-1,1.7600267E-1,-3.403277E-1,-3.5082977E-2,7.8111365E-2,-4.7948346E-1,7.6832587E-1,1.3522251E-1,-5.1836085E-1,-2.3654024E-1,5.8746513E-2,-4.207449E-1,-4.6533883E-2,4.4063404E-2,-2.7838588E-2,-1.5040869E-1,1.3781922E-1,4.8394773E-2,-5.931316E-2,1.9823484E-2,-7.409034E-2,-4.0275242E-2,-6.913916E-3,-3.31684E-2,1.560265E-2,-2.1844225E-2,-5.704285E-2,-3.1610984E-2],"categories":[],"categories_nodes":[],"categories_segments":[],"categories_sizes":[],"default_left":[0,0,0,0,0,0,0,0,0,0,0,0,0,0,0,0,0,0,0,0,0,0,0,0,0,0,0,0,0,0,0],"id":34,"left_children":[1,3,5,7,9,11,13,15,17,19,21,23,25,27,29,-1,-1,-1,-1,-1,-1,-1,-1,-1,-1,-1,-1,-1,-1,-1,-1],"loss_changes":[1.9067316E2,3.1758765E2,1.2520741E2,2.9456128E2,2.069772E2,4.0158585E1,1.2685826E2,4.1944876E2,3.5150665E2,9.506781E1,3.682896E2,2.0335281E1,2.1940636E1,7.607515E1,1.0563919E1,0E0,0E0,0E0,0E0,0E0,0E0,0E0,0E0,0E0,0E0,0E0,0E0,0E0,0E0,0E0,0E0],"parents":[2147483647,0,0,1,1,2,2,3,3,4,4,5,5,6,6,7,7,8,8,9,9,10,10,11,11,12,12,13,13,14,14],"right_children":[2,4,6,8,10,12,14,16,18,20,22,24,26,28,30,-1,-1,-1,-1,-1,-1,-1,-1,-1,-1,-1,-1,-1,-1,-1,-1],"split_conditions":[1.9E1,8E0,4E0,5E0,9E0,2.1E1,2.3E1,4E0,7E0,4E0,1E1,2E0,2.2E1,7E0,6E0,-4.6533883E-2,4.4063404E-2,-2.7838588E-2,-1.5040869E-1,1.3781922E-1,4.8394773E-2,-5.931316E-2,1.9823484E-2,-7.409034E-2,-4.0275242E-2,-6.913916E-3,-3.31684E-2,1.560265E-2,-2.1844225E-2,-5.704285E-2,-3.1610984E-2],"split_indices":[1,1,0,0,1,1,1,1,1,0,1,0,1,0,0,0,0,0,0,0,0,0,0,0,0,0,0,0,0,0,0],"split_type":[0,0,0,0,0,0,0,0,0,0,0,0,0,0,0,0,0,0,0,0,0,0,0,0,0,0,0,0,0,0,0],"sum_hessian":[1.8089E4,1.2406E4,5.683E3,3.834E3,8.572E3,2.179E3,3.504E3,2.127E3,1.707E3,5.51E2,8.021E3,8.01E2,1.378E3,2.819E3,6.85E2,8.51E2,1.276E3,1.428E3,2.79E2,1.74E2,3.77E2,6.38E2,7.383E3,2.72E2,5.29E2,5E2,8.78E2,2.087E3,7.32E2,2.8E2,4.05E2],"tree_param":{"num_deleted":"0","num_feature":"2","num_nodes":"31","size_leaf_vector":"1"}},{"base_weights":[-4.5069412E-4,4.5055237E-2,-2.0320995E-1,1.4078163E-1,-1.1710319E-1,-4.7539937E-1,-3.5699928E-4,-2.1596318E-1,2.4874058E-1,-2.1846999E-1,2.545023E-1,5.504063E-1,-6.065135E-1,5.799104E-1,-2.4680737E-1,-4.004816E-2,-5.730114E-3,7.715619E-4,3.5426337E-2,-4.1277997E-2,-1.6422205E-2,-4.426598E-2,3.415709E-2,8.017933E-2,2.0360334E-2,-4.547328E-2,-1.00439124E-1,-1.774979E-2,1.0500107E-1,-7.141655E-2,-1.4990419E-2],"categories":[],"categories_nodes":[],"categories_segments":[],"categories_sizes":[],"default_left":[0,0,0,0,0,0,0,0,0,0,0,0,0,0,0,0,0,0,0,0,0,0,0,0,0,0,0,0,0,0,0],"id":35,"left_children":[1,3,5,7,9,11,13,15,17,19,21,23,25,27,29,-1,-1,-1,-1,-1,-1,-1,-1,-1,-1,-1,-1,-1,-1,-1,-1],"loss_changes":[1.6692104E2,2.2936647E2,1.8309087E2,3.578854E2,2.0666711E2,1.9078241E2,2.7199963E2,6.318409E1,1.8141525E2,4.5363556E1,7.153548E1,1.3873016E1,7.539331E1,2.0207115E2,6.0353073E1,0E0,0E0,0E0,0E0,0E0,0E0,0E0,0E0,0E0,0E0,0E0,0E0,0E0,0E0,0E0,0E0],"parents":[2147483647,0,0,1,1,2,2,3,3,4,4,5,5,6,6,7,7,8,8,9,9,10,10,11,11,12,12,13,13,14,14],"right_children":[2,4,6,8,10,12,14,16,18,20,22,24,26,28,30,-1,-1,-1,-1,-1,-1,-1,-1,-1,-1,-1,-1,-1,-1,-1,-1],"split_conditions":[7E0,1.8E1,1.4E1,5E0,6E0,2E0,1.7E1,2E0,3E0,2E0,1.9E1,1E0,1.1E1,1.5E1,1.8E1,-4.004816E-2,-5.730114E-3,7.715619E-4,3.5426337E-2,-4.1277997E-2,-1.6422205E-2,-4.426598E-2,3.415709E-2,8.017933E-2,2.0360334E-2,-4.547328E-2,-1.00439124E-1,-1.774979E-2,1.0500107E-1,-7.141655E-2,-1.4990419E-2],"split_indices":[0,1,1,1,0,1,1,1,0,0,1,1,1,1,1,0,0,0,0,0,0,0,0,0,0,0,0,0,0,0,0],"split_type":[0,0,0,0,0,0,0,0,0,0,0,0,0,0,0,0,0,0,0,0,0,0,0,0,0,0,0,0,0,0,0],"sum_hessian":[1.8089E4,1.4774E4,3.315E3,9.29E3,5.484E3,1.415E3,1.9E3,2.158E3,7.132E3,4.309E3,1.175E3,1.6E2,1.255E3,5.66E2,1.334E3,9.97E2,1.161E3,2.172E3,4.96E3,9.39E2,3.37E3,1.3E2,1.045E3,9.2E1,6.8E1,9.1E2,3.45E2,2.17E2,3.49E2,2.28E2,1.106E3],"tree_param":{"num_deleted":"0","num_feature":"2","num_nodes":"31","size_leaf_vector":"1"}},{"base_weights":[-4.126827E-4,7.431352E-2,-1.01117484E-1,-4.7473434E-2,3.7653092E-1,-3.6580858E-1,-5.916866E-2,-3.9404428E-1,7.948552E-2,9.618206E-1,7.417786E-2,-4.3234342E-1,-2.856489E-1,-2.0634113E-2,-3.0110425E-1,4.882402E-3,-1.1538332E-1,-2.1374974E-2,3.6818203E-2,3.1887956E-2,1.1443021E-1,-3.51601E-2,3.4755196E-2,-2.5588935E-2,-6.259581E-2,-2.1315532E-2,-5.1191617E-2,1.1173248E-2,-7.589616E-3,-7.156843E-3,-3.772888E-2],"categories":[],"categories_nodes":[],"categories_segments":[],"categories_sizes":[],"default_left":[0,0,0,0,0,0,0,0,0,0,0,0,0,0,0,0,0,0,0,0,0,0,0,0,0,0,0,0,0,0,0],"id":36,"left_children":[1,3,5,7,9,11,13,15,17,19,21,23,25,27,29,-1,-1,-1,-1,-1,-1,-1,-1,-1,-1,-1,-1,-1,-1,-1,-1],"loss_changes":[1.3613997E2,3.822496E2,8.554177E1,3.2576532E2,5.2781256E2,5.497925E0,6.2018898E1,6.679818E2,4.5882947E2,1.1883716E2,2.291913E2,1.9450012E1,7.7806892E0,4.1995712E1,1.5956184E1,0E0,0E0,0E0,0E0,0E0,0E0,0E0,0E0,0E0,0E0,0E0,0E0,0E0,0E0,0E0,0E0],"parents":[2147483647,0,0,1,1,2,2,3,3,4,4,5,5,6,6,7,7,8,8,9,9,10,10,11,11,12,12,13,13,14,14],"right_children":[2,4,6,8,10,12,14,16,18,20,22,24,26,28,30,-1,-1,-1,-1,-1,-1,-1,-1,-1,-1,-1,-1,-1,-1,-1,-1],"split_conditions":[1.7E1,1.3E1,2E0,3E0,4E0,2.1E1,2.3E1,9E0,8E0,1.4E1,1.5E1,1.9E1,2.3E1,4E0,4E0,4.882402E-3,-1.1538332E-1,-2.1374974E-2,3.6818203E-2,3.1887956E-2,1.1443021E-1,-3.51601E-2,3.4755196E-2,-2.5588935E-2,-6.259581E-2,-2.1315532E-2,-5.1191617E-2,1.1173248E-2,-7.589616E-3,-7.156843E-3,-3.772888E-2],"split_indices":[1,1,0,0,0,1,1,1,1,1,1,1,1,0,0,0,0,0,0,0,0,0,0,0,0,0,0,0,0,0,0],"split_type":[0,0,0,0,0,0,0,0,0,0,0,0,0,0,0,0,0,0,0,0,0,0,0,0,0,0,0,0,0,0,0],"sum_hessian":[1.8089E4,1.0384E4,7.705E3,7.402E3,2.982E3,1.053E3,6.652E3,1.984E3,5.418E3,1.015E3,1.967E3,5.73E2,4.8E2,5.739E3,9.13E2,1.254E3,7.3E2,2.688E3,2.73E3,2.25E2,7.9E2,7.69E2,1.198E3,3.01E2,2.72E2,3.65E2,1.15E2,1.69E3,4.049E3,2.28E2,6.85E2],"tree_param":{"num_deleted":"0","num_feature":"2","num_nodes":"31","size_leaf_vector":"1"}},{"base_weights":[-3.7976133E-4,4.0413525E-2,-1.8214105E-1,-3.391761E-1,6.992499E-2,-4.345292E-1,5.951392E-3,-4.6559918E-1,-1.9404773E-1,1.7974539E-1,-9.478833E-2,5.172326E-1,-5.5618453E-1,5.1413643E-1,-2.0988896E-1,-1.19691985E-2,-7.4613E-2,1.887583E-3,-3.7685107E-2,3.275938E-2,5.1799524E-3,-1.8656475E-2,2.416497E-2,7.4362166E-2,2.0460336E-2,-4.1702274E-2,-9.209829E-2,-1.2483075E-2,9.106528E-2,-6.3550435E-2,-1.2165428E-2],"categories":[],"categories_nodes":[],"categories_segments":[],"categories_sizes":[],"default_left":[0,0,0,0,0,0,0,0,0,0,0,0,0,0,0,0,0,0,0,0,0,0,0,0,0,0,0,0,0,0,0],"id":37,"left_children":[1,3,5,7,9,11,13,15,17,19,21,23,25,27,29,-1,-1,-1,-1,-1,-1,-1,-1,-1,-1,-1,-1,-1,-1,-1,-1],"loss_changes":[1.3413821E2,1.6553687E2,1.5742073E2,1.9468155E1,2.480156E2,1.6424194E2,2.086226E2,5.5125084E1,1.9390837E1,1.5559088E2,1.6940584E2,1.12427635E1,6.337802E1,1.4376933E2,5.005733E1,0E0,0E0,0E0,0E0,0E0,0E0,0E0,0E0,0E0,0E0,0E0,0E0,0E0,0E0,0E0,0E0],"parents":[2147483647,0,0,1,1,2,2,3,3,4,4,5,5,6,6,7,7,8,8,9,9,10,10,11,11,12,12,13,13,14,14],"right_children":[2,4,6,8,10,12,14,16,18,20,22,24,26,28,30,-1,-1,-1,-1,-1,-1,-1,-1,-1,-1,-1,-1,-1,-1,-1,-1],"split_conditions":[7E0,3E0,1.4E1,4E0,1.8E1,2E0,1.7E1,2E0,1E0,4E0,6E0,1E0,1.1E1,1.5E1,1.8E1,-1.19691985E-2,-7.4613E-2,1.887583E-3,-3.7685107E-2,3.275938E-2,5.1799524E-3,-1.8656475E-2,2.416497E-2,7.4362166E-2,2.0460336E-2,-4.1702274E-2,-9.209829E-2,-1.2483075E-2,9.106528E-2,-6.3550435E-2,-1.2165428E-2],"split_indices":[0,1,1,0,1,1,1,0,1,0,0,1,1,1,1,0,0,0,0,0,0,0,0,0,0,0,0,0,0,0,0],"split_type":[0,0,0,0,0,0,0,0,0,0,0,0,0,0,0,0,0,0,0,0,0,0,0,0,0,0,0,0,0,0,0],"sum_hessian":[1.8089E4,1.4774E4,3.315E3,1.065E3,1.3709E4,1.415E3,1.9E3,5.68E2,4.97E2,8.225E3,5.484E3,1.6E2,1.255E3,5.66E2,1.334E3,2.55E2,3.13E2,2.3E2,2.67E2,3.815E3,4.41E3,4.309E3,1.175E3,9.2E1,6.8E1,9.1E2,3.45E2,2.17E2,3.49E2,2.28E2,1.106E3],"tree_param":{"num_deleted":"0","num_feature":"2","num_nodes":"31","size_leaf_vector":"1"}},{"base_weights":[-3.480997E-4,3.6366865E-2,-1.6393775E-1,-1.1756511E-1,1.1013161E-1,-3.911038E-1,5.357931E-3,-3.6407778E-1,7.769625E-2,4.7147766E-1,1.1023935E-2,4.6609828E-1,-5.0067264E-1,4.628621E-1,-1.8895684E-1,3.1764805E-3,-9.399691E-2,1.622257E-1,-1.5275957E-2,7.1087286E-2,-1.4957867E-2,-2.9411301E-2,8.49977E-3,6.7005895E-2,1.8443974E-2,-8.4225796E-2,-3.492838E-2,-1.1240441E-2,8.1984855E-2,-6.533126E-3,-4.7067482E-2],"categories":[],"categories_nodes":[],"categories_segments":[],"categories_sizes":[],"default_left":[0,0,0,0,0,0,0,0,0,0,0,0,0,0,0,0,0,0,0,0,0,0,0,0,0,0,0,0,0,0,0],"id":38,"left_children":[1,3,5,7,9,11,13,15,17,19,21,23,25,27,29,-1,-1,-1,-1,-1,-1,-1,-1,-1,-1,-1,-1,-1,-1,-1,-1],"loss_changes":[1.08657906E2,1.677794E2,1.2752958E2,2.3044766E2,3.5772253E2,1.3322778E2,1.6908603E2,4.823981E2,9.513541E2,3.1976382E2,1.769905E2,9.125423E0,6.465634E1,1.1653259E2,4.6464027E1,0E0,0E0,0E0,0E0,0E0,0E0,0E0,0E0,0E0,0E0,0E0,0E0,0E0,0E0,0E0,0E0],"parents":[2147483647,0,0,1,1,2,2,3,3,4,4,5,5,6,6,7,7,8,8,9,9,10,10,11,11,12,12,13,13,14,14],"right_children":[2,4,6,8,10,12,14,16,18,20,22,24,26,28,30,-1,-1,-1,-1,-1,-1,-1,-1,-1,-1,-1,-1,-1,-1,-1,-1],"split_conditions":[7E0,3E0,1.4E1,1.4E1,4E0,2E0,1.7E1,9E0,1.6E1,1.9E1,8E0,1E0,7E0,1.5E1,2.2E1,3.1764805E-3,-9.399691E-2,1.622257E-1,-1.5275957E-2,7.1087286E-2,-1.4957867E-2,-2.9411301E-2,8.49977E-3,6.7005895E-2,1.8443974E-2,-8.4225796E-2,-3.492838E-2,-1.1240441E-2,8.1984855E-2,-6.533126E-3,-4.7067482E-2],"split_indices":[0,0,1,1,0,1,1,1,1,1,1,1,1,1,1,0,0,0,0,0,0,0,0,0,0,0,0,0,0,0,0],"split_type":[0,0,0,0,0,0,0,0,0,0,0,0,0,0,0,0,0,0,0,0,0,0,0,0,0,0,0,0,0,0,0],"sum_hessian":[1.8089E4,1.4774E4,3.315E3,4.786E3,9.988E3,1.415E3,1.9E3,2.115E3,2.671E3,2.149E3,7.839E3,1.6E2,1.255E3,5.66E2,1.334E3,1.254E3,8.61E2,3.46E2,2.325E3,1.551E3,5.98E2,1.529E3,6.31E3,9.2E1,6.8E1,3.84E2,8.71E2,2.17E2,3.49E2,9.28E2,4.06E2],"tree_param":{"num_deleted":"0","num_feature":"2","num_nodes":"31","size_leaf_vector":"1"}},{"base_weights":[-3.0909973E-4,2.7279291E-2,-1.8076625E-1,-1.6870333E-1,6.608772E-2,-1.3106021E-1,-4.2372294E-2,-5.5005174E-2,-2.006959E-1,-7.575971E-2,1.15563944E-1,-2.3397556E-1,2.693192E-1,-3.101476E-2,3.084815E-2,-3.5770014E-2,-1.0798721E-2,3.8649926E-1,-1.0266451E-2,7.090937E-2,4.7479203E-4,-1.9536613E-2,-2.9318536E-2,5.6979097E-2,-5.5398233E-3],"categories":[],"categories_nodes":[],"categories_segments":[],"categories_sizes":[],"default_left":[0,0,0,0,0,0,0,0,0,0,0,0,0,0,0,0,0,0,0,0,0,0,0,0,0],"id":39,"left_children":[1,3,5,7,9,11,-1,13,15,17,19,21,23,-1,-1,-1,-1,-1,-1,-1,-1,-1,-1,-1,-1],"loss_changes":[9.00664E1,1.1936104E2,2.8915787E1,9.424622E0,9.1938515E1,8.218494E1,0E0,5.3050713E1,2.9422028E1,3.5961E2,6.387803E2,3.5684052E0,3.9839478E1,0E0,0E0,0E0,0E0,0E0,0E0,0E0,0E0,0E0,0E0,0E0,0E0],"parents":[2147483647,0,0,1,1,2,2,3,3,4,4,5,5,7,7,8,8,9,9,10,10,11,11,12,12],"right_children":[2,4,6,8,10,12,-1,14,16,18,20,22,24,-1,-1,-1,-1,-1,-1,-1,-1,-1,-1,-1,-1],"split_conditions":[2.2E1,5E0,7E0,1E0,3E0,6E0,-4.2372294E-2,5E0,3E0,6E0,4E0,2.3E1,2.3E1,-3.101476E-2,3.084815E-2,-3.5770014E-2,-1.0798721E-2,3.8649926E-1,-1.0266451E-2,7.090937E-2,4.7479203E-4,-1.9536613E-2,-2.9318536E-2,5.6979097E-2,-5.5398233E-3],"split_indices":[1,1,0,1,0,0,0,0,1,1,0,1,1,0,0,0,0,0,0,0,0,0,0,0,0],"split_type":[0,0,0,0,0,0,0,0,0,0,0,0,0,0,0,0,0,0,0,0,0,0,0,0,0],"sum_hessian":[1.8089E4,1.5691E4,2.398E3,2.593E3,1.3098E4,1.992E3,4.06E2,5.7E2,2.023E3,3.387E3,9.711E3,1.585E3,4.07E2,3.35E2,2.35E2,7.5E2,1.273E3,2.2E1,3.365E3,1.527E3,8.184E3,9.62E2,6.23E2,2.11E2,1.96E2],"tree_param":{"num_deleted":"0","num_feature":"2","num_nodes":"25","size_leaf_vector":"1"}},{"base_weights":[-2.582332E-4,5.7423178E-2,-7.7992626E-2,-3.198441E-2,2.7928942E-1,-2.8713125E-1,-4.4848163E-2,-3.3134928E-1,7.767996E-2,7.5155044E-1,3.533794E-2,-3.914236E-1,-2.3037897E-1,8.534764E-2,-9.7604424E-2,3.92794E-3,-9.672011E-2,-1.6880551E-2,3.203463E-2,1.0707881E-1,4.591034E-2,-3.0253906E-2,2.5229368E-2,-2.0574065E-2,-1.19845025E-1,-1.9576881E-2,-3.9846018E-2,8.8954926E-2,-1.9179E-2,-4.7218915E-2,-3.2939115E-3],"categories":[],"categories_nodes":[],"categories_segments":[],"categories_sizes":[],"default_left":[0,0,0,0,0,0,0,0,0,0,0,0,0,0,0,0,0,0,0,0,0,0,0,0,0,0,0,0,0,0,0],"id":40,"left_children":[1,3,5,7,9,11,13,15,17,19,21,23,25,27,29,-1,-1,-1,-1,-1,-1,-1,-1,-1,-1,-1,-1,-1,-1,-1,-1],"loss_changes":[8.111696E1,2.0601123E2,5.3403473E1,2.4306372E2,3.4364127E2,6.1482697E0,4.5705414E1,4.6783276E2,3.241847E2,9.436224E1,1.443393E2,5.5198338E1,3.9068565E0,4.2786685E2,1.1467864E2,0E0,0E0,0E0,0E0,0E0,0E0,0E0,0E0,0E0,0E0,0E0,0E0,0E0,0E0,0E0,0E0],"parents":[2147483647,0,0,1,1,2,2,3,3,4,4,5,5,6,6,7,7,8,8,9,9,10,10,11,11,12,12,13,13,14,14],"right_children":[2,4,6,8,10,12,14,16,18,20,22,24,26,28,30,-1,-1,-1,-1,-1,-1,-1,-1,-1,-1,-1,-1,-1,-1,-1,-1],"split_conditions":[1.7E1,1.3E1,2E0,3E0,4E0,2E1,4E0,9E0,8E0,1.5E1,1.5E1,1.9E1,2.3E1,1.9E1,1.8E1,3.92794E-3,-9.672011E-2,-1.6880551E-2,3.203463E-2,1.0707881E-1,4.591034E-2,-3.0253906E-2,2.5229368E-2,-2.0574065E-2,-1.19845025E-1,-1.9576881E-2,-3.9846018E-2,8.8954926E-2,-1.9179E-2,-4.7218915E-2,-3.2939115E-3],"split_indices":[1,1,0,0,0,1,0,1,1,1,1,1,1,1,1,0,0,0,0,0,0,0,0,0,0,0,0,0,0,0,0],"split_type":[0,0,0,0,0,0,0,0,0,0,0,0,0,0,0,0,0,0,0,0,0,0,0,0,0,0,0,0,0,0,0],"sum_hessian":[1.8089E4,1.0384E4,7.705E3,7.402E3,2.982E3,1.053E3,6.652E3,1.984E3,5.418E3,1.015E3,1.967E3,3.69E2,6.84E2,1.918E3,4.734E3,1.254E3,7.3E2,2.688E3,2.73E3,4.84E2,5.31E2,7.69E2,1.198E3,3.01E2,6.8E1,5.69E2,1.15E2,4.91E2,1.427E3,6.96E2,4.038E3],"tree_param":{"num_deleted":"0","num_feature":"2","num_nodes":"31","size_leaf_vector":"1"}},{"base_weights":[-2.3828176E-4,3.1207731E-2,-1.4035125E-1,-2.7018002E-1,5.46394E-2,-3.5540342E-1,1.9908732E-2,-4.0746665E-1,-1.1277789E-1,1.4103204E-1,-7.4935906E-2,2.2331244E-1,-5.124909E-1,4.122762E-1,-1.4675215E-1,-8.129651E-3,-6.720912E-2,5.5672224E-3,-2.5755102E-2,2.5383074E-2,4.3416796E-3,-1.50670735E-2,2.0269336E-2,5.89956E-2,6.065291E-3,-1.1436202E-1,-3.3602666E-2,-7.157314E-3,7.1246736E-2,-5.1918637E-2,-6.957581E-3],"categories":[],"categories_nodes":[],"categories_segments":[],"categories_sizes":[],"default_left":[0,0,0,0,0,0,0,0,0,0,0,0,0,0,0,0,0,0,0,0,0,0,0,0,0,0,0,0,0,0,0],"id":41,"left_children":[1,3,5,7,9,11,13,15,17,19,21,23,25,27,29,-1,-1,-1,-1,-1,-1,-1,-1,-1,-1,-1,-1,-1,-1,-1,-1],"loss_changes":[7.970881E1,1.0435607E2,1.14290565E2,2.2989471E1,1.5348515E2,1.2884163E2,1.2437128E2,4.9057243E1,1.215909E1,9.056442E1,1.1535927E2,1.8034554E1,1.2368387E2,8.240618E1,3.833593E1,0E0,0E0,0E0,0E0,0E0,0E0,0E0,0E0,0E0,0E0,0E0,0E0,0E0,0E0,0E0,0E0],"parents":[2147483647,0,0,1,1,2,2,3,3,4,4,5,5,6,6,7,7,8,8,9,9,10,10,11,11,12,12,13,13,14,14],"right_children":[2,4,6,8,10,12,14,16,18,20,22,24,26,28,30,-1,-1,-1,-1,-1,-1,-1,-1,-1,-1,-1,-1,-1,-1,-1,-1],"split_conditions":[7E0,3E0,1.4E1,4E0,1.8E1,4E0,1.7E1,2E0,1E0,4E0,6E0,1E0,7E0,1.5E1,1.8E1,-8.129651E-3,-6.720912E-2,5.5672224E-3,-2.5755102E-2,2.5383074E-2,4.3416796E-3,-1.50670735E-2,2.0269336E-2,5.89956E-2,6.065291E-3,-1.1436202E-1,-3.3602666E-2,-7.157314E-3,7.1246736E-2,-5.1918637E-2,-6.957581E-3],"split_indices":[0,1,1,0,1,1,1,0,1,0,0,1,1,1,1,0,0,0,0,0,0,0,0,0,0,0,0,0,0,0,0],"split_type":[0,0,0,0,0,0,0,0,0,0,0,0,0,0,0,0,0,0,0,0,0,0,0,0,0,0,0,0,0,0,0],"sum_hessian":[1.8089E4,1.4774E4,3.315E3,1.065E3,1.3709E4,1.415E3,1.9E3,5.68E2,4.97E2,8.225E3,5.484E3,3.02E2,1.113E3,5.66E2,1.334E3,2.55E2,3.13E2,2.3E2,2.67E2,3.815E3,4.41E3,4.309E3,1.175E3,9.2E1,2.1E2,2.42E2,8.71E2,2.17E2,3.49E2,2.28E2,1.106E3],"tree_param":{"num_deleted":"0","num_feature":"2","num_nodes":"31","size_leaf_vector":"1"}},{"base_weights":[-2.220108E-4,2.8082993E-2,-1.2633969E-1,-9.1323696E-2,8.5303105E-2,-3.1992194E-1,1.7920602E-2,-3.0825442E-1,8.050144E-2,3.583055E-1,1.0425501E-2,2.011958E-1,-4.6137506E-1,2.164264E-1,-2.8835428E-1,2.6687626E-3,-7.9554446E-2,1.361749E-1,-1.1067371E-2,-3.4410365E-2,5.0118107E-2,1.660803E-2,-1.0418093E-2,1.0043262E-2,7.34408E-2,-1.0297286E-1,-3.0246302E-2,4.761034E-2,9.951199E-3,-7.114313E-2,-1.7018039E-2],"categories":[],"categories_nodes":[],"categories_segments":[],"categories_sizes":[],"default_left":[0,0,0,0,0,0,0,0,0,0,0,0,0,0,0,0,0,0,0,0,0,0,0,0,0,0,0,0,0,0,0],"id":42,"left_children":[1,3,5,7,9,11,13,15,17,19,21,23,25,27,29,-1,-1,-1,-1,-1,-1,-1,-1,-1,-1,-1,-1,-1,-1,-1,-1],"loss_changes":[6.458053E1,1.0095744E2,9.260913E1,1.7845618E2,2.0418906E2,1.0447145E2,1.1563815E2,3.4538193E2,6.546376E2,2.1594022E2,1.3987537E2,1.6205872E1,1.0030301E2,3.498805E1,3.727643E1,0E0,0E0,0E0,0E0,0E0,0E0,0E0,0E0,0E0,0E0,0E0,0E0,0E0,0E0,0E0,0E0],"parents":[2147483647,0,0,1,1,2,2,3,3,4,4,5,5,6,6,7,7,8,8,9,9,10,10,11,11,12,12,13,13,14,14],"right_children":[2,4,6,8,10,12,14,16,18,20,22,24,26,28,30,-1,-1,-1,-1,-1,-1,-1,-1,-1,-1,-1,-1,-1,-1,-1,-1],"split_conditions":[7E0,3E0,1.4E1,1.4E1,4E0,4E0,2E1,9E0,1.6E1,5E0,1.4E1,3E0,7E0,1.6E1,2.1E1,2.6687626E-3,-7.9554446E-2,1.361749E-1,-1.1067371E-2,-3.4410365E-2,5.0118107E-2,1.660803E-2,-1.0418093E-2,1.0043262E-2,7.34408E-2,-1.0297286E-1,-3.0246302E-2,4.761034E-2,9.951199E-3,-7.114313E-2,-1.7018039E-2],"split_indices":[0,0,1,1,0,1,1,1,1,1,1,1,1,1,1,0,0,0,0,0,0,0,0,0,0,0,0,0,0,0,0],"split_type":[0,0,0,0,0,0,0,0,0,0,0,0,0,0,0,0,0,0,0,0,0,0,0,0,0,0,0,0,0,0,0],"sum_hessian":[1.8089E4,1.4774E4,3.315E3,4.786E3,9.988E3,1.415E3,1.9E3,2.115E3,2.671E3,2.149E3,7.839E3,3.02E2,1.113E3,1.153E3,7.47E2,1.254E3,8.61E2,3.46E2,2.325E3,3.63E2,1.786E3,3.324E3,4.515E3,2.55E2,4.7E1,2.42E2,8.71E2,3.57E2,7.96E2,1.62E2,5.85E2],"tree_param":{"num_deleted":"0","num_feature":"2","num_nodes":"31","size_leaf_vector":"1"}},{"base_weights":[-2.0035141E-4,2.1130031E-2,-1.3972355E-1,-1.0061583E-1,6.0502123E-2,-9.584351E-2,-3.5425235E-2,3.285225E-2,-3.9657974E-1,5.8452964E-1,3.4914106E-2,-1.8114296E-1,2.3597208E-1,-5.629902E-2,2.0652661E-2,-3.3106387E-3,-1.08208254E-1,1.0683846E-1,3.5897635E-2,-4.8137944E-2,6.583328E-3,-1.5896773E-2,-2.5649125E-2,5.0655413E-2,-5.6410464E-3],"categories":[],"categories_nodes":[],"categories_segments":[],"categories_sizes":[],"default_left":[0,0,0,0,0,0,0,0,0,0,0,0,0,0,0,0,0,0,0,0,0,0,0,0,0],"id":43,"left_children":[1,3,5,7,9,11,-1,13,15,17,19,21,23,-1,-1,-1,-1,-1,-1,-1,-1,-1,-1,-1,-1],"loss_changes":[5.3840305E1,7.522395E1,2.254911E1,1.5150218E2,1.5898141E2,5.645199E1,0E0,2.7372412E2,2.9696527E2,5.985904E1,1.8052953E2,2.6092148E0,3.230686E1,0E0,0E0,0E0,0E0,0E0,0E0,0E0,0E0,0E0,0E0,0E0,0E0],"parents":[2147483647,0,0,1,1,2,2,3,3,4,4,5,5,7,7,8,8,9,9,10,10,11,11,12,12],"right_children":[2,4,6,8,10,12,-1,14,16,18,20,22,24,-1,-1,-1,-1,-1,-1,-1,-1,-1,-1,-1,-1],"split_conditions":[2.2E1,8E0,7E0,6E0,9E0,6E0,-3.5425235E-2,2E0,5E0,4E0,1E1,5E0,2.3E1,-5.629902E-2,2.0652661E-2,-3.3106387E-3,-1.08208254E-1,1.0683846E-1,3.5897635E-2,-4.8137944E-2,6.583328E-3,-1.5896773E-2,-2.5649125E-2,5.0655413E-2,-5.6410464E-3],"split_indices":[1,1,0,0,1,0,0,0,1,0,1,0,1,0,0,0,0,0,0,0,0,0,0,0,0],"split_type":[0,0,0,0,0,0,0,0,0,0,0,0,0,0,0,0,0,0,0,0,0,0,0,0,0],"sum_hessian":[1.8089E4,1.5691E4,2.398E3,3.834E3,1.1857E4,1.992E3,4.06E2,2.643E3,1.191E3,5.51E2,1.1306E4,1.585E3,4.07E2,5.96E2,2.047E3,7.79E2,4.12E2,1.74E2,3.77E2,6.38E2,1.0668E4,1.227E3,3.58E2,2.11E2,1.96E2],"tree_param":{"num_deleted":"0","num_feature":"2","num_nodes":"25","size_leaf_vector":"1"}},{"base_weights":[-1.8490248E-4,-1.3401282E-1,2.2216195E-2,-1.7872463E-1,-2.9800063E-2,1.03478715E-1,-5.9956107E-2,-3.0513898E-1,-6.380792E-2,1.483355E-1,-3.1686208E-1,1.5603206E-1,-1.08771876E-1,-2.3717968E-1,-3.187049E-2,-1.2390391E-2,-5.073921E-2,1.0571763E-3,-3.722392E-2,8.656904E-3,4.0576115E-2,-5.446659E-3,-6.3955456E-2,-4.5532323E-3,2.4250627E-2,-3.1863548E-2,6.09872E-2,-3.1192476E-2,-1.47489775E-2,7.001985E-3,-7.3157856E-3],"categories":[],"categories_nodes":[],"categories_segments":[],"categories_sizes":[],"default_left":[0,0,0,0,0,0,0,0,0,0,0,0,0,0,0,0,0,0,0,0,0,0,0,0,0,0,0,0,0,0,0],"id":44,"left_children":[1,3,5,7,9,11,13,15,17,19,21,23,25,27,29,-1,-1,-1,-1,-1,-1,-1,-1,-1,-1,-1,-1,-1,-1,-1,-1],"loss_changes":[5.4234848E1,1.2081524E1,1.03487854E2,2.6347256E1,3.993305E1,8.693266E1,3.834854E1,3.160736E1,2.1843786E1,7.628804E0,2.5282408E1,1.0887958E2,2.3350848E2,7.019882E0,2.7992857E1,0E0,0E0,0E0,0E0,0E0,0E0,0E0,0E0,0E0,0E0,0E0,0E0,0E0,0E0,0E0,0E0],"parents":[2147483647,0,0,1,1,2,2,3,3,4,4,5,5,6,6,7,7,8,8,9,9,10,10,11,11,12,12,13,13,14,14],"right_children":[2,4,6,8,10,12,14,16,18,20,22,24,26,28,30,-1,-1,-1,-1,-1,-1,-1,-1,-1,-1,-1,-1,-1,-1,-1,-1],"split_conditions":[5E0,6E0,1.7E1,2E0,4E0,7E0,2E0,1E0,5E0,3E0,7E0,3E0,1.5E1,2.1E1,4E0,-1.2390391E-2,-5.073921E-2,1.0571763E-3,-3.722392E-2,8.656904E-3,4.0576115E-2,-5.446659E-3,-6.3955456E-2,-4.5532323E-3,2.4250627E-2,-3.1863548E-2,6.09872E-2,-3.1192476E-2,-1.47489775E-2,7.001985E-3,-7.3157856E-3],"split_indices":[1,0,1,1,1,0,0,1,0,1,0,0,1,1,0,0,0,0,0,0,0,0,0,0,0,0,0,0,0,0,0],"split_type":[0,0,0,0,0,0,0,0,0,0,0,0,0,0,0,0,0,0,0,0,0,0,0,0,0,0,0,0,0,0,0],"sum_hessian":[1.8089E4,2.593E3,1.5496E4,1.814E3,7.79E2,7.791E3,7.705E3,8.63E2,9.51E2,4.81E2,2.98E2,6.245E3,1.546E3,1.053E3,6.652E3,4.56E2,4.07E2,7.67E2,1.84E2,3.89E2,9.2E1,1.65E2,1.33E2,1.875E3,4.37E3,1.197E3,3.49E2,5.73E2,4.8E2,1.918E3,4.734E3],"tree_param":{"num_deleted":"0","num_feature":"2","num_nodes":"31","size_leaf_vector":"1"}},{"base_weights":[-1.7278429E-4,-1.20657764E-1,1.9994875E-2,-1.6090707E-1,-2.6846008E-2,9.313735E-2,-5.396648E-2,-2.5671378E-1,-3.142807E-2,2.3804693E-1,-1.8757969E-1,1.4043227E-1,-9.787569E-2,-2.135051E-1,-2.86835E-2,-2.378198E-3,-3.4008935E-2,2.1782732E-2,-2.1273572E-2,6.3762353E-3,3.8270764E-2,-1.9850167E-3,-3.1512808E-2,6.112207E-2,1.0447437E-2,-2.8679822E-2,5.4905873E-2,-3.145174E-2,-1.5863204E-2,-4.2627534E-4,-1.8201655E-2],"categories":[],"categories_nodes":[],"categories_segments":[],"categories_sizes":[],"default_left":[0,0,0,0,0,0,0,0,0,0,0,0,0,0,0,0,0,0,0,0,0,0,0,0,0,0,0,0,0,0,0],"id":45,"left_children":[1,3,5,7,9,11,13,15,17,19,21,23,25,27,29,-1,-1,-1,-1,-1,-1,-1,-1,-1,-1,-1,-1,-1,-1,-1,-1],"loss_changes":[4.3959305E1,9.7902565E0,8.383941E1,2.2506927E1,3.3254883E1,7.0406265E1,3.107689E1,2.0247833E1,3.497968E1,7.4131756E0,1.0391047E1,1.0567196E2,1.8923256E2,5.7922745E0,2.491143E1,0E0,0E0,0E0,0E0,0E0,0E0,0E0,0E0,0E0,0E0,0E0,0E0,0E0,0E0,0E0,0E0],"parents":[2147483647,0,0,1,1,2,2,3,3,4,4,5,5,6,6,7,7,8,8,9,9,10,10,11,11,12,12,13,13,14,14],"right_children":[2,4,6,8,10,12,14,16,18,20,22,24,26,28,30,-1,-1,-1,-1,-1,-1,-1,-1,-1,-1,-1,-1,-1,-1,-1,-1],"split_conditions":[5E0,6E0,1.7E1,4E0,2E0,7E0,2E0,2E0,3E0,7E0,7E0,7E0,1.5E1,2E1,2.3E1,-2.378198E-3,-3.4008935E-2,2.1782732E-2,-2.1273572E-2,6.3762353E-3,3.8270764E-2,-1.9850167E-3,-3.1512808E-2,6.112207E-2,1.0447437E-2,-2.8679822E-2,5.4905873E-2,-3.145174E-2,-1.5863204E-2,-4.2627534E-4,-1.8201655E-2],"split_indices":[1,0,1,1,1,0,0,0,0,0,0,1,1,1,1,0,0,0,0,0,0,0,0,0,0,0,0,0,0,0,0],"split_type":[0,0,0,0,0,0,0,0,0,0,0,0,0,0,0,0,0,0,0,0,0,0,0,0,0,0,0,0,0,0,0],"sum_hessian":[1.8089E4,2.593E3,1.5496E4,1.814E3,7.79E2,7.791E3,7.705E3,1.042E3,7.72E2,2.94E2,4.85E2,6.245E3,1.546E3,1.053E3,6.652E3,2.75E2,7.67E2,3.25E2,4.47E2,1.34E2,1.6E2,2.1E2,2.75E2,4.42E2,5.803E3,1.197E3,3.49E2,3.69E2,6.84E2,5.739E3,9.13E2],"tree_param":{"num_deleted":"0","num_feature":"2","num_nodes":"31","size_leaf_vector":"1"}},{"base_weights":[-1.5489284E-4,-1.0860156E-1,1.7997706E-2,-1.4483613E-1,-2.4147283E-2,8.3836734E-2,-4.8578426E-2,-2.3107722E-1,-2.8284652E-2,1.2859651E-1,-2.7029565E-1,1.2640126E-1,-8.80714E-2,-1.9219926E-1,-2.5818028E-2,-8.535801E-3,-3.4413107E-2,1.2110042E-2,-2.8167227E-2,6.771873E-3,3.825077E-2,-4.7080326E-3,-5.4479897E-2,-5.504263E-3,2.0424668E-2,-2.581429E-2,4.9431067E-2,-2.5492921E-2,-1.1694108E-2,6.555944E-3,-6.284602E-3],"categories":[],"categories_nodes":[],"categories_segments":[],"categories_sizes":[],"default_left":[0,0,0,0,0,0,0,0,0,0,0,0,0,0,0,0,0,0,0,0,0,0,0,0,0,0,0,0,0,0,0],"id":46,"left_children":[1,3,5,7,9,11,13,15,17,19,21,23,25,27,29,-1,-1,-1,-1,-1,-1,-1,-1,-1,-1,-1,-1,-1,-1,-1,-1],"loss_changes":[3.5613724E1,7.9345684E0,6.79322E1,1.8236988E1,2.9360916E1,5.7026657E1,2.518493E1,1.715313E1,2.9293959E1,7.424636E0,1.8295084E1,8.8233345E1,1.5335266E2,4.94606E0,2.2514708E1,0E0,0E0,0E0,0E0,0E0,0E0,0E0,0E0,0E0,0E0,0E0,0E0,0E0,0E0,0E0,0E0],"parents":[2147483647,0,0,1,1,2,2,3,3,4,4,5,5,6,6,7,7,8,8,9,9,10,10,11,11,12,12,13,13,14,14],"right_children":[2,4,6,8,10,12,14,16,18,20,22,24,26,28,30,-1,-1,-1,-1,-1,-1,-1,-1,-1,-1,-1,-1,-1,-1,-1,-1],"split_conditions":[5E0,6E0,1.7E1,4E0,4E0,7E0,2E0,1E0,4E0,3E0,7E0,3E0,1.5E1,2.1E1,4E0,-8.535801E-3,-3.4413107E-2,1.2110042E-2,-2.8167227E-2,6.771873E-3,3.825077E-2,-4.7080326E-3,-5.4479897E-2,-5.504263E-3,2.0424668E-2,-2.581429E-2,4.9431067E-2,-2.5492921E-2,-1.1694108E-2,6.555944E-3,-6.284602E-3],"split_indices":[1,0,1,1,1,0,0,1,0,1,0,0,1,1,0,0,0,0,0,0,0,0,0,0,0,0,0,0,0,0,0],"split_type":[0,0,0,0,0,0,0,0,0,0,0,0,0,0,0,0,0,0,0,0,0,0,0,0,0,0,0,0,0,0,0],"sum_hessian":[1.8089E4,2.593E3,1.5496E4,1.814E3,7.79E2,7.791E3,7.705E3,1.042E3,7.72E2,4.81E2,2.98E2,6.245E3,1.546E3,1.053E3,6.652E3,4.56E2,5.86E2,4.86E2,2.86E2,3.89E2,9.2E1,1.65E2,1.33E2,1.875E3,4.37E3,1.197E3,3.49E2,5.73E2,4.8E2,1.918E3,4.734E3],"tree_param":{"num_deleted":"0","num_feature":"2","num_nodes":"31","size_leaf_vector":"1"}},{"base_weights":[-1.4309828E-4,1.03321E-2,-1.7383377E-1,-7.789153E-2,3.5908703E-2,-7.918966E-2,-2.5773937E-1,8.841685E-2,-2.8504983E-1,5.056024E-1,1.5453799E-2,-1.957786E-1,7.441861E-2,-5.597902E-2,-1.529491E-1,-5.0233103E-2,3.1856574E-2,-9.846517E-3,-1.2362798E-1,2.2558358E-2,9.712107E-2,-4.343321E-2,3.9326022E-3,-2.7534708E-2,-1.3723373E-2,4.7233228E-2,-1.1945788E-2,-1.915737E-3,-2.7773017E-2],"categories":[],"categories_nodes":[],"categories_segments":[],"categories_sizes":[],"default_left":[0,0,0,0,0,0,0,0,0,0,0,0,0,0,0,0,0,0,0,0,0,0,0,0,0,0,0,0,0],"id":47,"left_children":[1,3,5,7,9,11,13,15,17,19,21,23,25,-1,27,-1,-1,-1,-1,-1,-1,-1,-1,-1,-1,-1,-1,-1,-1],"loss_changes":[3.2915543E1,3.8502533E1,8.151054E0,1.3214925E2,1.2708073E2,8.700446E0,1.7164715E1,2.8948282E2,3.0302252E2,7.175015E1,1.3613496E2,1.2479105E0,1.6257105E1,0E0,6.7727175E0,0E0,0E0,0E0,0E0,0E0,0E0,0E0,0E0,0E0,0E0,0E0,0E0,0E0,0E0],"parents":[2147483647,0,0,1,1,2,2,3,3,4,4,5,5,6,6,7,7,8,8,9,9,10,10,11,11,12,12,14,14],"right_children":[2,4,6,8,10,12,14,16,18,20,22,24,26,-1,28,-1,-1,-1,-1,-1,-1,-1,-1,-1,-1,-1,-1,-1,-1],"split_conditions":[2.3E1,8E0,5E0,5E0,9E0,3E0,6E0,2E0,7E0,6E0,1E1,2E0,4E0,-5.597902E-2,7E0,-5.0233103E-2,3.1856574E-2,-9.846517E-3,-1.2362798E-1,2.2558358E-2,9.712107E-2,-4.343321E-2,3.9326022E-3,-2.7534708E-2,-1.3723373E-2,4.7233228E-2,-1.1945788E-2,-1.915737E-3,-2.7773017E-2],"split_indices":[1,1,0,0,1,0,0,0,1,0,1,0,0,0,0,0,0,0,0,0,0,0,0,0,0,0,0,0,0],"split_type":[0,0,0,0,0,0,0,0,0,0,0,0,0,0,0,0,0,0,0,0,0,0,0,0,0,0,0,0,0],"sum_hessian":[1.8089E4,1.7061E4,1.028E3,3.834E3,1.3227E4,4.84E2,5.44E2,2.127E3,1.707E3,5.51E2,1.2676E4,2.75E2,2.09E2,1.39E2,4.05E2,5.96E2,1.531E3,1.428E3,2.79E2,3.45E2,2.06E2,6.38E2,1.2038E4,1.15E2,1.6E2,6.8E1,1.41E2,1.96E2,2.09E2],"tree_param":{"num_deleted":"0","num_feature":"2","num_nodes":"29","size_leaf_vector":"1"}},{"base_weights":[-1.3797893E-4,1.558031E-2,-1.0295217E-1,-9.789651E-2,3.805098E-2,-6.6043116E-2,-2.834357E-1,-1.3479258E-1,-1.1916662E-2,1.14298925E-1,-7.739702E-3,-1.431629E-1,2.3390304E-1,-3.1737138E-2,-2.500895E-2,-2.096474E-3,-2.2055564E-2,2.174577E-2,-1.5112142E-2,4.4156575E-1,7.275484E-3,-1.5384646E-1,9.851445E-4,-1.7608773E-2,-1.2190484E-2,4.6618372E-2,-1.7251339E-3],"categories":[],"categories_nodes":[],"categories_segments":[],"categories_sizes":[],"default_left":[0,0,0,0,0,0,0,0,0,0,0,0,0,0,0,0,0,0,0,0,0,0,0,0,0,0,0],"id":48,"left_children":[1,3,5,7,9,11,13,15,17,19,21,23,25,-1,-1,-1,-1,-1,-1,-1,-1,-1,-1,-1,-1,-1,-1],"loss_changes":[2.9236185E1,4.0016758E1,1.5962164E1,8.227386E0,4.5735325E1,4.613513E1,3.8119888E-1,1.7713814E1,2.4938263E1,8.779696E2,2.204143E2,1.088604E0,2.381007E1,0E0,0E0,0E0,0E0,0E0,0E0,0E0,0E0,0E0,0E0,0E0,0E0,0E0,0E0],"parents":[2147483647,0,0,1,1,2,2,3,3,4,4,5,5,6,6,7,7,8,8,9,9,10,10,11,11,12,12],"right_children":[2,4,6,8,10,12,14,16,18,20,22,24,26,-1,-1,-1,-1,-1,-1,-1,-1,-1,-1,-1,-1,-1,-1],"split_conditions":[2.2E1,5E0,7E0,6E0,4E0,6E0,2.3E1,3E0,2E0,6E0,6E0,3E0,2.3E1,-3.1737138E-2,-2.500895E-2,-2.096474E-3,-2.2055564E-2,2.174577E-2,-1.5112142E-2,4.4156575E-1,7.275484E-3,-1.5384646E-1,9.851445E-4,-1.7608773E-2,-1.2190484E-2,4.6618372E-2,-1.7251339E-3],"split_indices":[1,1,0,0,0,0,1,0,1,1,1,0,1,0,0,0,0,0,0,0,0,0,0,0,0,0,0],"split_type":[0,0,0,0,0,0,0,0,0,0,0,0,0,0,0,0,0,0,0,0,0,0,0,0,0,0,0],"sum_hessian":[1.8089E4,1.5691E4,2.398E3,2.593E3,1.3098E4,1.992E3,4.06E2,1.814E3,7.79E2,4.914E3,8.184E3,1.585E3,4.07E2,1.97E2,2.09E2,7.8E2,1.034E3,2.94E2,4.85E2,4.6E1,4.868E3,9.2E1,8.092E3,6.19E2,9.66E2,2.11E2,1.96E2],"tree_param":{"num_deleted":"0","num_feature":"2","num_nodes":"27","size_leaf_vector":"1"}},{"base_weights":[-1.1070751E-4,-6.820562E-2,2.439098E-2,-2.6680708E-1,8.90956E-2,2.762886E-1,-2.4161622E-2,3.8277246E-2,-7.106748E-1,1.2078378E0,-7.784019E-2,4.586609E-1,-1.9669653E-1,-1.910678E-1,1.5571806E-2,-3.8262244E-2,5.08797E-2,4.5047797E-2,-1.8568127E-1,3.5420593E-2,2.1582063E-1,1.5110691E-2,-1.8560741E-2,-2.8553898E-2,6.861042E-2,-4.9557954E-2,1.5891992E-3,-5.8415937E-3,-8.7354444E-2,2.1909824E-2,-6.678015E-3],"categories":[],"categories_nodes":[],"categories_segments":[],"categories_sizes":[],"default_left":[0,0,0,0,0,0,0,0,0,0,0,0,0,0,0,0,0,0,0,0,0,0,0,0,0,0,0,0,0,0,0],"id":49,"left_children":[1,3,5,7,9,11,13,15,17,19,21,23,25,27,29,-1,-1,-1,-1,-1,-1,-1,-1,-1,-1,-1,-1,-1,-1,-1,-1],"loss_changes":[3.018375E1,1.4957085E2,1.6271841E2,2.8656976E2,4.9911166E2,1.855479E2,7.39802E1,2.4873686E2,1.1480216E3,2.8074448E2,5.7417427E1,2.6289255E2,3.8067795E1,1.9413965E2,1.5104619E2,0E0,0E0,0E0,0E0,0E0,0E0,0E0,0E0,0E0,0E0,0E0,0E0,0E0,0E0,0E0,0E0],"parents":[2147483647,0,0,1,1,2,2,3,3,4,4,5,5,6,6,7,7,8,8,9,9,10,10,11,11,12,12,13,13,14,14],"right_children":[2,4,6,8,10,12,14,16,18,20,22,24,26,28,30,-1,-1,-1,-1,-1,-1,-1,-1,-1,-1,-1,-1,-1,-1,-1,-1],"split_conditions":[3E0,1.4E1,4E0,9E0,1.6E1,1.9E1,8E0,2E0,2E0,2E0,1.9E1,5E0,2.1E1,7E0,1.4E1,-3.8262244E-2,5.08797E-2,4.5047797E-2,-1.8568127E-1,3.5420593E-2,2.1582063E-1,1.5110691E-2,-1.8560741E-2,-2.8553898E-2,6.861042E-2,-4.9557954E-2,1.5891992E-3,-5.8415937E-3,-8.7354444E-2,2.1909824E-2,-6.678015E-3],"split_indices":[0,1,0,1,1,1,1,0,0,0,1,1,1,1,1,0,0,0,0,0,0,0,0,0,0,0,0,0,0,0,0],"split_type":[0,0,0,0,0,0,0,0,0,0,0,0,0,0,0,0,0,0,0,0,0,0,0,0,0,0,0,0,0,0,0],"sum_hessian":[1.8089E4,4.786E3,1.3303E4,2.115E3,2.671E3,2.149E3,1.1154E4,1.254E3,8.61E2,3.46E2,2.325E3,1.551E3,5.98E2,2.144E3,9.01E3,6.62E2,5.92E2,4.28E2,4.33E2,1.83E2,1.63E2,7.44E2,1.581E3,3.63E2,1.188E3,2.48E2,3.5E2,1.796E3,3.48E2,2.595E3,6.415E3],"tree_param":{"num_deleted":"0","num_feature":"2","num_nodes":"31","size_leaf_vector":"1"}}]},"name":"gbtree"},"learner_model_param":{"base_score":"[1.3621262E1]","boost_from_average":"1","num_class":"0","num_feature":"2","num_target":"1"},"objective":{"name":"reg:squarederror","reg_loss_param":{"scale_pos_weight":"1"}}},"version":[3,2,1]}