{"learner":{"attributes":{},"feature_names":["day_of_week","hour_of_day"],"feature_types":[],"gradient_booster":{"model":{"cats":{"enc":[],"feature_segments":[],"sorted_idx":[]},"gbtree_model_param":{"num_parallel_tree":"1","num_trees":"50"},"iteration_indptr":[0,1,2,3,4,5,6,7,8,9,10,11,12,13,14,15,16,17,18,19,20,21,22,23,24,25,26,27,28,29,30,31,32,33,34,35,36,37,38,39,40,41,42,43,44,45,46,47,48,49,50],"tree_info":[0,0,0,0,0,0,0,0,0,0,0,0,0,0,0,0,0,0,0,0,0,0,0,0,0,0,0,0,0,0,0,0,0,0,0,0,0,0,0,0,0,0,0,0,0,0,0,0,0,0],"trees":[{"base_weights":[-1.5242085E-7,-9.654987E0,2.0255663E0,-1.0327348E1,-5.361446E0,5.088657E0,-5.207829E0,-1.1228994E0,-8.461482E-1,-2.009561E-1,-8.7743455E-1,5.3532557E0,-8.2827944E-1,-3.1123035E0,-1.0232563E0,5.7230633E-1,1.2791681E-1,-1.685837E-1,-5.697846E-1],"categories":[],"categories_nodes":[],"categories_segments":[],"categories_sizes":[],"default_left":[0,0,0,0,0,0,0,0,0,0,0,0,0,0,0,0,0,0,0],"id":0,"left_children":[1,3,5,7,9,11,13,-1,-1,-1,-1,15,-1,17,-1,-1,-1,-1,-1],"loss_changes":[3.5749863E4,8.5974805E2,3.3505043E4,3.6426758E2,4.971515E2,3.8017656E3,4.70641E3,0E0,0E0,0E0,0E0,1.5625879E3,0E0,1.1669268E3,0E0,0E0,0E0,0E0,0E0],"parents":[2147483647,0,0,1,1,2,2,3,3,4,4,5,5,6,6,11,11,13,13],"right_children":[2,4,6,8,10,12,14,-1,-1,-1,-1,16,-1,18,-1,-1,-1,-1,-1],"split_conditions":[4E0,3E0,1.9E1,4E0,2E0,7E0,2.2E1,-1.1228994E0,-8.461482E-1,-2.009561E-1,-8.7743455E-1,1.8E1,-8.2827944E-1,2.1E1,-1.0232563E0,5.7230633E-1,1.2791681E-1,-1.685837E-1,-5.697846E-1],"split_indices":[1,1,1,0,0,0,1,0,0,0,0,1,0,1,0,0,0,0,0],"split_type":[0,0,0,0,0,0,0,0,0,0,0,0,0,0,0,0,0,0,0],"sum_hessian":[1.826E3,3.16E2,1.51E3,2.72E2,4.4E1,1.061E3,4.49E2,1.8E2,9.2E1,2.3E1,2.1E1,1.041E3,2E1,3.18E2,1.31E2,9.54E2,8.7E1,2.06E2,1.12E2],"tree_param":{"num_deleted":"0","num_feature":"2","num_nodes":"19","size_leaf_vector":"1"}},{"base_weights":[-2.7025137E-3,-8.699102E0,1.821759E0,-9.301826E0,-4.8492656E0,4.5796704E0,-4.690961E0,-1.0112299E0,-7.6244324E-1,-1.816978E-1,-7.936794E-1,4.818602E0,-7.493956E-1,-2.8033879E0,-9.2170584E-1,5.1513565E-1,1.1527055E-1,-1.5180676E-1,-5.133104E-1],"categories":[],"categories_nodes":[],"categories_segments":[],"categories_sizes":[],"default_left":[0,0,0,0,0,0,0,0,0,0,0,0,0,0,0,0,0,0,0],"id":1,"left_children":[1,3,5,7,9,11,13,-1,-1,-1,-1,15,-1,17,-1,-1,-1,-1,-1],"loss_changes":[2.9003479E4,6.904551E2,2.7161316E4,2.9403906E2,4.0688123E2,3.0997363E3,3.818665E3,0E0,0E0,0E0,0E0,1.2651367E3,0E0,9.4743115E2,0E0,0E0,0E0,0E0,0E0],"parents":[2147483647,0,0,1,1,2,2,3,3,4,4,5,5,6,6,11,11,13,13],"right_children":[2,4,6,8,10,12,14,-1,-1,-1,-1,16,-1,18,-1,-1,-1,-1,-1],"split_conditions":[4E0,3E0,1.9E1,4E0,2E0,7E0,2.2E1,-1.0112299E0,-7.6244324E-1,-1.816978E-1,-7.936794E-1,1.8E1,-7.493956E-1,2.1E1,-9.2170584E-1,5.1513565E-1,1.1527055E-1,-1.5180676E-1,-5.133104E-1],"split_indices":[1,1,1,0,0,0,1,0,0,0,0,1,0,1,0,0,0,0,0],"split_type":[0,0,0,0,0,0,0,0,0,0,0,0,0,0,0,0,0,0,0],"sum_hessian":[1.826E3,3.16E2,1.51E3,2.72E2,4.4E1,1.061E3,4.49E2,1.8E2,9.2E1,2.3E1,2.1E1,1.041E3,2E1,3.18E2,1.31E2,9.54E2,8.7E1,2.06E2,1.12E2],"tree_param":{"num_deleted":"0","num_feature":"2","num_nodes":"19","size_leaf_vector":"1"}},{"base_weights":[-4.870785E-3,-7.837864E0,1.638454E0,-8.37814E0,-4.386014E0,4.121591E0,-4.225391E0,-9.106657E-1,-6.8701875E-1,-1.642851E-1,-7.179191E-1,4.3373466E0,-6.7802465E-1,-2.5251338E0,-8.302335E-1,4.6367598E-1,1.0387447E-1,-1.3669942E-1,-4.6243358E-1],"categories":[],"categories_nodes":[],"categories_segments":[],"categories_sizes":[],"default_left":[0,0,0,0,0,0,0,0,0,0,0,0,0,0,0,0,0,0,0],"id":2,"left_children":[1,3,5,7,9,11,13,-1,-1,-1,-1,15,-1,17,-1,-1,-1,-1,-1],"loss_changes":[2.3530264E4,5.544414E2,2.2018682E4,2.373457E2,3.3300208E2,2.5273691E3,3.0983691E3,0E0,0E0,0E0,0E0,1.0243086E3,0E0,7.6922156E2,0E0,0E0,0E0,0E0,0E0],"parents":[2147483647,0,0,1,1,2,2,3,3,4,4,5,5,6,6,11,11,13,13],"right_children":[2,4,6,8,10,12,14,-1,-1,-1,-1,16,-1,18,-1,-1,-1,-1,-1],"split_conditions":[4E0,3E0,1.9E1,4E0,2E0,7E0,2.2E1,-9.106657E-1,-6.8701875E-1,-1.642851E-1,-7.179191E-1,1.8E1,-6.7802465E-1,2.1E1,-8.302335E-1,4.6367598E-1,1.0387447E-1,-1.3669942E-1,-4.6243358E-1],"split_indices":[1,1,1,0,0,0,1,0,0,0,0,1,0,1,0,0,0,0,0],"split_type":[0,0,0,0,0,0,0,0,0,0,0,0,0,0,0,0,0,0,0],"sum_hessian":[1.826E3,3.16E2,1.51E3,2.72E2,4.4E1,1.061E3,4.49E2,1.8E2,9.2E1,2.3E1,2.1E1,1.041E3,2E1,3.18E2,1.31E2,9.54E2,8.7E1,2.06E2,1.12E2],"tree_param":{"num_deleted":"0","num_feature":"2","num_nodes":"19","size_leaf_vector":"1"}},{"base_weights":[-6.5841107E-3,-7.0619006E0,1.4735893E0,-7.546179E0,-3.9670172E0,3.3920903E0,-4.692164E0,-8.201022E-1,-6.190556E-1,-1.4854114E-1,-6.4939046E-1,3.9558291E0,3.024959E-1,-3.0585058E0,-7.478391E-1,4.1735688E-1,-6.134509E-1,-7.968833E-2,1.0497127E-1,-1.9532926E-1,-4.1659942E-1],"categories":[],"categories_nodes":[],"categories_segments":[],"categories_sizes":[],"default_left":[0,0,0,0,0,0,0,0,0,0,0,0,0,0,0,0,0,0,0,0,0],"id":3,"left_children":[1,3,5,7,9,11,13,-1,-1,-1,-1,15,17,19,-1,-1,-1,-1,-1,-1,-1],"loss_changes":[1.9089936E4,4.4517773E2,1.7889543E4,1.9158008E2,2.7253717E2,2.0070107E3,1.6112031E3,0E0,0E0,0E0,0E0,2.1677412E3,1.4788043E2,2.7093726E2,0E0,0E0,0E0,0E0,0E0,0E0,0E0],"parents":[2147483647,0,0,1,1,2,2,3,3,4,4,5,5,6,6,11,11,12,12,13,13],"right_children":[2,4,6,8,10,12,14,-1,-1,-1,-1,16,18,20,-1,-1,-1,-1,-1,-1,-1],"split_conditions":[4E0,3E0,2E1,4E0,2E0,1.8E1,2.2E1,-8.201022E-1,-6.190556E-1,-1.4854114E-1,-6.4939046E-1,7E0,2E0,2.1E1,-7.478391E-1,4.1735688E-1,-6.134509E-1,-7.968833E-2,1.0497127E-1,-1.9532926E-1,-4.1659942E-1],"split_indices":[1,1,1,0,0,1,1,0,0,0,0,0,0,1,0,0,0,0,0,0,0],"split_type":[0,0,0,0,0,0,0,0,0,0,0,0,0,0,0,0,0,0,0,0,0],"sum_hessian":[1.826E3,3.16E2,1.51E3,2.72E2,4.4E1,1.152E3,3.58E2,1.8E2,9.2E1,2.3E1,2.1E1,9.74E2,1.78E2,2.27E2,1.31E2,9.54E2,2E1,7.2E1,1.06E2,1.15E2,1.12E2],"tree_param":{"num_deleted":"0","num_feature":"2","num_nodes":"21","size_leaf_vector":"1"}},{"base_weights":[-7.987626E-3,-6.3627677E0,1.3252177E0,-6.796832E0,-3.5880473E0,3.3417146E0,-3.43666E0,-7.385451E-1,-5.5781573E-1,-1.3430592E-1,-5.8740324E-1,3.5177126E0,-5.5502695E-1,-2.0605528E0,-6.736218E-1,1.097119E-1,3.7849244E-1,-1.12665765E-1,-3.753082E-1],"categories":[],"categories_nodes":[],"categories_segments":[],"categories_sizes":[],"default_left":[0,0,0,0,0,0,0,0,0,0,0,0,0,0,0,0,0,0,0],"id":4,"left_children":[1,3,5,7,9,11,13,-1,-1,-1,-1,15,-1,17,-1,-1,-1,-1,-1],"loss_changes":[1.5487189E4,3.5741016E2,1.4520578E4,1.5463574E2,2.2305121E2,1.6815244E3,2.0293643E3,0E0,0E0,0E0,0E0,6.698252E2,0E0,4.999972E2,0E0,0E0,0E0,0E0,0E0],"parents":[2147483647,0,0,1,1,2,2,3,3,4,4,5,5,6,6,11,11,13,13],"right_children":[2,4,6,8,10,12,14,-1,-1,-1,-1,16,-1,18,-1,-1,-1,-1,-1],"split_conditions":[4E0,3E0,1.9E1,4E0,2E0,7E0,2.2E1,-7.385451E-1,-5.5781573E-1,-1.3430592E-1,-5.8740324E-1,6E0,-5.5502695E-1,2.1E1,-6.736218E-1,1.097119E-1,3.7849244E-1,-1.12665765E-1,-3.753082E-1],"split_indices":[1,1,1,0,0,0,1,0,0,0,0,1,0,1,0,0,0,0,0],"split_type":[0,0,0,0,0,0,0,0,0,0,0,0,0,0,0,0,0,0,0],"sum_hessian":[1.826E3,3.16E2,1.51E3,2.72E2,4.4E1,1.061E3,4.49E2,1.8E2,9.2E1,2.3E1,2.1E1,1.041E3,2E1,3.18E2,1.31E2,1.04E2,9.37E2,2.06E2,1.12E2],"tree_param":{"num_deleted":"0","num_feature":"2","num_nodes":"19","size_leaf_vector":"1"}},{"base_weights":[-8.965694E-3,-5.7328568E0,1.1918831E0,-6.121897E0,-3.2452805E0,2.7537706E0,-3.8277502E0,-6.650986E-1,-5.026339E-1,-1.2143493E-1,-5.313329E-1,3.2297604E0,1.4570484E-1,-2.51415E0,-6.0676985E0,3.4621403E-1,-3.5085437E-1,-7.753691E-2,7.7273935E-2,-1.647952E-1,-3.381095E-1,-6.2648195E-1,-4.8611337E-1],"categories":[],"categories_nodes":[],"categories_segments":[],"categories_sizes":[],"default_left":[0,0,0,0,0,0,0,0,0,0,0,0,0,0,0,0,0,0,0,0,0,0,0],"id":5,"left_children":[1,3,5,7,9,11,13,-1,-1,-1,-1,15,17,19,21,-1,-1,-1,-1,-1,-1,-1,-1],"loss_changes":[1.2564768E4,2.8691406E2,1.18569375E4,1.2481348E2,1.8255066E2,1.4308779E3,1.0410654E3,0E0,0E0,0E0,0E0,1.5388457E3,1.0397974E2,1.656438E2,9.4091797E-1,0E0,0E0,0E0,0E0,0E0,0E0,0E0,0E0],"parents":[2147483647,0,0,1,1,2,2,3,3,4,4,5,5,6,6,11,11,12,12,13,13,14,14],"right_children":[2,4,6,8,10,12,14,-1,-1,-1,-1,16,18,20,22,-1,-1,-1,-1,-1,-1,-1,-1],"split_conditions":[4E0,3E0,2E1,4E0,2E0,1.8E1,2.2E1,-6.650986E-1,-5.026339E-1,-1.2143493E-1,-5.313329E-1,4E0,2E0,2.1E1,3E0,3.4621403E-1,-3.5085437E-1,-7.753691E-2,7.7273935E-2,-1.647952E-1,-3.381095E-1,-6.2648195E-1,-4.8611337E-1],"split_indices":[1,1,1,0,0,1,1,0,0,0,0,0,0,1,0,0,0,0,0,0,0,0,0],"split_type":[0,0,0,0,0,0,0,0,0,0,0,0,0,0,0,0,0,0,0,0,0,0,0],"sum_hessian":[1.826E3,3.16E2,1.51E3,2.72E2,4.4E1,1.152E3,3.58E2,1.8E2,9.2E1,2.3E1,2.1E1,9.74E2,1.78E2,2.27E2,1.31E2,9.42E2,3.2E1,7.2E1,1.06E2,1.15E2,1.12E2,1.09E2,2.2E1],"tree_param":{"num_deleted":"0","num_feature":"2","num_nodes":"23","size_leaf_vector":"1"}},{"base_weights":[-9.95268E-3,-5.1653137E0,1.071622E0,-5.5139847E0,-2.9352582E0,2.478389E0,-3.4494755E0,-5.9895617E-1,-4.52911E-1,-1.09797396E-1,-4.8061475E-1,2.9067793E0,1.3113254E-1,-2.264941E0,-5.469357E0,-2.4525492E-2,3.3663535E-1,-6.988946E-2,6.9618724E-2,-1.4845778E-1,-3.0459782E-1,-5.198696E-1,-6.4707196E-1],"categories":[],"categories_nodes":[],"categories_segments":[],"categories_sizes":[],"default_left":[0,0,0,0,0,0,0,0,0,0,0,0,0,0,0,0,0,0,0,0,0,0,0],"id":6,"left_children":[1,3,5,7,9,11,13,-1,-1,-1,-1,15,17,19,21,-1,-1,-1,-1,-1,-1,-1,-1],"loss_changes":[1.019272E4,2.3030078E2,9.618707E3,1.00740234E2,1.4940396E2,1.1590083E3,8.465625E2,0E0,0E0,0E0,0E0,1.4132041E3,8.443949E1,1.3444238E2,2.1367188E0,0E0,0E0,0E0,0E0,0E0,0E0,0E0,0E0],"parents":[2147483647,0,0,1,1,2,2,3,3,4,4,5,5,6,6,11,11,12,12,13,13,14,14],"right_children":[2,4,6,8,10,12,14,-1,-1,-1,-1,16,18,20,22,-1,-1,-1,-1,-1,-1,-1,-1],"split_conditions":[4E0,3E0,2E1,4E0,2E0,1.8E1,2.2E1,-5.9895617E-1,-4.52911E-1,-1.09797396E-1,-4.8061475E-1,6E0,2E0,2.1E1,2.3E1,-2.4525492E-2,3.3663535E-1,-6.988946E-2,6.9618724E-2,-1.4845778E-1,-3.0459782E-1,-5.198696E-1,-6.4707196E-1],"split_indices":[1,1,1,0,0,1,1,0,0,0,0,1,0,1,1,0,0,0,0,0,0,0,0],"split_type":[0,0,0,0,0,0,0,0,0,0,0,0,0,0,0,0,0,0,0,0,0,0,0],"sum_hessian":[1.826E3,3.16E2,1.51E3,2.72E2,4.4E1,1.152E3,3.58E2,1.8E2,9.2E1,2.3E1,2.1E1,9.74E2,1.78E2,2.27E2,1.31E2,1.24E2,8.5E2,7.2E1,1.06E2,1.15E2,1.12E2,1.08E2,2.3E1],"tree_param":{"num_deleted":"0","num_feature":"2","num_nodes":"23","size_leaf_vector":"1"}},{"base_weights":[-1.0572451E-2,-4.653963E0,9.6359396E-1,-4.9664392E0,-2.6548526E0,2.2308204E0,-3.1090405E0,-5.3939146E-1,-4.0810686E-1,-9.9275135E-2,-4.347379E-1,2.3909364E0,-3.2758706E0,-2.0404341E0,-4.9312615E0,2.8198457E-1,1.1801734E-2,-7.8124575E-2,-4.6641684E-1,-3.1227395E-1,-1.5310937E-1,-5.1022923E-1,-3.8988888E-1],"categories":[],"categories_nodes":[],"categories_segments":[],"categories_sizes":[],"default_left":[0,0,0,0,0,0,0,0,0,0,0,0,0,0,0,0,0,0,0,0,0,0,0],"id":7,"left_children":[1,3,5,7,9,11,13,-1,-1,-1,-1,15,17,19,21,-1,-1,-1,-1,-1,-1,-1,-1],"loss_changes":[8.268801E3,1.8483643E2,7.805132E3,8.131055E1,1.2227588E2,1.0244424E3,6.8899634E2,0E0,0E0,0E0,0E0,1.0925044E3,1.1064441E2,1.2090637E2,3.4135742E0,0E0,0E0,0E0,0E0,0E0,0E0,0E0,0E0],"parents":[2147483647,0,0,1,1,2,2,3,3,4,4,5,5,6,6,11,11,12,12,13,13,14,14],"right_children":[2,4,6,8,10,12,14,-1,-1,-1,-1,16,18,20,22,-1,-1,-1,-1,-1,-1,-1,-1],"split_conditions":[4E0,3E0,2E1,4E0,2E0,4E0,2.2E1,-5.3939146E-1,-4.0810686E-1,-9.9275135E-2,-4.347379E-1,1.8E1,7E0,2E0,3E0,2.8198457E-1,1.1801734E-2,-7.8124575E-2,-4.6641684E-1,-3.1227395E-1,-1.5310937E-1,-5.1022923E-1,-3.8988888E-1],"split_indices":[1,1,1,0,0,0,1,0,0,0,0,1,0,0,0,0,0,0,0,0,0,0,0],"split_type":[0,0,0,0,0,0,0,0,0,0,0,0,0,0,0,0,0,0,0,0,0,0,0],"sum_hessian":[1.826E3,3.16E2,1.51E3,2.72E2,4.4E1,1.152E3,3.58E2,1.8E2,9.2E1,2.3E1,2.1E1,1.12E3,3.2E1,2.27E2,1.31E2,9.42E2,1.78E2,1.2E1,2E1,7.1E1,1.56E2,1.09E2,2.2E1],"tree_param":{"num_deleted":"0","num_feature":"2","num_nodes":"23","size_leaf_vector":"1"}},{"base_weights":[-1.12106E-2,-4.19324E0,8.6616504E-1,-4.473266E0,-2.401234E0,2.1978593E0,-2.2785583E0,-4.8575034E0,-3.67735E-1,-8.976122E-2,-3.9324018E-1,-3.8090953E-1,2.5391688E0,-7.391615E-1,-3.5751834E0,-4.42924E-1,-5.198571E-1,3.6868635E-1,-1.1908364E-1,2.7535385E-1,4.37263E-2,-1.7988448E-1,-1.6067235E-2,-2.5275287E-1,-4.444955E-1],"categories":[],"categories_nodes":[],"categories_segments":[],"categories_sizes":[],"default_left":[0,0,0,0,0,0,0,0,0,0,0,0,0,0,0,0,0,0,0,0,0,0,0,0,0],"id":8,"left_children":[1,3,5,7,9,11,13,15,-1,-1,-1,17,19,21,23,-1,-1,-1,-1,-1,-1,-1,-1,-1,-1],"loss_changes":[6.7072803E3,1.4833203E2,6.332789E3,6.562598E1,1.0007358E2,9.356948E2,8.955664E2,3.4125977E0,0E0,0E0,0E0,4.162153E2,4.2144482E2,1.2660515E2,2.1110303E2,0E0,0E0,0E0,0E0,0E0,0E0,0E0,0E0,0E0,0E0],"parents":[2147483647,0,0,1,1,2,2,3,3,4,4,5,5,6,6,7,7,11,11,12,12,13,13,14,14],"right_children":[2,4,6,8,10,12,14,16,-1,-1,-1,18,20,22,24,-1,-1,-1,-1,-1,-1,-1,-1,-1,-1],"split_conditions":[4E0,3E0,1.9E1,4E0,2E0,6E0,2.1E1,2E0,-3.67735E-1,-8.976122E-2,-3.9324018E-1,2E0,1.8E1,2E0,2.2E1,-4.42924E-1,-5.198571E-1,3.6868635E-1,-1.1908364E-1,2.7535385E-1,4.37263E-2,-1.7988448E-1,-1.6067235E-2,-2.5275287E-1,-4.444955E-1],"split_indices":[1,1,1,0,0,1,1,0,0,0,0,0,1,0,1,0,0,0,0,0,0,0,0,0,0],"split_type":[0,0,0,0,0,0,0,0,0,0,0,0,0,0,0,0,0,0,0,0,0,0,0,0,0],"sum_hessian":[1.826E3,3.16E2,1.51E3,2.72E2,4.4E1,1.061E3,4.49E2,1.8E2,9.2E1,2.3E1,2.1E1,1.24E2,9.37E2,2.06E2,2.43E2,8.6E1,9.4E1,2E1,1.04E2,8.5E2,8.7E1,7.2E1,1.34E2,1.12E2,1.31E2],"tree_param":{"num_deleted":"0","num_feature":"2","num_nodes":"25","size_leaf_vector":"1"}},{"base_weights":[-1.1259967E-2,-3.779637E0,7.793336E-1,-4.030813E0,-2.1718442E0,1.8135203E0,-2.5443342E0,-4.3770723E0,-3.313569E-1,-8.1159145E-2,-3.5570362E-1,1.9533893E0,-2.9927409E0,-1.6882055E0,-4.0038266E0,-3.991407E-1,-4.684186E-1,2.2962542E-1,1.3621117E-2,-9.633026E-2,-4.1065484E-1,-2.5908613E-1,-1.2634958E-1,-3.7619188E-1,-4.9356642E-1],"categories":[],"categories_nodes":[],"categories_segments":[],"categories_sizes":[],"default_left":[0,0,0,0,0,0,0,0,0,0,0,0,0,0,0,0,0,0,0,0,0,0,0,0,0],"id":9,"left_children":[1,3,5,7,9,11,13,15,-1,-1,-1,17,19,21,23,-1,-1,-1,-1,-1,-1,-1,-1,-1,-1],"loss_changes":[5.446044E3,1.19262695E2,5.1983647E3,5.3296387E1,8.190265E1,7.809463E2,4.4181592E2,2.7416992E0,0E0,0E0,0E0,6.9812256E2,7.063748E1,8.4134094E1,1.11875E1,0E0,0E0,0E0,0E0,0E0,0E0,0E0,0E0,0E0,0E0],"parents":[2147483647,0,0,1,1,2,2,3,3,4,4,5,5,6,6,7,7,11,11,12,12,13,13,14,14],"right_children":[2,4,6,8,10,12,14,16,-1,-1,-1,18,20,22,24,-1,-1,-1,-1,-1,-1,-1,-1,-1,-1],"split_conditions":[4E0,3E0,2E1,4E0,2E0,4E0,2.2E1,2E0,-3.313569E-1,-8.1159145E-2,-3.5570362E-1,1.8E1,7E0,2E0,2.3E1,-3.991407E-1,-4.684186E-1,2.2962542E-1,1.3621117E-2,-9.633026E-2,-4.1065484E-1,-2.5908613E-1,-1.2634958E-1,-3.7619188E-1,-4.9356642E-1],"split_indices":[1,1,1,0,0,0,1,0,0,0,0,1,0,0,1,0,0,0,0,0,0,0,0,0,0],"split_type":[0,0,0,0,0,0,0,0,0,0,0,0,0,0,0,0,0,0,0,0,0,0,0,0,0],"sum_hessian":[1.826E3,3.16E2,1.51E3,2.72E2,4.4E1,1.152E3,3.58E2,1.8E2,9.2E1,2.3E1,2.1E1,1.12E3,3.2E1,2.27E2,1.31E2,8.6E1,9.4E1,9.42E2,1.78E2,1.2E1,2E1,7.1E1,1.56E2,1.08E2,2.3E1],"tree_param":{"num_deleted":"0","num_feature":"2","num_nodes":"25","size_leaf_vector":"1"}},{"base_weights":[-1.1860812E-2,-3.4068336E0,7.003948E-1,-3.6321235E0,-1.9643675E0,1.6319393E0,-2.293397E0,-3.944158E0,-2.9857752E-1,-7.338136E-2,-3.2175007E-1,1.758267E0,-2.7088299E0,-1.5210754E0,-3.6100328E0,-3.596854E-1,-4.220698E-1,2.066872E-1,1.2266593E-2,-8.74382E-2,-3.7154484E-1,-9.462058E-2,-2.0977461E-1,-4.0068802E-1,-3.1776044E-1],"categories":[],"categories_nodes":[],"categories_segments":[],"categories_sizes":[],"default_left":[0,0,0,0,0,0,0,0,0,0,0,0,0,0,0,0,0,0,0,0,0,0,0,0,0],"id":10,"left_children":[1,3,5,7,9,11,13,15,-1,-1,-1,17,19,21,23,-1,-1,-1,-1,-1,-1,-1,-1,-1,-1],"loss_changes":[4.4202334E3,9.5881836E1,4.2176953E3,4.3283203E1,6.703111E1,6.370217E2,3.5956372E2,2.2023926E0,0E0,0E0,0E0,5.655759E2,5.7688705E1,7.359949E1,9.920166E0,0E0,0E0,0E0,0E0,0E0,0E0,0E0,0E0,0E0,0E0],"parents":[2147483647,0,0,1,1,2,2,3,3,4,4,5,5,6,6,7,7,11,11,12,12,13,13,14,14],"right_children":[2,4,6,8,10,12,14,16,-1,-1,-1,18,20,22,24,-1,-1,-1,-1,-1,-1,-1,-1,-1,-1],"split_conditions":[4E0,3E0,2E1,4E0,2E0,4E0,2.2E1,2E0,-2.9857752E-1,-7.338136E-2,-3.2175007E-1,1.8E1,7E0,2.1E1,2E0,-3.596854E-1,-4.220698E-1,2.066872E-1,1.2266593E-2,-8.74382E-2,-3.7154484E-1,-9.462058E-2,-2.0977461E-1,-4.0068802E-1,-3.1776044E-1],"split_indices":[1,1,1,0,0,0,1,0,0,0,0,1,0,1,0,0,0,0,0,0,0,0,0,0,0],"split_type":[0,0,0,0,0,0,0,0,0,0,0,0,0,0,0,0,0,0,0,0,0,0,0,0,0],"sum_hessian":[1.826E3,3.16E2,1.51E3,2.72E2,4.4E1,1.152E3,3.58E2,1.8E2,9.2E1,2.3E1,2.1E1,1.12E3,3.2E1,2.27E2,1.31E2,8.6E1,9.4E1,9.42E2,1.78E2,1.2E1,2E1,1.15E2,1.12E2,6.4E1,6.7E1],"tree_param":{"num_deleted":"0","num_feature":"2","num_nodes":"25","size_leaf_vector":"1"}},{"base_weights":[-1.2173842E-2,-3.0708046E0,6.2951916E-1,-3.2728684E0,-1.7767115E0,1.4685367E0,-2.0669062E0,-3.5540612E0,-2.6904085E-1,-6.634896E-2,-2.9103756E-1,-5.7868296E-1,1.7157999E0,-1.3703027E0,-3.2544723E0,-3.2413027E-1,-3.803071E-1,2.9201967E-1,-1.2729476E-1,2.0514505E-1,1.1046833E-2,-2.168496E-1,-9.955243E-2,-3.04314E-1,-4.07867E-1],"categories":[],"categories_nodes":[],"categories_segments":[],"categories_sizes":[],"default_left":[0,0,0,0,0,0,0,0,0,0,0,0,0,0,0,0,0,0,0,0,0,0,0,0,0],"id":11,"left_children":[1,3,5,7,9,11,13,15,-1,-1,-1,17,19,21,23,-1,-1,-1,-1,-1,-1,-1,-1,-1,-1],"loss_changes":[3.5877898E3,7.7076904E1,3.4214434E3,3.5151123E1,5.4859863E1,5.8464404E2,2.925277E2,1.7695312E0,0E0,0E0,0E0,3.0736078E2,5.5422974E2,6.604642E1,1.0579712E1,0E0,0E0,0E0,0E0,0E0,0E0,0E0,0E0,0E0,0E0],"parents":[2147483647,0,0,1,1,2,2,3,3,4,4,5,5,6,6,7,7,11,11,12,12,13,13,14,14],"right_children":[2,4,6,8,10,12,14,16,-1,-1,-1,18,20,22,24,-1,-1,-1,-1,-1,-1,-1,-1,-1,-1],"split_conditions":[4E0,3E0,2E1,4E0,2E0,6E0,2.2E1,2E0,-2.6904085E-1,-6.634896E-2,-2.9103756E-1,2E0,1.8E1,2E0,2.3E1,-3.2413027E-1,-3.803071E-1,2.9201967E-1,-1.2729476E-1,2.0514505E-1,1.1046833E-2,-2.168496E-1,-9.955243E-2,-3.04314E-1,-4.07867E-1],"split_indices":[1,1,1,0,0,1,1,0,0,0,0,0,1,0,1,0,0,0,0,0,0,0,0,0,0],"split_type":[0,0,0,0,0,0,0,0,0,0,0,0,0,0,0,0,0,0,0,0,0,0,0,0,0],"sum_hessian":[1.826E3,3.16E2,1.51E3,2.72E2,4.4E1,1.152E3,3.58E2,1.8E2,9.2E1,2.3E1,2.1E1,1.24E2,1.028E3,2.27E2,1.31E2,8.6E1,9.4E1,2E1,1.04E2,8.5E2,1.78E2,7.1E1,1.56E2,1.08E2,2.3E1],"tree_param":{"num_deleted":"0","num_feature":"2","num_nodes":"25","size_leaf_vector":"1"}},{"base_weights":[-1.2039294E-2,-2.7679224E0,5.6613874E-1,-2.9491472E0,-1.6069821E0,1.4481505E0,-1.5166671E0,-3.202547E0,-2.4242602E-1,-5.999052E-2,-2.632567E-1,7.7699214E-1,2.263408E0,-4.7416297E-1,-2.3948708E0,-2.9208982E-1,-3.426767E-1,9.68461E-2,-2.4493054E-1,2.6854864E-1,3.575197E-2,-1.4498073E-1,5.691997E-3,-1.7434072E-1,-2.93442E-1],"categories":[],"categories_nodes":[],"categories_segments":[],"categories_sizes":[],"default_left":[0,0,0,0,0,0,0,0,0,0,0,0,0,0,0,0,0,0,0,0,0,0,0,0,0],"id":12,"left_children":[1,3,5,7,9,11,13,15,-1,-1,-1,17,19,21,23,-1,-1,-1,-1,-1,-1,-1,-1,-1,-1],"loss_changes":[2.9126924E3,6.1954834E1,2.777993E3,2.854663E1,4.4898636E1,5.7933276E2,4.108534E2,1.4212646E0,0E0,0E0,0E0,3.6312958E2,3.84364E2,1.0733916E2,8.064929E1,0E0,0E0,0E0,0E0,0E0,0E0,0E0,0E0,0E0,0E0],"parents":[2147483647,0,0,1,1,2,2,3,3,4,4,5,5,6,6,7,7,11,11,12,12,13,13,14,14],"right_children":[2,4,6,8,10,12,14,16,-1,-1,-1,18,20,22,24,-1,-1,-1,-1,-1,-1,-1,-1,-1,-1],"split_conditions":[4E0,3E0,1.9E1,4E0,2E0,1.3E1,2.1E1,2E0,-2.4242602E-1,-5.999052E-2,-2.632567E-1,4E0,1.8E1,2E0,2.2E1,-2.9208982E-1,-3.426767E-1,9.68461E-2,-2.4493054E-1,2.6854864E-1,3.575197E-2,-1.4498073E-1,5.691997E-3,-1.7434072E-1,-2.93442E-1],"split_indices":[1,1,1,0,0,1,1,0,0,0,0,0,1,0,1,0,0,0,0,0,0,0,0,0,0],"split_type":[0,0,0,0,0,0,0,0,0,0,0,0,0,0,0,0,0,0,0,0,0,0,0,0,0],"sum_hessian":[1.826E3,3.16E2,1.51E3,2.72E2,4.4E1,1.061E3,4.49E2,1.8E2,9.2E1,2.3E1,2.1E1,5.83E2,4.78E2,2.06E2,2.43E2,8.6E1,9.4E1,5.51E2,3.2E1,3.91E2,8.7E1,7.2E1,1.34E2,1.12E2,1.31E2],"tree_param":{"num_deleted":"0","num_feature":"2","num_nodes":"25","size_leaf_vector":"1"}},{"base_weights":[-1.1739106E-2,-2.4949172E0,5.0922656E-1,-2.6574457E0,-1.4534671E0,1.1944562E0,-1.6929433E0,-2.8857992E0,-2.1844411E-1,-5.4241396E-2,-2.3812766E-1,-5.608836E-1,1.4065292E0,-1.1353688E0,-2.6432014E0,-2.6321658E-1,-3.0876976E-1,2.5498495E-1,-1.1776885E-1,5.8408476E-2,1.86936E-1,-1.7929332E-1,-8.2657896E-2,-2.4508679E-1,-3.4065828E-1],"categories":[],"categories_nodes":[],"categories_segments":[],"categories_sizes":[],"default_left":[0,0,0,0,0,0,0,0,0,0,0,0,0,0,0,0,0,0,0,0,0,0,0,0,0],"id":13,"left_children":[1,3,5,7,9,11,13,15,-1,-1,-1,17,19,21,23,-1,-1,-1,-1,-1,-1,-1,-1,-1,-1],"loss_changes":[2.36477E3,4.97948E1,2.2821091E3,2.3183472E1,3.6746124E1,4.3000452E2,1.8721143E2,1.1413574E0,0E0,0E0,0E0,2.4284235E2,3.9059985E2,4.4813232E1,1.1031677E1,0E0,0E0,0E0,0E0,0E0,0E0,0E0,0E0,0E0,0E0],"parents":[2147483647,0,0,1,1,2,2,3,3,4,4,5,5,6,6,7,7,11,11,12,12,13,13,14,14],"right_children":[2,4,6,8,10,12,14,16,-1,-1,-1,18,20,22,24,-1,-1,-1,-1,-1,-1,-1,-1,-1,-1],"split_conditions":[4E0,3E0,2E1,4E0,2E0,6E0,2.2E1,2E0,-2.1844411E-1,-5.4241396E-2,-2.3812766E-1,2E0,2E0,2E0,2.3E1,-2.6321658E-1,-3.0876976E-1,2.5498495E-1,-1.1776885E-1,5.8408476E-2,1.86936E-1,-1.7929332E-1,-8.2657896E-2,-2.4508679E-1,-3.4065828E-1],"split_indices":[1,1,1,0,0,1,1,0,0,0,0,0,0,0,1,0,0,0,0,0,0,0,0,0,0],"split_type":[0,0,0,0,0,0,0,0,0,0,0,0,0,0,0,0,0,0,0,0,0,0,0,0,0],"sum_hessian":[1.826E3,3.16E2,1.51E3,2.72E2,4.4E1,1.152E3,3.58E2,1.8E2,9.2E1,2.3E1,2.1E1,1.24E2,1.028E3,2.27E2,1.31E2,8.6E1,9.4E1,2E1,1.04E2,3.71E2,6.57E2,7.1E1,1.56E2,1.08E2,2.3E1],"tree_param":{"num_deleted":"0","num_feature":"2","num_nodes":"25","size_leaf_vector":"1"}},{"base_weights":[-1.1412371E-2,-2.2488413E0,4.5799622E-1,-2.3945966E0,-1.3146176E0,1.1844923E0,-1.2575525E0,-2.6003795E0,-1.9683461E-1,-4.9043283E-2,-2.1539728E-1,5.99129E-1,1.8956984E0,-4.228245E-1,-1.960549E0,-2.3719747E-1,-2.782178E-1,7.6588504E-2,-2.2083989E-1,2.2773944E-1,1.7387507E-2,-1.2830167E-1,4.5448444E-3,-1.449344E-1,-2.383319E-1],"categories":[],"categories_nodes":[],"categories_segments":[],"categories_sizes":[],"default_left":[0,0,0,0,0,0,0,0,0,0,0,0,0,0,0,0,0,0,0,0,0,0,0,0,0],"id":14,"left_children":[1,3,5,7,9,11,13,15,-1,-1,-1,17,19,21,23,-1,-1,-1,-1,-1,-1,-1,-1,-1,-1],"loss_changes":[1.9198701E3,4.0017334E1,1.8847086E3,1.882788E1,3.0073883E1,4.4098975E2,2.632359E2,9.165039E-1,0E0,0E0,0E0,2.7510382E2,3.1440894E2,8.343889E1,4.9279602E1,0E0,0E0,0E0,0E0,0E0,0E0,0E0,0E0,0E0,0E0],"parents":[2147483647,0,0,1,1,2,2,3,3,4,4,5,5,6,6,7,7,11,11,12,12,13,13,14,14],"right_children":[2,4,6,8,10,12,14,16,-1,-1,-1,18,20,22,24,-1,-1,-1,-1,-1,-1,-1,-1,-1,-1],"split_conditions":[4E0,3E0,1.9E1,4E0,2E0,1.3E1,2.1E1,2E0,-1.9683461E-1,-4.9043283E-2,-2.1539728E-1,4E0,1.8E1,2E0,2.2E1,-2.3719747E-1,-2.782178E-1,7.6588504E-2,-2.2083989E-1,2.2773944E-1,1.7387507E-2,-1.2830167E-1,4.5448444E-3,-1.449344E-1,-2.383319E-1],"split_indices":[1,1,1,0,0,1,1,0,0,0,0,0,1,0,1,0,0,0,0,0,0,0,0,0,0],"split_type":[0,0,0,0,0,0,0,0,0,0,0,0,0,0,0,0,0,0,0,0,0,0,0,0,0],"sum_hessian":[1.826E3,3.16E2,1.51E3,2.72E2,4.4E1,1.061E3,4.49E2,1.8E2,9.2E1,2.3E1,2.1E1,5.83E2,4.78E2,2.06E2,2.43E2,8.6E1,9.4E1,5.51E2,3.2E1,3.91E2,8.7E1,7.2E1,1.34E2,1.12E2,1.31E2],"tree_param":{"num_deleted":"0","num_feature":"2","num_nodes":"25","size_leaf_vector":"1"}},{"base_weights":[-1.102777E-2,-2.027038E0,4.119281E-1,-2.157746E0,-1.1890321E0,1.0661386E0,-1.1329241E0,-2.3431892E0,-1.7736278E-1,-4.434326E-2,-1.9483663E-1,-5.320839E-1,1.2779847E0,-3.8114014E-1,-1.7660648E0,-2.1375036E-1,-2.5068888E-1,2.2340654E-1,-1.08024634E-1,6.2102523E-2,1.6236424E-1,-1.1564726E-1,4.0936912E-3,-1.305692E-1,-2.1467927E-1],"categories":[],"categories_nodes":[],"categories_segments":[],"categories_sizes":[],"default_left":[0,0,0,0,0,0,0,0,0,0,0,0,0,0,0,0,0,0,0,0,0,0,0,0,0],"id":15,"left_children":[1,3,5,7,9,11,13,15,-1,-1,-1,17,19,21,23,-1,-1,-1,-1,-1,-1,-1,-1,-1,-1],"loss_changes":[1.5586876E3,3.2156616E1,1.5283126E3,1.5290405E1,2.4613197E1,3.6024915E2,2.135202E2,7.359619E-1,0E0,0E0,0E0,1.9195068E2,2.119956E2,6.778809E1,3.9964478E1,0E0,0E0,0E0,0E0,0E0,0E0,0E0,0E0,0E0,0E0],"parents":[2147483647,0,0,1,1,2,2,3,3,4,4,5,5,6,6,7,7,11,11,12,12,13,13,14,14],"right_children":[2,4,6,8,10,12,14,16,-1,-1,-1,18,20,22,24,-1,-1,-1,-1,-1,-1,-1,-1,-1,-1],"split_conditions":[4E0,3E0,1.9E1,4E0,2E0,6E0,2.1E1,2E0,-1.7736278E-1,-4.434326E-2,-1.9483663E-1,2E0,2E0,2E0,2.2E1,-2.1375036E-1,-2.5068888E-1,2.2340654E-1,-1.08024634E-1,6.2102523E-2,1.6236424E-1,-1.1564726E-1,4.0936912E-3,-1.305692E-1,-2.1467927E-1],"split_indices":[1,1,1,0,0,1,1,0,0,0,0,0,0,0,1,0,0,0,0,0,0,0,0,0,0],"split_type":[0,0,0,0,0,0,0,0,0,0,0,0,0,0,0,0,0,0,0,0,0,0,0,0,0],"sum_hessian":[1.826E3,3.16E2,1.51E3,2.72E2,4.4E1,1.061E3,4.49E2,1.8E2,9.2E1,2.3E1,2.1E1,1.24E2,9.37E2,2.06E2,2.43E2,8.6E1,9.4E1,2E1,1.04E2,3.24E2,6.13E2,7.2E1,1.34E2,1.12E2,1.31E2],"tree_param":{"num_deleted":"0","num_feature":"2","num_nodes":"25","size_leaf_vector":"1"}},{"base_weights":[-1.0471527E-2,-1.8271135E0,3.706575E-1,-1.9443222E0,-1.0754441E0,8.780391E-1,-1.259932E0,-2.1114364E0,-1.5981722E-1,-4.0093724E-2,-1.762386E-1,9.616211E-1,-1.987823E0,-8.643069E-1,-1.9337397E0,-1.6371803E-1,-2.1601813E-1,1.1482328E-1,-2.6850696E-3,-8.755239E-2,-2.5817308E-1,-1.3554089E-1,-6.335831E-2,-1.7591748E-1,-2.645983E-1],"categories":[],"categories_nodes":[],"categories_segments":[],"categories_sizes":[],"default_left":[0,0,0,0,0,0,0,0,0,0,0,0,0,0,0,0,0,0,0,0,0,0,0,0,0],"id":16,"left_children":[1,3,5,7,9,11,13,15,-1,-1,-1,17,19,21,23,-1,-1,-1,-1,-1,-1,-1,-1,-1,-1],"loss_changes":[1.2656462E3,2.5837524E1,1.2512037E3,1.2417603E1,2.0144009E1,2.7809485E2,9.4029236E1,6.477051E-1,0E0,0E0,0E0,2.0681079E2,1.953952E1,2.4975677E1,1.1757141E1,0E0,0E0,0E0,0E0,0E0,0E0,0E0,0E0,0E0,0E0],"parents":[2147483647,0,0,1,1,2,2,3,3,4,4,5,5,6,6,7,7,11,11,12,12,13,13,14,14],"right_children":[2,4,6,8,10,12,14,16,-1,-1,-1,18,20,22,24,-1,-1,-1,-1,-1,-1,-1,-1,-1,-1],"split_conditions":[4E0,3E0,2E1,4E0,2E0,4E0,2.2E1,1E0,-1.5981722E-1,-4.0093724E-2,-1.762386E-1,1.8E1,7E0,2E0,2.3E1,-1.6371803E-1,-2.1601813E-1,1.1482328E-1,-2.6850696E-3,-8.755239E-2,-2.5817308E-1,-1.3554089E-1,-6.335831E-2,-1.7591748E-1,-2.645983E-1],"split_indices":[1,1,1,0,0,0,1,1,0,0,0,1,0,0,1,0,0,0,0,0,0,0,0,0,0],"split_type":[0,0,0,0,0,0,0,0,0,0,0,0,0,0,0,0,0,0,0,0,0,0,0,0,0],"sum_hessian":[1.826E3,3.16E2,1.51E3,2.72E2,4.4E1,1.152E3,3.58E2,1.8E2,9.2E1,2.3E1,2.1E1,1.12E3,3.2E1,2.27E2,1.31E2,2E1,1.6E2,9.42E2,1.78E2,1.2E1,2E1,7.1E1,1.56E2,1.08E2,2.3E1],"tree_param":{"num_deleted":"0","num_feature":"2","num_nodes":"25","size_leaf_vector":"1"}},{"base_weights":[-1.0315515E-2,-1.6467866E0,3.330145E-1,-1.7518665E0,-9.727073E-1,7.900333E-1,-1.1357199E0,-1.9023906E0,-1.4400734E-1,-3.625144E-2,-1.5941583E-1,-5.32177E-1,9.498838E-1,-7.787486E-1,-1.7437028E0,-1.712675E-1,-2.0561051E-1,1.911943E-1,-1.01593256E-1,2.9077603E-2,1.3210666E-1,-4.7458436E-2,-1.08409636E-1,-2.0613892E-1,-1.4143893E-1],"categories":[],"categories_nodes":[],"categories_segments":[],"categories_sizes":[],"default_left":[0,0,0,0,0,0,0,0,0,0,0,0,0,0,0,0,0,0,0,0,0,0,0,0,0],"id":17,"left_children":[1,3,5,7,9,11,13,15,-1,-1,-1,17,19,21,23,-1,-1,-1,-1,-1,-1,-1,-1,-1,-1],"loss_changes":[1.0270477E3,2.0749634E1,1.01513965E3,1.0072937E1,1.648632E1,2.4419904E2,7.655676E1,1.756897E0,0E0,0E0,0E0,1.4973701E2,2.5136017E2,2.0661194E1,1.0893982E1,0E0,0E0,0E0,0E0,0E0,0E0,0E0,0E0,0E0,0E0],"parents":[2147483647,0,0,1,1,2,2,3,3,4,4,5,5,6,6,7,7,11,11,12,12,13,13,14,14],"right_children":[2,4,6,8,10,12,14,16,-1,-1,-1,18,20,22,24,-1,-1,-1,-1,-1,-1,-1,-1,-1,-1],"split_conditions":[4E0,3E0,2E1,4E0,2E0,6E0,2.2E1,2E0,-1.4400734E-1,-3.625144E-2,-1.5941583E-1,2E0,2E0,2.1E1,2E0,-1.712675E-1,-2.0561051E-1,1.911943E-1,-1.01593256E-1,2.9077603E-2,1.3210666E-1,-4.7458436E-2,-1.08409636E-1,-2.0613892E-1,-1.4143893E-1],"split_indices":[1,1,1,0,0,1,1,0,0,0,0,0,0,1,0,0,0,0,0,0,0,0,0,0,0],"split_type":[0,0,0,0,0,0,0,0,0,0,0,0,0,0,0,0,0,0,0,0,0,0,0,0,0],"sum_hessian":[1.826E3,3.16E2,1.51E3,2.72E2,4.4E1,1.152E3,3.58E2,1.8E2,9.2E1,2.3E1,2.1E1,1.24E2,1.028E3,2.27E2,1.31E2,8.6E1,9.4E1,2E1,1.04E2,3.71E2,6.57E2,1.15E2,1.12E2,6.4E1,6.7E1],"tree_param":{"num_deleted":"0","num_feature":"2","num_nodes":"25","size_leaf_vector":"1"}},{"base_weights":[-9.814507E-3,-1.4843684E0,2.995458E-1,-1.5785878E0,-8.7978494E-1,8.6204463E-1,-7.223088E-1,-1.7142338E0,-1.2976147E-1,-3.277738E-2,-1.4419888E-1,2.8796414E-1,1.7151083E0,-2.381611E-1,-1.3027068E0,-1.5433761E-1,-1.8526588E-1,4.578707E-2,-1.2316766E-1,2.1484976E-1,6.124524E-2,-5.5169165E-2,2.9903928E-2,-9.76646E-2,-1.5719657E-1],"categories":[],"categories_nodes":[],"categories_segments":[],"categories_sizes":[],"default_left":[0,0,0,0,0,0,0,0,0,0,0,0,0,0,0,0,0,0,0,0,0,0,0,0,0],"id":18,"left_children":[1,3,5,7,9,11,13,15,-1,-1,-1,17,19,21,23,-1,-1,-1,-1,-1,-1,-1,-1,-1,-1],"loss_changes":[8.3386444E2,1.666864E1,8.6913354E2,8.180359E0,1.3492775E1,4.769901E2,1.5058585E2,1.4215088E0,0E0,0E0,0E0,1.5135094E2,1.8601282E2,4.9683014E1,1.9886688E1,0E0,0E0,0E0,0E0,0E0,0E0,0E0,0E0,0E0,0E0],"parents":[2147483647,0,0,1,1,2,2,3,3,4,4,5,5,6,6,7,7,11,11,12,12,13,13,14,14],"right_children":[2,4,6,8,10,12,14,16,-1,-1,-1,18,20,22,24,-1,-1,-1,-1,-1,-1,-1,-1,-1,-1],"split_conditions":[4E0,3E0,1.8E1,4E0,2E0,1.3E1,2.1E1,2E0,-1.2976147E-1,-3.277738E-2,-1.4419888E-1,1.2E1,3E0,3E0,2.2E1,-1.5433761E-1,-1.8526588E-1,4.578707E-2,-1.2316766E-1,2.1484976E-1,6.124524E-2,-5.5169165E-2,2.9903928E-2,-9.76646E-2,-1.5719657E-1],"split_indices":[1,1,1,0,0,1,1,0,0,0,0,1,0,0,1,0,0,0,0,0,0,0,0,0,0],"split_type":[0,0,0,0,0,0,0,0,0,0,0,0,0,0,0,0,0,0,0,0,0,0,0,0,0],"sum_hessian":[1.826E3,3.16E2,1.51E3,2.72E2,4.4E1,9.74E2,5.36E2,1.8E2,9.2E1,2.3E1,2.1E1,5.83E2,3.91E2,2.93E2,2.43E2,8.6E1,9.4E1,5.25E2,5.8E1,2.8E2,1.11E2,1.85E2,1.08E2,1.12E2,1.31E2],"tree_param":{"num_deleted":"0","num_feature":"2","num_nodes":"25","size_leaf_vector":"1"}},{"base_weights":[-9.231491E-3,-1.1101917E0,3.4082812E-1,-1.4224483E0,-5.9920806E-1,9.660407E-1,-6.5059966E-1,-1.5446867E0,-1.1692482E-1,6.4314723E-1,-1.0282907E0,4.7116125E-1,1.5443021E0,-2.1443114E-1,-1.1734805E0,-1.1089951E-1,-1.5919217E-1,-2.9636169E-2,1.6862457E-1,-6.22733E-2,-1.8245792E-1,7.021378E-2,-1.1105969E-1,1.9344126E-1,5.517543E-2,-4.9681913E-2,2.6940925E-2,-1.0736115E-1,-2.0442133E-1],"categories":[],"categories_nodes":[],"categories_segments":[],"categories_sizes":[],"default_left":[0,0,0,0,0,0,0,0,0,0,0,0,0,0,0,0,0,0,0,0,0,0,0,0,0,0,0,0,0],"id":19,"left_children":[1,3,5,7,9,11,13,15,-1,17,19,21,23,25,27,-1,-1,-1,-1,-1,-1,-1,-1,-1,-1,-1,-1,-1,-1],"loss_changes":[7.0450726E2,6.951276E1,8.603647E2,6.6434326E0,9.075071E1,2.428028E2,1.2221886E2,1.9595337E0,0E0,4.3619743E1,3.9554337E1,1.6884035E2,1.5071631E2,4.030328E1,1.9023376E1,0E0,0E0,0E0,0E0,0E0,0E0,0E0,0E0,0E0,0E0,0E0,0E0,0E0,0E0],"parents":[2147483647,0,0,1,1,2,2,3,3,4,4,5,5,6,6,7,7,9,9,10,10,11,11,12,12,13,13,14,14],"right_children":[2,4,6,8,10,12,14,16,-1,18,20,22,24,26,28,-1,-1,-1,-1,-1,-1,-1,-1,-1,-1,-1,-1,-1,-1],"split_conditions":[6E0,3E0,1.8E1,4E0,2E0,1.3E1,2.1E1,1E0,-1.1692482E-1,4E0,4E0,1.2E1,3E0,3E0,2.3E1,-1.1089951E-1,-1.5919217E-1,-2.9636169E-2,1.6862457E-1,-6.22733E-2,-1.8245792E-1,7.021378E-2,-1.1105969E-1,1.9344126E-1,5.517543E-2,-4.9681913E-2,2.6940925E-2,-1.0736115E-1,-2.0442133E-1],"split_indices":[1,1,1,0,0,1,1,1,0,1,0,1,0,0,1,0,0,0,0,0,0,0,0,0,0,0,0,0,0],"split_type":[0,0,0,0,0,0,0,0,0,0,0,0,0,0,0,0,0,0,0,0,0,0,0,0,0,0,0,0,0],"sum_hessian":[1.826E3,4.4E2,1.386E3,2.72E2,1.68E2,8.5E2,5.36E2,1.8E2,9.2E1,4.3E1,1.25E2,4.59E2,3.91E2,2.93E2,2.43E2,2E1,1.6E2,2.3E1,2E1,8.4E1,4.1E1,4.01E2,5.8E1,2.8E2,1.11E2,1.85E2,1.08E2,2.2E2,2.3E1],"tree_param":{"num_deleted":"0","num_feature":"2","num_nodes":"29","size_leaf_vector":"1"}},{"base_weights":[-8.647456E-3,-1.00029E0,3.0665395E-1,-1.2816211E0,-5.3991324E-1,8.696809E-1,-5.861628E-1,-1.3917103E0,-1.0535808E-1,5.8199126E-1,-9.2740434E-1,2.1143848E-1,1.2258458E0,-1.9306564E-1,-1.0574102E0,-1.2334502E-1,-1.5219937E-1,-2.6796017E-2,1.5256505E-1,-5.611929E-2,-1.6464657E-1,4.6892628E-2,-1.1170997E-1,7.876109E-2,1.7482404E-1,-4.4740457E-2,2.4271514E-2,-9.6673615E-2,-1.8483095E-1],"categories":[],"categories_nodes":[],"categories_segments":[],"categories_sizes":[],"default_left":[0,0,0,0,0,0,0,0,0,0,0,0,0,0,0,0,0,0,0,0,0,0,0,0,0,0,0,0,0],"id":20,"left_children":[1,3,5,7,9,11,13,15,-1,17,19,21,23,25,27,-1,-1,-1,-1,-1,-1,-1,-1,-1,-1,-1,-1,-1,-1],"loss_changes":[5.715481E2,5.64256E1,6.9772675E2,5.387329E0,7.400879E1,1.9925165E2,9.927298E1,1.8546753E0,0E0,3.5699646E1,3.225541E1,1.0314856E2,1.24993286E2,3.269438E1,1.5711395E1,0E0,0E0,0E0,0E0,0E0,0E0,0E0,0E0,0E0,0E0,0E0,0E0,0E0,0E0],"parents":[2147483647,0,0,1,1,2,2,3,3,4,4,5,5,6,6,7,7,9,9,10,10,11,11,12,12,13,13,14,14],"right_children":[2,4,6,8,10,12,14,16,-1,18,20,22,24,26,28,-1,-1,-1,-1,-1,-1,-1,-1,-1,-1,-1,-1,-1,-1],"split_conditions":[6E0,3E0,1.8E1,4E0,2E0,2E0,2.1E1,2E0,-1.0535808E-1,4E0,4E0,1.7E1,1.3E1,3E0,2.3E1,-1.2334502E-1,-1.5219937E-1,-2.6796017E-2,1.5256505E-1,-5.611929E-2,-1.6464657E-1,4.6892628E-2,-1.1170997E-1,7.876109E-2,1.7482404E-1,-4.4740457E-2,2.4271514E-2,-9.6673615E-2,-1.8483095E-1],"split_indices":[1,1,1,0,0,0,1,0,0,1,0,1,1,0,1,0,0,0,0,0,0,0,0,0,0,0,0,0,0],"split_type":[0,0,0,0,0,0,0,0,0,0,0,0,0,0,0,0,0,0,0,0,0,0,0,0,0,0,0,0,0],"sum_hessian":[1.826E3,4.4E2,1.386E3,2.72E2,1.68E2,8.5E2,5.36E2,1.8E2,9.2E1,4.3E1,1.25E2,2.99E2,5.51E2,2.93E2,2.43E2,8.6E1,9.4E1,2.3E1,2E1,8.4E1,4.1E1,2.51E2,4.8E1,3.01E2,2.5E2,1.85E2,1.08E2,2.2E2,2.3E1],"tree_param":{"num_deleted":"0","num_feature":"2","num_nodes":"29","size_leaf_vector":"1"}},{"base_weights":[-8.104923E-3,-9.013402E-1,2.7590722E-1,-1.1548543E0,-4.8648405E-1,7.829351E-1,-5.2810884E-1,-1.2540616E0,-9.493555E-2,5.2665067E-1,-8.364161E-1,3.563137E-1,1.281565E0,-1.7382875E-1,-9.528229E-1,-8.58425E-2,-1.2978773E-1,-2.4228042E-2,1.3803504E-1,-5.0573405E-2,-1.4857392E-1,5.63999E-2,-1.0648018E-1,1.6587435E-1,3.238083E-2,-4.0290445E-2,2.1866582E-2,-6.776162E-2,-1.1811981E-1],"categories":[],"categories_nodes":[],"categories_segments":[],"categories_sizes":[],"default_left":[0,0,0,0,0,0,0,0,0,0,0,0,0,0,0,0,0,0,0,0,0,0,0,0,0,0,0,0,0],"id":21,"left_children":[1,3,5,7,9,11,13,15,-1,17,19,21,23,25,27,-1,-1,-1,-1,-1,-1,-1,-1,-1,-1,-1,-1,-1,-1],"loss_changes":[4.6373972E2,4.581897E1,5.658359E2,4.375122E0,6.035579E1,1.8057336E2,8.0635544E1,2.0234985E0,0E0,2.9217625E1,2.6303268E1,1.3636716E2,1.4107104E2,2.6521927E1,1.4535095E1,0E0,0E0,0E0,0E0,0E0,0E0,0E0,0E0,0E0,0E0,0E0,0E0,0E0,0E0],"parents":[2147483647,0,0,1,1,2,2,3,3,4,4,5,5,6,6,7,7,9,9,10,10,11,11,12,12,13,13,14,14],"right_children":[2,4,6,8,10,12,14,16,-1,18,20,22,24,26,28,-1,-1,-1,-1,-1,-1,-1,-1,-1,-1,-1,-1,-1,-1],"split_conditions":[6E0,3E0,1.8E1,4E0,2E0,1.3E1,2.1E1,1E0,-9.493555E-2,4E0,4E0,1.2E1,3E0,3E0,2.2E1,-8.58425E-2,-1.2978773E-1,-2.4228042E-2,1.3803504E-1,-5.0573405E-2,-1.4857392E-1,5.63999E-2,-1.0648018E-1,1.6587435E-1,3.238083E-2,-4.0290445E-2,2.1866582E-2,-6.776162E-2,-1.1811981E-1],"split_indices":[1,1,1,0,0,1,1,1,0,1,0,1,0,0,1,0,0,0,0,0,0,0,0,0,0,0,0,0,0],"split_type":[0,0,0,0,0,0,0,0,0,0,0,0,0,0,0,0,0,0,0,0,0,0,0,0,0,0,0,0,0],"sum_hessian":[1.826E3,4.4E2,1.386E3,2.72E2,1.68E2,8.5E2,5.36E2,1.8E2,9.2E1,4.3E1,1.25E2,4.59E2,3.91E2,2.93E2,2.43E2,2E1,1.6E2,2.3E1,2E1,8.4E1,4.1E1,4.01E2,5.8E1,2.8E2,1.11E2,1.85E2,1.08E2,1.12E2,1.31E2],"tree_param":{"num_deleted":"0","num_feature":"2","num_nodes":"29","size_leaf_vector":"1"}},{"base_weights":[-7.541979E-3,-8.121039E-1,2.4827588E-1,-1.0405065E0,-4.383406E-1,7.0481545E-1,-4.7567838E-1,-1.1298468E0,-8.5544094E-2,4.7657225E-1,-7.543551E-1,9.652998E-2,1.0341285E0,-1.5650837E-1,-8.583026E-1,-9.832269E-2,-1.2522267E-1,-2.1906178E-2,1.2488886E-1,-4.5575563E-2,-1.3407028E-1,3.4244757E-2,-1.1701592E-1,6.7015685E-2,1.4679347E-1,-3.6283027E-2,1.9699967E-2,-7.784356E-2,-1.5579818E-1],"categories":[],"categories_nodes":[],"categories_segments":[],"categories_sizes":[],"default_left":[0,0,0,0,0,0,0,0,0,0,0,0,0,0,0,0,0,0,0,0,0,0,0,0,0,0,0,0,0],"id":22,"left_children":[1,3,5,7,9,11,13,15,-1,17,19,21,23,25,27,-1,-1,-1,-1,-1,-1,-1,-1,-1,-1,-1,-1,-1,-1],"loss_changes":[3.7623718E2,3.7191406E1,4.5875784E2,3.5472107E0,4.922176E1,1.7036935E2,6.5445274E1,2.01651E0,0E0,2.3912567E1,2.144944E1,9.3851074E1,8.617328E1,2.151479E1,1.2422241E1,0E0,0E0,0E0,0E0,0E0,0E0,0E0,0E0,0E0,0E0,0E0,0E0,0E0,0E0],"parents":[2147483647,0,0,1,1,2,2,3,3,4,4,5,5,6,6,7,7,9,9,10,10,11,11,12,12,13,13,14,14],"right_children":[2,4,6,8,10,12,14,16,-1,18,20,22,24,26,28,-1,-1,-1,-1,-1,-1,-1,-1,-1,-1,-1,-1,-1,-1],"split_conditions":[6E0,3E0,1.8E1,4E0,2E0,2E0,2.1E1,2E0,-8.5544094E-2,4E0,4E0,1.7E1,1.3E1,3E0,2.3E1,-9.832269E-2,-1.2522267E-1,-2.1906178E-2,1.2488886E-1,-4.5575563E-2,-1.3407028E-1,3.4244757E-2,-1.1701592E-1,6.7015685E-2,1.4679347E-1,-3.6283027E-2,1.9699967E-2,-7.784356E-2,-1.5579818E-1],"split_indices":[1,1,1,0,0,0,1,0,0,1,0,1,1,0,1,0,0,0,0,0,0,0,0,0,0,0,0,0,0],"split_type":[0,0,0,0,0,0,0,0,0,0,0,0,0,0,0,0,0,0,0,0,0,0,0,0,0,0,0,0,0],"sum_hessian":[1.826E3,4.4E2,1.386E3,2.72E2,1.68E2,8.5E2,5.36E2,1.8E2,9.2E1,4.3E1,1.25E2,2.99E2,5.51E2,2.93E2,2.43E2,8.6E1,9.4E1,2.3E1,2E1,8.4E1,4.1E1,2.51E2,4.8E1,3.01E2,2.5E2,1.85E2,1.08E2,2.2E2,2.3E1],"tree_param":{"num_deleted":"0","num_feature":"2","num_nodes":"29","size_leaf_vector":"1"}},{"base_weights":[-7.0642373E-3,-7.317684E-1,2.233623E-1,-9.375881E-1,-3.9496052E-1,6.344876E-1,-4.2857632E-1,-1.0180972E0,-7.7081665E-2,4.3125516E-1,-6.8034565E-1,8.6601265E-2,9.311026E-1,-1.4091365E-1,-7.7342975E-1,-6.574104E-2,-1.0588198E-1,-1.9806862E-2,1.1299463E-1,-4.107168E-2,-1.2098246E-1,3.0833898E-2,-1.0555314E-1,6.033622E-2,1.321726E-1,-3.2674182E-2,1.7748037E-2,-5.332997E-2,-9.7313635E-2],"categories":[],"categories_nodes":[],"categories_segments":[],"categories_sizes":[],"default_left":[0,0,0,0,0,0,0,0,0,0,0,0,0,0,0,0,0,0,0,0,0,0,0,0,0,0,0,0,0],"id":23,"left_children":[1,3,5,7,9,11,13,15,-1,17,19,21,23,25,27,-1,-1,-1,-1,-1,-1,-1,-1,-1,-1,-1,-1,-1,-1],"loss_changes":[3.0525613E2,3.0200562E1,3.7202747E2,2.8806915E0,4.014186E1,1.3821643E2,5.31622E1,1.9624634E0,0E0,1.9570736E1,1.7491219E1,7.630163E1,6.987131E1,1.7452965E1,1.118219E1,0E0,0E0,0E0,0E0,0E0,0E0,0E0,0E0,0E0,0E0,0E0,0E0,0E0,0E0],"parents":[2147483647,0,0,1,1,2,2,3,3,4,4,5,5,6,6,7,7,9,9,10,10,11,11,12,12,13,13,14,14],"right_children":[2,4,6,8,10,12,14,16,-1,18,20,22,24,26,28,-1,-1,-1,-1,-1,-1,-1,-1,-1,-1,-1,-1,-1,-1],"split_conditions":[6E0,3E0,1.8E1,4E0,2E0,2E0,2.1E1,1E0,-7.7081665E-2,4E0,4E0,1.7E1,1.3E1,3E0,2.2E1,-6.574104E-2,-1.0588198E-1,-1.9806862E-2,1.1299463E-1,-4.107168E-2,-1.2098246E-1,3.0833898E-2,-1.0555314E-1,6.033622E-2,1.321726E-1,-3.2674182E-2,1.7748037E-2,-5.332997E-2,-9.7313635E-2],"split_indices":[1,1,1,0,0,0,1,1,0,1,0,1,1,0,1,0,0,0,0,0,0,0,0,0,0,0,0,0,0],"split_type":[0,0,0,0,0,0,0,0,0,0,0,0,0,0,0,0,0,0,0,0,0,0,0,0,0,0,0,0,0],"sum_hessian":[1.826E3,4.4E2,1.386E3,2.72E2,1.68E2,8.5E2,5.36E2,1.8E2,9.2E1,4.3E1,1.25E2,2.99E2,5.51E2,2.93E2,2.43E2,2E1,1.6E2,2.3E1,2E1,8.4E1,4.1E1,2.51E2,4.8E1,3.01E2,2.5E2,1.85E2,1.08E2,1.12E2,1.31E2],"tree_param":{"num_deleted":"0","num_feature":"2","num_nodes":"29","size_leaf_vector":"1"}},{"base_weights":[-6.558108E-3,-6.5931165E-1,2.0099118E-1,-8.447403E-1,-3.5587183E-1,5.711766E-1,-3.8602707E-1,-9.1723573E-1,-6.945638E-2,3.9024732E-1,-6.13597E-1,2.148864E-1,9.878152E-1,-1.2687324E-1,-6.967041E-1,-7.813695E-2,-1.0320055E-1,-1.790871E-2,1.02233194E-1,-3.7012797E-2,-1.0917224E-1,-1.5129821E-2,8.643416E-2,1.3719454E-1,1.5240209E-3,-2.9424364E-2,1.5989527E-2,-6.263611E-2,-1.3154162E-1],"categories":[],"categories_nodes":[],"categories_segments":[],"categories_sizes":[],"default_left":[0,0,0,0,0,0,0,0,0,0,0,0,0,0,0,0,0,0,0,0,0,0,0,0,0,0,0,0,0],"id":24,"left_children":[1,3,5,7,9,11,13,15,-1,17,19,21,23,25,27,-1,-1,-1,-1,-1,-1,-1,-1,-1,-1,-1,-1,-1,-1],"loss_changes":[2.476518E2,2.4512878E1,3.0162335E2,2.3351135E0,3.2737083E1,1.2611377E2,4.3147156E1,2.0159912E0,0E0,1.6017258E1,1.4263424E1,1.09528206E2,1.4642853E2,1.4158037E1,9.795448E0,0E0,0E0,0E0,0E0,0E0,0E0,0E0,0E0,0E0,0E0,0E0,0E0,0E0,0E0],"parents":[2147483647,0,0,1,1,2,2,3,3,4,4,5,5,6,6,7,7,9,9,10,10,11,11,12,12,13,13,14,14],"right_children":[2,4,6,8,10,12,14,16,-1,18,20,22,24,26,28,-1,-1,-1,-1,-1,-1,-1,-1,-1,-1,-1,-1,-1,-1],"split_conditions":[6E0,3E0,1.8E1,4E0,2E0,1.3E1,2.1E1,2E0,-6.945638E-2,4E0,4E0,3E0,3E0,3E0,2.3E1,-7.813695E-2,-1.0320055E-1,-1.790871E-2,1.02233194E-1,-3.7012797E-2,-1.0917224E-1,-1.5129821E-2,8.643416E-2,1.3719454E-1,1.5240209E-3,-2.9424364E-2,1.5989527E-2,-6.263611E-2,-1.3154162E-1],"split_indices":[1,1,1,0,0,1,1,0,0,1,0,0,0,0,1,0,0,0,0,0,0,0,0,0,0,0,0,0,0],"split_type":[0,0,0,0,0,0,0,0,0,0,0,0,0,0,0,0,0,0,0,0,0,0,0,0,0,0,0,0,0],"sum_hessian":[1.826E3,4.4E2,1.386E3,2.72E2,1.68E2,8.5E2,5.36E2,1.8E2,9.2E1,4.3E1,1.25E2,4.59E2,3.91E2,2.93E2,2.43E2,8.6E1,9.4E1,2.3E1,2E1,8.4E1,4.1E1,2.94E2,1.65E2,2.8E2,1.11E2,1.85E2,1.08E2,2.2E2,2.3E1],"tree_param":{"num_deleted":"0","num_feature":"2","num_nodes":"29","size_leaf_vector":"1"}},{"base_weights":[-6.071952E-3,-5.940893E-1,1.8089397E-1,-7.611849E-1,-3.2065046E-1,5.1430595E-1,-3.478108E-1,-8.2651407E-1,-6.2585406E-2,3.5313892E-1,-5.533972E-1,2.1178696E-2,7.8137815E-1,-1.9915922E-1,-8.023921E-1,-4.9651373E-2,-8.64424E-2,-1.619242E-2,9.249663E-2,-3.3355024E-2,-9.851494E-2,2.3648182E-2,-1.08652666E-1,1.0889993E-1,4.720467E-2,1.603638E-3,-3.6723312E-2,-9.193866E-2,-2.079668E-2],"categories":[],"categories_nodes":[],"categories_segments":[],"categories_sizes":[],"default_left":[0,0,0,0,0,0,0,0,0,0,0,0,0,0,0,0,0,0,0,0,0,0,0,0,0,0,0,0,0],"id":25,"left_children":[1,3,5,7,9,11,13,15,-1,17,19,21,23,25,27,-1,-1,-1,-1,-1,-1,-1,-1,-1,-1,-1,-1,-1,-1],"loss_changes":[2.0096643E2,1.9905396E1,2.4467438E2,1.8963318E0,2.6698391E1,1.1206064E2,3.6127556E1,1.8351593E0,0E0,1.3108973E1,1.1631245E1,7.180467E1,5.2012573E1,1.4690407E1,8.98867E0,0E0,0E0,0E0,0E0,0E0,0E0,0E0,0E0,0E0,0E0,0E0,0E0,0E0,0E0],"parents":[2147483647,0,0,1,1,2,2,3,3,4,4,5,5,6,6,7,7,9,9,10,10,11,11,12,12,13,13,14,14],"right_children":[2,4,6,8,10,12,14,16,-1,18,20,22,24,26,28,-1,-1,-1,-1,-1,-1,-1,-1,-1,-1,-1,-1,-1,-1],"split_conditions":[6E0,3E0,1.8E1,4E0,2E0,2E0,2.2E1,1E0,-6.2585406E-2,4E0,4E0,1.7E1,3E0,2E1,3E0,-4.9651373E-2,-8.64424E-2,-1.619242E-2,9.249663E-2,-3.3355024E-2,-9.851494E-2,2.3648182E-2,-1.08652666E-1,1.0889993E-1,4.720467E-2,1.603638E-3,-3.6723312E-2,-9.193866E-2,-2.079668E-2],"split_indices":[1,1,1,0,0,0,1,1,0,1,0,1,0,1,0,0,0,0,0,0,0,0,0,0,0,0,0,0,0],"split_type":[0,0,0,0,0,0,0,0,0,0,0,0,0,0,0,0,0,0,0,0,0,0,0,0,0,0,0,0,0],"sum_hessian":[1.826E3,4.4E2,1.386E3,2.72E2,1.68E2,8.5E2,5.36E2,1.8E2,9.2E1,4.3E1,1.25E2,2.99E2,5.51E2,4.05E2,1.31E2,2E1,1.6E2,2.3E1,2E1,8.4E1,4.1E1,2.51E2,4.8E1,2.75E2,2.76E2,1.78E2,2.27E2,1.09E2,2.2E1],"tree_param":{"num_deleted":"0","num_feature":"2","num_nodes":"29","size_leaf_vector":"1"}},{"base_weights":[-5.6459745E-3,-5.35257E-1,1.627492E-1,-6.857941E-1,-2.8891444E-1,4.6295896E-1,-3.1330526E-1,-7.446145E-1,-5.6394167E-2,3.1955913E-1,-4.991043E-1,1.3630144E-1,8.451005E-1,-1.793301E-1,-7.2300684E-1,-6.1868187E-2,-8.521043E-2,-1.4640641E-2,8.368742E-2,-3.0058801E-2,-8.8897996E-2,3.224164E-2,-1.13411404E-1,1.19210474E-1,-3.3053656E-3,1.444124E-3,-3.3067107E-2,-8.2828365E-2,-1.880742E-2],"categories":[],"categories_nodes":[],"categories_segments":[],"categories_sizes":[],"default_left":[0,0,0,0,0,0,0,0,0,0,0,0,0,0,0,0,0,0,0,0,0,0,0,0,0,0,0,0,0],"id":26,"left_children":[1,3,5,7,9,11,13,15,-1,17,19,21,23,25,27,-1,-1,-1,-1,-1,-1,-1,-1,-1,-1,-1,-1,-1,-1],"loss_changes":[1.6302617E2,1.6155785E1,1.9836981E2,1.536789E0,2.1773745E1,1.0611467E2,2.9346191E1,1.9229126E0,0E0,1.07287655E1,9.484764E0,1.09129585E2,1.19490875E2,1.1910946E1,7.277931E0,0E0,0E0,0E0,0E0,0E0,0E0,0E0,0E0,0E0,0E0,0E0,0E0,0E0,0E0],"parents":[2147483647,0,0,1,1,2,2,3,3,4,4,5,5,6,6,7,7,9,9,10,10,11,11,12,12,13,13,14,14],"right_children":[2,4,6,8,10,12,14,16,-1,18,20,22,24,26,28,-1,-1,-1,-1,-1,-1,-1,-1,-1,-1,-1,-1,-1,-1],"split_conditions":[6E0,3E0,1.8E1,4E0,2E0,1.3E1,2.2E1,2E0,-5.6394167E-2,4E0,4E0,1.2E1,3E0,2E1,3E0,-6.1868187E-2,-8.521043E-2,-1.4640641E-2,8.368742E-2,-3.0058801E-2,-8.8897996E-2,3.224164E-2,-1.13411404E-1,1.19210474E-1,-3.3053656E-3,1.444124E-3,-3.3067107E-2,-8.2828365E-2,-1.880742E-2],"split_indices":[1,1,1,0,0,1,1,0,0,1,0,1,0,1,0,0,0,0,0,0,0,0,0,0,0,0,0,0,0],"split_type":[0,0,0,0,0,0,0,0,0,0,0,0,0,0,0,0,0,0,0,0,0,0,0,0,0,0,0,0,0],"sum_hessian":[1.826E3,4.4E2,1.386E3,2.72E2,1.68E2,8.5E2,5.36E2,1.8E2,9.2E1,4.3E1,1.25E2,4.59E2,3.91E2,4.05E2,1.31E2,8.6E1,9.4E1,2.3E1,2E1,8.4E1,4.1E1,4.01E2,5.8E1,2.8E2,1.11E2,1.78E2,2.27E2,1.09E2,2.2E1],"tree_param":{"num_deleted":"0","num_feature":"2","num_nodes":"29","size_leaf_vector":"1"}},{"base_weights":[-5.2741338E-3,-4.8230585E-1,1.4640306E-1,-6.179601E-1,-2.603182E-1,4.1670355E-1,-2.8222287E-1,-6.709657E-1,-5.0815392E-2,2.8917283E-1,-4.5013794E-1,-4.1608587E-2,6.650313E-1,-8.877793E-2,-5.141515E-1,-3.6807403E-2,-7.063058E-2,-1.3237565E-2,7.571723E-2,-8.538622E-2,-2.5934359E-2,1.637463E-2,-1.0968703E-1,4.1128095E-2,9.676911E-2,-2.4059666E-2,1.7110337E-2,-4.5668814E-2,-1.0218704E-1],"categories":[],"categories_nodes":[],"categories_segments":[],"categories_sizes":[],"default_left":[0,0,0,0,0,0,0,0,0,0,0,0,0,0,0,0,0,0,0,0,0,0,0,0,0,0,0,0,0],"id":27,"left_children":[1,3,5,7,9,11,13,15,-1,17,19,21,23,25,27,-1,-1,-1,-1,-1,-1,-1,-1,-1,-1,-1,-1,-1,-1],"loss_changes":[1.3226288E2,1.3119217E1,1.6081236E2,1.2480011E0,1.7757584E1,9.688136E1,2.4047085E1,1.6774826E0,0E0,8.780749E0,9.484123E0,6.519055E1,4.1995636E1,1.1640891E1,6.6520844E0,0E0,0E0,0E0,0E0,0E0,0E0,0E0,0E0,0E0,0E0,0E0,0E0,0E0,0E0],"parents":[2147483647,0,0,1,1,2,2,3,3,4,4,5,5,6,6,7,7,9,9,10,10,11,11,12,12,13,13,14,14],"right_children":[2,4,6,8,10,12,14,16,-1,18,20,22,24,26,28,-1,-1,-1,-1,-1,-1,-1,-1,-1,-1,-1,-1,-1,-1],"split_conditions":[6E0,3E0,1.8E1,4E0,2E0,2E0,2.1E1,1E0,-5.0815392E-2,4E0,3E0,1.7E1,1.3E1,3E0,2.3E1,-3.6807403E-2,-7.063058E-2,-1.3237565E-2,7.571723E-2,-8.538622E-2,-2.5934359E-2,1.637463E-2,-1.0968703E-1,4.1128095E-2,9.676911E-2,-2.4059666E-2,1.7110337E-2,-4.5668814E-2,-1.0218704E-1],"split_indices":[1,1,1,0,0,0,1,1,0,1,0,1,1,0,1,0,0,0,0,0,0,0,0,0,0,0,0,0,0],"split_type":[0,0,0,0,0,0,0,0,0,0,0,0,0,0,0,0,0,0,0,0,0,0,0,0,0,0,0,0,0],"sum_hessian":[1.826E3,4.4E2,1.386E3,2.72E2,1.68E2,8.5E2,5.36E2,1.8E2,9.2E1,4.3E1,1.25E2,2.99E2,5.51E2,2.93E2,2.43E2,2E1,1.6E2,2.3E1,2E1,3.9E1,8.6E1,2.51E2,4.8E1,3.01E2,2.5E2,1.85E2,1.08E2,2.2E2,2.3E1],"tree_param":{"num_deleted":"0","num_feature":"2","num_nodes":"29","size_leaf_vector":"1"}},{"base_weights":[-4.9204337E-3,-4.3454483E-1,1.3168323E-1,-5.5674374E-1,-2.3457533E-1,3.141056E-1,-3.9156E-1,-6.0446274E-1,-4.5788478E-2,-5.4798454E-2,-7.7688164E-1,-5.8875397E-2,5.244929E-1,-6.8288887E-1,-2.129337E-1,-4.8770607E-2,-7.050245E-2,-2.3265896E-2,2.67315E-2,-2.7987719E-2,-1.2605587E-1,9.2079505E-2,-1.86351E-2,7.586145E-2,3.0328915E-2,-5.6969907E-2,-7.977624E-2,-5.440551E-3,-3.1900186E-2],"categories":[],"categories_nodes":[],"categories_segments":[],"categories_sizes":[],"default_left":[0,0,0,0,0,0,0,0,0,0,0,0,0,0,0,0,0,0,0,0,0,0,0,0,0,0,0,0,0],"id":28,"left_children":[1,3,5,7,9,11,13,15,-1,17,19,21,23,25,27,-1,-1,-1,-1,-1,-1,-1,-1,-1,-1,-1,-1,-1,-1],"loss_changes":[1.0728067E2,1.0645706E1,1.3251392E2,1.0110931E0,1.6433937E1,8.077698E1,1.853659E1,1.7813187E0,0E0,7.395475E0,9.743563E0,4.662847E1,3.38468E1,1.313858E0,3.7491589E0,0E0,0E0,0E0,0E0,0E0,0E0,0E0,0E0,0E0,0E0,0E0,0E0,0E0,0E0],"parents":[2147483647,0,0,1,1,2,2,3,3,4,4,5,5,6,6,7,7,9,9,10,10,11,11,12,12,13,13,14,14],"right_children":[2,4,6,8,10,12,14,16,-1,18,20,22,24,26,28,-1,-1,-1,-1,-1,-1,-1,-1,-1,-1,-1,-1,-1,-1],"split_conditions":[6E0,3E0,2E1,4E0,4E0,2E0,2E0,2E0,-4.5788478E-2,3E0,4E0,9E0,3E0,2.2E1,2.1E1,-4.8770607E-2,-7.050245E-2,-2.3265896E-2,2.67315E-2,-2.7987719E-2,-1.2605587E-1,9.2079505E-2,-1.86351E-2,7.586145E-2,3.0328915E-2,-5.6969907E-2,-7.977624E-2,-5.440551E-3,-3.1900186E-2],"split_indices":[1,1,1,0,0,0,0,0,0,0,1,1,0,1,1,0,0,0,0,0,0,0,0,0,0,0,0,0,0],"split_type":[0,0,0,0,0,0,0,0,0,0,0,0,0,0,0,0,0,0,0,0,0,0,0,0,0,0,0,0,0],"sum_hessian":[1.826E3,4.4E2,1.386E3,2.72E2,1.68E2,1.028E3,3.58E2,1.8E2,9.2E1,1.27E2,4.1E1,3.71E2,6.57E2,1.35E2,2.23E2,8.6E1,9.4E1,8.2E1,4.5E1,2.1E1,2E1,4.2E1,3.29E2,3.18E2,3.39E2,7.1E1,6.4E1,9E1,1.33E2],"tree_param":{"num_deleted":"0","num_feature":"2","num_nodes":"29","size_leaf_vector":"1"}},{"base_weights":[-4.598047E-3,-3.6928394E-1,1.2784538E-1,-5.01674E-1,-1.9946179E-1,3.7011415E-1,-2.3557027E-1,-2.6587415E-2,-5.192634E-1,-7.680521E-2,-7.0286137E-1,7.5865984E-2,6.7993206E-1,-1.3554655E-1,-5.4143435E-1,-5.7765763E-2,-4.1258886E-2,-1.8959433E-2,2.411644E-2,-2.5316188E-2,-1.1405056E-1,9.8253205E-2,-2.1220533E-2,1.010592E-1,-1.5574098E-2,-3.208738E-2,-3.3559226E-3,-6.296719E-2,-9.588806E-3],"categories":[],"categories_nodes":[],"categories_segments":[],"categories_sizes":[],"default_left":[0,0,0,0,0,0,0,0,0,0,0,0,0,0,0,0,0,0,0,0,0,0,0,0,0,0,0,0,0],"id":29,"left_children":[1,3,5,7,9,11,13,-1,15,17,19,21,23,25,27,-1,-1,-1,-1,-1,-1,-1,-1,-1,-1,-1,-1,-1,-1],"loss_changes":[8.829177E1,1.0849045E1,1.1815454E2,9.9422455E-1,1.3221251E1,7.333493E1,1.6355406E1,0E0,1.3376465E0,6.2859755E0,7.9772186E0,1.08338875E2,1.0847621E2,7.6630483E0,5.129059E0,0E0,0E0,0E0,0E0,0E0,0E0,0E0,0E0,0E0,0E0,0E0,0E0,0E0,0E0],"parents":[2147483647,0,0,1,1,2,2,3,3,4,4,5,5,6,6,8,8,9,9,10,10,11,11,12,12,13,13,14,14],"right_children":[2,4,6,8,10,12,14,-1,16,18,20,22,24,26,28,-1,-1,-1,-1,-1,-1,-1,-1,-1,-1,-1,-1,-1,-1],"split_conditions":[7E0,3E0,1.8E1,1E0,4E0,1.3E1,2.2E1,-2.6587415E-2,4E0,3E0,4E0,9E0,3E0,2E0,3E0,-5.7765763E-2,-4.1258886E-2,-1.8959433E-2,2.411644E-2,-2.5316188E-2,-1.1405056E-1,9.8253205E-2,-2.1220533E-2,1.010592E-1,-1.5574098E-2,-3.208738E-2,-3.3559226E-3,-6.296719E-2,-9.588806E-3],"split_indices":[1,1,1,1,0,1,1,0,0,0,1,1,0,0,0,0,0,0,0,0,0,0,0,0,0,0,0,0,0],"split_type":[0,0,0,0,0,0,0,0,0,0,0,0,0,0,0,0,0,0,0,0,0,0,0,0,0,0,0,0,0],"sum_hessian":[1.826E3,4.86E2,1.34E3,2.72E2,2.14E2,8.04E2,5.36E2,2E1,2.52E2,1.73E2,4.1E1,4.13E2,3.91E2,4.05E2,1.31E2,1.6E2,9.2E1,1.28E2,4.5E1,2.1E1,2E1,9.9E1,3.14E2,2.8E2,1.11E2,1.43E2,2.62E2,1.09E2,2.2E1],"tree_param":{"num_deleted":"0","num_feature":"2","num_nodes":"29","size_leaf_vector":"1"}},{"base_weights":[-4.2505404E-3,-3.328892E-1,1.1510164E-1,-4.5196676E-1,-1.8014011E-1,3.8466787E-1,-1.6865472E-1,-2.4055278E-2,-4.6772853E-1,-6.909536E-2,-6.358935E-1,1.3197267E-1,1.081275E0,-5.342746E-1,6.635114E-2,-5.2025076E-2,-3.717736E-2,-1.7078226E-2,2.1757215E-2,-2.2899637E-2,-1.0318861E-1,-3.0356167E-2,8.579328E-2,2.1052352E-1,-7.658247E-2,-1.070163E-1,-4.0546298E-2,8.013842E-2,-8.976604E-3],"categories":[],"categories_nodes":[],"categories_segments":[],"categories_sizes":[],"default_left":[0,0,0,0,0,0,0,0,0,0,0,0,0,0,0,0,0,0,0,0,0,0,0,0,0,0,0,0,0],"id":30,"left_children":[1,3,5,7,9,11,13,-1,15,17,19,21,23,25,27,-1,-1,-1,-1,-1,-1,-1,-1,-1,-1,-1,-1,-1,-1],"loss_changes":[7.1700096E1,8.776623E0,1.0263948E2,7.971916E-1,1.0837002E1,1.2096545E2,5.6228966E1,0E0,1.081646E0,5.1093154E0,6.53109E0,1.6024777E2,3.477305E2,1.723742E1,4.58577E1,0E0,0E0,0E0,0E0,0E0,0E0,0E0,0E0,0E0,0E0,0E0,0E0,0E0,0E0],"parents":[2147483647,0,0,1,1,2,2,3,3,4,4,5,5,6,6,8,8,9,9,10,10,11,11,12,12,13,13,14,14],"right_children":[2,4,6,8,10,12,14,-1,16,18,20,22,24,26,28,-1,-1,-1,-1,-1,-1,-1,-1,-1,-1,-1,-1,-1,-1],"split_conditions":[7E0,3E0,1.7E1,1E0,4E0,1.5E1,2E0,-2.4055278E-2,4E0,3E0,4E0,3E0,3E0,1.8E1,1.8E1,-5.2025076E-2,-3.717736E-2,-1.7078226E-2,2.1757215E-2,-2.2899637E-2,-1.0318861E-1,-3.0356167E-2,8.579328E-2,2.1052352E-1,-7.658247E-2,-1.070163E-1,-4.0546298E-2,8.013842E-2,-8.976604E-3],"split_indices":[1,1,1,1,0,1,0,0,0,0,1,0,0,1,1,0,0,0,0,0,0,0,0,0,0,0,0,0,0],"split_type":[0,0,0,0,0,0,0,0,0,0,0,0,0,0,0,0,0,0,0,0,0,0,0,0,0,0,0,0,0],"sum_hessian":[1.826E3,4.86E2,1.34E3,2.72E2,2.14E2,6.87E2,6.53E2,2E1,2.52E2,1.73E2,4.1E1,5.05E2,1.82E2,2.55E2,3.98E2,1.6E2,9.2E1,1.28E2,4.5E1,2.1E1,2E1,3.16E2,1.89E2,1.17E2,6.5E1,4.8E1,2.07E2,6.9E1,3.29E2],"tree_param":{"num_deleted":"0","num_feature":"2","num_nodes":"29","size_leaf_vector":"1"}},{"base_weights":[-3.892132E-3,-3.0008203E-1,1.0367563E-1,-4.0718487E-1,-1.6269062E-1,3.4647614E-1,-1.5190606E-1,-2.17643E-2,-4.2130816E-1,-6.2158715E-2,-5.7530636E-1,1.1888478E-1,9.7387916E-1,-4.8142356E-1,5.989442E-2,-4.685488E-2,-3.349958E-2,-1.5383625E-2,1.9628827E-2,-2.0713763E-2,-9.336114E-2,-2.7330196E-2,7.7259175E-2,1.8964957E-1,-6.9040306E-2,-9.653314E-2,-3.651115E-2,7.223899E-2,-8.081643E-3],"categories":[],"categories_nodes":[],"categories_segments":[],"categories_sizes":[],"default_left":[0,0,0,0,0,0,0,0,0,0,0,0,0,0,0,0,0,0,0,0,0,0,0,0,0,0,0,0,0],"id":31,"left_children":[1,3,5,7,9,11,13,-1,15,17,19,21,23,25,27,-1,-1,-1,-1,-1,-1,-1,-1,-1,-1,-1,-1,-1,-1],"loss_changes":[5.824022E1,7.0999603E0,8.3268875E1,6.391144E-1,8.882665E0,9.812476E1,4.5672783E1,0E0,8.746338E-1,4.152914E0,5.3471146E0,1.29937E2,2.823048E2,1.4056332E1,3.7253277E1,0E0,0E0,0E0,0E0,0E0,0E0,0E0,0E0,0E0,0E0,0E0,0E0,0E0,0E0],"parents":[2147483647,0,0,1,1,2,2,3,3,4,4,5,5,6,6,8,8,9,9,10,10,11,11,12,12,13,13,14,14],"right_children":[2,4,6,8,10,12,14,-1,16,18,20,22,24,26,28,-1,-1,-1,-1,-1,-1,-1,-1,-1,-1,-1,-1,-1,-1],"split_conditions":[7E0,3E0,1.7E1,1E0,4E0,1.5E1,2E0,-2.17643E-2,4E0,3E0,4E0,3E0,3E0,1.8E1,1.8E1,-4.685488E-2,-3.349958E-2,-1.5383625E-2,1.9628827E-2,-2.0713763E-2,-9.336114E-2,-2.7330196E-2,7.7259175E-2,1.8964957E-1,-6.9040306E-2,-9.653314E-2,-3.651115E-2,7.223899E-2,-8.081643E-3],"split_indices":[1,1,1,1,0,1,0,0,0,0,1,0,0,1,1,0,0,0,0,0,0,0,0,0,0,0,0,0,0],"split_type":[0,0,0,0,0,0,0,0,0,0,0,0,0,0,0,0,0,0,0,0,0,0,0,0,0,0,0,0,0],"sum_hessian":[1.826E3,4.86E2,1.34E3,2.72E2,2.14E2,6.87E2,6.53E2,2E1,2.52E2,1.73E2,4.1E1,5.05E2,1.82E2,2.55E2,3.98E2,1.6E2,9.2E1,1.28E2,4.5E1,2.1E1,2E1,3.16E2,1.89E2,1.17E2,6.5E1,4.8E1,2.07E2,6.9E1,3.29E2],"tree_param":{"num_deleted":"0","num_feature":"2","num_nodes":"29","size_leaf_vector":"1"}},{"base_weights":[-3.5633093E-3,-2.7050912E-1,9.338388E-2,-3.668404E-1,-1.4693266E-1,2.3177211E-1,-2.8580558E-1,-2.8465074E-1,-4.0311664E-1,-5.5918764E-2,-5.204919E-1,8.2758677E-1,1.6411008E-1,-4.9273133E-1,-1.588962E-1,1.930829E-2,-4.3013964E-2,-6.046945E-2,-3.349779E-2,-1.3857232E-2,1.770862E-2,-1.8736536E-2,-8.4469624E-2,3.0005234E-1,2.1198943E-2,-2.1065956E-2,3.8665038E-2,-7.081042E-2,-4.3784462E-2,-2.8834615E-3,-2.4603581E-2],"categories":[],"categories_nodes":[],"categories_segments":[],"categories_sizes":[],"default_left":[0,0,0,0,0,0,0,0,0,0,0,0,0,0,0,0,0,0,0,0,0,0,0,0,0,0,0,0,0,0,0],"id":32,"left_children":[1,3,5,7,9,11,13,15,17,19,21,23,25,27,29,-1,-1,-1,-1,-1,-1,-1,-1,-1,-1,-1,-1,-1,-1,-1,-1],"loss_changes":[4.7307377E1,5.7434807E0,7.04357E1,6.992073E-1,7.280697E0,3.949288E1,9.349342E0,6.129982E0,2.3659344E0,3.3755512E0,4.377778E0,1.3312932E2,7.380825E1,1.2976303E0,2.5316133E0,0E0,0E0,0E0,0E0,0E0,0E0,0E0,0E0,0E0,0E0,0E0,0E0,0E0,0E0,0E0,0E0],"parents":[2147483647,0,0,1,1,2,2,3,3,4,4,5,5,6,6,7,7,8,8,9,9,10,10,11,11,12,12,13,13,14,14],"right_children":[2,4,6,8,10,12,14,16,18,20,22,24,26,28,30,-1,-1,-1,-1,-1,-1,-1,-1,-1,-1,-1,-1,-1,-1,-1,-1],"split_conditions":[7E0,3E0,2E1,2E0,4E0,9E0,2E0,2E0,3E0,3E0,4E0,2E0,2E0,2.1E1,2.1E1,1.930829E-2,-4.3013964E-2,-6.046945E-2,-3.349779E-2,-1.3857232E-2,1.770862E-2,-1.8736536E-2,-8.4469624E-2,3.0005234E-1,2.1198943E-2,-2.1065956E-2,3.8665038E-2,-7.081042E-2,-4.3784462E-2,-2.8834615E-3,-2.4603581E-2],"split_indices":[1,1,1,0,0,1,0,1,0,0,1,0,0,1,1,0,0,0,0,0,0,0,0,0,0,0,0,0,0,0,0],"split_type":[0,0,0,0,0,0,0,0,0,0,0,0,0,0,0,0,0,0,0,0,0,0,0,0,0,0,0,0,0,0,0],"sum_hessian":[1.826E3,4.86E2,1.34E3,2.72E2,2.14E2,9.82E2,3.58E2,8.6E1,1.86E2,1.73E2,4.1E1,9.9E1,8.83E2,1.35E2,2.23E2,2E1,6.6E1,4.5E1,1.41E2,1.28E2,4.5E1,2.1E1,2E1,2.1E1,7.8E1,3.29E2,5.54E2,2.5E1,1.1E2,9E1,1.33E2],"tree_param":{"num_deleted":"0","num_feature":"2","num_nodes":"31","size_leaf_vector":"1"}},{"base_weights":[-3.218117E-3,-2.4390393E-1,8.419218E-2,-3.3058733E-1,-1.3270174E-1,2.8561437E-1,-1.2783022E-1,-1.3932525E-2,-3.4515616E-1,-5.0305016E-2,-4.709E-1,7.675906E-2,8.6154425E-1,-3.9819744E-1,4.5958847E-2,-2.5645807E-2,-3.8929738E-2,-2.2222564E-2,5.174176E-3,-1.694807E-2,-7.642488E-2,-2.7429292E-2,6.620576E-2,1.7055497E-1,-6.6048875E-2,-8.5013196E-2,-2.8981773E-2,6.130695E-2,-7.447661E-3],"categories":[],"categories_nodes":[],"categories_segments":[],"categories_sizes":[],"default_left":[0,0,0,0,0,0,0,0,0,0,0,0,0,0,0,0,0,0,0,0,0,0,0,0,0,0,0,0,0],"id":33,"left_children":[1,3,5,7,9,11,13,-1,15,17,19,21,23,25,27,-1,-1,-1,-1,-1,-1,-1,-1,-1,-1,-1,-1,-1,-1],"loss_changes":[3.8457726E1,4.650509E0,5.7305283E1,7.1261597E-1,5.9675937E0,8.269063E1,3.0747715E1,0E0,8.9071655E-1,3.0641446E0,3.584156E0,1.0414952E2,2.3620903E2,1.2292633E1,2.729745E1,0E0,0E0,0E0,0E0,0E0,0E0,0E0,0E0,0E0,0E0,0E0,0E0,0E0,0E0],"parents":[2147483647,0,0,1,1,2,2,3,3,4,4,5,5,6,6,8,8,9,9,10,10,11,11,12,12,13,13,14,14],"right_children":[2,4,6,8,10,12,14,-1,16,18,20,22,24,26,28,-1,-1,-1,-1,-1,-1,-1,-1,-1,-1,-1,-1,-1,-1],"split_conditions":[7E0,3E0,1.7E1,1E0,4E0,1.5E1,2E0,-1.3932525E-2,2E0,2E0,4E0,3E0,3E0,1.8E1,1.8E1,-2.5645807E-2,-3.8929738E-2,-2.2222564E-2,5.174176E-3,-1.694807E-2,-7.642488E-2,-2.7429292E-2,6.620576E-2,1.7055497E-1,-6.6048875E-2,-8.5013196E-2,-2.8981773E-2,6.130695E-2,-7.447661E-3],"split_indices":[1,1,1,1,0,1,0,0,0,0,1,0,0,1,1,0,0,0,0,0,0,0,0,0,0,0,0,0,0],"split_type":[0,0,0,0,0,0,0,0,0,0,0,0,0,0,0,0,0,0,0,0,0,0,0,0,0,0,0,0,0],"sum_hessian":[1.826E3,4.86E2,1.34E3,2.72E2,2.14E2,6.87E2,6.53E2,2E1,2.52E2,1.73E2,4.1E1,5.05E2,1.82E2,2.55E2,3.98E2,8.6E1,1.66E2,6.4E1,1.09E2,2.1E1,2E1,3.16E2,1.89E2,1.17E2,6.5E1,4.8E1,2.07E2,6.9E1,3.29E2],"tree_param":{"num_deleted":"0","num_feature":"2","num_nodes":"29","size_leaf_vector":"1"}},{"base_weights":[-2.9541887E-3,-2.1990158E-1,7.583502E-2,-2.978162E-1,-1.19945355E-1,1.9186904E-1,-2.420961E-1,-1.260562E-2,-3.108958E-1,-4.53728E-2,-4.2603296E-1,7.265059E-1,1.311727E-1,-4.1553214E-1,-1.3571486E-1,-3.555736E-2,-2.3020739E-2,-2.0034498E-2,4.6614143E-3,-1.533028E-2,-6.91463E-2,2.7402923E-1,1.5650835E-2,-2.3552775E-2,3.3359285E-2,-3.6342327E-2,-6.435644E-2,-1.8616939E-3,-2.1422379E-2],"categories":[],"categories_nodes":[],"categories_segments":[],"categories_sizes":[],"default_left":[0,0,0,0,0,0,0,0,0,0,0,0,0,0,0,0,0,0,0,0,0,0,0,0,0,0,0,0,0],"id":34,"left_children":[1,3,5,7,9,11,13,-1,15,17,19,21,23,25,27,-1,-1,-1,-1,-1,-1,-1,-1,-1,-1,-1,-1,-1,-1],"loss_changes":[3.1245794E1,3.757059E0,4.9517048E1,5.7411575E-1,4.8882027E0,3.180354E1,6.56728E0,0E0,8.302059E-1,2.4897811E0,2.9344091E0,1.14356445E2,6.569573E1,1.3821335E0,2.055296E0,0E0,0E0,0E0,0E0,0E0,0E0,0E0,0E0,0E0,0E0,0E0,0E0,0E0,0E0],"parents":[2147483647,0,0,1,1,2,2,3,3,4,4,5,5,6,6,8,8,9,9,10,10,11,11,12,12,13,13,14,14],"right_children":[2,4,6,8,10,12,14,-1,16,18,20,22,24,26,28,-1,-1,-1,-1,-1,-1,-1,-1,-1,-1,-1,-1,-1,-1],"split_conditions":[7E0,3E0,2E1,1E0,4E0,9E0,2E0,-1.260562E-2,4E0,2E0,4E0,2E0,1.3E1,2.3E1,2.1E1,-3.555736E-2,-2.3020739E-2,-2.0034498E-2,4.6614143E-3,-1.533028E-2,-6.91463E-2,2.7402923E-1,1.5650835E-2,-2.3552775E-2,3.3359285E-2,-3.6342327E-2,-6.435644E-2,-1.8616939E-3,-2.1422379E-2],"split_indices":[1,1,1,1,0,1,0,0,0,0,1,0,1,1,1,0,0,0,0,0,0,0,0,0,0,0,0,0,0],"split_type":[0,0,0,0,0,0,0,0,0,0,0,0,0,0,0,0,0,0,0,0,0,0,0,0,0,0,0,0,0],"sum_hessian":[1.826E3,4.86E2,1.34E3,2.72E2,2.14E2,9.82E2,3.58E2,2E1,2.52E2,1.73E2,4.1E1,9.9E1,8.83E2,1.35E2,2.23E2,1.6E2,9.2E1,6.4E1,1.09E2,2.1E1,2E1,2.1E1,7.8E1,3.14E2,5.69E2,1.12E2,2.3E1,9E1,1.33E2],"tree_param":{"num_deleted":"0","num_feature":"2","num_nodes":"29","size_leaf_vector":"1"}},{"base_weights":[-2.6565734E-3,-1.982626E-1,6.8382055E-2,-2.682953E-1,-1.0841524E-1,2.4458598E-1,-1.1708689E-1,-1.9595855E-1,-3.0051455E-1,-4.0923852E-2,-3.854411E-1,-2.707168E-3,6.1598516E-1,-3.5277855E-1,3.4427274E-2,2.3298262E-2,-3.2747805E-2,-4.9351912E-2,-2.3587566E-2,-1.0873796E-2,1.5014014E-2,-1.3866931E-2,-6.256096E-2,1.8162346E-2,-1.11489356E-1,8.67509E-2,8.9325E-3,-7.995331E-2,-2.4583742E-2,5.1975634E-2,-6.862563E-3],"categories":[],"categories_nodes":[],"categories_segments":[],"categories_sizes":[],"default_left":[0,0,0,0,0,0,0,0,0,0,0,0,0,0,0,0,0,0,0,0,0,0,0,0,0,0,0,0,0,0,0],"id":35,"left_children":[1,3,5,7,9,11,13,15,17,19,21,23,25,27,29,-1,-1,-1,-1,-1,-1,-1,-1,-1,-1,-1,-1,-1,-1,-1,-1],"loss_changes":[2.540079E1,3.0352383E0,4.3852993E1,5.773754E-1,4.0040507E0,6.319067E1,2.3366894E1,4.9843254E0,2.2165298E0,2.2708151E0,2.402453E0,8.507663E1,3.6351097E1,1.2034212E1,1.999148E1,0E0,0E0,0E0,0E0,0E0,0E0,0E0,0E0,0E0,0E0,0E0,0E0,0E0,0E0,0E0,0E0],"parents":[2147483647,0,0,1,1,2,2,3,3,4,4,5,5,6,6,7,7,8,8,9,9,10,10,11,11,12,12,13,13,14,14],"right_children":[2,4,6,8,10,12,14,16,18,20,22,24,26,28,30,-1,-1,-1,-1,-1,-1,-1,-1,-1,-1,-1,-1,-1,-1,-1,-1],"split_conditions":[7E0,3E0,1.7E1,2E0,4E0,1.3E1,2E0,2E0,3E0,3E0,4E0,1.2E1,3E0,1.8E1,1.8E1,2.3298262E-2,-3.2747805E-2,-4.9351912E-2,-2.3587566E-2,-1.0873796E-2,1.5014014E-2,-1.3866931E-2,-6.256096E-2,1.8162346E-2,-1.11489356E-1,8.67509E-2,8.9325E-3,-7.995331E-2,-2.4583742E-2,5.1975634E-2,-6.862563E-3],"split_indices":[1,1,1,0,0,1,0,1,0,0,1,1,0,1,1,0,0,0,0,0,0,0,0,0,0,0,0,0,0,0,0],"split_type":[0,0,0,0,0,0,0,0,0,0,0,0,0,0,0,0,0,0,0,0,0,0,0,0,0,0,0,0,0,0,0],"sum_hessian":[1.826E3,4.86E2,1.34E3,2.72E2,2.14E2,6.87E2,6.53E2,8.6E1,1.86E2,1.73E2,4.1E1,4.13E2,2.74E2,2.55E2,3.98E2,2E1,6.6E1,4.5E1,1.41E2,1.28E2,4.5E1,2.1E1,2E1,3.55E2,5.8E1,1.85E2,8.9E1,4.8E1,2.07E2,6.9E1,3.29E2],"tree_param":{"num_deleted":"0","num_feature":"2","num_nodes":"31","size_leaf_vector":"1"}},{"base_weights":[-2.5065027E-3,-1.7875391E-1,6.1501697E-2,-2.4176754E-1,-9.790984E-2,6.3877136E-1,1.4973138E-2,-6.7049013E-3,-2.5531426E-1,-3.680756E-2,-3.4871665E-1,2.4613832E-1,1.2312288E-1,-2.5324288E-1,1.7526294E-1,-1.7647138E-2,-2.948593E-2,-9.794846E-3,1.3545296E-2,-1.25432685E-2,-5.6602765E-2,5.775251E-2,-1.1068813E-2,-1.4656173E-1,-1.2305263E-2,9.640052E-2,8.3481595E-3],"categories":[],"categories_nodes":[],"categories_segments":[],"categories_sizes":[],"default_left":[0,0,0,0,0,0,0,0,0,0,0,0,0,0,0,0,0,0,0,0,0,0,0,0,0,0,0],"id":36,"left_children":[1,3,5,7,9,11,13,-1,15,17,19,-1,21,23,25,-1,-1,-1,-1,-1,-1,-1,-1,-1,-1,-1,-1],"loss_changes":[2.0621891E1,2.457243E0,3.600906E1,6.290331E-1,3.282011E0,9.367966E1,5.344081E1,0E0,7.367821E-1,1.8458637E0,1.966928E0,0E0,8.457219E0,7.321493E1,5.624037E1,0E0,0E0,0E0,0E0,0E0,0E0,0E0,0E0,0E0,0E0,0E0,0E0],"parents":[2147483647,0,0,1,1,2,2,3,3,4,4,5,5,6,6,8,8,9,9,10,10,12,12,13,13,14,14],"right_children":[2,4,6,8,10,12,14,-1,16,18,20,-1,22,24,26,-1,-1,-1,-1,-1,-1,-1,-1,-1,-1,-1,-1],"split_conditions":[7E0,3E0,9E0,1E0,4E0,2E0,2E0,-6.7049013E-3,2E0,3E0,4E0,2.4613832E-1,3E0,1.1E1,1.1E1,-1.7647138E-2,-2.948593E-2,-9.794846E-3,1.3545296E-2,-1.25432685E-2,-5.6602765E-2,5.775251E-2,-1.1068813E-2,-1.4656173E-1,-1.2305263E-2,9.640052E-2,8.3481595E-3],"split_indices":[1,1,1,1,0,0,0,0,0,0,1,0,0,1,1,0,0,0,0,0,0,0,0,0,0,0,0],"split_type":[0,0,0,0,0,0,0,0,0,0,0,0,0,0,0,0,0,0,0,0,0,0,0,0,0,0,0],"sum_hessian":[1.826E3,4.86E2,1.34E3,2.72E2,2.14E2,9.9E1,1.241E3,2E1,2.52E2,1.73E2,4.1E1,2.1E1,7.8E1,4.64E2,7.77E2,8.6E1,1.66E2,1.28E2,4.5E1,2.1E1,2E1,2.6E1,5.2E1,4.4E1,4.2E2,8E1,6.97E2],"tree_param":{"num_deleted":"0","num_feature":"2","num_nodes":"27","size_leaf_vector":"1"}},{"base_weights":[-2.190475E-3,4.7443505E-2,-2.0528275E-1,-9.669578E-2,2.7494863E-1,-3.3810154E-1,-1.23726346E-1,-3.2977097E-2,-1.0043981E0,4.5786992E-1,-1.405473E-1,-5.4173477E-2,-2.873577E-1,-1.8245319E-2,-1.9443564E-1,-1.7377365E-2,1.5510298E-2,-1.1841333E-1,-8.269057E-2,1.0098268E-2,8.727115E-2,1.9636768E-1,-4.8799798E-2,-8.718266E-3,-4.2767875E-2,-3.6735702E-2,3.3126302E-2,-2.759709E-3,-5.1300514E-2],"categories":[],"categories_nodes":[],"categories_segments":[],"categories_sizes":[],"default_left":[0,0,0,0,0,0,0,0,0,0,0,0,0,0,0,0,0,0,0,0,0,0,0,0,0,0,0,0,0],"id":37,"left_children":[1,3,5,7,9,11,13,15,17,19,21,-1,23,25,27,-1,-1,-1,-1,-1,-1,-1,-1,-1,-1,-1,-1,-1,-1],"loss_changes":[1.8426407E1,4.8198658E1,3.8469353E0,5.2020714E1,4.3386097E1,1.2496347E0,1.6671543E0,2.2323977E1,9.030266E-1,5.854032E1,1.2890324E2,0E0,3.0805674E0,1.1225278E1,7.1078978E0,0E0,0E0,0E0,0E0,0E0,0E0,0E0,0E0,0E0,0E0,0E0,0E0,0E0,0E0],"parents":[2147483647,0,0,1,1,2,2,3,3,4,4,5,5,6,6,7,7,8,8,9,9,10,10,12,12,13,13,14,14],"right_children":[2,4,6,8,10,12,14,16,18,20,22,-1,24,26,28,-1,-1,-1,-1,-1,-1,-1,-1,-1,-1,-1,-1,-1,-1],"split_conditions":[2E1,1.3E1,2E0,1.2E1,3E0,2.1E1,2.1E1,3E0,2E0,2E0,1.5E1,-5.4173477E-2,2.2E1,3E0,3E0,-1.7377365E-2,1.5510298E-2,-1.1841333E-1,-8.269057E-2,1.0098268E-2,8.727115E-2,1.9636768E-1,-4.8799798E-2,-8.718266E-3,-4.2767875E-2,-3.6735702E-2,3.3126302E-2,-2.759709E-3,-5.1300514E-2],"split_indices":[1,1,0,1,0,1,1,0,0,0,1,0,1,0,0,0,0,0,0,0,0,0,0,0,0,0,0,0,0],"split_type":[0,0,0,0,0,0,0,0,0,0,0,0,0,0,0,0,0,0,0,0,0,0,0,0,0,0,0,0,0],"sum_hessian":[1.826E3,1.468E3,3.58E2,8.99E2,5.69E2,1.35E2,2.23E2,8.41E2,5.8E1,3.95E2,1.74E2,2.5E1,1.1E2,9E1,1.33E2,4.81E2,3.6E2,2.6E1,3.2E1,2.13E2,1.82E2,2.4E1,1.5E2,4.6E1,6.4E1,4.5E1,4.5E1,8.8E1,4.5E1],"tree_param":{"num_deleted":"0","num_feature":"2","num_nodes":"29","size_leaf_vector":"1"}},{"base_weights":[-2.0377012E-3,-1.7194279E-1,5.19855E-2,4.9486253E-2,-2.6365378E-1,-1.5362765E-1,1.7025325E-1,-1.0299973E-1,8.458659E-2,-5.305746E-1,-1.6298744E-1,-1.2763356E-1,-1.02489375E-1,5.728838E-1,6.387177E-2,2.4415037E-2,-1.8285697E-2,-4.4113602E-3,-6.795763E-2,-7.83057E-3,-2.2180669E-2,2.2430216E-1,-2.1323938E-2,1.5670216E-2,1.0058212E-1,-4.390831E-2,1.669541E-2],"categories":[],"categories_nodes":[],"categories_segments":[],"categories_sizes":[],"default_left":[0,0,0,0,0,0,0,0,0,0,0,0,0,0,0,0,0,0,0,0,0,0,0,0,0,0,0],"id":38,"left_children":[1,3,5,7,9,11,13,15,-1,17,19,-1,21,23,25,-1,-1,-1,-1,-1,-1,-1,-1,-1,-1,-1,-1],"loss_changes":[1.6778637E1,8.968646E0,3.3754395E1,1.5873899E1,8.296944E0,2.8977757E1,3.7698784E1,3.0941138E0,0E0,6.1311207E0,1.1182804E0,0E0,1.2672426E2,3.2995613E1,3.626165E1,0E0,0E0,0E0,0E0,0E0,0E0,0E0,0E0,0E0,0E0,0E0,0E0],"parents":[2147483647,0,0,1,1,2,2,3,3,4,4,5,5,6,6,7,7,9,9,10,10,12,12,13,13,14,14],"right_children":[2,4,6,8,10,12,14,16,-1,18,20,-1,22,24,26,-1,-1,-1,-1,-1,-1,-1,-1,-1,-1,-1,-1],"split_conditions":[6E0,2E0,2E0,4E0,3E0,7E0,1.1E1,2E0,8.458659E-2,1E0,4E0,-1.2763356E-1,9E0,3E0,1.3E1,2.4415037E-2,-1.8285697E-2,-4.4113602E-3,-6.795763E-2,-7.83057E-3,-2.2180669E-2,2.2430216E-1,-2.1323938E-2,1.5670216E-2,1.0058212E-1,-4.390831E-2,1.669541E-2],"split_indices":[1,0,0,1,0,1,1,1,0,1,0,0,1,0,1,0,0,0,0,0,0,0,0,0,0,0,0],"split_type":[0,0,0,0,0,0,0,0,0,0,0,0,0,0,0,0,0,0,0,0,0,0,0,0,0,0,0],"sum_hessian":[1.826E3,4.4E2,1.386E3,1.29E2,3.11E2,5.06E2,8.8E2,1.09E2,2E1,8.4E1,2.27E2,2.1E1,4.85E2,1.83E2,6.97E2,2E1,8.9E1,2E1,6.4E1,9.4E1,1.33E2,2.1E1,4.64E2,9.4E1,8.9E1,1.18E2,5.79E2],"tree_param":{"num_deleted":"0","num_feature":"2","num_nodes":"27","size_leaf_vector":"1"}},{"base_weights":[-1.750183E-3,4.366023E-2,-1.8756118E-1,-8.4172726E-2,2.4542515E-1,-1.17199786E-1,-3.0767357E-1,-2.8717747E-2,-8.7415445E-1,4.161261E-1,-1.4224914E-1,-2.0712894E-1,-7.521189E-2,-3.7180704E-1,1.2428741E-3,-1.4783213E-2,1.3040095E-2,-1.0495707E-1,-7.041425E-2,-3.8336318E-2,5.830427E-2,1.7591369E-1,-4.561061E-2,-4.6914086E-2,-5.777919E-3,-2.7837732E-3,-1.35227665E-2,-3.3627566E-2,-4.8511628E-2],"categories":[],"categories_nodes":[],"categories_segments":[],"categories_sizes":[],"default_left":[0,0,0,0,0,0,0,0,0,0,0,0,0,0,0,0,0,0,0,0,0,0,0,0,0,0,0,0,0],"id":39,"left_children":[1,3,5,7,9,11,13,15,17,19,21,23,25,27,-1,-1,-1,-1,-1,-1,-1,-1,-1,-1,-1,-1,-1,-1,-1],"loss_changes":[1.5423966E1,3.790941E1,2.9979496E0,3.9402473E1,3.7779728E1,8.45335E-1,2.7144842E0,1.5977974E1,1.0205002E0,5.3068924E1,1.0523593E2,2.7903557E0,4.4261754E-1,2.7972984E-1,0E0,0E0,0E0,0E0,0E0,0E0,0E0,0E0,0E0,0E0,0E0,0E0,0E0,0E0,0E0],"parents":[2147483647,0,0,1,1,2,2,3,3,4,4,5,5,6,6,7,7,8,8,9,9,10,10,11,11,12,12,13,13],"right_children":[2,4,6,8,10,12,14,16,18,20,22,24,26,28,-1,-1,-1,-1,-1,-1,-1,-1,-1,-1,-1,-1,-1,-1,-1],"split_conditions":[2E1,1.3E1,2.2E1,1.2E1,3E0,2E0,3E0,3E0,2E0,1.5E1,1.5E1,2.1E1,3E0,2.3E1,1.2428741E-3,-1.4783213E-2,1.3040095E-2,-1.0495707E-1,-7.041425E-2,-3.8336318E-2,5.830427E-2,1.7591369E-1,-4.561061E-2,-4.6914086E-2,-5.777919E-3,-2.7837732E-3,-1.35227665E-2,-3.3627566E-2,-4.8511628E-2],"split_indices":[1,1,1,1,0,0,0,0,0,1,1,1,0,1,0,0,0,0,0,0,0,0,0,0,0,0,0,0,0],"split_type":[0,0,0,0,0,0,0,0,0,0,0,0,0,0,0,0,0,0,0,0,0,0,0,0,0,0,0,0,0],"sum_hessian":[1.826E3,1.468E3,3.58E2,8.99E2,5.69E2,2.27E2,1.31E2,8.41E2,5.8E1,3.95E2,1.74E2,7.1E1,1.56E2,1.09E2,2.2E1,4.81E2,3.6E2,2.6E1,3.2E1,6.8E1,3.27E2,2.4E1,1.5E2,2.5E1,4.6E1,8.8E1,6.8E1,8.6E1,2.3E1],"tree_param":{"num_deleted":"0","num_feature":"2","num_nodes":"29","size_leaf_vector":"1"}},{"base_weights":[-1.6718062E-3,-1.5434709E-1,4.6872877E-2,5.990489E-2,-2.4312405E-1,1.8375519E-1,-1.0682513E-1,-7.799531E-2,7.793867E-2,-4.6375927E-1,-1.5980336E-1,2.8299656E-2,6.5166616E-1,-2.8356132E-1,6.8372563E-3,2.3497716E-2,-1.501556E-2,-2.5832984E-3,-5.9810836E-2,-8.346059E-3,-2.127344E-2,-2.258045E-2,5.1362343E-2,1.3287634E-1,-5.687753E-2,-7.552721E-2,-1.710739E-2,1.5791064E-2,-1.854768E-2],"categories":[],"categories_nodes":[],"categories_segments":[],"categories_sizes":[],"default_left":[0,0,0,0,0,0,0,0,0,0,0,0,0,0,0,0,0,0,0,0,0,0,0,0,0,0,0,0,0],"id":40,"left_children":[1,3,5,7,9,11,13,15,-1,17,19,21,23,25,27,-1,-1,-1,-1,-1,-1,-1,-1,-1,-1,-1,-1,-1,-1],"loss_changes":[1.354818E1,8.402664E0,2.9200087E1,1.2958955E1,5.6615353E0,5.337224E1,1.313966E1,2.5195432E0,0E0,4.985523E0,9.035711E-1,6.8190155E1,1.5197919E2,1.3454542E1,1.1621648E1,0E0,0E0,0E0,0E0,0E0,0E0,0E0,0E0,0E0,0E0,0E0,0E0,0E0,0E0],"parents":[2147483647,0,0,1,1,2,2,3,3,4,4,5,5,6,6,7,7,9,9,10,10,11,11,12,12,13,13,14,14],"right_children":[2,4,6,8,10,12,14,16,-1,18,20,22,24,26,28,-1,-1,-1,-1,-1,-1,-1,-1,-1,-1,-1,-1,-1,-1],"split_conditions":[6E0,2E0,1.7E1,4E0,3E0,1.5E1,2E0,2E0,7.793867E-2,1E0,4E0,3E0,3E0,1.8E1,3E0,2.3497716E-2,-1.501556E-2,-2.5832984E-3,-5.9810836E-2,-8.346059E-3,-2.127344E-2,-2.258045E-2,5.1362343E-2,1.3287634E-1,-5.687753E-2,-7.552721E-2,-1.710739E-2,1.5791064E-2,-1.854768E-2],"split_indices":[1,0,1,1,0,1,0,1,0,1,0,0,0,1,0,0,0,0,0,0,0,0,0,0,0,0,0,0,0],"split_type":[0,0,0,0,0,0,0,0,0,0,0,0,0,0,0,0,0,0,0,0,0,0,0,0,0,0,0,0,0],"sum_hessian":[1.826E3,4.4E2,1.386E3,1.29E2,3.11E2,7.33E2,6.53E2,1.09E2,2E1,8.4E1,2.27E2,5.51E2,1.82E2,2.55E2,3.98E2,2E1,8.9E1,2E1,6.4E1,9.4E1,1.33E2,3.62E2,1.89E2,1.17E2,6.5E1,4.8E1,2.07E2,2.23E2,1.75E2],"tree_param":{"num_deleted":"0","num_feature":"2","num_nodes":"29","size_leaf_vector":"1"}},{"base_weights":[-1.5024216E-3,3.8207892E-2,-1.6398974E-1,-7.04354E-2,2.096829E-1,-1.0101806E-1,-2.7151665E-1,-1.8696431E-2,-8.07618E-1,4.4952577E-1,-1.385248E-2,-1.7027831E-1,-6.861197E-2,-3.3187968E-1,2.8981168E-3,-1.3892504E-2,1.1324267E-2,-9.267557E-2,-6.856685E-2,6.394513E-2,5.201829E-3,-2.7320066E-2,1.645281E-2,-4.0758215E-2,-3.5380912E-3,-2.3544626E-3,-1.287988E-2,-3.0314038E-2,-4.222314E-2],"categories":[],"categories_nodes":[],"categories_segments":[],"categories_sizes":[],"default_left":[0,0,0,0,0,0,0,0,0,0,0,0,0,0,0,0,0,0,0,0,0,0,0,0,0,0,0,0,0],"id":41,"left_children":[1,3,5,7,9,11,13,15,17,19,21,23,25,27,-1,-1,-1,-1,-1,-1,-1,-1,-1,-1,-1,-1,-1,-1,-1],"loss_changes":[1.1794842E1,2.7381664E1,2.4034147E0,3.4311863E1,3.0565844E1,5.000527E-1,2.4039602E0,1.3372256E1,2.2174835E-1,2.072836E1,1.3738702E1,2.290419E0,4.228238E-1,1.5763664E-1,0E0,0E0,0E0,0E0,0E0,0E0,0E0,0E0,0E0,0E0,0E0,0E0,0E0,0E0,0E0],"parents":[2147483647,0,0,1,1,2,2,3,3,4,4,5,5,6,6,7,7,8,8,9,9,10,10,11,11,12,12,13,13],"right_children":[2,4,6,8,10,12,14,16,18,20,22,24,26,28,-1,-1,-1,-1,-1,-1,-1,-1,-1,-1,-1,-1,-1,-1,-1],"split_conditions":[2E1,1.3E1,2.2E1,1.2E1,1.7E1,2E0,3E0,6E0,2E0,3E0,2E0,2.1E1,2.1E1,2.3E1,2.8981168E-3,-1.3892504E-2,1.1324267E-2,-9.267557E-2,-6.856685E-2,6.394513E-2,5.201829E-3,-2.7320066E-2,1.645281E-2,-4.0758215E-2,-3.5380912E-3,-2.3544626E-3,-1.287988E-2,-3.0314038E-2,-4.222314E-2],"split_indices":[1,1,1,1,1,0,0,1,0,0,0,1,1,1,0,0,0,0,0,0,0,0,0,0,0,0,0,0,0],"split_type":[0,0,0,0,0,0,0,0,0,0,0,0,0,0,0,0,0,0,0,0,0,0,0,0,0,0,0,0,0],"sum_hessian":[1.826E3,1.468E3,3.58E2,8.99E2,5.69E2,2.27E2,1.31E2,8.41E2,5.8E1,2.74E2,2.95E2,7.1E1,1.56E2,1.09E2,2.2E1,4.4E2,4.01E2,2.6E1,3.2E1,1.85E2,8.9E1,1.2E2,1.75E2,2.5E1,4.6E1,9E1,6.6E1,8.6E1,2.3E1],"tree_param":{"num_deleted":"0","num_feature":"2","num_nodes":"29","size_leaf_vector":"1"}},{"base_weights":[-1.4805841E-3,3.4315336E-2,-1.4795057E-1,-6.357369E-2,1.8881676E-1,-9.117732E-2,-2.4489263E-1,-1.6829675E-2,-7.295886E-1,4.0482435E-1,-1.2503869E-2,-1.5386571E-1,-6.184776E-2,-2.9935125E-1,2.6209045E-3,-1.2506405E-2,1.0194691E-2,-8.3751194E-2,-6.19179E-2,5.758493E-2,4.6874727E-3,-2.4610616E-2,1.4816875E-2,-3.6839165E-2,-3.1918061E-3,-2.121593E-3,-1.1611118E-2,-2.7317485E-2,-3.8176764E-2],"categories":[],"categories_nodes":[],"categories_segments":[],"categories_sizes":[],"default_left":[0,0,0,0,0,0,0,0,0,0,0,0,0,0,0,0,0,0,0,0,0,0,0,0,0,0,0,0,0],"id":42,"left_children":[1,3,5,7,9,11,13,15,17,19,21,23,25,27,-1,-1,-1,-1,-1,-1,-1,-1,-1,-1,-1,-1,-1,-1,-1],"loss_changes":[9.584089E0,2.222915E1,1.9535055E0,2.8006712E1,2.479253E1,4.0968966E-1,1.9566689E0,1.0837256E1,1.8445969E-1,1.6808037E1,1.11463785E1,1.8718289E0,3.436936E-1,1.3302135E-1,0E0,0E0,0E0,0E0,0E0,0E0,0E0,0E0,0E0,0E0,0E0,0E0,0E0,0E0,0E0],"parents":[2147483647,0,0,1,1,2,2,3,3,4,4,5,5,6,6,7,7,8,8,9,9,10,10,11,11,12,12,13,13],"right_children":[2,4,6,8,10,12,14,16,18,20,22,24,26,28,-1,-1,-1,-1,-1,-1,-1,-1,-1,-1,-1,-1,-1,-1,-1],"split_conditions":[2E1,1.3E1,2.2E1,1.2E1,1.7E1,2E0,3E0,6E0,2E0,3E0,2E0,2.1E1,2.1E1,2.3E1,2.6209045E-3,-1.2506405E-2,1.0194691E-2,-8.3751194E-2,-6.19179E-2,5.758493E-2,4.6874727E-3,-2.4610616E-2,1.4816875E-2,-3.6839165E-2,-3.1918061E-3,-2.121593E-3,-1.1611118E-2,-2.7317485E-2,-3.8176764E-2],"split_indices":[1,1,1,1,1,0,0,1,0,0,0,1,1,1,0,0,0,0,0,0,0,0,0,0,0,0,0,0,0],"split_type":[0,0,0,0,0,0,0,0,0,0,0,0,0,0,0,0,0,0,0,0,0,0,0,0,0,0,0,0,0],"sum_hessian":[1.826E3,1.468E3,3.58E2,8.99E2,5.69E2,2.27E2,1.31E2,8.41E2,5.8E1,2.74E2,2.95E2,7.1E1,1.56E2,1.09E2,2.2E1,4.4E2,4.01E2,2.6E1,3.2E1,1.85E2,8.9E1,1.2E2,1.75E2,2.5E1,4.6E1,9E1,6.6E1,8.6E1,2.3E1],"tree_param":{"num_deleted":"0","num_feature":"2","num_nodes":"29","size_leaf_vector":"1"}},{"base_weights":[-1.448646E-3,3.0818755E-2,-1.334803E-1,-5.7380755E-2,1.7002708E-1,-8.229524E-2,-2.2087963E-1,-1.5149497E-2,-6.590983E-1,2.9971367E-1,-1.2440677E-1,-1.3903485E-1,-5.575035E-2,-2.7001145E-1,2.370202E-3,-1.1421016E-2,1.171563E-2,-7.5686224E-2,-5.5913705E-2,-4.4309836E-2,4.550622E-2,1.5314583E-1,-3.977327E-2,-3.329691E-2,-2.8793903E-3,-1.9117335E-3,-1.0467355E-2,-2.4617128E-2,-3.4518152E-2],"categories":[],"categories_nodes":[],"categories_segments":[],"categories_sizes":[],"default_left":[0,0,0,0,0,0,0,0,0,0,0,0,0,0,0,0,0,0,0,0,0,0,0,0,0,0,0,0,0],"id":43,"left_children":[1,3,5,7,9,11,13,15,17,19,21,23,25,27,-1,-1,-1,-1,-1,-1,-1,-1,-1,-1,-1,-1,-1,-1,-1],"loss_changes":[7.787715E0,1.8046293E1,1.5878239E0,2.2860176E1,2.180224E1,3.356502E-1,1.5926089E0,1.1048885E1,1.533947E-1,4.589796E1,7.9812515E1,1.529736E0,2.79375E-1,1.1215401E-1,0E0,0E0,0E0,0E0,0E0,0E0,0E0,0E0,0E0,0E0,0E0,0E0,0E0,0E0,0E0],"parents":[2147483647,0,0,1,1,2,2,3,3,4,4,5,5,6,6,7,7,8,8,9,9,10,10,11,11,12,12,13,13],"right_children":[2,4,6,8,10,12,14,16,18,20,22,24,26,28,-1,-1,-1,-1,-1,-1,-1,-1,-1,-1,-1,-1,-1,-1,-1],"split_conditions":[2E1,1.3E1,2.2E1,1.2E1,3E0,2E0,3E0,3E0,2E0,1.5E1,1.5E1,2.1E1,2.1E1,2.3E1,2.370202E-3,-1.1421016E-2,1.171563E-2,-7.5686224E-2,-5.5913705E-2,-4.4309836E-2,4.550622E-2,1.5314583E-1,-3.977327E-2,-3.329691E-2,-2.8793903E-3,-1.9117335E-3,-1.0467355E-2,-2.4617128E-2,-3.4518152E-2],"split_indices":[1,1,1,1,0,0,0,0,0,1,1,1,1,1,0,0,0,0,0,0,0,0,0,0,0,0,0,0,0],"split_type":[0,0,0,0,0,0,0,0,0,0,0,0,0,0,0,0,0,0,0,0,0,0,0,0,0,0,0,0,0],"sum_hessian":[1.826E3,1.468E3,3.58E2,8.99E2,5.69E2,2.27E2,1.31E2,8.41E2,5.8E1,3.95E2,1.74E2,7.1E1,1.56E2,1.09E2,2.2E1,4.81E2,3.6E2,2.6E1,3.2E1,6.8E1,3.27E2,2.4E1,1.5E2,2.5E1,4.6E1,9E1,6.6E1,8.6E1,2.3E1],"tree_param":{"num_deleted":"0","num_feature":"2","num_nodes":"29","size_leaf_vector":"1"}},{"base_weights":[-1.3704002E-3,1.788194E-2,-2.2315852E-1,-8.79351E-2,8.21434E-2,-1.1895903E-1,-5.7635795E-2,1.8811849E-1,-1.8985614E-1,-2.1300091E-1,1.4284386E-1,-1.2566182E-2,-8.521733E-3,-8.511498E-3,2.0549428E-1,-1.257808E-1,-7.525354E-3,-3.8074266E-2,-6.0674073E-3,4.8293035E-2,5.141709E-3],"categories":[],"categories_nodes":[],"categories_segments":[],"categories_sizes":[],"default_left":[0,0,0,0,0,0,0,0,0,0,0,0,0,0,0,0,0,0,0,0,0],"id":44,"left_children":[1,3,5,7,9,11,-1,13,15,17,19,-1,-1,-1,-1,-1,-1,-1,-1,-1,-1],"loss_changes":[7.805171E0,1.1444753E1,5.3047047E0,1.793E1,1.8787838E1,1.5074015E-2,0E0,8.790847E1,5.6816723E1,4.5506296E0,2.699499E1,0E0,0E0,0E0,0E0,0E0,0E0,0E0,0E0,0E0,0E0],"parents":[2147483647,0,0,1,1,2,2,3,3,4,4,5,5,7,7,8,8,9,9,10,10],"right_children":[2,4,6,8,10,12,-1,14,16,18,20,-1,-1,-1,-1,-1,-1,-1,-1,-1,-1],"split_conditions":[4E0,2E0,4E0,9E0,6E0,3E0,-5.7635795E-2,7E0,1.1E1,3E0,1.1E1,-1.2566182E-2,-8.521733E-3,-8.511498E-3,2.0549428E-1,-1.257808E-1,-7.525354E-3,-3.8074266E-2,-6.0674073E-3,4.8293035E-2,5.141709E-3],"split_indices":[0,0,1,1,1,1,0,1,1,0,1,0,0,0,0,0,0,0,0,0,0],"split_type":[0,0,0,0,0,0,0,0,0,0,0,0,0,0,0,0,0,0,0,0,0],"sum_hessian":[1.826E3,1.681E3,1.45E2,6.35E2,1.046E3,1.13E2,3.2E1,1.71E2,4.64E2,1.78E2,8.68E2,9.2E1,2.1E1,1.5E2,2.1E1,4.4E1,4.2E2,8.4E1,9.4E1,1.83E2,6.85E2],"tree_param":{"num_deleted":"0","num_feature":"2","num_nodes":"21","size_leaf_vector":"1"}},{"base_weights":[-1.2365971E-3,4.311522E-2,-8.085097E-2,-3.9453905E-2,4.9046746E-1,-2.0900615E-1,1.5765515E-3,-1.6347575E-1,1.3195147E-1,1.033809E0,-4.883927E-1,-6.676206E-2,-9.996233E-2,1.3074154E-1,-1.628242E-1,1.2782981E-2,-4.940955E-2,-1.619504E-2,7.273179E-2,5.018094E-2,1.7991874E-1,-3.300904E-2,-7.6999746E-2,7.564739E-2,-2.2109557E-2,1.0317031E-1,-1.1432568E-2,-1.18818834E-1,-8.6281117E-4],"categories":[],"categories_nodes":[],"categories_segments":[],"categories_sizes":[],"default_left":[0,0,0,0,0,0,0,0,0,0,0,0,0,0,0,0,0,0,0,0,0,0,0,0,0,0,0,0,0],"id":45,"left_children":[1,3,5,7,9,11,13,15,17,19,21,-1,23,25,27,-1,-1,-1,-1,-1,-1,-1,-1,-1,-1,-1,-1,-1,-1],"loss_changes":[6.454699E0,4.3383957E1,6.9088674E0,2.1109518E1,9.783444E1,1.2735585E1,8.493982E0,5.5538506E1,7.308416E1,4.7144516E1,2.6880245E0,0E0,2.1745771E1,4.9576283E1,2.7816603E1,0E0,0E0,0E0,0E0,0E0,0E0,0E0,0E0,0E0,0E0,0E0,0E0,0E0,0E0],"parents":[2147483647,0,0,1,1,2,2,3,3,4,4,5,5,6,6,7,7,8,8,9,9,10,10,12,12,13,13,14,14],"right_children":[2,4,6,8,10,12,14,16,18,20,22,-1,24,26,28,-1,-1,-1,-1,-1,-1,-1,-1,-1,-1,-1,-1,-1,-1],"split_conditions":[1.7E1,1.5E1,2E0,3E0,3E0,1.8E1,3E0,9E0,9E0,2E0,1.6E1,-6.676206E-2,1.9E1,1.8E1,1.8E1,1.2782981E-2,-4.940955E-2,-1.619504E-2,7.273179E-2,5.018094E-2,1.7991874E-1,-3.300904E-2,-7.6999746E-2,7.564739E-2,-2.2109557E-2,1.0317031E-1,-1.1432568E-2,-1.18818834E-1,-8.6281117E-4],"split_indices":[1,1,0,0,0,1,0,1,1,0,1,0,1,1,1,0,0,0,0,0,0,0,0,0,0,0,0,0,0],"split_type":[0,0,0,0,0,0,0,0,0,0,0,0,0,0,0,0,0,0,0,0,0,0,0,0,0,0,0,0,0],"sum_hessian":[1.826E3,1.173E3,6.53E2,9.91E2,1.82E2,2.55E2,3.98E2,5.75E2,4.16E2,1.17E2,6.5E1,4.8E1,2.07E2,2.23E2,1.75E2,3.06E2,2.69E2,2.79E2,1.37E2,7E1,4.7E1,4.3E1,2.2E1,2.5E1,1.82E2,4.7E1,1.76E2,2.2E1,1.53E2],"tree_param":{"num_deleted":"0","num_feature":"2","num_nodes":"29","size_leaf_vector":"1"}},{"base_weights":[-1.0586862E-3,-1.4055718E-1,2.3432728E-2,3.6733062E-3,-1.5471742E-1,9.320161E-2,-7.282869E-2,-7.982493E-2,-1.9280681E-1,4.399635E-3,4.4207713E-1,-1.8815693E-1,1.3489054E-3,2.4454905E-2,-1.8030299E-2,-4.9076375E-2,-1.3689351E-2,-1.4797564E-2,2.5006121E-2,9.323786E-2,-4.412206E-2,-6.022202E-2,-8.9708585E-3,1.1807697E-2,-1.4722175E-2],"categories":[],"categories_nodes":[],"categories_segments":[],"categories_sizes":[],"default_left":[0,0,0,0,0,0,0,0,0,0,0,0,0,0,0,0,0,0,0,0,0,0,0,0,0],"id":46,"left_children":[1,3,5,-1,7,9,11,13,15,17,19,21,23,-1,-1,-1,-1,-1,-1,-1,-1,-1,-1,-1,-1],"loss_changes":[6.245268E0,6.9104195E-1,1.0450248E1,0E0,7.0631886E-1,2.7942768E1,5.595074E0,2.8796372E0,2.7149963E0,2.6988588E1,7.966542E1,1.0381518E1,6.936986E0,0E0,0E0,0E0,0E0,0E0,0E0,0E0,0E0,0E0,0E0,0E0,0E0],"parents":[2147483647,0,0,1,1,2,2,4,4,5,5,6,6,7,7,8,8,9,9,10,10,11,11,12,12],"right_children":[2,4,6,-1,8,10,12,14,16,18,20,22,24,-1,-1,-1,-1,-1,-1,-1,-1,-1,-1,-1,-1],"split_conditions":[3E0,1E0,1.7E1,3.6733062E-3,2E0,1.5E1,2E0,2E0,3E0,3E0,3E0,1.8E1,3E0,2.4454905E-2,-1.8030299E-2,-4.9076375E-2,-1.3689351E-2,-1.4797564E-2,2.5006121E-2,9.323786E-2,-4.412206E-2,-6.022202E-2,-8.9708585E-3,1.1807697E-2,-1.4722175E-2],"split_indices":[1,1,1,0,0,1,0,1,0,0,0,1,0,0,0,0,0,0,0,0,0,0,0,0,0],"split_type":[0,0,0,0,0,0,0,0,0,0,0,0,0,0,0,0,0,0,0,0,0,0,0,0,0],"sum_hessian":[1.826E3,2.72E2,1.554E3,2E1,2.52E2,9.01E2,6.53E2,8.6E1,1.66E2,7.19E2,1.82E2,2.55E2,3.98E2,2E1,6.6E1,2.5E1,1.41E2,4.44E2,2.75E2,1.17E2,6.5E1,4.8E1,2.07E2,2.23E2,1.75E2],"tree_param":{"num_deleted":"0","num_feature":"2","num_nodes":"25","size_leaf_vector":"1"}},{"base_weights":[-9.885418E-4,1.5683979E-2,-1.9305834E-1,6.7365885E-2,-6.565603E-2,-8.475409E-3,-5.6135005E-1,-4.179311E-3,3.9813864E-1,-1.6961128E-1,1.2066305E-3,-7.183286E-2,-4.3744188E-2,-1.3256611E-2,2.6771396E-2,8.399318E-2,-3.9776642E-2,-5.432266E-2,-8.078069E-3,2.8181879E-2,-5.832081E-3],"categories":[],"categories_nodes":[],"categories_segments":[],"categories_sizes":[],"default_left":[0,0,0,0,0,0,0,0,0,0,0,0,0,0,0,0,0,0,0,0,0],"id":47,"left_children":[1,3,5,7,9,-1,11,13,15,17,19,-1,-1,-1,-1,-1,-1,-1,-1,-1,-1],"loss_changes":[5.853607E0,7.075225E0,5.7760077E0,2.4353153E1,4.5459785E0,0E0,3.2765293E-1,2.960215E1,6.468155E1,8.452366E0,6.681381E0,0E0,0E0,0E0,0E0,0E0,0E0,0E0,0E0,0E0,0E0],"parents":[2147483647,0,0,1,1,2,2,3,3,4,4,6,6,7,7,8,8,9,9,10,10],"right_children":[2,4,6,8,10,-1,12,14,16,18,20,-1,-1,-1,-1,-1,-1,-1,-1,-1,-1],"split_conditions":[4E0,1.7E1,4E0,1.5E1,2E0,-8.475409E-3,7E0,3E0,3E0,1.8E1,1.8E1,-7.183286E-2,-4.3744188E-2,-1.3256611E-2,2.6771396E-2,8.399318E-2,-3.9776642E-2,-5.432266E-2,-8.078069E-3,2.8181879E-2,-5.832081E-3],"split_indices":[0,1,1,1,0,0,0,0,0,1,1,0,0,0,0,0,0,0,0,0,0],"split_type":[0,0,0,0,0,0,0,0,0,0,0,0,0,0,0,0,0,0,0,0,0],"sum_hessian":[1.826E3,1.681E3,1.45E2,1.028E3,6.53E2,1.13E2,3.2E1,8.46E2,1.82E2,2.55E2,3.98E2,1.2E1,2E1,5.75E2,2.71E2,1.17E2,6.5E1,4.8E1,2.07E2,6.9E1,3.29E2],"tree_param":{"num_deleted":"0","num_feature":"2","num_nodes":"21","size_leaf_vector":"1"}},{"base_weights":[-9.4812264E-4,1.412587E-2,-1.7460227E-1,-6.134854E-2,5.9959296E-2,-7.635311E-3,-5.0871754E-1,1.8230999E-1,-1.5134406E-1,-1.9015035E-1,1.1140885E-1,-6.5202154E-2,-3.9578084E-2,-6.5276325E-3,1.8733655E-1,-1.0590813E-1,-5.3958027E-3,-3.2228865E-2,-6.991976E-3,4.2214338E-2,2.7900753E-3],"categories":[],"categories_nodes":[],"categories_segments":[],"categories_sizes":[],"default_left":[0,0,0,0,0,0,0,0,0,0,0,0,0,0,0,0,0,0,0,0,0],"id":48,"left_children":[1,3,5,7,9,-1,11,13,15,17,19,-1,-1,-1,-1,-1,-1,-1,-1,-1,-1],"loss_changes":[4.784934E0,5.822139E0,4.753832E0,1.3973911E1,1.3494013E1,0E0,2.7602482E-1,7.213563E1,4.104929E1,2.8212514E0,2.2537773E1,0E0,0E0,0E0,0E0,0E0,0E0,0E0,0E0,0E0,0E0],"parents":[2147483647,0,0,1,1,2,2,3,3,4,4,6,6,7,7,8,8,9,9,10,10],"right_children":[2,4,6,8,10,-1,12,14,16,18,20,-1,-1,-1,-1,-1,-1,-1,-1,-1,-1],"split_conditions":[4E0,2E0,4E0,9E0,6E0,-7.635311E-3,7E0,7E0,1.1E1,3E0,1.1E1,-6.5202154E-2,-3.9578084E-2,-6.5276325E-3,1.8733655E-1,-1.0590813E-1,-5.3958027E-3,-3.2228865E-2,-6.991976E-3,4.2214338E-2,2.7900753E-3],"split_indices":[0,0,1,1,1,0,0,1,1,0,1,0,0,0,0,0,0,0,0,0,0],"split_type":[0,0,0,0,0,0,0,0,0,0,0,0,0,0,0,0,0,0,0,0,0],"sum_hessian":[1.826E3,1.681E3,1.45E2,6.35E2,1.046E3,1.13E2,3.2E1,1.71E2,4.64E2,1.78E2,8.68E2,1.2E1,2E1,1.5E2,2.1E1,4.4E1,4.2E2,8.4E1,9.4E1,1.83E2,6.85E2],"tree_param":{"num_deleted":"0","num_feature":"2","num_nodes":"21","size_leaf_vector":"1"}},{"base_weights":[-8.7365846E-4,2.2955252E-2,-9.8377265E-2,-4.2153776E-2,1.2571871E-1,-5.49939E-2,-1.7256689E-1,-4.362251E-3,-5.8076918E-2,2.7186185E-1,-1.04809E-2,-7.427735E-2,-4.5800257E-2,-2.1425919E-1,3.4334015E-3,-1.11085335E-2,4.6760137E-3,3.6117304E-2,8.426472E-3,-1.7898744E-2,1.0542689E-2,-2.5087608E-2,2.4995925E-3,-1.1781557E-3,-9.132118E-3,-1.6553015E-2,-2.7845765E-2],"categories":[],"categories_nodes":[],"categories_segments":[],"categories_sizes":[],"default_left":[0,0,0,0,0,0,0,0,0,0,0,0,0,0,0,0,0,0,0,0,0,0,0,0,0,0,0],"id":49,"left_children":[1,3,5,7,9,11,13,15,-1,17,19,21,23,25,-1,-1,-1,-1,-1,-1,-1,-1,-1,-1,-1,-1,-1],"loss_changes":[4.2471185E0,9.834127E0,1.1459856E0,1.8317053E1,1.1348492E1,3.7019074E-2,1.1460116E0,4.599095E0,0E0,4.5770626E0,5.8001103E0,1.2685411E0,2.4204838E-1,2.9802275E-1,0E0,0E0,0E0,0E0,0E0,0E0,0E0,0E0,0E0,0E0,0E0,0E0,0E0],"parents":[2147483647,0,0,1,1,2,2,3,3,4,4,5,5,6,6,7,7,9,9,10,10,11,11,12,12,13,13],"right_children":[2,4,6,8,10,12,14,16,-1,18,20,22,24,26,-1,-1,-1,-1,-1,-1,-1,-1,-1,-1,-1,-1,-1],"split_conditions":[2E1,1.3E1,2.2E1,1.2E1,1.7E1,2E0,3E0,3E0,-5.8076918E-2,3E0,2E0,2.1E1,2.1E1,2E0,3.4334015E-3,-1.11085335E-2,4.6760137E-3,3.6117304E-2,8.426472E-3,-1.7898744E-2,1.0542689E-2,-2.5087608E-2,2.4995925E-3,-1.1781557E-3,-9.132118E-3,-1.6553015E-2,-2.7845765E-2],"split_indices":[1,1,1,1,1,0,0,1,0,0,0,1,1,0,0,0,0,0,0,0,0,0,0,0,0,0,0],"split_type":[0,0,0,0,0,0,0,0,0,0,0,0,0,0,0,0,0,0,0,0,0,0,0,0,0,0,0],"sum_hessian":[1.826E3,1.468E3,3.58E2,8.99E2,5.69E2,2.27E2,1.31E2,8.41E2,5.8E1,2.74E2,2.95E2,7.1E1,1.56E2,1.09E2,2.2E1,2.72E2,5.69E2,1.85E2,8.9E1,1.2E2,1.75E2,2.5E1,4.6E1,9E1,6.6E1,6.4E1,4.5E1],"tree_param":{"num_deleted":"0","num_feature":"2","num_nodes":"27","size_leaf_vector":"1"}}]},"name":"gbtree"},"learner_model_param":{"base_score":"[1.3096933E1]","boost_from_average":"1","num_class":"0","num_feature":"2","num_target":"1"},"objective":{"name":"reg:squarederror","reg_loss_param":{"scale_pos_weight":"1"}}},"version":[3,2,0]}