{"learner":{"attributes":{},"feature_names":["day_of_week","hour_of_day"],"feature_types":[],"gradient_booster":{"model":{"cats":{"enc":[],"feature_segments":[],"sorted_idx":[]},"gbtree_model_param":{"num_parallel_tree":"1","num_trees":"50"},"iteration_indptr":[0,1,2,3,4,5,6,7,8,9,10,11,12,13,14,15,16,17,18,19,20,21,22,23,24,25,26,27,28,29,30,31,32,33,34,35,36,37,38,39,40,41,42,43,44,45,46,47,48,49,50],"tree_info":[0,0,0,0,0,0,0,0,0,0,0,0,0,0,0,0,0,0,0,0,0,0,0,0,0,0,0,0,0,0,0,0,0,0,0,0,0,0,0,0,0,0,0,0,0,0,0,0,0,0],"trees":[{"base_weights":[-7.38533E-8,-1.0029004E1,1.0178608E0,-1.0954385E1,-8.203186E0,3.2053916E0,-4.892967E0,-1.1182504E1,-2.2628222E-1,-6.8363085E0,-8.7919873E-1,-2.247377E0,3.8237467E0,-2.2584205E0,-7.583711E0,-1.1391329E0,-1.0031223E0,-8.137285E-1,-6.470764E-1,-1.0445028E-2,-6.9630915E-1,4.456688E-1,7.14852E-2,-4.240771E-1,-8.803512E-2,-9.96377E-1,-6.184107E-1],"categories":[],"categories_nodes":[],"categories_segments":[],"categories_sizes":[],"default_left":[0,0,0,0,0,0,0,0,0,0,0,0,0,0,0,0,0,0,0,0,0,0,0,0,0,0,0],"id":0,"left_children":[1,3,5,7,9,11,13,15,-1,17,-1,19,21,23,25,-1,-1,-1,-1,-1,-1,-1,-1,-1,-1,-1,-1],"loss_changes":[1.2286505E5,1.783875E3,1.413031E5,1.4280234E3,2.433125E2,2.6901648E4,2.0909281E4,5.7390625E1,0E0,3.461914E0,0E0,8.214988E3,1.4093758E4,4.0748687E3,4.8018438E3,0E0,0E0,0E0,0E0,0E0,0E0,0E0,0E0,0E0,0E0,0E0,0E0],"parents":[2147483647,0,0,1,1,2,2,3,3,4,4,5,5,6,6,7,7,9,9,11,11,12,12,13,13,14,14],"right_children":[2,4,6,8,10,12,14,16,-1,18,-1,20,22,24,26,-1,-1,-1,-1,-1,-1,-1,-1,-1,-1,-1,-1],"split_conditions":[4E0,6E0,2E1,3E0,1E0,5E0,2.2E1,5E0,-2.2628222E-1,7E0,-8.7919873E-1,6E0,1.8E1,4E0,4E0,-1.1391329E0,-1.0031223E0,-8.137285E-1,-6.470764E-1,-1.0445028E-2,-6.9630915E-1,4.456688E-1,7.14852E-2,-4.240771E-1,-8.803512E-2,-9.96377E-1,-6.184107E-1],"split_indices":[1,0,1,1,1,1,1,0,0,0,0,0,1,0,0,0,0,0,0,0,0,0,0,0,0,0,0],"split_type":[0,0,0,0,0,0,0,0,0,0,0,0,0,0,0,0,0,0,0,0,0,0,0,0,0,0,0],"sum_hessian":[1.2034E4,1.108E3,1.0926E4,7.32E2,3.76E2,7.975E3,2.951E3,7.13E2,1.9E1,1.17E2,2.59E2,8.12E2,7.163E3,1.492E3,1.459E3,5.96E2,1.17E2,2.1E1,9.6E1,5.59E2,2.53E2,5.951E3,1.212E3,6.11E2,8.81E2,5.38E2,9.21E2],"tree_param":{"num_deleted":"0","num_feature":"2","num_nodes":"27","size_leaf_vector":"1"}},{"base_weights":[-5.839601E-4,-9.030349E0,9.158625E-1,-9.862178E0,-7.3890743E0,2.8848283E0,-4.404391E0,-1.0067254E1,-2.0478539E-1,-6.165057E0,-7.9161704E-1,-2.0235088E0,3.441444E0,-2.032921E0,-6.826446E0,-1.0370383E0,-9.388545E-1,-7.360545E-1,-5.830359E-1,-9.402429E-3,-6.2695235E-1,4.0110937E-1,6.434254E-2,-3.817387E-1,-7.924154E-2,-8.9692414E-1,-5.566367E-1],"categories":[],"categories_nodes":[],"categories_segments":[],"categories_sizes":[],"default_left":[0,0,0,0,0,0,0,0,0,0,0,0,0,0,0,0,0,0,0,0,0,0,0,0,0,0,0],"id":1,"left_children":[1,3,5,7,9,11,13,15,-1,17,-1,19,21,23,25,-1,-1,-1,-1,-1,-1,-1,-1,-1,-1,-1,-1],"loss_changes":[9.960145E4,1.4412031E3,1.1447738E5,1.1540391E3,1.9442578E2,2.1797836E4,1.6941914E4,4.9523438E1,0E0,4.300293E0,0E0,6.6600117E3,1.14160625E4,3.301939E3,3.8922031E3,0E0,0E0,0E0,0E0,0E0,0E0,0E0,0E0,0E0,0E0,0E0,0E0],"parents":[2147483647,0,0,1,1,2,2,3,3,4,4,5,5,6,6,7,7,9,9,11,11,12,12,13,13,14,14],"right_children":[2,4,6,8,10,12,14,16,-1,18,-1,20,22,24,26,-1,-1,-1,-1,-1,-1,-1,-1,-1,-1,-1,-1],"split_conditions":[4E0,6E0,2E1,3E0,1E0,5E0,2.2E1,4E0,-2.0478539E-1,7E0,-7.9161704E-1,6E0,1.8E1,4E0,4E0,-1.0370383E0,-9.388545E-1,-7.360545E-1,-5.830359E-1,-9.402429E-3,-6.2695235E-1,4.0110937E-1,6.434254E-2,-3.817387E-1,-7.924154E-2,-8.9692414E-1,-5.566367E-1],"split_indices":[1,0,1,1,1,1,1,0,0,0,0,0,1,0,0,0,0,0,0,0,0,0,0,0,0,0,0],"split_type":[0,0,0,0,0,0,0,0,0,0,0,0,0,0,0,0,0,0,0,0,0,0,0,0,0,0,0],"sum_hessian":[1.2034E4,1.108E3,1.0926E4,7.32E2,3.76E2,7.975E3,2.951E3,7.13E2,1.9E1,1.17E2,2.59E2,8.12E2,7.163E3,1.492E3,1.459E3,4.83E2,2.3E2,2.1E1,9.6E1,5.59E2,2.53E2,5.951E3,1.212E3,6.11E2,8.81E2,5.38E2,9.21E2],"tree_param":{"num_deleted":"0","num_feature":"2","num_nodes":"27","size_leaf_vector":"1"}},{"base_weights":[-1.0556151E-3,-8.131184E0,8.240852E-1,-8.878936E0,-6.655765E0,2.3070855E0,-4.957393E0,-9.063296E0,-1.853308E-1,-5.5597305E0,-7.1275973E-1,-1.8219409E0,2.732525E0,-2.705364E0,-6.144797E0,-8.6237156E-1,-9.516221E-1,-6.6579473E-1,-5.2533334E-1,5.569336E-2,-4.6157452E-1,3.6100513E-1,3.0473631E-3,-4.5710346E-1,-1.4436133E-1,-8.0739814E-1,-5.0103337E-1],"categories":[],"categories_nodes":[],"categories_segments":[],"categories_sizes":[],"default_left":[0,0,0,0,0,0,0,0,0,0,0,0,0,0,0,0,0,0,0,0,0,0,0,0,0,0,0],"id":2,"left_children":[1,3,5,7,9,11,13,15,-1,17,-1,19,21,23,25,-1,-1,-1,-1,-1,-1,-1,-1,-1,-1,-1,-1],"loss_changes":[8.07435E4,1.1644062E3,9.369883E4,9.326172E2,1.5533594E2,1.5282574E4,5.9492266E3,6.0089844E1,0E0,4.729492E0,0E0,5.4058574E3,1.869618E4,1.8106978E3,3.1548828E3,0E0,0E0,0E0,0E0,0E0,0E0,0E0,0E0,0E0,0E0,0E0,0E0],"parents":[2147483647,0,0,1,1,2,2,3,3,4,4,5,5,6,6,7,7,9,9,11,11,12,12,13,13,14,14],"right_children":[2,4,6,8,10,12,14,16,-1,18,-1,20,22,24,26,-1,-1,-1,-1,-1,-1,-1,-1,-1,-1,-1,-1],"split_conditions":[4E0,6E0,2.1E1,3E0,1E0,5E0,2.2E1,1E0,-1.853308E-1,7E0,-7.1275973E-1,5E0,1.8E1,4E0,4E0,-8.6237156E-1,-9.516221E-1,-6.6579473E-1,-5.2533334E-1,5.569336E-2,-4.6157452E-1,3.6100513E-1,3.0473631E-3,-4.5710346E-1,-1.4436133E-1,-8.0739814E-1,-5.0103337E-1],"split_indices":[1,0,1,1,1,1,1,1,0,0,0,0,1,0,0,0,0,0,0,0,0,0,0,0,0,0,0],"split_type":[0,0,0,0,0,0,0,0,0,0,0,0,0,0,0,0,0,0,0,0,0,0,0,0,0,0,0],"sum_hessian":[1.2034E4,1.108E3,1.0926E4,7.32E2,3.76E2,8.696E3,2.23E3,7.13E2,1.9E1,1.17E2,2.59E2,8.12E2,7.884E3,7.71E2,1.459E3,3.72E2,3.41E2,2.1E1,9.6E1,4.39E2,3.73E2,5.951E3,1.933E3,3.1E2,4.61E2,5.38E2,9.21E2],"tree_param":{"num_deleted":"0","num_feature":"2","num_nodes":"27","size_leaf_vector":"1"}},{"base_weights":[-1.4363776E-3,-7.321585E0,7.4149823E-1,-7.9937696E0,-5.995239E0,2.3450305E0,-3.591332E0,-8.159507E0,-1.6772442E-1,-5.0138516E0,-6.417579E-1,-1.640246E0,2.7969687E0,-1.6919229E0,-5.5312133E0,-8.3323586E-1,-7.215849E-1,-6.0224164E-1,-4.733416E-1,-2.9389753E-3,-5.185283E-1,3.249107E-1,5.7609137E-2,-3.2062313E-1,-6.392602E-2,-7.2680813E-1,-4.509843E-1],"categories":[],"categories_nodes":[],"categories_segments":[],"categories_sizes":[],"default_left":[0,0,0,0,0,0,0,0,0,0,0,0,0,0,0,0,0,0,0,0,0,0,0,0,0,0,0],"id":3,"left_children":[1,3,5,7,9,11,13,15,-1,17,-1,19,21,23,25,-1,-1,-1,-1,-1,-1,-1,-1,-1,-1,-1,-1],"loss_changes":[6.5456477E4,9.408047E2,7.592738E4,7.536797E2,1.2408301E2,1.4370148E4,1.0867664E4,5.6335938E1,0E0,4.868164E0,0E0,4.6425205E3,7.1918125E3,2.3778765E3,2.5572422E3,0E0,0E0,0E0,0E0,0E0,0E0,0E0,0E0,0E0,0E0,0E0,0E0],"parents":[2147483647,0,0,1,1,2,2,3,3,4,4,5,5,6,6,7,7,9,9,11,11,12,12,13,13,14,14],"right_children":[2,4,6,8,10,12,14,16,-1,18,-1,20,22,24,26,-1,-1,-1,-1,-1,-1,-1,-1,-1,-1,-1,-1],"split_conditions":[4E0,6E0,2E1,3E0,1E0,5E0,2.2E1,5E0,-1.6772442E-1,7E0,-6.417579E-1,6E0,1.8E1,4E0,4E0,-8.3323586E-1,-7.215849E-1,-6.0224164E-1,-4.733416E-1,-2.9389753E-3,-5.185283E-1,3.249107E-1,5.7609137E-2,-3.2062313E-1,-6.392602E-2,-7.2680813E-1,-4.509843E-1],"split_indices":[1,0,1,1,1,1,1,0,0,0,0,0,1,0,0,0,0,0,0,0,0,0,0,0,0,0,0],"split_type":[0,0,0,0,0,0,0,0,0,0,0,0,0,0,0,0,0,0,0,0,0,0,0,0,0,0,0],"sum_hessian":[1.2034E4,1.108E3,1.0926E4,7.32E2,3.76E2,7.975E3,2.951E3,7.13E2,1.9E1,1.17E2,2.59E2,8.12E2,7.163E3,1.492E3,1.459E3,5.96E2,1.17E2,2.1E1,9.6E1,5.59E2,2.53E2,5.951E3,1.212E3,6.11E2,8.81E2,5.38E2,9.21E2],"tree_param":{"num_deleted":"0","num_feature":"2","num_nodes":"27","size_leaf_vector":"1"}},{"base_weights":[-1.720017E-3,-6.5925283E0,6.6719264E-1,-7.1967425E0,-5.40027E0,1.8754778E0,-4.043307E0,-7.345734E0,-1.5179057E-1,-4.5215816E0,-5.778289E-1,-1.4768628E0,2.2208903E0,-2.2686856E0,-4.9788985E0,-6.953907E-1,-7.7515996E-1,-5.447549E-1,-4.264954E-1,9.4597794E-2,-3.4627816E-1,2.924251E-1,5.5108457E-3,-3.7958083E-1,-1.2357769E-1,-4.3428823E-1,-7.80446E-1],"categories":[],"categories_nodes":[],"categories_segments":[],"categories_sizes":[],"default_left":[0,0,0,0,0,0,0,0,0,0,0,0,0,0,0,0,0,0,0,0,0,0,0,0,0,0,0],"id":4,"left_children":[1,3,5,7,9,11,13,15,-1,17,-1,19,21,23,25,-1,-1,-1,-1,-1,-1,-1,-1,-1,-1,-1,-1],"loss_changes":[5.30628E4,7.6003906E2,6.2199984E4,6.0903906E2,9.909766E1,1.0073887E4,3.6928867E3,5.9640625E1,0E0,4.8066406E0,0E0,3.9150776E3,1.2011262E4,1.2130452E3,2.589875E3,0E0,0E0,0E0,0E0,0E0,0E0,0E0,0E0,0E0,0E0,0E0,0E0],"parents":[2147483647,0,0,1,1,2,2,3,3,4,4,5,5,6,6,7,7,9,9,11,11,12,12,13,13,14,14],"right_children":[2,4,6,8,10,12,14,16,-1,18,-1,20,22,24,26,-1,-1,-1,-1,-1,-1,-1,-1,-1,-1,-1,-1],"split_conditions":[4E0,6E0,2.1E1,3E0,1E0,5E0,2.2E1,1E0,-1.5179057E-1,7E0,-5.778289E-1,4E0,1.8E1,4E0,7E0,-6.953907E-1,-7.7515996E-1,-5.447549E-1,-4.264954E-1,9.4597794E-2,-3.4627816E-1,2.924251E-1,5.5108457E-3,-3.7958083E-1,-1.2357769E-1,-4.3428823E-1,-7.80446E-1],"split_indices":[1,0,1,1,1,1,1,1,0,0,0,0,1,0,0,0,0,0,0,0,0,0,0,0,0,0,0],"split_type":[0,0,0,0,0,0,0,0,0,0,0,0,0,0,0,0,0,0,0,0,0,0,0,0,0,0,0],"sum_hessian":[1.2034E4,1.108E3,1.0926E4,7.32E2,3.76E2,8.696E3,2.23E3,7.13E2,1.9E1,1.17E2,2.59E2,8.12E2,7.884E3,7.71E2,1.459E3,3.72E2,3.41E2,2.1E1,9.6E1,3.66E2,4.46E2,5.951E3,1.933E3,3.1E2,4.61E2,1.193E3,2.66E2],"tree_param":{"num_deleted":"0","num_feature":"2","num_nodes":"27","size_leaf_vector":"1"}},{"base_weights":[-1.9506994E-3,-5.9361353E0,6.003201E-1,-6.4792814E0,-4.864352E0,1.687935E0,-3.639746E0,-6.61322E0,-1.3737047E-1,-4.0776544E0,-5.202683E-1,-9.1591585E-1,2.0595942E0,-5.1303325E0,-2.7220688E0,-6.862825E-1,-6.061611E-1,-4.9275562E-1,-3.8428554E-1,9.888032E-2,-4.912674E-1,2.7438614E-1,4.960008E-3,-3.417448E-1,-6.1091393E-1,-1.4682636E-1,-6.254298E-1],"categories":[],"categories_nodes":[],"categories_segments":[],"categories_sizes":[],"default_left":[0,0,0,0,0,0,0,0,0,0,0,0,0,0,0,0,0,0,0,0,0,0,0,0,0,0,0],"id":5,"left_children":[1,3,5,7,9,11,13,15,-1,17,-1,19,21,23,25,-1,-1,-1,-1,-1,-1,-1,-1,-1,-1,-1,-1],"loss_changes":[4.3016484E4,6.140703E2,5.0396652E4,4.9216602E2,7.912988E1,8.418365E3,3.0377676E3,5.6708984E1,0E0,4.6118164E0,0E0,8.279863E3,1.0467824E4,1.402543E3,6.115747E3,0E0,0E0,0E0,0E0,0E0,0E0,0E0,0E0,0E0,0E0,0E0,0E0],"parents":[2147483647,0,0,1,1,2,2,3,3,4,4,5,5,6,6,7,7,9,9,11,11,12,12,13,13,14,14],"right_children":[2,4,6,8,10,12,14,16,-1,18,-1,20,22,24,26,-1,-1,-1,-1,-1,-1,-1,-1,-1,-1,-1,-1],"split_conditions":[4E0,6E0,2.1E1,3E0,1E0,7E0,4E0,4E0,-1.3737047E-1,7E0,-5.202683E-1,6E0,1.8E1,2.2E1,7E0,-6.862825E-1,-6.061611E-1,-4.9275562E-1,-3.8428554E-1,9.888032E-2,-4.912674E-1,2.7438614E-1,4.960008E-3,-3.417448E-1,-6.1091393E-1,-1.4682636E-1,-6.254298E-1],"split_indices":[1,0,1,1,1,1,0,0,0,0,0,0,1,1,0,0,0,0,0,0,0,0,0,0,0,0,0],"split_type":[0,0,0,0,0,0,0,0,0,0,0,0,0,0,0,0,0,0,0,0,0,0,0,0,0,0,0],"sum_hessian":[1.2034E4,1.108E3,1.0926E4,7.32E2,3.76E2,8.696E3,2.23E3,7.13E2,1.9E1,1.17E2,2.59E2,1.086E3,7.61E3,8.48E2,1.382E3,4.83E2,2.3E2,2.1E1,9.6E1,7.36E2,3.5E2,5.677E3,1.933E3,3.1E2,5.38E2,1.021E3,3.61E2],"tree_param":{"num_deleted":"0","num_feature":"2","num_nodes":"27","size_leaf_vector":"1"}},{"base_weights":[-2.1433008E-3,-5.3450713E0,5.401198E-1,-5.8333044E0,-4.3816233E0,1.7228944E0,-2.6557982E0,-5.9537086E0,-1.24320306E-1,-3.677321E0,-4.6844158E-1,1.4558937E-1,2.43544E0,-1.2643247E0,-4.076904E0,-5.605366E-1,-6.316218E-1,-4.457198E-1,-3.4625313E-1,1.06159344E-1,-4.4215384E-1,2.9808554E-1,5.080666E-2,-2.861279E-1,-5.659769E-2,-5.9493434E-1,-3.4242642E-1],"categories":[],"categories_nodes":[],"categories_segments":[],"categories_sizes":[],"default_left":[0,0,0,0,0,0,0,0,0,0,0,0,0,0,0,0,0,0,0,0,0,0,0,0,0,0,0],"id":6,"left_children":[1,3,5,7,9,11,13,15,-1,17,-1,19,21,23,25,-1,-1,-1,-1,-1,-1,-1,-1,-1,-1,-1,-1],"loss_changes":[3.4871566E4,4.960996E2,4.130919E4,3.9770312E2,6.3171387E1,8.963885E3,5.8322227E3,5.475586E1,0E0,4.333008E0,0E0,1.0392345E4,5.773881E3,1.663418E3,1.7637871E3,0E0,0E0,0E0,0E0,0E0,0E0,0E0,0E0,0E0,0E0,0E0,0E0],"parents":[2147483647,0,0,1,1,2,2,3,3,4,4,5,5,6,6,7,7,9,9,11,11,12,12,13,13,14,14],"right_children":[2,4,6,8,10,12,14,16,-1,18,-1,20,22,24,26,-1,-1,-1,-1,-1,-1,-1,-1,-1,-1,-1,-1],"split_conditions":[4E0,6E0,2E1,3E0,1E0,1E1,2.2E1,1E0,-1.24320306E-1,7E0,-4.6844158E-1,7E0,1.8E1,3E0,3E0,-5.605366E-1,-6.316218E-1,-4.457198E-1,-3.4625313E-1,1.06159344E-1,-4.4215384E-1,2.9808554E-1,5.080666E-2,-2.861279E-1,-5.659769E-2,-5.9493434E-1,-3.4242642E-1],"split_indices":[1,0,1,1,1,1,1,1,0,0,0,0,1,0,0,0,0,0,0,0,0,0,0,0,0,0,0],"split_type":[0,0,0,0,0,0,0,0,0,0,0,0,0,0,0,0,0,0,0,0,0,0,0,0,0,0,0],"sum_hessian":[1.2034E4,1.108E3,1.0926E4,7.32E2,3.76E2,7.975E3,2.951E3,7.13E2,1.9E1,1.17E2,2.59E2,2.482E3,5.493E3,1.492E3,1.459E3,3.72E2,3.41E2,2.1E1,9.6E1,2.068E3,4.14E2,4.281E3,1.212E3,4.53E2,1.039E3,3.75E2,1.084E3],"tree_param":{"num_deleted":"0","num_feature":"2","num_nodes":"27","size_leaf_vector":"1"}},{"base_weights":[-2.248326E-3,-4.8128877E0,4.8599193E-1,-5.369004E0,-4.1096883E0,1.5506066E0,-2.390652E0,-5.502185E-1,-1.125099E-1,-3.3644977E-1,-4.556523E0,-3.45148E-1,2.050809E0,-1.1381216E0,-3.6698556E0,-6.3334984E-1,-4.2177755E-1,2.0816343E-1,-2.3586522E-1,2.4294858E-1,4.5730155E-2,-2.2995022E-1,-3.3097547E-2,-3.1316978E-1,-6.062705E-1],"categories":[],"categories_nodes":[],"categories_segments":[],"categories_sizes":[],"default_left":[0,0,0,0,0,0,0,0,0,0,0,0,0,0,0,0,0,0,0,0,0,0,0,0,0],"id":7,"left_children":[1,3,5,7,9,11,13,-1,-1,-1,15,17,19,21,23,-1,-1,-1,-1,-1,-1,-1,-1,-1,-1],"loss_changes":[2.8269518E4,4.116211E2,3.3467836E4,3.4197656E2,1.4915918E2,7.564037E3,4.7256406E3,0E0,0E0,0E0,1.5748193E2,8.145546E3,3.8071016E3,1.3987827E3,1.8611016E3,0E0,0E0,0E0,0E0,0E0,0E0,0E0,0E0,0E0,0E0],"parents":[2147483647,0,0,1,1,2,2,3,3,4,4,5,5,6,6,10,10,11,11,12,12,13,13,14,14],"right_children":[2,4,6,8,10,12,14,-1,-1,-1,16,18,20,22,24,-1,-1,-1,-1,-1,-1,-1,-1,-1,-1],"split_conditions":[4E0,5E0,2E1,3E0,1E0,8E0,2.2E1,-5.502185E-1,-1.125099E-1,-3.3644977E-1,6E0,4E0,1.8E1,4E0,7E0,-6.3334984E-1,-4.2177755E-1,2.0816343E-1,-2.3586522E-1,2.4294858E-1,4.5730155E-2,-2.2995022E-1,-3.3097547E-2,-3.1316978E-1,-6.062705E-1],"split_indices":[1,0,1,1,1,1,1,0,0,0,0,0,1,0,0,0,0,0,0,0,0,0,0,0,0],"split_type":[0,0,0,0,0,0,0,0,0,0,0,0,0,0,0,0,0,0,0,0,0,0,0,0,0],"sum_hessian":[1.2034E4,1.108E3,1.0926E4,6.15E2,4.93E2,7.975E3,2.951E3,5.96E2,1.9E1,1.88E2,3.05E2,1.665E3,6.31E3,1.492E3,1.459E3,4.6E1,2.59E2,7.55E2,9.1E2,5.098E3,1.212E3,6.11E2,8.81E2,1.193E3,2.66E2],"tree_param":{"num_deleted":"0","num_feature":"2","num_nodes":"25","size_leaf_vector":"1"}},{"base_weights":[-2.271079E-3,-4.3334513E0,4.3730804E-1,-4.833179E0,-3.7015364E0,1.2387123E0,-2.6869638E0,-4.9528876E-1,-1.01821475E-1,-3.0298283E0,-4.1043186E0,1.6635693E0,-6.2113076E-1,-3.64131E0,-1.6480503E0,-3.2506618E-1,-2.786866E-1,-5.713624E-1,-3.79762E-1,2.0752263E-1,2.3509601E-2,-3.9262944E-1,5.186234E-2,-2.4094419E-1,-4.3379456E-1,1.9727934E-3,-4.9099475E-1],"categories":[],"categories_nodes":[],"categories_segments":[],"categories_sizes":[],"default_left":[0,0,0,0,0,0,0,0,0,0,0,0,0,0,0,0,0,0,0,0,0,0,0,0,0,0,0],"id":8,"left_children":[1,3,5,7,9,11,13,-1,-1,15,17,19,21,23,25,-1,-1,-1,-1,-1,-1,-1,-1,-1,-1,-1,-1],"loss_changes":[2.2915285E4,3.323164E2,2.7362402E4,2.762744E2,1.2121777E2,6.873119E3,2.205999E3,0E0,0E0,1.081543E0,1.2933496E2,4.162842E3,6.097162E3,9.867324E2,5.821027E3,0E0,0E0,0E0,0E0,0E0,0E0,0E0,0E0,0E0,0E0,0E0,0E0],"parents":[2147483647,0,0,1,1,2,2,3,3,4,4,5,5,6,6,9,9,10,10,11,11,12,12,13,13,14,14],"right_children":[2,4,6,8,10,12,14,-1,-1,16,18,20,22,24,26,-1,-1,-1,-1,-1,-1,-1,-1,-1,-1,-1,-1],"split_conditions":[4E0,5E0,2.1E1,3E0,1E0,7E0,5E0,-4.9528876E-1,-1.01821475E-1,7E0,6E0,1.8E1,1E1,2.2E1,7E0,-3.2506618E-1,-2.786866E-1,-5.713624E-1,-3.79762E-1,2.0752263E-1,2.3509601E-2,-3.9262944E-1,5.186234E-2,-2.4094419E-1,-4.3379456E-1,1.9727934E-3,-4.9099475E-1],"split_indices":[1,0,1,1,1,0,0,0,0,0,0,1,1,1,0,0,0,0,0,0,0,0,0,0,0,0,0],"split_type":[0,0,0,0,0,0,0,0,0,0,0,0,0,0,0,0,0,0,0,0,0,0,0,0,0,0,0],"sum_hessian":[1.2034E4,1.108E3,1.0926E4,6.15E2,4.93E2,8.696E3,2.23E3,5.96E2,1.9E1,1.88E2,3.05E2,7.079E3,1.617E3,1.161E3,1.069E3,9.2E1,9.6E1,4.6E1,2.59E2,5.495E3,1.584E3,4.14E2,1.203E3,4.21E2,7.4E2,7.08E2,3.61E2],"tree_param":{"num_deleted":"0","num_feature":"2","num_nodes":"27","size_leaf_vector":"1"}},{"base_weights":[-2.3289162E-3,-3.9020464E0,3.9346033E-1,-4.3508306E0,-3.3345304E0,1.2629511E0,-1.9559478E0,-4.4584283E-1,-9.2148386E-2,-2.7300398E0,-3.6969948E0,-3.3270232E-2,1.8485454E0,-9.3875843E-1,-2.9947886E0,-2.929091E-1,-2.5110528E-1,-5.154418E-1,-3.4193182E-1,6.690448E-2,-3.5346112E-1,2.263517E-1,3.821343E-2,-2.2276667E-1,-3.7519783E-2,-4.6110138E-1,-2.4319355E-1],"categories":[],"categories_nodes":[],"categories_segments":[],"categories_sizes":[],"default_left":[0,0,0,0,0,0,0,0,0,0,0,0,0,0,0,0,0,0,0,0,0,0,0,0,0,0,0],"id":9,"left_children":[1,3,5,7,9,11,13,-1,-1,15,17,19,21,23,25,-1,-1,-1,-1,-1,-1,-1,-1,-1,-1,-1,-1],"loss_changes":[1.857715E4,2.6794727E2,2.2324025E4,2.2318945E2,9.8145996E1,6.0543223E3,3.1165605E3,0E0,0E0,8.833008E-1,1.0621094E2,6.1081704E3,3.342338E3,1.0836461E3,1.3169443E3,0E0,0E0,0E0,0E0,0E0,0E0,0E0,0E0,0E0,0E0,0E0,0E0],"parents":[2147483647,0,0,1,1,2,2,3,3,4,4,5,5,6,6,9,9,10,10,11,11,12,12,13,13,14,14],"right_children":[2,4,6,8,10,12,14,-1,-1,16,18,20,22,24,26,-1,-1,-1,-1,-1,-1,-1,-1,-1,-1,-1,-1],"split_conditions":[4E0,5E0,2E1,3E0,1E0,1E1,2.2E1,-4.4584283E-1,-9.2148386E-2,7E0,6E0,7E0,1.8E1,3E0,3E0,-2.929091E-1,-2.5110528E-1,-5.154418E-1,-3.4193182E-1,6.690448E-2,-3.5346112E-1,2.263517E-1,3.821343E-2,-2.2276667E-1,-3.7519783E-2,-4.6110138E-1,-2.4319355E-1],"split_indices":[1,0,1,1,1,1,1,0,0,0,0,0,1,0,0,0,0,0,0,0,0,0,0,0,0,0,0],"split_type":[0,0,0,0,0,0,0,0,0,0,0,0,0,0,0,0,0,0,0,0,0,0,0,0,0,0,0],"sum_hessian":[1.2034E4,1.108E3,1.0926E4,6.15E2,4.93E2,7.975E3,2.951E3,5.96E2,1.9E1,1.88E2,3.05E2,2.482E3,5.493E3,1.492E3,1.459E3,9.2E1,9.6E1,4.6E1,2.59E2,2.068E3,4.14E2,4.281E3,1.212E3,4.53E2,1.039E3,3.75E2,1.084E3],"tree_param":{"num_deleted":"0","num_feature":"2","num_nodes":"27","size_leaf_vector":"1"}},{"base_weights":[-2.338783E-3,-2.5833125E0,4.878296E-1,-3.6183782E0,-1.4001384E0,1.5626965E0,-1.4866139E0,-4.013333E0,-3.0590181E0,1.14507265E-1,-2.5370839E0,1.9398445E0,-5.391345E-2,-6.480346E-1,-2.695792E0,-4.0938893E-1,-3.6361155E-1,-2.4599145E-1,-3.518066E-1,3.4375224E-2,-4.5653887E-2,-1.9006015E-1,-3.609101E-1,2.4436788E-1,1.4898655E-1,-2.7966687E-1,7.124171E-2,-1.6195346E-1,-1.65846E-3,-2.2392598E-1,-4.7272667E-1],"categories":[],"categories_nodes":[],"categories_segments":[],"categories_sizes":[],"default_left":[0,0,0,0,0,0,0,0,0,0,0,0,0,0,0,0,0,0,0,0,0,0,0,0,0,0,0,0,0,0,0],"id":10,"left_children":[1,3,5,7,9,11,13,15,17,19,21,23,25,27,29,-1,-1,-1,-1,-1,-1,-1,-1,-1,-1,-1,-1,-1,-1,-1,-1],"loss_changes":[1.522688E4,2.3475117E3,2.1469021E4,2.1394629E2,1.5467089E3,3.9936475E3,3.6141475E3,3.2558594E0,1.0905347E2,5.0687984E1,3.4317114E2,1.2004414E3,2.6082952E3,1.2925201E3,1.3434678E3,0E0,0E0,0E0,0E0,0E0,0E0,0E0,0E0,0E0,0E0,0E0,0E0,0E0,0E0,0E0,0E0],"parents":[2147483647,0,0,1,1,2,2,3,3,4,4,5,5,6,6,7,7,8,8,9,9,10,10,11,11,12,12,13,13,14,14],"right_children":[2,4,6,8,10,12,14,16,18,20,22,24,26,28,30,-1,-1,-1,-1,-1,-1,-1,-1,-1,-1,-1,-1,-1,-1,-1,-1],"split_conditions":[5E0,3E0,1.9E1,5E0,4E0,7E0,2.2E1,4E0,1E0,3E0,7E0,4E0,1E1,4E0,7E0,-4.0938893E-1,-3.6361155E-1,-2.4599145E-1,-3.518066E-1,3.4375224E-2,-4.5653887E-2,-1.9006015E-1,-3.609101E-1,2.4436788E-1,1.4898655E-1,-2.7966687E-1,7.124171E-2,-1.6195346E-1,-1.65846E-3,-2.2392598E-1,-4.7272667E-1],"split_indices":[1,1,1,0,0,0,1,0,1,0,0,0,1,0,0,0,0,0,0,0,0,0,0,0,0,0,0,0,0,0,0],"split_type":[0,0,0,0,0,0,0,0,0,0,0,0,0,0,0,0,0,0,0,0,0,0,0,0,0,0,0,0,0,0,0],"sum_hessian":[1.2034E4,1.92E3,1.0114E4,1.023E3,8.97E2,6.549E3,3.565E3,5.96E2,4.27E2,3.85E2,5.12E2,5.31E3,1.239E3,2.106E3,1.459E3,4.83E2,1.13E2,1.88E2,2.39E2,2.75E2,1.1E2,3.23E2,1.89E2,2.503E3,2.807E3,2.7E2,9.69E2,8.29E2,1.277E3,1.193E3,2.66E2],"tree_param":{"num_deleted":"0","num_feature":"2","num_nodes":"31","size_leaf_vector":"1"}},{"base_weights":[-2.3215804E-3,-2.3259876E0,4.389799E-1,-3.257879E0,-1.2607504E0,1.406455E0,-1.3381938E0,-3.6132941E0,-2.754513E0,1.03027366E-1,-2.284449E0,1.7459341E0,-4.868992E-2,-5.8330864E-1,-2.42669E0,-3.6853462E-1,-3.2756934E-1,-2.2152245E-1,-3.1677255E-1,3.0950148E-2,-4.1129585E-2,-1.7111276E-1,-3.2500902E-1,2.1994089E-1,1.3409318E-1,-4.229147E-1,3.7422117E-2,-1.7218475E-1,-1.2674895E-2,-3.32797E-1,-1.4957528E-1],"categories":[],"categories_nodes":[],"categories_segments":[],"categories_sizes":[],"default_left":[0,0,0,0,0,0,0,0,0,0,0,0,0,0,0,0,0,0,0,0,0,0,0,0,0,0,0,0,0,0,0],"id":11,"left_children":[1,3,5,7,9,11,13,15,17,19,21,23,25,27,29,-1,-1,-1,-1,-1,-1,-1,-1,-1,-1,-1,-1,-1,-1,-1,-1],"loss_changes":[1.2342158E4,1.9028408E3,1.7393322E4,1.7324512E2,1.2539308E3,3.2357285E3,2.92873E3,2.449707E0,8.835864E1,4.1118343E1,2.784475E2,9.72459E2,2.193855E3,1.0950234E3,1.2200137E3,0E0,0E0,0E0,0E0,0E0,0E0,0E0,0E0,0E0,0E0,0E0,0E0,0E0,0E0,0E0,0E0],"parents":[2147483647,0,0,1,1,2,2,3,3,4,4,5,5,6,6,7,7,8,8,9,9,10,10,11,11,12,12,13,13,14,14],"right_children":[2,4,6,8,10,12,14,16,18,20,22,24,26,28,30,-1,-1,-1,-1,-1,-1,-1,-1,-1,-1,-1,-1,-1,-1,-1,-1],"split_conditions":[5E0,3E0,1.9E1,5E0,4E0,7E0,2.2E1,4E0,1E0,3E0,7E0,4E0,8E0,3E0,5E0,-3.6853462E-1,-3.2756934E-1,-2.2152245E-1,-3.1677255E-1,3.0950148E-2,-4.1129585E-2,-1.7111276E-1,-3.2500902E-1,2.1994089E-1,1.3409318E-1,-4.229147E-1,3.7422117E-2,-1.7218475E-1,-1.2674895E-2,-3.32797E-1,-1.4957528E-1],"split_indices":[1,1,1,0,0,0,1,0,1,0,0,0,1,0,0,0,0,0,0,0,0,0,0,0,0,0,0,0,0,0,0],"split_type":[0,0,0,0,0,0,0,0,0,0,0,0,0,0,0,0,0,0,0,0,0,0,0,0,0,0,0,0,0,0,0],"sum_hessian":[1.2034E4,1.92E3,1.0114E4,1.023E3,8.97E2,6.549E3,3.565E3,5.96E2,4.27E2,3.85E2,5.12E2,5.31E3,1.239E3,2.106E3,1.459E3,4.83E2,1.13E2,1.88E2,2.39E2,2.75E2,1.1E2,3.23E2,1.89E2,2.503E3,2.807E3,1.13E2,1.126E3,6.02E2,1.504E3,7.4E2,7.19E2],"tree_param":{"num_deleted":"0","num_feature":"2","num_nodes":"31","size_leaf_vector":"1"}},{"base_weights":[-2.2918012E-3,-2.094295E0,3.950132E-1,-2.9332967E0,-1.1352392E0,1.2658052E0,-1.2045612E0,-3.1842027E0,-2.3478296E0,9.269784E-2,-2.056971E0,1.5714079E0,-4.4131882E-2,-5.250652E-1,-2.1843514E0,-2.9597804E-1,-3.419657E-1,-1.9781542E-1,-2.560582E-1,2.786631E-2,-3.7053738E-2,-1.5405427E-1,-2.9267916E-1,8.7112404E-2,1.8218623E-1,-2.3633695E-1,6.038655E-2,-1.5499483E-1,-1.14082135E-2,-1.752517E-1,-4.1072956E-1],"categories":[],"categories_nodes":[],"categories_segments":[],"categories_sizes":[],"default_left":[0,0,0,0,0,0,0,0,0,0,0,0,0,0,0,0,0,0,0,0,0,0,0,0,0,0,0,0,0,0,0],"id":12,"left_children":[1,3,5,7,9,11,13,15,17,19,21,23,25,27,29,-1,-1,-1,-1,-1,-1,-1,-1,-1,-1,-1,-1,-1,-1,-1,-1],"loss_changes":[1.0003878E4,1.5424014E3,1.4090674E4,1.4294727E2,1.01657275E3,2.622168E3,2.3729663E3,2.7606934E1,1.9394653E1,3.3355476E1,2.2593091E2,9.299043E2,1.8649734E3,8.8731165E2,1.2051758E3,0E0,0E0,0E0,0E0,0E0,0E0,0E0,0E0,0E0,0E0,0E0,0E0,0E0,0E0,0E0,0E0],"parents":[2147483647,0,0,1,1,2,2,3,3,4,4,5,5,6,6,7,7,8,8,9,9,10,10,11,11,12,12,13,13,14,14],"right_children":[2,4,6,8,10,12,14,16,18,20,22,24,26,28,30,-1,-1,-1,-1,-1,-1,-1,-1,-1,-1,-1,-1,-1,-1,-1,-1],"split_conditions":[5E0,3E0,1.9E1,6E0,4E0,7E0,2.2E1,1E0,1E0,3E0,7E0,1E1,1E1,3E0,7E0,-2.9597804E-1,-3.419657E-1,-1.9781542E-1,-2.560582E-1,2.786631E-2,-3.7053738E-2,-1.5405427E-1,-2.9267916E-1,8.7112404E-2,1.8218623E-1,-2.3633695E-1,6.038655E-2,-1.5499483E-1,-1.14082135E-2,-1.752517E-1,-4.1072956E-1],"split_indices":[1,1,1,0,0,0,1,1,1,0,0,1,1,0,0,0,0,0,0,0,0,0,0,0,0,0,0,0,0,0,0],"split_type":[0,0,0,0,0,0,0,0,0,0,0,0,0,0,0,0,0,0,0,0,0,0,0,0,0,0,0,0,0,0,0],"sum_hessian":[1.2034E4,1.92E3,1.0114E4,1.023E3,8.97E2,6.549E3,3.565E3,7.13E2,3.1E2,3.85E2,5.12E2,5.31E3,1.239E3,2.106E3,1.459E3,3.72E2,3.41E2,1.17E2,1.93E2,2.75E2,1.1E2,3.23E2,1.89E2,1.4E3,3.91E3,2.7E2,9.69E2,6.02E2,1.504E3,1.193E3,2.66E2],"tree_param":{"num_deleted":"0","num_feature":"2","num_nodes":"31","size_leaf_vector":"1"}},{"base_weights":[-2.2459996E-3,-1.885671E0,3.554467E-1,-2.6410332E0,-1.0222228E0,1.0405064E0,-1.3071965E0,-2.9349241E0,-2.2249258E0,8.34043E-2,-1.8521445E0,1.3086668E0,-8.337547E-2,-9.39674E-1,-3.3220623E0,-2.9986426E-1,-2.6386556E-1,-1.7612298E-1,-2.5808161E-1,-2.950555E-2,2.835237E-2,-1.3869636E-1,-2.6356527E-1,1.5189563E-1,2.4640374E-2,-3.5756788E-1,2.3066707E-2,-1.9864799E-1,7.480107E-2,-2.7072412E-1,-4.6047512E-1],"categories":[],"categories_nodes":[],"categories_segments":[],"categories_sizes":[],"default_left":[0,0,0,0,0,0,0,0,0,0,0,0,0,0,0,0,0,0,0,0,0,0,0,0,0,0,0,0,0,0,0],"id":13,"left_children":[1,3,5,7,9,11,13,15,17,19,21,23,25,27,29,-1,-1,-1,-1,-1,-1,-1,-1,-1,-1,-1,-1,-1,-1,-1,-1],"loss_changes":[8.1084985E3,1.250207E3,1.1522443E4,1.186958E2,8.2414496E2,2.1592007E3,2.1828594E3,3.3574219E0,6.6085205E1,2.9318195E1,1.8331909E2,1.2916719E3,1.5154113E3,4.4146475E3,3.4635742E2,0E0,0E0,0E0,0E0,0E0,0E0,0E0,0E0,0E0,0E0,0E0,0E0,0E0,0E0,0E0,0E0],"parents":[2147483647,0,0,1,1,2,2,3,3,4,4,5,5,6,6,7,7,8,8,9,9,10,10,11,11,12,12,13,13,14,14],"right_children":[2,4,6,8,10,12,14,16,18,20,22,24,26,28,30,-1,-1,-1,-1,-1,-1,-1,-1,-1,-1,-1,-1,-1,-1,-1,-1],"split_conditions":[5E0,3E0,2E1,5E0,4E0,7E0,7E0,4E0,1E0,2E0,7E0,1.8E1,8E0,5E0,2.3E1,-2.9986426E-1,-2.6386556E-1,-1.7612298E-1,-2.5808161E-1,-2.950555E-2,2.835237E-2,-1.3869636E-1,-2.6356527E-1,1.5189563E-1,2.4640374E-2,-3.5756788E-1,2.3066707E-2,-1.9864799E-1,7.480107E-2,-2.7072412E-1,-4.6047512E-1],"split_indices":[1,1,1,0,0,0,0,0,1,0,0,1,1,0,1,0,0,0,0,0,0,0,0,0,0,0,0,0,0,0,0],"split_type":[0,0,0,0,0,0,0,0,0,0,0,0,0,0,0,0,0,0,0,0,0,0,0,0,0,0,0,0,0,0,0],"sum_hessian":[1.2034E4,1.92E3,1.0114E4,1.023E3,8.97E2,7.163E3,2.951E3,5.96E2,4.27E2,3.85E2,5.12E2,5.783E3,1.38E3,2.497E3,4.54E2,4.83E2,1.13E2,1.88E2,2.39E2,1.33E2,2.52E2,3.23E2,1.89E2,4.827E3,9.56E2,1.13E2,1.267E3,1.541E3,9.56E2,3.09E2,1.45E2],"tree_param":{"num_deleted":"0","num_feature":"2","num_nodes":"31","size_leaf_vector":"1"}},{"base_weights":[-2.221998E-3,-1.6978334E0,3.198019E-1,-2.3779044E0,-9.2044973E-1,8.381749E-1,-1.5124217E0,-2.5879254E0,-1.888088E0,7.506074E-2,-1.6677141E0,1.0830734E0,-2.2771852E-1,-2.2197123E0,-7.4290377E-1,-2.395459E-1,-2.7902707E-1,-1.7284052E-1,-2.2438128E-1,2.505288E-2,-3.619145E-2,-1.2486949E-1,-2.3734747E-1,1.3670921E-1,2.172525E-2,-3.2212472E-1,2.3192577E-3,-3.1662983E-1,-1.8880837E-1,4.7181096E-2,-3.1199476E-1],"categories":[],"categories_nodes":[],"categories_segments":[],"categories_sizes":[],"default_left":[0,0,0,0,0,0,0,0,0,0,0,0,0,0,0,0,0,0,0,0,0,0,0,0,0,0,0,0,0,0,0],"id":14,"left_children":[1,3,5,7,9,11,13,15,17,19,21,23,25,27,29,-1,-1,-1,-1,-1,-1,-1,-1,-1,-1,-1,-1,-1,-1,-1,-1],"loss_changes":[6.571983E3,1.01339795E3,9.608244E3,1.0045459E2,6.6815594E2,2.0585127E3,1.212624E3,2.112207E1,1.378772E1,2.9687296E1,1.4874426E2,1.5764741E3,1.1072103E3,3.5879053E2,3.0910225E3,0E0,0E0,0E0,0E0,0E0,0E0,0E0,0E0,0E0,0E0,0E0,0E0,0E0,0E0,0E0,0E0],"parents":[2147483647,0,0,1,1,2,2,3,3,4,4,5,5,6,6,7,7,8,8,9,9,10,10,11,11,12,12,13,13,14,14],"right_children":[2,4,6,8,10,12,14,16,18,20,22,24,26,28,30,-1,-1,-1,-1,-1,-1,-1,-1,-1,-1,-1,-1,-1,-1,-1,-1],"split_conditions":[5E0,3E0,2.1E1,6E0,4E0,7E0,5E0,1E0,2E0,3E0,7E0,1.8E1,8E0,2E0,7E0,-2.395459E-1,-2.7902707E-1,-1.7284052E-1,-2.2438128E-1,2.505288E-2,-3.619145E-2,-1.2486949E-1,-2.3734747E-1,1.3670921E-1,2.172525E-2,-3.2212472E-1,2.3192577E-3,-3.1662983E-1,-1.8880837E-1,4.7181096E-2,-3.1199476E-1],"split_indices":[1,1,1,0,0,0,0,1,1,0,0,1,1,0,0,0,0,0,0,0,0,0,0,0,0,0,0,0,0,0,0],"split_type":[0,0,0,0,0,0,0,0,0,0,0,0,0,0,0,0,0,0,0,0,0,0,0,0,0,0,0,0,0,0,0],"sum_hessian":[1.2034E4,1.92E3,1.0114E4,1.023E3,8.97E2,7.884E3,2.23E3,7.13E2,3.1E2,3.85E2,5.12E2,6.411E3,1.473E3,1.161E3,1.069E3,3.72E2,3.41E2,2.18E2,9.2E1,2.75E2,1.1E2,3.23E2,1.89E2,4.827E3,1.584E3,1.13E2,1.36E3,2.99E2,8.62E2,7.08E2,3.61E2],"tree_param":{"num_deleted":"0","num_feature":"2","num_nodes":"31","size_leaf_vector":"1"}},{"base_weights":[-2.1844103E-3,-1.5287213E0,2.8772953E-1,-2.1410084E0,-8.288207E-1,7.5433683E-1,-1.3615247E0,-2.3298593E0,-1.7005565E0,6.752554E-2,-1.5016488E0,9.747906E-1,-2.0516372E-1,-1.998176E0,-6.688609E-1,-2.1565555E-1,-2.5120598E-1,-1.5563542E-1,-2.0218442E-1,-2.9063612E-2,2.569569E-2,-1.1242111E-1,-2.1373764E-1,1.2304113E-1,1.955406E-2,-1.8591975E-1,1.6730165E-2,-1.289017E-1,-2.399346E-1,4.2469647E-2,-2.808815E-1],"categories":[],"categories_nodes":[],"categories_segments":[],"categories_sizes":[],"default_left":[0,0,0,0,0,0,0,0,0,0,0,0,0,0,0,0,0,0,0,0,0,0,0,0,0,0,0,0,0,0,0],"id":15,"left_children":[1,3,5,7,9,11,13,15,17,19,21,23,25,27,29,-1,-1,-1,-1,-1,-1,-1,-1,-1,-1,-1,-1,-1,-1,-1,-1],"loss_changes":[5.326701E3,8.214512E2,7.7850664E3,8.121387E1,5.4167346E2,1.6680791E3,9.8250195E2,1.7128174E1,1.1262024E1,2.6263643E1,1.2069031E2,1.2769814E3,9.083987E2,3.2748828E2,2.5051667E3,0E0,0E0,0E0,0E0,0E0,0E0,0E0,0E0,0E0,0E0,0E0,0E0,0E0,0E0,0E0,0E0],"parents":[2147483647,0,0,1,1,2,2,3,3,4,4,5,5,6,6,7,7,8,8,9,9,10,10,11,11,12,12,13,13,14,14],"right_children":[2,4,6,8,10,12,14,16,18,20,22,24,26,28,30,-1,-1,-1,-1,-1,-1,-1,-1,-1,-1,-1,-1,-1,-1,-1,-1],"split_conditions":[5E0,3E0,2.1E1,6E0,4E0,7E0,5E0,1E0,2E0,2E0,7E0,1.8E1,1E1,2.2E1,7E0,-2.1565555E-1,-2.5120598E-1,-1.5563542E-1,-2.0218442E-1,-2.9063612E-2,2.569569E-2,-1.1242111E-1,-2.1373764E-1,1.2304113E-1,1.955406E-2,-1.8591975E-1,1.6730165E-2,-1.289017E-1,-2.399346E-1,4.2469647E-2,-2.808815E-1],"split_indices":[1,1,1,0,0,0,0,1,1,0,0,1,1,1,0,0,0,0,0,0,0,0,0,0,0,0,0,0,0,0,0],"split_type":[0,0,0,0,0,0,0,0,0,0,0,0,0,0,0,0,0,0,0,0,0,0,0,0,0,0,0,0,0,0,0],"sum_hessian":[1.2034E4,1.92E3,1.0114E4,1.023E3,8.97E2,7.884E3,2.23E3,7.13E2,3.1E2,3.85E2,5.12E2,6.411E3,1.473E3,1.161E3,1.069E3,3.72E2,3.41E2,2.18E2,9.2E1,1.33E2,2.52E2,3.23E2,1.89E2,4.827E3,1.584E3,2.7E2,1.203E3,4.21E2,7.4E2,7.08E2,3.61E2],"tree_param":{"num_deleted":"0","num_feature":"2","num_nodes":"31","size_leaf_vector":"1"}},{"base_weights":[-2.1145574E-3,-1.3613935E0,2.634236E-1,-1.927713E0,-7.456384E-1,8.5471535E-1,-8.1510276E-1,-2.1508613E0,-1.6119485E0,3.9236414E-1,-1.6163588E0,1.7174792E-1,1.1787415E0,-5.184581E-1,-2.1731002E0,-2.2066914E-1,-1.8949623E-1,-1.2116952E-1,-1.9204316E-1,6.0764086E-3,5.496575E-1,-1.3521199E-1,-7.4397606E-1,7.842061E-2,-8.079424E-2,1.7340851E-1,8.305263E-2,-1.3606608E-1,3.8845732E-3,-1.7592172E-1,-3.5586149E-1],"categories":[],"categories_nodes":[],"categories_segments":[],"categories_sizes":[],"default_left":[0,0,0,0,0,0,0,0,0,0,0,0,0,0,0,0,0,0,0,0,0,0,0,0,0,0,0,0,0,0,0],"id":16,"left_children":[1,3,5,7,9,11,13,15,17,19,21,23,25,27,29,-1,-1,-1,-1,-1,-1,-1,-1,-1,-1,-1,-1,-1,-1,-1,-1],"loss_changes":[4.3442764E3,6.844834E2,6.4219375E3,6.868628E1,9.3602686E2,1.4391279E3,1.4354102E3,4.3476562E0,5.05188E1,6.9361426E2,8.131825E2,1.2570741E3,8.515547E2,1.3743472E3,3.601682E2,0E0,0E0,0E0,0E0,0E0,0E0,0E0,0E0,0E0,0E0,0E0,0E0,0E0,0E0,0E0,0E0],"parents":[2147483647,0,0,1,1,2,2,3,3,4,4,5,5,6,6,7,7,8,8,9,9,10,10,11,11,12,12,13,13,14,14],"right_children":[2,4,6,8,10,12,14,16,18,20,22,24,26,28,30,-1,-1,-1,-1,-1,-1,-1,-1,-1,-1,-1,-1,-1,-1,-1,-1],"split_conditions":[6E0,3E0,1.9E1,5E0,4E0,1.1E1,2.3E1,4E0,1E0,5E0,5E0,6E0,4E0,4E0,7E0,-2.2066914E-1,-1.8949623E-1,-1.2116952E-1,-1.9204316E-1,6.0764086E-3,5.496575E-1,-1.3521199E-1,-7.4397606E-1,7.842061E-2,-8.079424E-2,1.7340851E-1,8.305263E-2,-1.3606608E-1,3.8845732E-3,-1.7592172E-1,-3.5586149E-1],"split_indices":[1,1,1,0,0,1,1,0,1,1,1,0,0,0,0,0,0,0,0,0,0,0,0,0,0,0,0,0,0,0,0],"split_type":[0,0,0,0,0,0,0,0,0,0,0,0,0,0,0,0,0,0,0,0,0,0,0,0,0,0,0,0,0,0,0],"sum_hessian":[1.2034E4,1.966E3,1.0068E4,1.023E3,9.43E2,6.503E3,3.565E3,5.96E2,4.27E2,4.09E2,5.34E2,2.093E3,4.41E3,2.927E3,6.38E2,4.83E2,1.13E2,1.88E2,2.39E2,3.85E2,2.4E1,5.12E2,2.2E1,1.288E3,8.05E2,1.698E3,2.712E3,1.165E3,1.762E3,4.93E2,1.45E2],"tree_param":{"num_deleted":"0","num_feature":"2","num_nodes":"31","size_leaf_vector":"1"}},{"base_weights":[-2.0239612E-3,-1.2257863E0,2.3704076E-1,-1.7356482E0,-6.714174E-1,6.249041E-1,-1.1258897E0,-1.8938394E0,-1.3668888E0,3.544828E-1,-1.4563663E0,8.179039E-1,-2.0905893E-1,-1.6794149E0,-5.2371943E-1,-1.7458561E-1,-2.0496987E-1,-1.24812715E-1,-1.6318557E-1,5.4703015E-3,4.968903E-1,-1.2171715E-1,-6.728132E-1,1.0293295E-1,1.795092E-2,-2.637574E-1,-5.4881885E-4,-2.503555E-1,-1.3909774E-1,4.291284E-2,-2.388486E-1],"categories":[],"categories_nodes":[],"categories_segments":[],"categories_sizes":[],"default_left":[0,0,0,0,0,0,0,0,0,0,0,0,0,0,0,0,0,0,0,0,0,0,0,0,0,0,0,0,0,0,0],"id":17,"left_children":[1,3,5,7,9,11,13,15,17,19,21,23,25,27,29,-1,-1,-1,-1,-1,-1,-1,-1,-1,-1,-1,-1,-1,-1,-1,-1],"loss_changes":[3.521231E3,5.5481006E2,5.323487E3,5.7145752E1,7.606998E2,1.2618943E3,7.42749E2,1.2889893E1,7.749756E0,5.6688525E2,6.664346E2,8.590537E2,7.2869366E2,2.7274E2,1.9022423E3,0E0,0E0,0E0,0E0,0E0,0E0,0E0,0E0,0E0,0E0,0E0,0E0,0E0,0E0,0E0,0E0],"parents":[2147483647,0,0,1,1,2,2,3,3,4,4,5,5,6,6,7,7,8,8,9,9,10,10,11,11,12,12,13,13,14,14],"right_children":[2,4,6,8,10,12,14,16,18,20,22,24,26,28,30,-1,-1,-1,-1,-1,-1,-1,-1,-1,-1,-1,-1,-1,-1,-1,-1],"split_conditions":[6E0,3E0,2.1E1,6E0,4E0,7E0,5E0,1E0,2E0,5E0,5E0,1.8E1,8E0,2E0,7E0,-1.7458561E-1,-2.0496987E-1,-1.24812715E-1,-1.6318557E-1,5.4703015E-3,4.968903E-1,-1.2171715E-1,-6.728132E-1,1.0293295E-1,1.795092E-2,-2.637574E-1,-5.4881885E-4,-2.503555E-1,-1.3909774E-1,4.291284E-2,-2.388486E-1],"split_indices":[1,1,1,0,0,0,0,1,1,1,1,1,1,0,0,0,0,0,0,0,0,0,0,0,0,0,0,0,0,0,0],"split_type":[0,0,0,0,0,0,0,0,0,0,0,0,0,0,0,0,0,0,0,0,0,0,0,0,0,0,0,0,0,0,0],"sum_hessian":[1.2034E4,1.966E3,1.0068E4,1.023E3,9.43E2,7.838E3,2.23E3,7.13E2,3.1E2,4.09E2,5.34E2,6.365E3,1.473E3,1.161E3,1.069E3,3.72E2,3.41E2,2.18E2,9.2E1,3.85E2,2.4E1,5.12E2,2.2E1,4.781E3,1.584E3,1.13E2,1.36E3,2.99E2,8.62E2,7.08E2,3.61E2],"tree_param":{"num_deleted":"0","num_feature":"2","num_nodes":"31","size_leaf_vector":"1"}},{"base_weights":[-1.962181E-3,-1.1036956E0,2.1326391E-1,-1.5627352E0,-6.045851E-1,5.6239486E-1,-1.0135629E0,-1.7966843E0,-1.3505466E0,3.2025978E-1,-1.3122147E0,7.361318E-1,-1.8833219E-1,-6.8153334E-1,-1.8397124E0,-1.8515803E-1,-1.4396784E-1,-1.0839764E-1,-1.5826888E-1,4.9246913E-3,4.491888E-1,-1.0956915E-1,-6.0845715E-1,9.2641726E-2,1.6156951E-2,-3.6090562E-1,-7.0657707E-3,-1.3088518E-1,7.1323696E-3,-1.5025334E-1,-2.9679778E-1],"categories":[],"categories_nodes":[],"categories_segments":[],"categories_sizes":[],"default_left":[0,0,0,0,0,0,0,0,0,0,0,0,0,0,0,0,0,0,0,0,0,0,0,0,0,0,0,0,0,0,0],"id":18,"left_children":[1,3,5,7,9,11,13,15,17,19,21,23,25,27,29,-1,-1,-1,-1,-1,-1,-1,-1,-1,-1,-1,-1,-1,-1,-1,-1],"loss_changes":[2.8539958E3,4.4971753E2,4.3133564E3,4.840625E1,6.1821875E2,1.0225713E3,6.107229E2,6.819824E0,3.1762695E1,4.6331036E2,5.461626E2,6.958506E2,5.93077E2,7.5243726E2,2.3863379E2,0E0,0E0,0E0,0E0,0E0,0E0,0E0,0E0,0E0,0E0,0E0,0E0,0E0,0E0,0E0,0E0],"parents":[2147483647,0,0,1,1,2,2,3,3,4,4,5,5,6,6,7,7,8,8,9,9,10,10,11,11,12,12,13,13,14,14],"right_children":[2,4,6,8,10,12,14,16,18,20,22,24,26,28,30,-1,-1,-1,-1,-1,-1,-1,-1,-1,-1,-1,-1,-1,-1,-1,-1],"split_conditions":[6E0,3E0,2.1E1,4E0,4E0,7E0,2.3E1,2E0,1E0,5E0,5E0,1.8E1,7E0,5E0,7E0,-1.8515803E-1,-1.4396784E-1,-1.0839764E-1,-1.5826888E-1,4.9246913E-3,4.491888E-1,-1.0956915E-1,-6.0845715E-1,9.2641726E-2,1.6156951E-2,-3.6090562E-1,-7.0657707E-3,-1.3088518E-1,7.1323696E-3,-1.5025334E-1,-2.9679778E-1],"split_indices":[1,1,1,0,0,0,1,1,1,1,1,1,1,0,0,0,0,0,0,0,0,0,0,0,0,0,0,0,0,0,0],"split_type":[0,0,0,0,0,0,0,0,0,0,0,0,0,0,0,0,0,0,0,0,0,0,0,0,0,0,0,0,0,0,0],"sum_hessian":[1.2034E4,1.966E3,1.0068E4,1.023E3,9.43E2,7.838E3,2.23E3,4.83E2,5.4E2,4.09E2,5.34E2,6.365E3,1.473E3,1.592E3,6.38E2,4.15E2,6.8E1,2.54E2,2.86E2,3.85E2,2.4E1,5.12E2,2.2E1,4.781E3,1.584E3,4.8E1,1.425E3,8.68E2,7.24E2,4.93E2,1.45E2],"tree_param":{"num_deleted":"0","num_feature":"2","num_nodes":"31","size_leaf_vector":"1"}},{"base_weights":[-1.9064995E-3,-9.93763E-1,1.9185492E-1,-1.4070436E0,-5.4440606E-1,6.3162005E-1,-6.1028314E-1,-1.542242E0,-1.0921279E0,2.8934133E-1,-1.1823351E0,2.1673435E-2,9.2103213E-1,-3.8206366E-1,-1.7469103E0,-1.4152704E-1,-1.6762134E-1,-9.929818E-2,-1.3138576E-1,4.43349E-3,4.0606672E-1,-9.863357E-2,-5.5025685E-1,5.1042236E-2,-7.599878E-2,1.3891724E-1,6.275227E-2,-1.037144E-1,6.329081E-2,-5.008923E-2,-2.1319382E-1],"categories":[],"categories_nodes":[],"categories_segments":[],"categories_sizes":[],"default_left":[0,0,0,0,0,0,0,0,0,0,0,0,0,0,0,0,0,0,0,0,0,0,0,0,0,0,0,0,0,0,0],"id":19,"left_children":[1,3,5,7,9,11,13,15,17,19,21,23,25,27,29,-1,-1,-1,-1,-1,-1,-1,-1,-1,-1,-1,-1,-1,-1,-1,-1],"loss_changes":[2.3131194E3,3.645266E2,3.5522493E3,4.1913696E1,5.0242892E2,1.1481047E3,9.243546E2,9.773315E0,5.5322876E0,3.7865964E2,4.4759088E2,8.0037146E2,6.052151E2,1.9760388E3,2.848639E2,0E0,0E0,0E0,0E0,0E0,0E0,0E0,0E0,0E0,0E0,0E0,0E0,0E0,0E0,0E0,0E0],"parents":[2147483647,0,0,1,1,2,2,3,3,4,4,5,5,6,6,7,7,8,8,9,9,10,10,11,11,12,12,13,13,14,14],"right_children":[2,4,6,8,10,12,14,16,18,20,22,24,26,28,30,-1,-1,-1,-1,-1,-1,-1,-1,-1,-1,-1,-1,-1,-1,-1,-1],"split_conditions":[6E0,3E0,1.9E1,6E0,4E0,1.1E1,7E0,1E0,2E0,5E0,5E0,6E0,4E0,5E0,2E1,-1.4152704E-1,-1.6762134E-1,-9.929818E-2,-1.3138576E-1,4.43349E-3,4.0606672E-1,-9.863357E-2,-5.5025685E-1,5.1042236E-2,-7.599878E-2,1.3891724E-1,6.275227E-2,-1.037144E-1,6.329081E-2,-5.008923E-2,-2.1319382E-1],"split_indices":[1,1,1,0,0,1,0,1,1,1,1,0,0,0,1,0,0,0,0,0,0,0,0,0,0,0,0,0,0,0,0],"split_type":[0,0,0,0,0,0,0,0,0,0,0,0,0,0,0,0,0,0,0,0,0,0,0,0,0,0,0,0,0,0,0],"sum_hessian":[1.2034E4,1.966E3,1.0068E4,1.023E3,9.43E2,6.503E3,3.565E3,7.13E2,3.1E2,4.09E2,5.34E2,2.093E3,4.41E3,2.97E3,5.95E2,3.72E2,3.41E2,2.18E2,9.2E1,3.85E2,2.4E1,5.12E2,2.2E1,1.288E3,8.05E2,1.698E3,2.712E3,1.805E3,1.165E3,1.41E2,4.54E2],"tree_param":{"num_deleted":"0","num_feature":"2","num_nodes":"31","size_leaf_vector":"1"}},{"base_weights":[-1.7911136E-3,1.8986051E-1,-8.440781E-1,-6.9848984E-1,5.4027206E-1,-5.48221E-1,-1.5803167E0,-3.033399E-1,-1.5429808E0,7.501414E-1,-1.3328747E-2,-1.2461027E0,-7.084223E-2,-1.3166931E0,-2.4614792E-1,-1.377304E-1,3.7614156E-2,-1.0809679E-1,-2.6783735E-1,4.2394575E-2,1.1613505E-1,-1.1069138E-1,3.864528E-2,-6.6525266E-2,-1.7784417E-1,3.1940617E-2,-1.3851313E-1,-1.7319852E-1,-1.4055207E-2],"categories":[],"categories_nodes":[],"categories_segments":[],"categories_sizes":[],"default_left":[0,0,0,0,0,0,0,0,0,0,0,0,0,0,0,0,0,0,0,0,0,0,0,0,0,0,0,0,0],"id":20,"left_children":[1,3,5,7,9,11,13,15,17,19,21,23,25,27,-1,-1,-1,-1,-1,-1,-1,-1,-1,-1,-1,-1,-1,-1,-1],"loss_changes":[1.9429182E3,3.0525583E3,4.8509326E2,9.252173E2,8.170144E2,5.3062585E2,1.4519568E2,1.3804539E3,4.608208E2,6.834602E2,8.4596313E2,1.9887518E2,4.86158E2,2.4104694E2,0E0,0E0,0E0,0E0,0E0,0E0,0E0,0E0,0E0,0E0,0E0,0E0,0E0,0E0,0E0],"parents":[2147483647,0,0,1,1,2,2,3,3,4,4,5,5,6,6,7,7,8,8,9,9,10,10,11,11,12,12,13,13],"right_children":[2,4,6,8,10,12,14,16,18,20,22,24,26,28,-1,-1,-1,-1,-1,-1,-1,-1,-1,-1,-1,-1,-1,-1,-1],"split_conditions":[2.1E1,8E0,2.3E1,6E0,1.8E1,4E0,7E0,4E0,5E0,1.4E1,3E0,2.2E1,7E0,6E0,-2.4614792E-1,-1.377304E-1,3.7614156E-2,-1.0809679E-1,-2.6783735E-1,4.2394575E-2,1.1613505E-1,-1.1069138E-1,3.864528E-2,-6.6525266E-2,-1.7784417E-1,3.1940617E-2,-1.3851313E-1,-1.7319852E-1,-1.4055207E-2],"split_indices":[1,1,1,0,1,0,0,1,1,1,0,1,0,0,0,0,0,0,0,0,0,0,0,0,0,0,0,0,0],"split_type":[0,0,0,0,0,0,0,0,0,0,0,0,0,0,0,0,0,0,0,0,0,0,0,0,0,0,0,0,0],"sum_hessian":[1.2034E4,9.804E3,2.23E3,2.773E3,7.031E3,1.592E3,6.38E2,1.89E3,8.83E2,5.098E3,1.933E3,6.46E2,9.46E2,4.93E2,1.45E2,7.32E2,1.158E3,6.29E2,2.54E2,2.844E3,2.254E3,5.17E2,1.416E3,3.1E2,3.36E2,7.3E2,2.16E2,3.64E2,1.29E2],"tree_param":{"num_deleted":"0","num_feature":"2","num_nodes":"29","size_leaf_vector":"1"}},{"base_weights":[-1.7095531E-3,-8.205297E-1,1.5824883E-1,-1.1382416E0,-4.7502375E-1,4.1957086E-1,-7.600218E-1,-1.3256449E0,-9.684795E-1,2.3201178E-1,-1.0159762E0,5.6481385E-1,-2.0799789E-1,-1.876587E0,-5.862487E-1,-1.3769905E-1,-9.9687055E-2,-7.30814E-2,-1.1762712E-1,1.1027238E-3,3.6347327E-1,-8.348272E-2,-5.012214E-1,7.027764E-2,1.4821972E-2,-6.495472E-3,-2.3073022E-1,-1.7319657E-1,-2.3105E-1,-3.426438E-2,-1.6418207E-1],"categories":[],"categories_nodes":[],"categories_segments":[],"categories_sizes":[],"default_left":[0,0,0,0,0,0,0,0,0,0,0,0,0,0,0,0,0,0,0,0,0,0,0,0,0,0,0,0,0,0,0],"id":21,"left_children":[1,3,5,7,9,11,13,15,17,19,21,23,25,27,29,-1,-1,-1,-1,-1,-1,-1,-1,-1,-1,-1,-1,-1,-1,-1,-1],"loss_changes":[1.57644E3,2.1537964E2,2.41652E3,3.129358E1,3.6128986E2,7.1464197E2,4.3177856E2,6.7977295E0,2.5857605E1,3.082589E2,3.8311E2,3.6577783E2,4.424793E2,1.4824097E1,4.9623694E2,0E0,0E0,0E0,0E0,0E0,0E0,0E0,0E0,0E0,0E0,0E0,0E0,0E0,0E0,0E0,0E0],"parents":[2147483647,0,0,1,1,2,2,3,3,4,4,5,5,6,6,7,7,8,8,9,9,10,10,11,11,12,12,13,13,14,14],"right_children":[2,4,6,8,10,12,14,16,18,20,22,24,26,28,30,-1,-1,-1,-1,-1,-1,-1,-1,-1,-1,-1,-1,-1,-1,-1,-1],"split_conditions":[6E0,3E0,2.1E1,4E0,4E0,7E0,2E0,2E0,1E0,5E0,5E0,1.8E1,2E1,2.3E1,7E0,-1.3769905E-1,-9.9687055E-2,-7.30814E-2,-1.1762712E-1,1.1027238E-3,3.6347327E-1,-8.348272E-2,-5.012214E-1,7.027764E-2,1.4821972E-2,-6.495472E-3,-2.3073022E-1,-1.7319657E-1,-2.3105E-1,-3.426438E-2,-1.6418207E-1],"split_indices":[1,1,1,0,0,0,0,1,1,1,1,1,1,1,0,0,0,0,0,0,0,0,0,0,0,0,0,0,0,0,0],"split_type":[0,0,0,0,0,0,0,0,0,0,0,0,0,0,0,0,0,0,0,0,0,0,0,0,0,0,0,0,0,0,0],"sum_hessian":[1.2034E4,1.966E3,1.0068E4,1.023E3,9.43E2,7.838E3,2.23E3,4.83E2,5.4E2,4.09E2,5.34E2,6.365E3,1.473E3,2.99E2,1.931E3,4.15E2,6.8E1,2.54E2,2.86E2,3.85E2,2.4E1,5.12E2,2.2E1,4.781E3,1.584E3,1.38E3,9.3E1,2.28E2,7.1E1,1.57E3,3.61E2],"tree_param":{"num_deleted":"0","num_feature":"2","num_nodes":"31","size_leaf_vector":"1"}},{"base_weights":[-1.655415E-3,1.1986103E-1,-8.818994E-1,-4.7222784E-1,4.2419416E-1,-1.8454319E0,-5.471804E-1,-1.7990997E-1,-1.0567133E0,7.5341606E-1,-9.711908E-2,-1.7334998E-1,-2.0392044E-1,-2.1147537E-1,-1.5748781E0,-1.1239983E-1,2.3632374E-2,-1.334008E-1,-2.7268395E-2,1.11078516E-1,4.774662E-2,-1.4620243E-1,1.2114357E-2,-6.5007895E-2,8.187635E-2,-9.886425E-2,-2.0539594E-1],"categories":[],"categories_nodes":[],"categories_segments":[],"categories_sizes":[],"default_left":[0,0,0,0,0,0,0,0,0,0,0,0,0,0,0,0,0,0,0,0,0,0,0,0,0,0,0],"id":22,"left_children":[1,3,5,7,9,11,13,15,17,19,21,-1,-1,23,25,-1,-1,-1,-1,-1,-1,-1,-1,-1,-1,-1,-1],"loss_changes":[1.287419E3,1.9059136E3,4.6985864E2,6.133522E2,1.1990645E3,4.6203613E0,3.739955E2,9.414081E2,2.5987256E2,4.2174316E2,8.060178E2,0E0,0E0,3.7061084E2,7.295752E1,0E0,0E0,0E0,0E0,0E0,0E0,0E0,0E0,0E0,0E0,0E0,0E0],"parents":[2147483647,0,0,1,1,2,2,3,3,4,4,5,5,6,6,7,7,8,8,9,9,10,10,13,13,14,14],"right_children":[2,4,6,8,10,12,14,16,18,20,22,-1,-1,24,26,-1,-1,-1,-1,-1,-1,-1,-1,-1,-1,-1,-1],"split_conditions":[2.2E1,1E1,3E0,6E0,1.8E1,2.3E1,7E0,4E0,8E0,5E0,2E0,-1.7334998E-1,-2.0392044E-1,6E0,2.3E1,-1.1239983E-1,2.3632374E-2,-1.334008E-1,-2.7268395E-2,1.11078516E-1,4.774662E-2,-1.4620243E-1,1.2114357E-2,-6.5007895E-2,8.187635E-2,-9.886425E-2,-2.0539594E-1],"split_indices":[1,1,0,0,1,1,0,1,1,0,0,0,0,0,1,0,0,0,0,0,0,0,0,0,0,0,0],"split_type":[0,0,0,0,0,0,0,0,0,0,0,0,0,0,0,0,0,0,0,0,0,0,0,0,0,0,0],"sum_hessian":[1.2034E4,1.0575E4,1.459E3,3.59E3,6.985E3,3.75E2,1.084E3,2.394E3,1.196E3,4.281E3,2.704E3,2.44E2,1.31E2,8.18E2,2.66E2,7.32E2,1.662E3,8.83E2,3.13E2,1.864E3,2.417E3,3.72E2,2.332E3,5.74E2,2.44E2,1.21E2,1.45E2],"tree_param":{"num_deleted":"0","num_feature":"2","num_nodes":"27","size_leaf_vector":"1"}},{"base_weights":[-1.5637587E-3,1.4005573E-1,-6.2396514E-1,-4.250744E-1,4.6656293E-1,-1.0032202E0,-2.1151808E-1,4.525844E-3,-7.699214E-1,6.781116E-1,-2.060728E-3,-5.293089E-1,-1.2717592E0,3.7821013E-1,-1.3659539E0,-1.0673509E-1,4.955545E-2,-9.783763E-2,-1.039636E-2,9.997665E-2,4.297393E-2,-9.401895E-2,3.4088407E-2,-1.2643586E-1,-2.9710604E-2,-1.6618922E-1,-8.6749196E-2,7.0464484E-2,-4.503147E-2,-1.0340076E-1,-1.8499705E-1],"categories":[],"categories_nodes":[],"categories_segments":[],"categories_sizes":[],"default_left":[0,0,0,0,0,0,0,0,0,0,0,0,0,0,0,0,0,0,0,0,0,0,0,0,0,0,0,0,0,0,0],"id":23,"left_children":[1,3,5,7,9,11,13,15,17,19,21,23,25,27,29,-1,-1,-1,-1,-1,-1,-1,-1,-1,-1,-1,-1,-1,-1,-1,-1],"loss_changes":[1.0609023E3,1.8094077E3,3.4876678E2,5.31997E2,6.161361E2,1.4720715E2,7.289762E2,8.426445E2,2.76432E2,3.416599E2,6.2253925E2,7.165159E1,1.15427246E2,1.9207297E2,5.624884E1,0E0,0E0,0E0,0E0,0E0,0E0,0E0,0E0,0E0,0E0,0E0,0E0,0E0,0E0,0E0,0E0],"parents":[2147483647,0,0,1,1,2,2,3,3,4,4,5,5,6,6,7,7,8,8,9,9,10,10,11,11,12,12,13,13,14,14],"right_children":[2,4,6,8,10,12,14,16,18,20,22,24,26,28,30,-1,-1,-1,-1,-1,-1,-1,-1,-1,-1,-1,-1,-1,-1,-1,-1],"split_conditions":[2.1E1,1E1,5E0,4E0,1.8E1,2.2E1,7E0,4E0,8E0,5E0,3E0,2E0,3E0,2.3E1,2.3E1,-1.0673509E-1,4.955545E-2,-9.783763E-2,-1.039636E-2,9.997665E-2,4.297393E-2,-9.401895E-2,3.4088407E-2,-1.2643586E-1,-2.9710604E-2,-1.6618922E-1,-8.6749196E-2,7.0464484E-2,-4.503147E-2,-1.0340076E-1,-1.8499705E-1],"split_indices":[1,1,0,0,1,1,0,1,1,0,0,0,0,1,1,0,0,0,0,0,0,0,0,0,0,0,0,0,0,0,0],"split_type":[0,0,0,0,0,0,0,0,0,0,0,0,0,0,0,0,0,0,0,0,0,0,0,0,0,0,0,0,0,0,0],"sum_hessian":[1.2034E4,9.804E3,2.23E3,3.59E3,6.214E3,1.161E3,1.069E3,1.599E3,1.991E3,4.281E3,1.933E3,4.21E2,7.4E2,7.08E2,3.61E2,5.02E2,1.097E3,1.516E3,4.75E2,1.864E3,2.417E3,5.17E2,1.416E3,1E2,3.21E2,3.75E2,3.65E2,5.08E2,2E2,2.16E2,1.45E2],"tree_param":{"num_deleted":"0","num_feature":"2","num_nodes":"31","size_leaf_vector":"1"}},{"base_weights":[-1.4702424E-3,1.2604152E-1,-5.6186974E-1,-3.8261297E-1,4.1991958E-1,-3.3375037E-1,-1.1296824E0,-1.3572013E-1,-8.7628525E-1,6.1033314E-1,-1.8854501E-3,-7.5084895E-1,1.6665298E-1,-9.688178E-1,-1.6662405E-1,-9.079542E-2,2.0473888E-2,-1.1030313E-1,-2.3513937E-2,1.3101143E-1,5.1028162E-2,-8.4635206E-2,3.0681998E-2,-1.250683E-1,-5.7110965E-2,6.343192E-2,-9.310832E-2,-1.2652177E-1,-1.2916574E-2],"categories":[],"categories_nodes":[],"categories_segments":[],"categories_sizes":[],"default_left":[0,0,0,0,0,0,0,0,0,0,0,0,0,0,0,0,0,0,0,0,0,0,0,0,0,0,0,0,0],"id":24,"left_children":[1,3,5,7,9,11,13,15,17,19,21,23,25,27,-1,-1,-1,-1,-1,-1,-1,-1,-1,-1,-1,-1,-1,-1,-1],"loss_changes":[8.6006213E2,1.4658356E3,2.8860236E2,4.3756702E2,4.9917383E2,3.3261215E2,5.3539856E1,6.29865E2,1.7375732E2,2.991322E2,5.0443692E2,7.735654E1,3.7278683E2,1.2277969E2,0E0,0E0,0E0,0E0,0E0,0E0,0E0,0E0,0E0,0E0,0E0,0E0,0E0,0E0,0E0],"parents":[2147483647,0,0,1,1,2,2,3,3,4,4,5,5,6,6,7,7,8,8,9,9,10,10,11,11,12,12,13,13],"right_children":[2,4,6,8,10,12,14,16,18,20,22,24,26,28,-1,-1,-1,-1,-1,-1,-1,-1,-1,-1,-1,-1,-1,-1,-1],"split_conditions":[2.1E1,1E1,2.3E1,6E0,1.8E1,5E0,7E0,4E0,8E0,2E0,3E0,2E0,7E0,6E0,-1.6662405E-1,-9.079542E-2,2.0473888E-2,-1.1030313E-1,-2.3513937E-2,1.3101143E-1,5.1028162E-2,-8.4635206E-2,3.0681998E-2,-1.250683E-1,-5.7110965E-2,6.343192E-2,-9.310832E-2,-1.2652177E-1,-1.2916574E-2],"split_indices":[1,1,1,0,1,0,0,1,1,0,0,0,0,0,0,0,0,0,0,0,0,0,0,0,0,0,0,0,0],"split_type":[0,0,0,0,0,0,0,0,0,0,0,0,0,0,0,0,0,0,0,0,0,0,0,0,0,0,0,0,0],"sum_hessian":[1.2034E4,9.804E3,2.23E3,3.59E3,6.214E3,1.592E3,6.38E2,2.394E3,1.196E3,4.281E3,1.933E3,8.68E2,7.24E2,4.93E2,1.45E2,7.32E2,1.662E3,8.83E2,3.13E2,5.34E2,3.747E3,5.17E2,1.416E3,2.28E2,6.4E2,5.08E2,2.16E2,3.64E2,1.29E2],"tree_param":{"num_deleted":"0","num_feature":"2","num_nodes":"29","size_leaf_vector":"1"}},{"base_weights":[-1.3722668E-3,1.1342999E-1,-5.05915E-1,-3.4440836E-1,3.7794876E-1,-3.0050835E-1,-1.0171932E0,1.8487694E-2,-6.357183E-1,5.4934305E-1,-1.7246298E-3,-6.7597383E-1,1.4994684E-1,-1.5463357E-1,-8.776972E-1,-8.702131E-2,4.2558968E-2,-8.080723E-2,-8.509482E-3,2.8138256E-2,7.900857E-2,-1.152578E-1,1.8731551E-2,-1.12616114E-1,-5.1408798E-2,5.710121E-2,-8.384041E-2,-6.24682E-2,-1.5007578E-1],"categories":[],"categories_nodes":[],"categories_segments":[],"categories_sizes":[],"default_left":[0,0,0,0,0,0,0,0,0,0,0,0,0,0,0,0,0,0,0,0,0,0,0,0,0,0,0,0,0],"id":25,"left_children":[1,3,5,7,9,11,13,15,17,19,21,23,25,-1,27,-1,-1,-1,-1,-1,-1,-1,-1,-1,-1,-1,-1,-1,-1],"loss_changes":[6.9715643E2,1.1875828E3,2.3399377E2,3.7963507E2,4.0443494E2,2.6952606E2,4.580951E1,5.7923737E2,1.8897632E2,2.7600732E2,4.2097208E2,6.275287E1,3.0219485E2,0E0,7.914554E1,0E0,0E0,0E0,0E0,0E0,0E0,0E0,0E0,0E0,0E0,0E0,0E0,0E0,0E0],"parents":[2147483647,0,0,1,1,2,2,3,3,4,4,5,5,6,6,7,7,8,8,9,9,10,10,11,11,12,12,14,14],"right_children":[2,4,6,8,10,12,14,16,18,20,22,24,26,-1,28,-1,-1,-1,-1,-1,-1,-1,-1,-1,-1,-1,-1,-1,-1],"split_conditions":[2.1E1,1E1,2.3E1,4E0,1.8E1,5E0,3E0,4E0,8E0,1.4E1,2E0,2E0,7E0,-1.5463357E-1,7E0,-8.702131E-2,4.2558968E-2,-8.080723E-2,-8.509482E-3,2.8138256E-2,7.900857E-2,-1.152578E-1,1.8731551E-2,-1.12616114E-1,-5.1408798E-2,5.710121E-2,-8.384041E-2,-6.24682E-2,-1.5007578E-1],"split_indices":[1,1,1,0,1,0,0,1,1,1,0,0,0,0,0,0,0,0,0,0,0,0,0,0,0,0,0,0,0],"split_type":[0,0,0,0,0,0,0,0,0,0,0,0,0,0,0,0,0,0,0,0,0,0,0,0,0,0,0,0,0],"sum_hessian":[1.2034E4,9.804E3,2.23E3,3.59E3,6.214E3,1.592E3,6.38E2,1.599E3,1.991E3,4.281E3,1.933E3,8.68E2,7.24E2,1.31E2,5.07E2,5.02E2,1.097E3,1.516E3,4.75E2,2.027E3,2.254E3,2.72E2,1.661E3,2.28E2,6.4E2,5.08E2,2.16E2,3.62E2,1.45E2],"tree_param":{"num_deleted":"0","num_feature":"2","num_nodes":"29","size_leaf_vector":"1"}},{"base_weights":[-1.2916096E-3,1.0207447E-1,-4.555736E-1,-3.100047E-1,3.401556E-1,-7.3879915E-1,-1.4757013E-1,-1.0149775E-1,-7.269339E-1,4.944336E-1,-1.6016614E-3,-3.3787778E-1,-9.661271E-1,2.867049E-1,-9.9771774E-1,-4.7474224E-2,3.7062194E-2,-9.1213726E-2,-2.0321846E-2,7.724505E-2,2.7979508E-2,-7.102183E-2,2.5744213E-2,-9.038437E-2,-1.5930498E-2,-1.2837963E-1,-6.371389E-2,5.14023E-2,-2.903678E-2,-7.5495005E-2,-1.35171E-1],"categories":[],"categories_nodes":[],"categories_segments":[],"categories_sizes":[],"default_left":[0,0,0,0,0,0,0,0,0,0,0,0,0,0,0,0,0,0,0,0,0,0,0,0,0,0,0,0,0,0,0],"id":26,"left_children":[1,3,5,7,9,11,13,15,17,19,21,23,25,27,29,-1,-1,-1,-1,-1,-1,-1,-1,-1,-1,-1,-1,-1,-1,-1,-1],"loss_changes":[5.6517816E2,9.620572E2,1.9451102E2,3.121013E2,3.276906E2,1.0557898E2,3.9532776E2,4.2221347E2,1.1591626E2,2.5530432E2,3.5519315E2,4.250591E1,7.6623535E1,9.315521E1,3.008902E1,0E0,0E0,0E0,0E0,0E0,0E0,0E0,0E0,0E0,0E0,0E0,0E0,0E0,0E0,0E0,0E0],"parents":[2147483647,0,0,1,1,2,2,3,3,4,4,5,5,6,6,7,7,8,8,9,9,10,10,11,11,12,12,13,13,14,14],"right_children":[2,4,6,8,10,12,14,16,18,20,22,24,26,28,30,-1,-1,-1,-1,-1,-1,-1,-1,-1,-1,-1,-1,-1,-1,-1,-1],"split_conditions":[2.1E1,1E1,5E0,6E0,1.8E1,2.2E1,7E0,6E0,8E0,5E0,3E0,2E0,3E0,2.3E1,2.3E1,-4.7474224E-2,3.7062194E-2,-9.1213726E-2,-2.0321846E-2,7.724505E-2,2.7979508E-2,-7.102183E-2,2.5744213E-2,-9.038437E-2,-1.5930498E-2,-1.2837963E-1,-6.371389E-2,5.14023E-2,-2.903678E-2,-7.5495005E-2,-1.35171E-1],"split_indices":[1,1,0,0,1,1,0,1,1,0,0,0,0,1,1,0,0,0,0,0,0,0,0,0,0,0,0,0,0,0,0],"split_type":[0,0,0,0,0,0,0,0,0,0,0,0,0,0,0,0,0,0,0,0,0,0,0,0,0,0,0,0,0,0,0],"sum_hessian":[1.2034E4,9.804E3,2.23E3,3.59E3,6.214E3,1.161E3,1.069E3,2.394E3,1.196E3,4.281E3,1.933E3,4.21E2,7.4E2,7.08E2,3.61E2,1.337E3,1.057E3,8.83E2,3.13E2,1.864E3,2.417E3,5.17E2,1.416E3,1E2,3.21E2,3.75E2,3.65E2,5.08E2,2E2,2.16E2,1.45E2],"tree_param":{"num_deleted":"0","num_feature":"2","num_nodes":"31","size_leaf_vector":"1"}},{"base_weights":[-1.2080069E-3,9.5186956E-2,-4.2931965E-1,-6.3161206E-1,1.6632125E-1,-2.3758413E-1,-1.1691915E0,-6.8492043E-1,-3.558715E-1,2.9355574E-1,-3.154897E-1,-5.827342E-1,2.1747209E-1,-2.1990955E-1,-8.9852804E-1,-5.8548123E-2,-7.857678E-2,-9.077298E-2,-2.542719E-2,5.3246315E-3,4.6232E-2,-6.651761E-2,2.5806604E-2,-1.4200489E-2,-7.1643434E-2,1.0480704E-1,-5.7943523E-2,-6.798032E-2,-1.2174648E-1],"categories":[],"categories_nodes":[],"categories_segments":[],"categories_sizes":[],"default_left":[0,0,0,0,0,0,0,0,0,0,0,0,0,0,0,0,0,0,0,0,0,0,0,0,0,0,0,0,0],"id":27,"left_children":[1,3,5,7,9,11,13,15,17,19,21,23,25,-1,27,-1,-1,-1,-1,-1,-1,-1,-1,-1,-1,-1,-1,-1,-1],"loss_changes":[4.9669894E2,5.080091E2,3.1351587E2,1.26328125E1,5.486929E2,2.7624298E2,1.2485864E2,6.890625E0,7.843067E0,2.871093E2,3.7522742E2,5.882379E1,5.029969E2,0E0,2.4425262E1,0E0,0E0,0E0,0E0,0E0,0E0,0E0,0E0,0E0,0E0,0E0,0E0,0E0,0E0],"parents":[2147483647,0,0,1,1,2,2,3,3,4,4,5,5,6,6,7,7,8,8,9,9,10,10,11,11,12,12,14,14],"right_children":[2,4,6,8,10,12,14,16,18,20,22,24,26,-1,28,-1,-1,-1,-1,-1,-1,-1,-1,-1,-1,-1,-1,-1,-1],"split_conditions":[7E0,4E0,2E1,6E0,2.1E1,1.4E1,2.1E1,1E0,1E0,1.2E1,5E0,4E0,1.7E1,-2.1990955E-1,2.3E1,-5.8548123E-2,-7.857678E-2,-9.077298E-2,-2.542719E-2,5.3246315E-3,4.6232E-2,-6.651761E-2,2.5806604E-2,-1.4200489E-2,-7.1643434E-2,1.0480704E-1,-5.7943523E-2,-6.798032E-2,-1.2174648E-1],"split_indices":[0,1,1,0,1,1,1,1,1,1,0,1,1,0,1,0,0,0,0,0,0,0,0,0,0,0,0,0,0],"split_type":[0,0,0,0,0,0,0,0,0,0,0,0,0,0,0,0,0,0,0,0,0,0,0,0,0,0,0,0,0],"sum_hessian":[1.2034E4,9.823E3,2.211E3,8.75E2,8.948E3,1.757E3,4.54E2,7.32E2,1.43E2,7.079E3,1.869E3,9.99E2,7.58E2,9.3E1,3.61E2,3.72E2,3.6E2,2.1E1,1.22E2,2.921E3,4.158E3,1.161E3,7.08E2,2.33E2,7.66E2,3.71E2,3.87E2,2.16E2,1.45E2],"tree_param":{"num_deleted":"0","num_feature":"2","num_nodes":"29","size_leaf_vector":"1"}},{"base_weights":[-1.1447534E-3,4.2734902E-2,-7.837665E-1,-2.5758636E-1,1.8086874E-1,-1.19945265E-1,-6.742107E-1,4.4762284E-2,-5.003074E-1,4.1474435E-1,-1.03202775E-1,-5.0248605E-1,-1.0965522E-1,-4.032743E-2,5.7659157E-2,-6.394596E-2,-5.5781817E-3,1.0100033E-1,3.2966476E-2,-6.513217E-2,1.15563935E-2,-7.5107805E-2,-5.115528E-3],"categories":[],"categories_nodes":[],"categories_segments":[],"categories_sizes":[],"default_left":[0,0,0,0,0,0,0,0,0,0,0,0,0,0,0,0,0,0,0,0,0,0,0],"id":28,"left_children":[1,3,5,7,9,-1,11,13,15,17,19,21,-1,-1,-1,-1,-1,-1,-1,-1,-1,-1,-1],"loss_changes":[4.1332953E2,4.7284583E2,2.829187E1,2.6355286E2,5.1871954E2,0E0,3.629242E1,3.8147885E2,1.2318292E2,2.165263E2,4.2287854E2,4.068917E1,0E0,0E0,0E0,0E0,0E0,0E0,0E0,0E0,0E0,0E0,0E0],"parents":[2147483647,0,0,1,1,2,2,3,3,4,4,6,6,7,7,8,8,9,9,10,10,11,11],"right_children":[2,4,6,8,10,-1,12,14,16,18,20,22,-1,-1,-1,-1,-1,-1,-1,-1,-1,-1,-1],"split_conditions":[2.3E1,1E1,3E0,4E0,1.8E1,-1.19945265E-1,7E0,5E0,8E0,2E0,3E0,6E0,-1.0965522E-1,-4.032743E-2,5.7659157E-2,-6.394596E-2,-5.5781817E-3,1.0100033E-1,3.2966476E-2,-6.513217E-2,1.15563935E-2,-7.5107805E-2,-5.115528E-3],"split_indices":[1,1,0,0,1,0,0,1,1,0,0,0,0,0,0,0,0,0,0,0,0,0,0],"split_type":[0,0,0,0,0,0,0,0,0,0,0,0,0,0,0,0,0,0,0,0,0,0,0],"sum_hessian":[1.2034E4,1.1396E4,6.38E2,3.59E3,7.806E3,1.31E2,5.07E2,1.599E3,1.991E3,4.281E3,3.525E3,3.62E2,1.45E2,8.68E2,7.31E2,1.516E3,4.75E2,5.34E2,3.747E3,1.005E3,2.52E3,2.33E2,1.29E2],"tree_param":{"num_deleted":"0","num_feature":"2","num_nodes":"23","size_leaf_vector":"1"}},{"base_weights":[-1.0537595E-3,8.43882E-2,-3.8052064E-1,-5.184018E-1,1.433847E-1,-1.20476454E-1,-8.034898E-1,-6.266743E-1,-3.7139788E-1,2.4841303E-1,-2.5433934E-1,-5.039414E-1,9.1066724E-1,-5.403967E-1,-1.0260758E0,-6.8896055E-2,-3.2510903E-2,-2.0098342E-2,-4.951224E-2,4.056389E-3,3.9438244E-2,-5.5114817E-2,2.3246774E-2,-6.4192372E-3,-6.3744515E-2,6.194047E-2,1.3944428E-1,-1.1426436E-1,-2.289688E-2,-1.9929592E-1,-7.721722E-2],"categories":[],"categories_nodes":[],"categories_segments":[],"categories_sizes":[],"default_left":[0,0,0,0,0,0,0,0,0,0,0,0,0,0,0,0,0,0,0,0,0,0,0,0,0,0,0,0,0,0,0],"id":29,"left_children":[1,3,5,7,9,11,13,15,17,19,21,23,25,27,29,-1,-1,-1,-1,-1,-1,-1,-1,-1,-1,-1,-1,-1,-1,-1,-1],"loss_changes":[3.9023563E2,3.494403E2,2.4320255E2,1.3710083E1,3.7388342E2,5.425626E2,4.8753784E1,9.224045E0,7.7860756E0,2.1478842E2,2.703219E2,5.8667206E1,5.1553223E1,7.251028E1,1.1016138E2,0E0,0E0,0E0,0E0,0E0,0E0,0E0,0E0,0E0,0E0,0E0,0E0,0E0,0E0,0E0,0E0],"parents":[2147483647,0,0,1,1,2,2,3,3,4,4,5,5,6,6,7,7,8,8,9,9,10,10,11,11,12,12,13,13,14,14],"right_children":[2,4,6,8,10,12,14,16,18,20,22,24,26,28,30,-1,-1,-1,-1,-1,-1,-1,-1,-1,-1,-1,-1,-1,-1,-1,-1],"split_conditions":[7E0,4E0,1.7E1,4E0,2.1E1,1.4E1,2E1,2E0,1E0,1.2E1,5E0,4E0,1.6E1,1.8E1,2.1E1,-6.8896055E-2,-3.2510903E-2,-2.0098342E-2,-4.951224E-2,4.056389E-3,3.9438244E-2,-5.5114817E-2,2.3246774E-2,-6.4192372E-3,-6.3744515E-2,6.194047E-2,1.3944428E-1,-1.1426436E-1,-2.289688E-2,-1.9929592E-1,-7.721722E-2],"split_indices":[0,1,1,0,1,1,1,1,1,1,0,1,1,1,1,0,0,0,0,0,0,0,0,0,0,0,0,0,0,0,0],"split_type":[0,0,0,0,0,0,0,0,0,0,0,0,0,0,0,0,0,0,0,0,0,0,0,0,0,0,0,0,0,0,0],"sum_hessian":[1.2034E4,9.823E3,2.211E3,8.75E2,8.948E3,1.37E3,8.41E2,5.02E2,3.73E2,7.079E3,1.869E3,9.99E2,3.71E2,3.87E2,4.54E2,4.15E2,8.7E1,1.58E2,2.15E2,2.921E3,4.158E3,1.161E3,7.08E2,2.33E2,7.66E2,2.33E2,1.38E2,1.31E2,2.56E2,9.3E1,3.61E2],"tree_param":{"num_deleted":"0","num_feature":"2","num_nodes":"31","size_leaf_vector":"1"}},{"base_weights":[-9.852272E-4,7.593306E-2,-3.425966E-1,-4.6675685E-1,1.2904742E-1,-1.08333476E-1,-7.2363234E-1,-5.642085E-1,-3.3444422E-1,2.2357775E-1,-2.2892249E-1,-4.536178E-1,8.2014143E-1,-4.867109E-1,-9.24076E-1,-4.2071667E-2,-6.7698695E-2,-1.8101152E-2,-4.458394E-2,3.6508632E-3,3.5495367E-2,-4.960809E-2,2.0925378E-2,-5.780071E-3,-5.737842E-2,5.5772822E-2,1.2560016E-1,-1.0292456E-1,-2.0616114E-2,-1.7957833E-1,-6.9516845E-2],"categories":[],"categories_nodes":[],"categories_segments":[],"categories_sizes":[],"default_left":[0,0,0,0,0,0,0,0,0,0,0,0,0,0,0,0,0,0,0,0,0,0,0,0,0,0,0,0,0,0,0],"id":30,"left_children":[1,3,5,7,9,11,13,15,17,19,21,23,25,27,29,-1,-1,-1,-1,-1,-1,-1,-1,-1,-1,-1,-1,-1,-1,-1,-1],"loss_changes":[3.1625964E2,2.8323337E2,1.9737051E2,1.1106537E1,3.0287653E2,4.3989798E2,3.9536285E1,7.855118E0,6.3115807E0,1.7398776E2,2.1901062E2,4.7530716E1,4.1847183E1,5.8844513E1,8.954251E1,0E0,0E0,0E0,0E0,0E0,0E0,0E0,0E0,0E0,0E0,0E0,0E0,0E0,0E0,0E0,0E0],"parents":[2147483647,0,0,1,1,2,2,3,3,4,4,5,5,6,6,7,7,8,8,9,9,10,10,11,11,12,12,13,13,14,14],"right_children":[2,4,6,8,10,12,14,16,18,20,22,24,26,28,30,-1,-1,-1,-1,-1,-1,-1,-1,-1,-1,-1,-1,-1,-1,-1,-1],"split_conditions":[7E0,4E0,1.7E1,4E0,2.1E1,1.4E1,2E1,2E0,1E0,1.2E1,5E0,4E0,1.6E1,1.8E1,2.1E1,-4.2071667E-2,-6.7698695E-2,-1.8101152E-2,-4.458394E-2,3.6508632E-3,3.5495367E-2,-4.960809E-2,2.0925378E-2,-5.780071E-3,-5.737842E-2,5.5772822E-2,1.2560016E-1,-1.0292456E-1,-2.0616114E-2,-1.7957833E-1,-6.9516845E-2],"split_indices":[0,1,1,0,1,1,1,0,1,1,0,1,1,1,1,0,0,0,0,0,0,0,0,0,0,0,0,0,0,0,0],"split_type":[0,0,0,0,0,0,0,0,0,0,0,0,0,0,0,0,0,0,0,0,0,0,0,0,0,0,0,0,0,0,0],"sum_hessian":[1.2034E4,9.823E3,2.211E3,8.75E2,8.948E3,1.37E3,8.41E2,5.02E2,3.73E2,7.079E3,1.869E3,9.99E2,3.71E2,3.87E2,4.54E2,2.23E2,2.79E2,1.58E2,2.15E2,2.921E3,4.158E3,1.161E3,7.08E2,2.33E2,7.66E2,2.33E2,1.38E2,1.31E2,2.56E2,9.3E1,3.61E2],"tree_param":{"num_deleted":"0","num_feature":"2","num_nodes":"31","size_leaf_vector":"1"}},{"base_weights":[-9.2136854E-4,3.481965E-2,-6.3838536E-1,-1.9758849E-1,1.4171639E-1,-9.764867E-2,-5.492756E-1,7.231895E-2,-4.1428244E-1,3.2837552E-1,-8.500398E-2,-4.300601E-1,-8.419191E-2,-2.9755075E-2,5.113141E-2,-5.3916525E-2,-1.5413711E-3,8.5199036E-2,2.5354564E-2,-8.624297E-2,4.373867E-3,-6.1719358E-2,-8.991162E-3],"categories":[],"categories_nodes":[],"categories_segments":[],"categories_sizes":[],"default_left":[0,0,0,0,0,0,0,0,0,0,0,0,0,0,0,0,0,0,0,0,0,0,0],"id":31,"left_children":[1,3,5,7,9,-1,11,13,15,17,19,21,-1,-1,-1,-1,-1,-1,-1,-1,-1,-1,-1],"loss_changes":[2.74223E2,2.8317133E2,1.8715546E1,2.1005789E2,3.3041565E2,0E0,1.736084E1,2.5994574E2,9.921692E1,1.675614E2,3.5294745E2,2.3050621E1,0E0,0E0,0E0,0E0,0E0,0E0,0E0,0E0,0E0,0E0,0E0],"parents":[2147483647,0,0,1,1,2,2,3,3,4,4,6,6,7,7,8,8,9,9,10,10,11,11],"right_children":[2,4,6,8,10,-1,12,14,16,18,20,22,-1,-1,-1,-1,-1,-1,-1,-1,-1,-1,-1],"split_conditions":[2.3E1,1E1,3E0,4E0,1.8E1,-9.764867E-2,7E0,5E0,8E0,2E0,2E0,6E0,-8.419191E-2,-2.9755075E-2,5.113141E-2,-5.3916525E-2,-1.5413711E-3,8.5199036E-2,2.5354564E-2,-8.624297E-2,4.373867E-3,-6.1719358E-2,-8.991162E-3],"split_indices":[1,1,0,0,1,0,0,1,1,0,0,0,0,0,0,0,0,0,0,0,0,0,0],"split_type":[0,0,0,0,0,0,0,0,0,0,0,0,0,0,0,0,0,0,0,0,0,0,0],"sum_hessian":[1.2034E4,1.1396E4,6.38E2,3.59E3,7.806E3,1.31E2,5.07E2,1.599E3,1.991E3,4.281E3,3.525E3,3.62E2,1.45E2,8.68E2,7.31E2,1.516E3,4.75E2,5.34E2,3.747E3,5E2,3.025E3,2.33E2,1.29E2],"tree_param":{"num_deleted":"0","num_feature":"2","num_nodes":"23","size_leaf_vector":"1"}},{"base_weights":[-8.5061585E-4,6.69089E-2,-3.0178583E-1,-3.8026902E-1,1.106748E-1,-9.133802E-2,-6.4409244E-1,-4.311252E-1,-1.1875627E-1,1.474816E-1,-5.195863E-1,-3.905826E-1,7.133284E-1,-4.4980404E-1,-8.0835575E-1,-3.4759592E-2,-5.162368E-2,-6.721148E-2,-1.8816087E-3,-4.206806E-3,2.4112523E-2,-6.743754E-2,-8.098955E-3,1.6408782E-4,-5.0973475E-2,4.7694776E-2,1.1061324E-1,-9.522633E-2,-1.8998137E-2,-1.6224419E-1,-5.9473015E-2],"categories":[],"categories_nodes":[],"categories_segments":[],"categories_sizes":[],"default_left":[0,0,0,0,0,0,0,0,0,0,0,0,0,0,0,0,0,0,0,0,0,0,0,0,0,0,0,0,0,0,0],"id":32,"left_children":[1,3,5,7,9,11,13,15,17,19,21,23,25,27,29,-1,-1,-1,-1,-1,-1,-1,-1,-1,-1,-1,-1,-1,-1,-1,-1],"loss_changes":[2.454286E2,1.9230896E2,1.5928851E2,1.1599197E1,2.0767459E2,3.3040454E2,2.6508331E1,5.0316772E0,7.950949E0,1.5010513E2,3.3483032E1,4.6735123E1,3.4013077E1,5.047261E1,7.816397E1,0E0,0E0,0E0,0E0,0E0,0E0,0E0,0E0,0E0,0E0,0E0,0E0,0E0,0E0,0E0,0E0],"parents":[2147483647,0,0,1,1,2,2,3,3,4,4,5,5,6,6,7,7,8,8,9,9,10,10,11,11,12,12,13,13,14,14],"right_children":[2,4,6,8,10,12,14,16,18,20,22,24,26,28,30,-1,-1,-1,-1,-1,-1,-1,-1,-1,-1,-1,-1,-1,-1,-1,-1],"split_conditions":[7E0,4E0,1.7E1,6E0,2.3E1,1.4E1,2E1,1E0,1E0,3E0,6E0,4E0,1.6E1,1.8E1,2.1E1,-3.4759592E-2,-5.162368E-2,-6.721148E-2,-1.8816087E-3,-4.206806E-3,2.4112523E-2,-6.743754E-2,-8.098955E-3,1.6408782E-4,-5.0973475E-2,4.7694776E-2,1.1061324E-1,-9.522633E-2,-1.8998137E-2,-1.6224419E-1,-5.9473015E-2],"split_indices":[0,1,1,0,1,1,1,1,1,0,0,1,1,1,1,0,0,0,0,0,0,0,0,0,0,0,0,0,0,0,0],"split_type":[0,0,0,0,0,0,0,0,0,0,0,0,0,0,0,0,0,0,0,0,0,0,0,0,0,0,0,0,0,0,0],"sum_hessian":[1.2034E4,9.823E3,2.211E3,8.75E2,8.948E3,1.37E3,8.41E2,7.32E2,1.43E2,8.455E3,4.93E2,9.99E2,3.71E2,3.87E2,4.54E2,3.72E2,3.6E2,2.1E1,1.22E2,2.796E3,5.659E3,3.64E2,1.29E2,2.33E2,7.66E2,2.33E2,1.38E2,1.31E2,2.56E2,9.3E1,3.61E2],"tree_param":{"num_deleted":"0","num_feature":"2","num_nodes":"31","size_leaf_vector":"1"}},{"base_weights":[-8.02067E-4,6.0196523E-2,-2.7171046E-1,-3.4241968E-1,9.9601105E-2,-1.2294927E-1,-6.748566E-1,-4.3466783E-1,-2.1743774E-1,1.7336552E-1,-1.7973132E-1,-3.5157493E-1,2.4719408E-1,-8.867744E-1,-5.3542143E-1,-4.894157E-2,-1.7092032E-2,-7.0619755E-3,-3.2450546E-2,1.1746762E-3,2.8687278E-2,-4.0150337E-2,1.8399058E-2,1.4775472E-4,-4.5882747E-2,6.42421E-2,-3.490473E-2,-4.9979668E-2,-1.4619242E-1,-4.227363E-2,-6.9923826E-2],"categories":[],"categories_nodes":[],"categories_segments":[],"categories_sizes":[],"default_left":[0,0,0,0,0,0,0,0,0,0,0,0,0,0,0,0,0,0,0,0,0,0,0,0,0,0,0,0,0,0,0],"id":33,"left_children":[1,3,5,7,9,11,13,15,17,19,21,23,25,27,29,-1,-1,-1,-1,-1,-1,-1,-1,-1,-1,-1,-1,-1,-1,-1,-1],"loss_changes":[1.988951E2,1.5589111E2,1.3257617E2,1.0005196E1,1.8442345E2,1.3692433E2,1.7136292E1,7.1794815E0,5.856163E0,1.2987852E2,1.5091434E2,3.786644E1,1.4585635E2,5.157332E1,6.3868256E0,0E0,0E0,0E0,0E0,0E0,0E0,0E0,0E0,0E0,0E0,0E0,0E0,0E0,0E0,0E0,0E0],"parents":[2147483647,0,0,1,1,2,2,3,3,4,4,5,5,6,6,7,7,8,8,9,9,10,10,11,11,12,12,13,13,14,14],"right_children":[2,4,6,8,10,12,14,16,18,20,22,24,26,28,30,-1,-1,-1,-1,-1,-1,-1,-1,-1,-1,-1,-1,-1,-1,-1,-1],"split_conditions":[7E0,4E0,1.9E1,4E0,2.1E1,1.4E1,2.1E1,2E0,1E0,1.2E1,5E0,4E0,1.7E1,2E1,2.3E1,-4.894157E-2,-1.7092032E-2,-7.0619755E-3,-3.2450546E-2,1.1746762E-3,2.8687278E-2,-4.0150337E-2,1.8399058E-2,1.4775472E-4,-4.5882747E-2,6.42421E-2,-3.490473E-2,-4.9979668E-2,-1.4619242E-1,-4.227363E-2,-6.9923826E-2],"split_indices":[0,1,1,0,1,1,1,1,1,1,0,1,1,1,1,0,0,0,0,0,0,0,0,0,0,0,0,0,0,0,0],"split_type":[0,0,0,0,0,0,0,0,0,0,0,0,0,0,0,0,0,0,0,0,0,0,0,0,0,0,0,0,0,0,0],"sum_hessian":[1.2034E4,9.823E3,2.211E3,8.75E2,8.948E3,1.616E3,5.95E2,5.02E2,3.73E2,7.079E3,1.869E3,9.99E2,6.17E2,2.34E2,3.61E2,4.15E2,8.7E1,1.58E2,2.15E2,2.921E3,4.158E3,1.161E3,7.08E2,2.33E2,7.66E2,3.71E2,2.46E2,1.41E2,9.3E1,2.16E2,1.45E2],"tree_param":{"num_deleted":"0","num_feature":"2","num_nodes":"31","size_leaf_vector":"1"}},{"base_weights":[-7.5684563E-4,2.6835188E-2,-4.9287838E-1,-1.5766597E-1,1.11697085E-1,-7.7280484E-2,-4.1917133E-1,8.864619E-2,-3.5542792E-1,2.657906E-1,-7.546688E-2,-3.3330363E-1,-6.297933E-2,2.505572E-2,-7.743762E-2,-8.405702E-2,-2.6517225E-2,4.7783338E-2,1.021324E-2,-5.2435942E-2,1.0369271E-2,-4.663752E-2,-9.121092E-3],"categories":[],"categories_nodes":[],"categories_segments":[],"categories_sizes":[],"default_left":[0,0,0,0,0,0,0,0,0,0,0,0,0,0,0,0,0,0,0,0,0,0,0],"id":34,"left_children":[1,3,5,7,9,-1,11,13,15,17,19,21,-1,-1,-1,-1,-1,-1,-1,-1,-1,-1,-1],"loss_changes":[1.634321E2,1.7846178E2,1.2860245E1,1.7495331E2,2.2517982E2,0E0,8.977592E0,2.2376651E2,8.700049E1,1.4854745E2,2.8362726E2,1.1651749E1,0E0,0E0,0E0,0E0,0E0,0E0,0E0,0E0,0E0,0E0,0E0],"parents":[2147483647,0,0,1,1,2,2,3,3,4,4,6,6,7,7,8,8,9,9,10,10,11,11],"right_children":[2,4,6,8,10,-1,12,14,16,18,20,22,-1,-1,-1,-1,-1,-1,-1,-1,-1,-1,-1],"split_conditions":[2.3E1,1E1,3E0,4E0,1.8E1,-7.7280484E-2,7E0,9E0,5E0,5E0,3E0,6E0,-6.297933E-2,2.505572E-2,-7.743762E-2,-8.405702E-2,-2.6517225E-2,4.7783338E-2,1.021324E-2,-5.2435942E-2,1.0369271E-2,-4.663752E-2,-9.121092E-3],"split_indices":[1,1,0,0,1,0,0,1,0,0,0,0,0,0,0,0,0,0,0,0,0,0,0],"split_type":[0,0,0,0,0,0,0,0,0,0,0,0,0,0,0,0,0,0,0,0,0,0,0],"sum_hessian":[1.2034E4,1.1396E4,6.38E2,3.59E3,7.806E3,1.31E2,5.07E2,1.599E3,1.991E3,4.281E3,3.525E3,3.62E2,1.45E2,1.347E3,2.52E2,3.11E2,1.68E3,1.864E3,2.417E3,1.005E3,2.52E3,2.33E2,1.29E2],"tree_param":{"num_deleted":"0","num_feature":"2","num_nodes":"23","size_leaf_vector":"1"}},{"base_weights":[-7.0967915E-4,5.3033102E-2,-2.393934E-1,-1.10699676E-1,1.3560587E-1,-6.677157E-2,-5.201833E-1,-4.749673E-1,1.9600672E-1,-3.0361807E-1,2.557259E-1,-3.0290154E-1,5.681659E-1,-8.332548E-2,-4.6132874E-1,2.2601536E-2,-1.6561699E-1,2.0179795E-1,-3.9439276E-2,-1.0829706E-2,-8.035435E-2,7.3912166E-2,7.7415146E-3,2.773449E-3,-4.0337864E-2,3.5531934E-2,9.2239566E-2,2.5716364E-2,-6.003955E-2],"categories":[],"categories_nodes":[],"categories_segments":[],"categories_sizes":[],"default_left":[0,0,0,0,0,0,0,0,0,0,0,0,0,0,0,0,0,0,0,0,0,0,0,0,0,0,0,0,0],"id":35,"left_children":[1,3,5,7,9,11,13,15,17,19,21,23,25,-1,27,-1,-1,-1,-1,-1,-1,-1,-1,-1,-1,-1,-1,-1,-1],"loss_changes":[1.5439198E2,1.328342E2,1.0718196E2,3.6810934E2,3.4465054E2,2.0572308E2,1.513002E1,1.2473461E3,1.9252085E3,1.3691023E2,4.420352E2,3.3232536E1,2.771978E1,0E0,7.1196396E1,0E0,0E0,0E0,0E0,0E0,0E0,0E0,0E0,0E0,0E0,0E0,0E0,0E0,0E0],"parents":[2147483647,0,0,1,1,2,2,3,3,4,4,5,5,6,6,7,7,8,8,9,9,10,10,11,11,12,12,14,14],"right_children":[2,4,6,8,10,12,14,16,18,20,22,24,26,-1,28,-1,-1,-1,-1,-1,-1,-1,-1,-1,-1,-1,-1,-1,-1],"split_conditions":[7E0,3E0,1.7E1,1.3E1,8E0,1.4E1,1.8E1,9E0,1.7E1,6E0,1.3E1,4E0,1.6E1,-8.332548E-2,1.9E1,2.2601536E-2,-1.6561699E-1,2.0179795E-1,-3.9439276E-2,-1.0829706E-2,-8.035435E-2,7.3912166E-2,7.7415146E-3,2.773449E-3,-4.0337864E-2,3.5531934E-2,9.2239566E-2,2.5716364E-2,-6.003955E-2],"split_indices":[0,0,1,1,1,1,1,1,1,0,1,1,1,0,1,0,0,0,0,0,0,0,0,0,0,0,0,0,0],"split_type":[0,0,0,0,0,0,0,0,0,0,0,0,0,0,0,0,0,0,0,0,0,0,0,0,0,0,0,0,0],"sum_hessian":[1.2034E4,9.823E3,2.211E3,3.293E3,6.53E3,1.37E3,8.41E2,1.505E3,1.788E3,1.402E3,5.128E3,9.99E2,3.71E2,1.31E2,7.1E2,9.45E2,5.6E2,4.37E2,1.351E3,1.009E3,3.93E2,1.381E3,3.747E3,2.33E2,7.66E2,2.33E2,1.38E2,1.15E2,5.95E2],"tree_param":{"num_deleted":"0","num_feature":"2","num_nodes":"29","size_leaf_vector":"1"}},{"base_weights":[-6.4016914E-4,4.773077E-2,-2.1546634E-1,-3.064682E-1,8.066687E-2,-6.0028438E-2,-4.6830466E-1,-4.4150668E-1,-1.2044805E-1,1.0870799E-1,-4.017582E-1,-2.7264872E-1,5.116928E-1,-3.327858E-1,-5.828388E-1,-3.3483185E-2,-5.1803112E-2,6.5770064E-4,-2.2340465E-2,-2.9542379E-3,1.7721782E-2,-5.117507E-2,-8.984257E-3,-2.1872446E-2,-8.154526E-2,3.1993918E-2,8.308199E-2,-7.505598E-2,-1.1691441E-2,-1.268145E-1,-4.0327635E-2],"categories":[],"categories_nodes":[],"categories_segments":[],"categories_sizes":[],"default_left":[0,0,0,0,0,0,0,0,0,0,0,0,0,0,0,0,0,0,0,0,0,0,0,0,0,0,0,0,0,0,0],"id":36,"left_children":[1,3,5,7,9,11,13,15,17,19,21,23,25,27,29,-1,-1,-1,-1,-1,-1,-1,-1,-1,-1,-1,-1,-1,-1,-1,-1],"loss_changes":[1.2507011E2,1.1463082E2,8.690494E1,2.0947052E1,1.2164449E2,1.6679764E2,1.2875183E1,3.777542E0,4.618027E0,8.0475174E1,1.6902359E1,2.909195E1,2.2498276E1,3.4904194E1,5.547873E1,0E0,0E0,0E0,0E0,0E0,0E0,0E0,0E0,0E0,0E0,0E0,0E0,0E0,0E0,0E0,0E0],"parents":[2147483647,0,0,1,1,2,2,3,3,4,4,5,5,6,6,7,7,8,8,9,9,10,10,11,11,12,12,13,13,14,14],"right_children":[2,4,6,8,10,12,14,16,18,20,22,24,26,28,30,-1,-1,-1,-1,-1,-1,-1,-1,-1,-1,-1,-1,-1,-1,-1,-1],"split_conditions":[7E0,3E0,1.7E1,4E0,2.3E1,1.4E1,2E1,2E0,1E0,3E0,6E0,1.2E1,1.6E1,1.8E1,2.1E1,-3.3483185E-2,-5.1803112E-2,6.5770064E-4,-2.2340465E-2,-2.9542379E-3,1.7721782E-2,-5.117507E-2,-8.984257E-3,-2.1872446E-2,-8.154526E-2,3.1993918E-2,8.308199E-2,-7.505598E-2,-1.1691441E-2,-1.268145E-1,-4.0327635E-2],"split_indices":[0,1,1,0,1,1,1,0,1,0,0,1,1,1,1,0,0,0,0,0,0,0,0,0,0,0,0,0,0,0,0],"split_type":[0,0,0,0,0,0,0,0,0,0,0,0,0,0,0,0,0,0,0,0,0,0,0,0,0,0,0,0,0,0,0],"sum_hessian":[1.2034E4,9.823E3,2.211E3,8.35E2,8.988E3,1.37E3,8.41E2,4.83E2,3.52E2,8.495E3,4.93E2,9.99E2,3.71E2,3.87E2,4.54E2,2.04E2,2.79E2,1.58E2,1.94E2,2.815E3,5.68E3,3.64E2,1.29E2,9.1E2,8.9E1,2.33E2,1.38E2,1.31E2,2.56E2,9.3E1,3.61E2],"tree_param":{"num_deleted":"0","num_feature":"2","num_nodes":"31","size_leaf_vector":"1"}},{"base_weights":[-6.0882577E-4,4.2942356E-2,-1.9402935E-1,-2.759493E-1,7.259532E-2,-8.353817E-2,-4.93476E-1,-3.975322E-1,-1.0846469E-1,1.1471182E-1,-2.0245734E-1,-2.4548751E-1,1.7865096E-1,-6.922722E-1,-3.6306003E-1,-4.3151557E-2,-1.8688556E-2,-1.939266E-2,5.291877E-3,2.102348E-2,2.7614697E-3,-4.080717E-2,5.9564926E-2,4.6752016E-3,-3.343253E-2,4.6083283E-2,-2.4705881E-2,-3.8924027E-2,-1.1426792E-1,-2.9107431E-2,-4.6756584E-2],"categories":[],"categories_nodes":[],"categories_segments":[],"categories_sizes":[],"default_left":[0,0,0,0,0,0,0,0,0,0,0,0,0,0,0,0,0,0,0,0,0,0,0,0,0,0,0,0,0,0,0],"id":37,"left_children":[1,3,5,7,9,11,13,15,17,19,21,23,25,27,29,-1,-1,-1,-1,-1,-1,-1,-1,-1,-1,-1,-1,-1,-1,-1,-1],"loss_changes":[1.0138747E2,9.291659E1,7.314547E1,1.6980576E1,1.04154106E2,6.870387E1,1.5200684E1,3.3840485E0,4.878887E0,6.485519E1,1.9618106E2,2.5977535E1,7.435271E1,3.1629837E1,2.587204E0,0E0,0E0,0E0,0E0,0E0,0E0,0E0,0E0,0E0,0E0,0E0,0E0,0E0,0E0,0E0,0E0],"parents":[2147483647,0,0,1,1,2,2,3,3,4,4,5,5,6,6,7,7,8,8,9,9,10,10,11,11,12,12,13,13,14,14],"right_children":[2,4,6,8,10,12,14,16,18,20,22,24,26,28,30,-1,-1,-1,-1,-1,-1,-1,-1,-1,-1,-1,-1,-1,-1,-1,-1],"split_conditions":[7E0,3E0,1.9E1,4E0,2.2E1,1.4E1,2.1E1,2E0,6E0,4E0,6E0,4E0,1.7E1,2E1,2.3E1,-4.3151557E-2,-1.8688556E-2,-1.939266E-2,5.291877E-3,2.102348E-2,2.7614697E-3,-4.080717E-2,5.9564926E-2,4.6752016E-3,-3.343253E-2,4.6083283E-2,-2.4705881E-2,-3.8924027E-2,-1.1426792E-1,-2.9107431E-2,-4.6756584E-2],"split_indices":[0,1,1,0,1,1,1,1,0,0,0,1,1,1,1,0,0,0,0,0,0,0,0,0,0,0,0,0,0,0,0],"split_type":[0,0,0,0,0,0,0,0,0,0,0,0,0,0,0,0,0,0,0,0,0,0,0,0,0,0,0,0,0,0,0],"sum_hessian":[1.2034E4,9.823E3,2.211E3,8.35E2,8.988E3,1.616E3,5.95E2,4.83E2,3.52E2,7.795E3,1.193E3,9.99E2,6.17E2,2.34E2,3.61E2,4.15E2,6.8E1,2.3E2,1.22E2,3.717E3,4.078E3,9.49E2,2.44E2,2.33E2,7.66E2,3.71E2,2.46E2,1.41E2,9.3E1,2.16E2,1.45E2],"tree_param":{"num_deleted":"0","num_feature":"2","num_nodes":"31","size_leaf_vector":"1"}},{"base_weights":[-5.703849E-4,1.9841375E-2,-3.6462712E-1,-1.23630814E-1,8.5832E-2,-5.6568384E-1,-3.1166625E-1,9.2344016E-2,-2.9704252E-1,-1.3893674E-1,1.648909E-1,-6.1851203E-2,-4.940557E-2,-2.6678112E-1,-4.2112958E-2,-2.2199214E-2,4.653847E-2,-8.762667E-3,-5.313168E-2,-1.2635058E0,3.5641976E-3,7.5983115E-2,6.377309E-3,-3.360564E-2,-1.4003349E-2],"categories":[],"categories_nodes":[],"categories_segments":[],"categories_sizes":[],"default_left":[0,0,0,0,0,0,0,0,0,0,0,0,0,0,0,0,0,0,0,0,0,0,0,0,0],"id":38,"left_children":[1,3,5,7,9,11,13,15,17,19,21,-1,-1,23,-1,-1,-1,-1,-1,-1,-1,-1,-1,-1,-1],"loss_changes":[8.943978E1,1.07915344E2,6.6278534E0,1.3451958E2,1.3875308E2,1.9390488E-1,2.3835907E0,1.877196E2,9.7682465E1,4.4333735E3,3.4743024E2,0E0,0E0,3.140255E0,0E0,0E0,0E0,0E0,0E0,0E0,0E0,0E0,0E0,0E0,0E0],"parents":[2147483647,0,0,1,1,2,2,3,3,4,4,5,5,6,6,7,7,8,8,9,9,10,10,13,13],"right_children":[2,4,6,8,10,12,14,16,18,20,22,-1,-1,24,-1,-1,-1,-1,-1,-1,-1,-1,-1,-1,-1],"split_conditions":[2.3E1,1E1,3E0,4E0,3E0,2E0,7E0,5E0,5E0,1.1E1,1.2E1,-6.1851203E-2,-4.940557E-2,6E0,-4.2112958E-2,-2.2199214E-2,4.653847E-2,-8.762667E-3,-5.313168E-2,-1.2635058E0,3.5641976E-3,7.5983115E-2,6.377309E-3,-3.360564E-2,-1.4003349E-2],"split_indices":[1,1,0,0,0,0,0,1,1,1,1,0,0,0,0,0,0,0,0,0,0,0,0,0,0],"split_type":[0,0,0,0,0,0,0,0,0,0,0,0,0,0,0,0,0,0,0,0,0,0,0,0,0],"sum_hessian":[1.2034E4,1.1396E4,6.38E2,3.59E3,7.806E3,1.31E2,5.07E2,1.599E3,1.991E3,2.031E3,5.775E3,7.1E1,6E1,3.62E2,1.45E2,8.68E2,7.31E2,1.052E3,9.39E2,2.7E1,2.004E3,8.38E2,4.937E3,2.33E2,1.29E2],"tree_param":{"num_deleted":"0","num_feature":"2","num_nodes":"25","size_leaf_vector":"1"}},{"base_weights":[-6.312588E-4,3.8936637E-2,-1.7636108E-1,-9.104205E-2,1.0448722E-1,-7.9417326E-2,-4.3908203E-1,-4.0789604E-1,1.7574003E-1,-2.5776246E-1,2.0355757E-1,-2.2386959E-1,1.544527E-1,-5.779512E-1,-2.6580146E-1,2.1984275E-2,-1.4657089E-1,1.795059E-1,-3.4899183E-2,-9.379077E-3,-8.079477E-2,6.166494E-2,5.118392E-3,-1.7578939E-2,-7.080606E-2,4.0851224E-2,-2.288048E-2,-3.569225E-2,-7.409572E-2,-1.2779075E-2,-3.7930492E-2],"categories":[],"categories_nodes":[],"categories_segments":[],"categories_sizes":[],"default_left":[0,0,0,0,0,0,0,0,0,0,0,0,0,0,0,0,0,0,0,0,0,0,0,0,0,0,0,0,0,0,0],"id":39,"left_children":[1,3,5,7,9,11,13,15,17,19,21,23,25,27,29,-1,-1,-1,-1,-1,-1,-1,-1,-1,-1,-1,-1,-1,-1,-1,-1],"loss_changes":[8.368935E1,8.371175E1,5.6302895E1,2.785167E2,2.3443832E2,5.4661774E1,1.4188126E1,1.0003517E3,1.5207545E3,1.264956E2,3.2280975E2,2.3155533E1,6.0268272E1,1.1625107E1,4.1340046E0,0E0,0E0,0E0,0E0,0E0,0E0,0E0,0E0,0E0,0E0,0E0,0E0,0E0,0E0,0E0,0E0],"parents":[2147483647,0,0,1,1,2,2,3,3,4,4,5,5,6,6,7,7,8,8,9,9,10,10,11,11,12,12,13,13,14,14],"right_children":[2,4,6,8,10,12,14,16,18,20,22,24,26,28,30,-1,-1,-1,-1,-1,-1,-1,-1,-1,-1,-1,-1,-1,-1,-1,-1],"split_conditions":[7E0,3E0,1.9E1,1.3E1,8E0,1.4E1,2.2E1,9E0,1.7E1,7E0,1.3E1,1.2E1,1.7E1,2E1,2.3E1,2.1984275E-2,-1.4657089E-1,1.795059E-1,-3.4899183E-2,-9.379077E-3,-8.079477E-2,6.166494E-2,5.118392E-3,-1.7578939E-2,-7.080606E-2,4.0851224E-2,-2.288048E-2,-3.569225E-2,-7.409572E-2,-1.2779075E-2,-3.7930492E-2],"split_indices":[0,0,1,1,1,1,1,1,1,1,1,1,1,1,1,0,0,0,0,0,0,0,0,0,0,0,0,0,0,0,0],"split_type":[0,0,0,0,0,0,0,0,0,0,0,0,0,0,0,0,0,0,0,0,0,0,0,0,0,0,0,0,0,0,0],"sum_hessian":[1.2034E4,9.823E3,2.211E3,3.293E3,6.53E3,1.616E3,5.95E2,1.505E3,1.788E3,1.402E3,5.128E3,9.99E2,6.17E2,3.29E2,2.66E2,9.45E2,5.6E2,4.37E2,1.351E3,1.081E3,3.21E2,1.381E3,3.747E3,9.1E2,8.9E1,3.71E2,2.46E2,1.41E2,1.88E2,1.21E2,1.45E2],"tree_param":{"num_deleted":"0","num_feature":"2","num_nodes":"31","size_leaf_vector":"1"}},{"base_weights":[-5.8773195E-4,3.5042487E-2,-1.5882945E-1,-8.1932E-2,9.403481E-2,-7.151926E-2,-3.9544308E-1,-3.6718938E-1,1.582466E-1,-2.3205037E-1,1.8321468E-1,-2.0157109E-1,1.3903631E-1,-5.7930833E-1,-2.7499068E-1,1.9788181E-2,-1.3193999E-1,1.6159625E-1,-3.1411868E-2,-5.5991793E-3,-6.827792E-2,5.5502947E-2,4.6066544E-3,6.8326043E-3,-2.8364977E-2,3.6777046E-2,-2.0601688E-2,-3.2148156E-2,-9.626284E-2,-3.7108168E-2,-2.3941118E-2],"categories":[],"categories_nodes":[],"categories_segments":[],"categories_sizes":[],"default_left":[0,0,0,0,0,0,0,0,0,0,0,0,0,0,0,0,0,0,0,0,0,0,0,0,0,0,0,0,0,0,0],"id":40,"left_children":[1,3,5,7,9,11,13,15,17,19,21,23,25,27,29,-1,-1,-1,-1,-1,-1,-1,-1,-1,-1,-1,-1,-1,-1,-1,-1],"loss_changes":[6.786114E1,6.779918E1,4.566894E1,2.2573898E2,1.8996552E2,4.4306557E1,1.3040306E1,8.105896E2,1.2323671E3,1.11296364E2,2.6152115E2,2.2172188E1,4.8851692E1,2.2915627E1,1.1487885E0,0E0,0E0,0E0,0E0,0E0,0E0,0E0,0E0,0E0,0E0,0E0,0E0,0E0,0E0,0E0,0E0],"parents":[2147483647,0,0,1,1,2,2,3,3,4,4,5,5,6,6,7,7,8,8,9,9,10,10,11,11,12,12,13,13,14,14],"right_children":[2,4,6,8,10,12,14,16,18,20,22,24,26,28,30,-1,-1,-1,-1,-1,-1,-1,-1,-1,-1,-1,-1,-1,-1,-1,-1],"split_conditions":[7E0,3E0,1.9E1,1.3E1,8E0,1.4E1,2.1E1,9E0,1.7E1,6E0,1.3E1,4E0,1.7E1,2E1,2.2E1,1.9788181E-2,-1.3193999E-1,1.6159625E-1,-3.1411868E-2,-5.5991793E-3,-6.827792E-2,5.5502947E-2,4.6066544E-3,6.8326043E-3,-2.8364977E-2,3.6777046E-2,-2.0601688E-2,-3.2148156E-2,-9.626284E-2,-3.7108168E-2,-2.3941118E-2],"split_indices":[0,0,1,1,1,1,1,1,1,0,1,1,1,1,1,0,0,0,0,0,0,0,0,0,0,0,0,0,0,0,0],"split_type":[0,0,0,0,0,0,0,0,0,0,0,0,0,0,0,0,0,0,0,0,0,0,0,0,0,0,0,0,0,0,0],"sum_hessian":[1.2034E4,9.823E3,2.211E3,3.293E3,6.53E3,1.616E3,5.95E2,1.505E3,1.788E3,1.402E3,5.128E3,9.99E2,6.17E2,2.34E2,3.61E2,9.45E2,5.6E2,4.37E2,1.351E3,1.009E3,3.93E2,1.381E3,3.747E3,2.33E2,7.66E2,3.71E2,2.46E2,1.41E2,9.3E1,9.5E1,2.66E2],"tree_param":{"num_deleted":"0","num_feature":"2","num_nodes":"31","size_leaf_vector":"1"}},{"base_weights":[-5.4474524E-4,1.660123E-2,-3.0635402E-1,-9.6137464E-2,6.8455726E-2,-4.4414955E-1,-2.6994583E-1,9.1584854E-2,-2.4687019E-1,-1.07946515E-1,1.3050228E-1,-4.9212974E-2,-3.802361E-2,-1.6779533E-2,-2.861584E-1,-2.2547735E-2,4.6786282E-2,-4.5609907E-3,-4.720619E-2,-1.1148113E0,4.6284213E-3,6.1803997E-2,4.7639864E-3,-3.7418243E-2,-2.329436E-2],"categories":[],"categories_nodes":[],"categories_segments":[],"categories_sizes":[],"default_left":[0,0,0,0,0,0,0,0,0,0,0,0,0,0,0,0,0,0,0,0,0,0,0,0,0],"id":41,"left_children":[1,3,5,7,9,11,13,15,17,19,21,-1,-1,-1,23,-1,-1,-1,-1,-1,-1,-1,-1,-1,-1],"loss_changes":[6.3109386E1,6.663354E1,3.0858955E0,1.0163318E2,8.546289E1,2.176609E-1,7.93293E-1,1.909911E2,9.026018E1,3.4604692E3,2.3331258E2,0E0,0E0,0E0,1.9598236E0,0E0,0E0,0E0,0E0,0E0,0E0,0E0,0E0,0E0,0E0],"parents":[2147483647,0,0,1,1,2,2,3,3,4,4,5,5,6,6,7,7,8,8,9,9,10,10,14,14],"right_children":[2,4,6,8,10,12,14,16,18,20,22,-1,-1,-1,24,-1,-1,-1,-1,-1,-1,-1,-1,-1,-1],"split_conditions":[2.3E1,1E1,3E0,4E0,3E0,2E0,4E0,5E0,5E0,1.1E1,1.2E1,-4.9212974E-2,-3.802361E-2,-1.6779533E-2,6E0,-2.2547735E-2,4.6786282E-2,-4.5609907E-3,-4.720619E-2,-1.1148113E0,4.6284213E-3,6.1803997E-2,4.7639864E-3,-3.7418243E-2,-2.329436E-2],"split_indices":[1,1,0,0,0,0,0,1,1,1,1,0,0,0,0,0,0,0,0,0,0,0,0,0,0],"split_type":[0,0,0,0,0,0,0,0,0,0,0,0,0,0,0,0,0,0,0,0,0,0,0,0,0],"sum_hessian":[1.2034E4,1.1396E4,6.38E2,3.59E3,7.806E3,1.31E2,5.07E2,1.599E3,1.991E3,2.031E3,5.775E3,7.1E1,6E1,7.1E1,4.36E2,8.68E2,7.31E2,1.052E3,9.39E2,2.7E1,2.004E3,8.38E2,4.937E3,1.62E2,2.74E2],"tree_param":{"num_deleted":"0","num_feature":"2","num_nodes":"25","size_leaf_vector":"1"}},{"base_weights":[-5.929658E-4,3.1878617E-2,-1.4480646E-1,-2.1643111E-1,5.496851E-2,-6.755769E-2,-3.541461E-1,-2.7717006E-1,1.3791074E-1,8.578698E-2,-1.46301E-1,-3.183858E-1,2.2140576E-2,-5.266671E-1,-2.4117213E-1,-3.7261125E-2,-1.8591475E-2,-4.1803744E-2,2.5646908E-2,1.8673759E-2,-6.2503055E-4,-3.234118E-2,5.410522E-2,-1.32337725E-2,-1.7471164E-1,7.7570598E-3,-1.902438E-2,-2.9428964E-2,-8.721025E-2,-3.390738E-2,-2.0506827E-2],"categories":[],"categories_nodes":[],"categories_segments":[],"categories_sizes":[],"default_left":[0,0,0,0,0,0,0,0,0,0,0,0,0,0,0,0,0,0,0,0,0,0,0,0,0,0,0,0,0,0,0],"id":42,"left_children":[1,3,5,7,9,11,13,15,17,19,21,23,25,27,29,-1,-1,-1,-1,-1,-1,-1,-1,-1,-1,-1,-1,-1,-1,-1,-1],"loss_changes":[5.63626E1,5.6337257E1,3.5746834E1,1.8030914E1,5.576969E1,3.6387688E1,1.148925E1,6.1493225E0,8.214426E0,7.243552E1,1.4552972E2,1.1300497E2,1.4047542E1,1.8607132E1,1.2100029E0,0E0,0E0,0E0,0E0,0E0,0E0,0E0,0E0,0E0,0E0,0E0,0E0,0E0,0E0,0E0,0E0],"parents":[2147483647,0,0,1,1,2,2,3,3,4,4,5,5,6,6,7,7,8,8,9,9,10,10,11,11,12,12,13,13,14,14],"right_children":[2,4,6,8,10,12,14,16,18,20,22,24,26,28,30,-1,-1,-1,-1,-1,-1,-1,-1,-1,-1,-1,-1,-1,-1,-1,-1],"split_conditions":[7E0,3E0,1.9E1,6E0,2.2E1,7E0,2.1E1,3E0,1E0,4E0,6E0,5E0,1.7E1,2E1,2.2E1,-3.7261125E-2,-1.8591475E-2,-4.1803744E-2,2.5646908E-2,1.8673759E-2,-6.2503055E-4,-3.234118E-2,5.410522E-2,-1.32337725E-2,-1.7471164E-1,7.7570598E-3,-1.902438E-2,-2.9428964E-2,-8.721025E-2,-3.390738E-2,-2.0506827E-2],"split_indices":[0,1,1,0,1,1,1,0,1,0,0,1,1,1,1,0,0,0,0,0,0,0,0,0,0,0,0,0,0,0,0],"split_type":[0,0,0,0,0,0,0,0,0,0,0,0,0,0,0,0,0,0,0,0,0,0,0,0,0,0,0,0,0,0,0],"sum_hessian":[1.2034E4,9.823E3,2.211E3,8.35E2,8.988E3,1.616E3,5.95E2,7.13E2,1.22E2,7.795E3,1.193E3,4.25E2,1.191E3,2.34E2,3.61E2,3.47E2,3.66E2,2.1E1,1.01E2,3.717E3,4.078E3,9.49E2,2.44E2,3.77E2,4.8E1,9.45E2,2.46E2,1.41E2,9.3E1,9.5E1,2.66E2],"tree_param":{"num_deleted":"0","num_feature":"2","num_nodes":"31","size_leaf_vector":"1"}},{"base_weights":[-5.669213E-4,1.4193197E-2,-2.638228E-1,-5.382087E-2,8.029853E-2,-3.682992E-1,-2.3615605E-1,-3.1093425E-1,5.1436927E-2,2.5579387E-1,-3.1959638E-2,-4.117082E-2,-3.1102462E-2,-1.19357165E-2,-2.548594E-1,1.7882898E-2,-9.848863E-2,-2.0559305E-2,2.8365953E-2,8.084693E-2,-4.5249283E-2,-6.276082E-2,6.666954E-3,-3.0485103E-2,-2.2430124E-2],"categories":[],"categories_nodes":[],"categories_segments":[],"categories_sizes":[],"default_left":[0,0,0,0,0,0,0,0,0,0,0,0,0,0,0,0,0,0,0,0,0,0,0,0,0],"id":43,"left_children":[1,3,5,7,9,11,13,15,17,19,21,-1,-1,-1,23,-1,-1,-1,-1,-1,-1,-1,-1,-1,-1],"loss_changes":[4.6767998E1,5.124629E1,1.760067E0,1.5205698E2,1.1387871E2,2.0013046E-1,1.0793209E0,5.3886163E2,2.3803505E2,8.8309155E2,2.0718845E2,0E0,0E0,0E0,5.992069E-1,0E0,0E0,0E0,0E0,0E0,0E0,0E0,0E0,0E0,0E0],"parents":[2147483647,0,0,1,1,2,2,3,3,4,4,5,5,6,6,7,7,8,8,9,9,10,10,14,14],"right_children":[2,4,6,8,10,12,14,16,18,20,22,-1,-1,-1,24,-1,-1,-1,-1,-1,-1,-1,-1,-1,-1],"split_conditions":[2.3E1,1.4E1,3E0,3E0,1.8E1,2E0,4E0,9E0,8E0,6E0,2E0,-4.117082E-2,-3.1102462E-2,-1.19357165E-2,6E0,1.7882898E-2,-9.848863E-2,-2.0559305E-2,2.8365953E-2,8.084693E-2,-4.5249283E-2,-6.276082E-2,6.666954E-3,-3.0485103E-2,-2.2430124E-2],"split_indices":[1,1,0,0,1,0,0,1,1,0,0,0,0,0,0,0,0,0,0,0,0,0,0,0,0],"split_type":[0,0,0,0,0,0,0,0,0,0,0,0,0,0,0,0,0,0,0,0,0,0,0,0,0],"sum_hessian":[1.2034E4,1.1396E4,6.38E2,5.617E3,5.779E3,1.31E2,5.07E2,1.631E3,3.986E3,2.254E3,3.525E3,7.1E1,6E1,7.1E1,4.36E2,9.45E2,6.86E2,1.892E3,2.094E3,1.266E3,9.88E2,5E2,3.025E3,1.62E2,2.74E2],"tree_param":{"num_deleted":"0","num_feature":"2","num_nodes":"25","size_leaf_vector":"1"}},{"base_weights":[-5.2944536E-4,2.6918018E-2,-1.224297E-1,-1.9029571E-1,4.711646E-2,-5.0050523E-2,-3.185953E-1,-3.140979E-1,-2.0010818E-2,6.33931E-2,-2.3291089E-1,-1.7909078E-1,1.5883347E-1,-4.8113507E-1,-2.1219905E-1,-3.411516E-2,-1.4643947E-2,-1.0745732E-2,1.4438066E-2,-1.4668726E-3,1.0207621E-2,-3.3201683E-2,-1.9623075E-2,9.971261E-3,-2.6391596E-2,3.6373205E-2,-1.5040174E-2,-2.716877E-2,-7.924159E-2,-3.121177E-2,-1.7547851E-2],"categories":[],"categories_nodes":[],"categories_segments":[],"categories_sizes":[],"default_left":[0,0,0,0,0,0,0,0,0,0,0,0,0,0,0,0,0,0,0,0,0,0,0,0,0,0,0,0,0,0,0],"id":44,"left_children":[1,3,5,7,9,11,13,15,17,19,21,23,25,27,29,-1,-1,-1,-1,-1,-1,-1,-1,-1,-1,-1,-1,-1,-1,-1,-1],"loss_changes":[4.0270638E1,4.311057E1,3.1390701E1,1.7617971E1,4.0985786E1,4.3613785E1,1.0204903E1,2.145359E0,5.0900517E0,2.5656647E1,1.730648E0,2.3675858E1,3.9212326E1,1.5105995E1,1.2734318E0,0E0,0E0,0E0,0E0,0E0,0E0,0E0,0E0,0E0,0E0,0E0,0E0,0E0,0E0,0E0,0E0],"parents":[2147483647,0,0,1,1,2,2,3,3,4,4,5,5,6,6,7,7,8,8,9,9,10,10,11,11,12,12,13,13,14,14],"right_children":[2,4,6,8,10,12,14,16,18,20,22,24,26,28,30,-1,-1,-1,-1,-1,-1,-1,-1,-1,-1,-1,-1,-1,-1,-1,-1],"split_conditions":[7E0,3E0,1.9E1,4E0,2.3E1,1.4E1,2.1E1,2E0,6E0,3E0,3E0,4E0,1.7E1,2E1,2.2E1,-3.411516E-2,-1.4643947E-2,-1.0745732E-2,1.4438066E-2,-1.4668726E-3,1.0207621E-2,-3.3201683E-2,-1.9623075E-2,9.971261E-3,-2.6391596E-2,3.6373205E-2,-1.5040174E-2,-2.716877E-2,-7.924159E-2,-3.121177E-2,-1.7547851E-2],"split_indices":[0,1,1,0,1,1,1,1,0,0,0,1,1,1,1,0,0,0,0,0,0,0,0,0,0,0,0,0,0,0,0],"split_type":[0,0,0,0,0,0,0,0,0,0,0,0,0,0,0,0,0,0,0,0,0,0,0,0,0,0,0,0,0,0,0],"sum_hessian":[1.2034E4,9.823E3,2.211E3,8.35E2,8.988E3,1.616E3,5.95E2,4.83E2,3.52E2,8.495E3,4.93E2,9.99E2,6.17E2,2.34E2,3.61E2,4.15E2,6.8E1,2.3E2,1.22E2,2.815E3,5.68E3,1.31E2,3.62E2,2.33E2,7.66E2,3.71E2,2.46E2,1.41E2,9.3E1,9.5E1,2.66E2],"tree_param":{"num_deleted":"0","num_feature":"2","num_nodes":"31","size_leaf_vector":"1"}},{"base_weights":[-4.964386E-4,2.421705E-2,-1.1025449E-1,-1.7132008E-1,4.239981E-2,-4.5042284E-2,-2.8699592E-1,-2.827889E-1,-1.7999325E-2,7.3738575E-2,-7.6944806E-2,-1.6119786E-1,1.429846E-1,-4.3347397E-1,-1.9111374E-1,-3.230764E-2,-1.7838864E-2,1.076582E-2,-1.2036623E-2,1.7146694E-2,-1.5981859E-3,-1.620692E-2,2.5397435E-2,-1.1526725E-2,-6.2432658E-2,3.274567E-2,-1.3542271E-2,-2.4470976E-2,-7.140171E-2,-2.8123096E-2,-1.5799627E-2],"categories":[],"categories_nodes":[],"categories_segments":[],"categories_sizes":[],"default_left":[0,0,0,0,0,0,0,0,0,0,0,0,0,0,0,0,0,0,0,0,0,0,0,0,0,0,0,0,0,0,0],"id":45,"left_children":[1,3,5,7,9,11,13,15,17,19,21,23,25,27,29,-1,-1,-1,-1,-1,-1,-1,-1,-1,-1,-1,-1,-1,-1,-1,-1],"loss_changes":[3.264766E1,3.4935562E1,2.548192E1,1.4282557E1,3.3625557E1,3.5338924E1,8.287758E0,1.9780846E0,4.5536585E0,6.243254E1,5.2717728E1,2.1199821E1,3.1783827E1,1.2270046E1,1.0359392E0,0E0,0E0,0E0,0E0,0E0,0E0,0E0,0E0,0E0,0E0,0E0,0E0,0E0,0E0,0E0,0E0],"parents":[2147483647,0,0,1,1,2,2,3,3,4,4,5,5,6,6,7,7,8,8,9,9,10,10,11,11,12,12,13,13,14,14],"right_children":[2,4,6,8,10,12,14,16,18,20,22,24,26,28,30,-1,-1,-1,-1,-1,-1,-1,-1,-1,-1,-1,-1,-1,-1,-1,-1],"split_conditions":[7E0,3E0,1.9E1,4E0,2.1E1,1.4E1,2.1E1,3E0,1E0,4E0,6E0,1.2E1,1.7E1,2E1,2.2E1,-3.230764E-2,-1.7838864E-2,1.076582E-2,-1.2036623E-2,1.7146694E-2,-1.5981859E-3,-1.620692E-2,2.5397435E-2,-1.1526725E-2,-6.2432658E-2,3.274567E-2,-1.3542271E-2,-2.4470976E-2,-7.140171E-2,-2.8123096E-2,-1.5799627E-2],"split_indices":[0,1,1,0,1,1,1,0,1,0,0,1,1,1,1,0,0,0,0,0,0,0,0,0,0,0,0,0,0,0,0],"split_type":[0,0,0,0,0,0,0,0,0,0,0,0,0,0,0,0,0,0,0,0,0,0,0,0,0,0,0,0,0,0,0],"sum_hessian":[1.2034E4,9.823E3,2.211E3,8.35E2,8.988E3,1.616E3,5.95E2,4.83E2,3.52E2,7.119E3,1.869E3,9.99E2,6.17E2,2.34E2,3.61E2,3.47E2,1.36E2,1.58E2,1.94E2,3.407E3,3.712E3,1.487E3,3.82E2,9.1E2,8.9E1,3.71E2,2.46E2,1.41E2,9.3E1,9.5E1,2.66E2],"tree_param":{"num_deleted":"0","num_feature":"2","num_nodes":"31","size_leaf_vector":"1"}},{"base_weights":[-4.6523396E-4,1.1174091E-2,-2.0805979E-1,-7.261602E-2,4.971375E-2,-3.2238673E-2,-1.9320135E-1,8.780047E-2,-2.0142816E-1,-1.0080683E-1,1.0265837E-1,-1.4654686E-1,-2.0685166E-1,-1.7571477E-2,4.0051486E-2,-8.983832E-4,-4.167925E-2,-1.0011272E0,3.7643963E-3,5.263828E-2,3.06439E-3,-2.3183336E-2,-7.2254846E-3,-2.3894291E-2,-1.8707812E-2],"categories":[],"categories_nodes":[],"categories_segments":[],"categories_sizes":[],"default_left":[0,0,0,0,0,0,0,0,0,0,0,0,0,0,0,0,0,0,0,0,0,0,0,0,0],"id":46,"left_children":[1,3,5,7,9,-1,11,13,15,17,19,21,23,-1,-1,-1,-1,-1,-1,-1,-1,-1,-1,-1,-1],"loss_changes":[2.908202E1,3.6807285E1,1.0231972E0,7.422064E1,6.2226315E1,0E0,3.3141708E-1,1.319184E2,8.255597E1,2.7885083E3,1.762344E2,8.196149E-1,2.3260117E-1,0E0,0E0,0E0,0E0,0E0,0E0,0E0,0E0,0E0,0E0,0E0,0E0],"parents":[2147483647,0,0,1,1,2,2,3,3,4,4,6,6,7,7,8,8,9,9,10,10,11,11,12,12],"right_children":[2,4,6,8,10,-1,12,14,16,18,20,22,24,-1,-1,-1,-1,-1,-1,-1,-1,-1,-1,-1,-1],"split_conditions":[2.3E1,1E1,2E0,4E0,3E0,-3.2238673E-2,4E0,5E0,5E0,1.1E1,1.2E1,3E0,6E0,-1.7571477E-2,4.0051486E-2,-8.983832E-4,-4.167925E-2,-1.0011272E0,3.7643963E-3,5.263828E-2,3.06439E-3,-2.3183336E-2,-7.2254846E-3,-2.3894291E-2,-1.8707812E-2],"split_indices":[1,1,0,0,0,0,0,1,1,1,1,0,0,0,0,0,0,0,0,0,0,0,0,0,0],"split_type":[0,0,0,0,0,0,0,0,0,0,0,0,0,0,0,0,0,0,0,0,0,0,0,0,0],"sum_hessian":[1.2034E4,1.1396E4,6.38E2,3.59E3,7.806E3,7.1E1,5.67E2,1.599E3,1.991E3,2.031E3,5.775E3,1.31E2,4.36E2,8.68E2,7.31E2,1.052E3,9.39E2,2.7E1,2.004E3,8.38E2,4.937E3,6E1,7.1E1,1.62E2,2.74E2],"tree_param":{"num_deleted":"0","num_feature":"2","num_nodes":"25","size_leaf_vector":"1"}},{"base_weights":[-5.076243E-4,2.2054356E-2,-1.00710325E-1,-5.89057E-2,6.288429E-2,-4.330276E-2,-2.562931E-1,9.3162455E-2,-3.4747577E-1,3.052969E-1,-6.048363E-3,-1.4767683E-1,1.256574E-1,-3.9358556E-1,-1.6645874E-1,-2.6923904E-2,1.2152614E-1,-1.2196262E-1,-2.0443738E-2,5.6809932E-2,-4.0525213E-2,-2.8820535E-2,6.532633E-3,2.7458934E-2,-1.9282302E-2,5.600561E-2,1.7680175E-3,-2.2345342E-2,-6.464066E-2,-2.5643324E-2,-1.3348493E-2],"categories":[],"categories_nodes":[],"categories_segments":[],"categories_sizes":[],"default_left":[0,0,0,0,0,0,0,0,0,0,0,0,0,0,0,0,0,0,0,0,0,0,0,0,0,0,0,0,0,0,0],"id":47,"left_children":[1,3,5,7,9,11,13,15,17,19,21,23,25,27,29,-1,-1,-1,-1,-1,-1,-1,-1,-1,-1,-1,-1,-1,-1,-1,-1],"loss_changes":[2.7210602E1,3.2477863E1,1.9745659E1,1.4458072E2,1.091358E2,2.8534449E1,7.2852974E0,8.778786E2,1.4159253E2,2.7024762E2,1.02445114E2,1.9116648E1,2.8977493E1,9.963615E0,1.039752E0,0E0,0E0,0E0,0E0,0E0,0E0,0E0,0E0,0E0,0E0,0E0,0E0,0E0,0E0,0E0,0E0],"parents":[2147483647,0,0,1,1,2,2,3,3,4,4,5,5,6,6,7,7,8,8,9,9,10,10,11,11,12,12,13,13,14,14],"right_children":[2,4,6,8,10,12,14,16,18,20,22,24,26,28,30,-1,-1,-1,-1,-1,-1,-1,-1,-1,-1,-1,-1,-1,-1,-1,-1],"split_conditions":[7E0,3E0,1.9E1,1.8E1,4E0,1.4E1,2.1E1,1.4E1,1.9E1,1.9E1,8E0,1E0,1.5E1,2E1,2.2E1,-2.6923904E-2,1.2152614E-1,-1.2196262E-1,-2.0443738E-2,5.6809932E-2,-4.0525213E-2,-2.8820535E-2,6.532633E-3,2.7458934E-2,-1.9282302E-2,5.600561E-2,1.7680175E-3,-2.2345342E-2,-6.464066E-2,-2.5643324E-2,-1.3348493E-2],"split_indices":[0,0,1,1,0,1,1,1,1,1,1,1,1,1,1,0,0,0,0,0,0,0,0,0,0,0,0,0,0,0,0],"split_type":[0,0,0,0,0,0,0,0,0,0,0,0,0,0,0,0,0,0,0,0,0,0,0,0,0,0,0,0,0,0,0],"sum_hessian":[1.2034E4,9.823E3,2.211E3,3.293E3,6.53E3,1.616E3,5.95E2,2.157E3,1.136E3,1.445E3,5.085E3,9.99E2,6.17E2,2.34E2,3.61E2,1.631E3,5.26E2,1.59E2,9.77E2,1.055E3,3.9E2,1.026E3,4.059E3,9.6E1,9.03E2,1.22E2,4.95E2,1.41E2,9.3E1,9.5E1,2.66E2],"tree_param":{"num_deleted":"0","num_feature":"2","num_nodes":"31","size_leaf_vector":"1"}},{"base_weights":[-4.6636266E-4,1.9843422E-2,-9.066657E-2,-5.3029615E-2,5.659491E-2,-2.3082461E-2,-2.006038E-1,8.389003E-2,-3.1285334E-1,2.7477825E-1,-5.447896E-3,-9.0854265E-2,5.7825364E-2,-5.3210407E-2,-1.387773E-1,-2.4233146E-2,1.0939652E-1,-1.0984259E-1,-1.8401442E-2,5.1134285E-2,-3.648303E-2,-2.5941273E-2,5.8795293E-3,-2.3434177E-2,-1.5091229E-3,3.3561062E-2,-2.30875E-2],"categories":[],"categories_nodes":[],"categories_segments":[],"categories_sizes":[],"default_left":[0,0,0,0,0,0,0,0,0,0,0,0,0,0,0,0,0,0,0,0,0,0,0,0,0,0,0],"id":48,"left_children":[1,3,5,7,9,11,13,15,17,19,21,23,-1,-1,25,-1,-1,-1,-1,-1,-1,-1,-1,-1,-1,-1,-1],"loss_changes":[2.2049278E1,2.6313564E1,1.6430552E1,1.17210205E2,8.840971E1,5.5925762E1,1.7183365E1,7.113439E2,1.1487627E2,2.1897897E2,8.299594E1,1.3400466E1,0E0,0E0,3.1141094E1,0E0,0E0,0E0,0E0,0E0,0E0,0E0,0E0,0E0,0E0,0E0,0E0],"parents":[2147483647,0,0,1,1,2,2,3,3,4,4,5,5,6,6,7,7,8,8,9,9,10,10,11,11,14,14],"right_children":[2,4,6,8,10,12,14,16,18,20,22,24,-1,-1,26,-1,-1,-1,-1,-1,-1,-1,-1,-1,-1,-1,-1],"split_conditions":[7E0,3E0,1.7E1,1.8E1,4E0,1.6E1,1.8E1,1.4E1,1.9E1,1.9E1,8E0,7E0,5.7825364E-2,-5.3210407E-2,1.9E1,-2.4233146E-2,1.0939652E-1,-1.0984259E-1,-1.8401442E-2,5.1134285E-2,-3.648303E-2,-2.5941273E-2,5.8795293E-3,-2.3434177E-2,-1.5091229E-3,3.3561062E-2,-2.30875E-2],"split_indices":[0,0,1,1,0,1,1,1,1,1,1,1,0,0,1,0,0,0,0,0,0,0,0,0,0,0,0],"split_type":[0,0,0,0,0,0,0,0,0,0,0,0,0,0,0,0,0,0,0,0,0,0,0,0,0,0,0],"sum_hessian":[1.2034E4,9.823E3,2.211E3,3.293E3,6.53E3,1.37E3,8.41E2,2.157E3,1.136E3,1.445E3,5.085E3,1.232E3,1.38E2,1.31E2,7.1E2,1.631E3,5.26E2,1.59E2,9.77E2,1.055E3,3.9E2,1.026E3,4.059E3,4.25E2,8.07E2,1.15E2,5.95E2],"tree_param":{"num_deleted":"0","num_feature":"2","num_nodes":"27","size_leaf_vector":"1"}},{"base_weights":[-4.2472343E-4,8.986684E-3,-1.682829E-1,-3.1689305E-2,5.405435E-2,-2.5229026E-2,-1.5733781E-1,-1.3819674E-1,1.14104375E-2,2.4834897E-1,7.5251225E-4,-7.304455E-2,-1.8243934E-1,2.2299828E-2,-5.7552364E-2,3.430619E-2,-5.749519E-3,1.9550675E-1,-1.4480098E-2,-5.591696E-2,9.724261E-3,-1.7082183E-2,1.0809038E-3,-2.2753112E-2,-1.5504881E-2],"categories":[],"categories_nodes":[],"categories_segments":[],"categories_sizes":[],"default_left":[0,0,0,0,0,0,0,0,0,0,0,0,0,0,0,0,0,0,0,0,0,0,0,0,0],"id":49,"left_children":[1,3,5,7,9,-1,11,13,15,17,19,21,23,-1,-1,-1,-1,-1,-1,-1,-1,-1,-1,-1,-1],"loss_changes":[1.9014185E1,2.0894373E1,5.4784393E-1,2.7502918E1,5.5996113E1,0E0,1.1884995E0,2.7276776E2,9.7509125E1,7.813228E2,2.293447E2,1.0841112E0,5.044546E-1,0E0,0E0,0E0,0E0,0E0,0E0,0E0,0E0,0E0,0E0,0E0,0E0],"parents":[2147483647,0,0,1,1,2,2,3,3,4,4,6,6,7,7,8,8,9,9,10,10,11,11,12,12],"right_children":[2,4,6,8,10,-1,12,14,16,18,20,22,24,-1,-1,-1,-1,-1,-1,-1,-1,-1,-1,-1,-1],"split_conditions":[2.3E1,1.5E1,2E0,3E0,1.7E1,-2.5229026E-2,4E0,9E0,4E0,3E0,2E0,3E0,6E0,2.2299828E-2,-5.7552364E-2,3.430619E-2,-5.749519E-3,1.9550675E-1,-1.4480098E-2,-5.591696E-2,9.724261E-3,-1.7082183E-2,1.0809038E-3,-2.2753112E-2,-1.5504881E-2],"split_indices":[1,1,0,0,1,0,0,1,0,0,0,0,0,0,0,0,0,0,0,0,0,0,0,0,0],"split_type":[0,0,0,0,0,0,0,0,0,0,0,0,0,0,0,0,0,0,0,0,0,0,0,0,0],"sum_hessian":[1.2034E4,1.1396E4,6.38E2,5.99E3,5.406E3,7.1E1,5.67E2,1.725E3,4.265E3,1.163E3,4.243E3,1.31E2,4.36E2,9.45E2,7.8E2,7.33E2,3.532E3,2.17E2,9.46E2,6.23E2,3.62E3,6E1,7.1E1,1.62E2,2.74E2],"tree_param":{"num_deleted":"0","num_feature":"2","num_nodes":"25","size_leaf_vector":"1"}}]},"name":"gbtree"},"learner_model_param":{"base_score":"[1.3381918E1]","boost_from_average":"1","num_class":"0","num_feature":"2","num_target":"1"},"objective":{"name":"reg:squarederror","reg_loss_param":{"scale_pos_weight":"1"}}},"version":[3,2,0]}